{"learner":{"attributes":{"scikit_learn":"{\"_estimator_type\": \"ranker\"}"},"feature_names":[],"feature_types":[],"gradient_booster":{"model":{"cats":{"enc":[],"feature_segments":[],"sorted_idx":[]},"gbtree_model_param":{"num_parallel_tree":"1","num_trees":"220"},"iteration_indptr":[0,1,2,3,4,5,6,7,8,9,10,11,12,13,14,15,16,17,18,19,20,21,22,23,24,25,26,27,28,29,30,31,32,33,34,35,36,37,38,39,40,41,42,43,44,45,46,47,48,49,50,51,52,53,54,55,56,57,58,59,60,61,62,63,64,65,66,67,68,69,70,71,72,73,74,75,76,77,78,79,80,81,82,83,84,85,86,87,88,89,90,91,92,93,94,95,96,97,98,99,100,101,102,103,104,105,106,107,108,109,110,111,112,113,114,115,116,117,118,119,120,121,122,123,124,125,126,127,128,129,130,131,132,133,134,135,136,137,138,139,140,141,142,143,144,145,146,147,148,149,150,151,152,153,154,155,156,157,158,159,160,161,162,163,164,165,166,167,168,169,170,171,172,173,174,175,176,177,178,179,180,181,182,183,184,185,186,187,188,189,190,191,192,193,194,195,196,197,198,199,200,201,202,203,204,205,206,207,208,209,210,211,212,213,214,215,216,217,218,219,220],"tree_info":[0,0,0,0,0,0,0,0,0,0,0,0,0,0,0,0,0,0,0,0,0,0,0,0,0,0,0,0,0,0,0,0,0,0,0,0,0,0,0,0,0,0,0,0,0,0,0,0,0,0,0,0,0,0,0,0,0,0,0,0,0,0,0,0,0,0,0,0,0,0,0,0,0,0,0,0,0,0,0,0,0,0,0,0,0,0,0,0,0,0,0,0,0,0,0,0,0,0,0,0,0,0,0,0,0,0,0,0,0,0,0,0,0,0,0,0,0,0,0,0,0,0,0,0,0,0,0,0,0,0,0,0,0,0,0,0,0,0,0,0,0,0,0,0,0,0,0,0,0,0,0,0,0,0,0,0,0,0,0,0,0,0,0,0,0,0,0,0,0,0,0,0,0,0,0,0,0,0,0,0,0,0,0,0,0,0,0,0,0,0,0,0,0,0,0,0,0,0,0,0,0,0,0,0,0,0,0,0,0,0,0,0,0,0,0,0,0,0,0,0],"trees":[{"base_weights":[8.672507E-4,3.789715E-1,-2.2748598E-1,-7.031043E-1,4.230542E-1,-6.2030864E-1,-1.1926284E-1,-3.3572283E-2,-8.866038E-3,-4.4968262E-1,4.6581057E-1,2.6426695E-2,-6.686335E-1,-4.2924538E-1,1.3823941E-2,1.272709E-2,-2.6586765E-2,1.6149107E-2,3.0157907E-2,-3.796249E-2,-1.9990701E-2,-2.476227E-2,9.040716E-4,-1.6149561E-3,2.0385616E-2],"categories":[],"categories_nodes":[],"categories_segments":[],"categories_sizes":[],"default_left":[0,0,0,0,0,0,0,0,0,0,0,0,0,0,0,0,0,0,0,0,0,0,0,0,0],"id":0,"left_children":[1,3,5,7,9,11,13,-1,-1,15,17,-1,19,21,23,-1,-1,-1,-1,-1,-1,-1,-1,-1,-1],"loss_changes":[4.818554E1,1.0380646E1,1.4703312E1,1.2190342E-2,7.813656E0,4.8402176E0,1.1322333E1,0E0,0E0,1.2421355E0,3.9465942E0,0E0,2.3988647E0,4.495615E0,4.2344503E0,0E0,0E0,0E0,0E0,0E0,0E0,0E0,0E0,0E0,0E0],"parents":[2147483647,0,0,1,1,2,2,3,3,4,4,5,5,6,6,9,9,10,10,12,12,13,13,14,14],"right_children":[2,4,6,8,10,12,14,-1,-1,16,18,-1,20,22,24,-1,-1,-1,-1,-1,-1,-1,-1,-1,-1],"split_conditions":[4E0,1.36E1,1.21E1,1E0,4.26E1,4.84E1,4.54E1,-3.3572283E-2,-8.866038E-3,2.937556E2,5.15E1,2.6426695E-2,1.8E3,1E0,5.15E1,1.272709E-2,-2.6586765E-2,1.6149107E-2,3.0157907E-2,-3.796249E-2,-1.9990701E-2,-2.476227E-2,9.040716E-4,-1.6149561E-3,2.0385616E-2],"split_indices":[20,17,17,24,3,14,19,0,0,41,17,0,22,33,17,0,0,0,0,0,0,0,0,0,0],"split_type":[0,0,0,0,0,0,0,0,0,0,0,0,0,0,0,0,0,0,0,0,0,0,0,0,0],"sum_hessian":[5.556838E2,2.0893707E2,3.4674673E2,7.47646E0,2.0146062E2,7.366895E1,2.7307776E2,6.367135E0,1.109325E0,8.875451E0,1.9258516E2,2.3197205E0,7.1349236E1,8.122352E1,1.9185425E2,1.239185E0,7.636266E0,1.2859851E2,6.398665E1,3.8228428E1,3.3120808E1,6.377607E1,1.744745E1,1.7333627E2,1.8517979E1],"tree_param":{"num_deleted":"0","num_feature":"42","num_nodes":"25","size_leaf_vector":"1"}},{"base_weights":[-1.0803628E-2,2.7967823E-1,-2.9350206E-1,-2.9743835E-1,3.4296602E-1,-3.4775707E-1,3.8237903E-1,-3.839338E-1,4.1434437E-1,2.0662959E-1,4.7828203E-1,-4.4921392E-1,-1.7114495E-1,6.488362E-1,-7.4246876E-2,-2.6108908E-2,-2.8038737E-3,3.4295548E-2,-1.832998E-2,6.60836E-3,3.3106335E-2,7.446663E-3,2.374641E-2,3.118188E-2,-2.0904478E-2,-3.1617633E-3,-1.7377438E-2,3.5114326E-2,7.792771E-3,-3.4255374E-2,9.521151E-3],"categories":[],"categories_nodes":[],"categories_segments":[],"categories_sizes":[],"default_left":[0,0,0,0,0,0,0,0,0,0,0,0,0,0,0,0,0,0,0,0,0,0,0,0,0,0,0,0,0,0,0],"id":1,"left_children":[1,3,5,7,9,11,13,15,17,19,21,23,25,27,29,-1,-1,-1,-1,-1,-1,-1,-1,-1,-1,-1,-1,-1,-1,-1,-1],"loss_changes":[1.3269363E2,2.9231987E1,3.0188065E1,5.079536E0,1.3141899E1,1.3501892E1,7.531028E0,4.4651566E0,2.9960673E0,1.1260647E1,5.4572067E0,8.810211E0,6.014019E0,2.271368E0,4.849078E0,0E0,0E0,0E0,0E0,0E0,0E0,0E0,0E0,0E0,0E0,0E0,0E0,0E0,0E0,0E0,0E0],"parents":[2147483647,0,0,1,1,2,2,3,3,4,4,5,5,6,6,7,7,8,8,9,9,10,10,11,11,12,12,13,13,14,14],"right_children":[2,4,6,8,10,12,14,16,18,20,22,24,26,28,30,-1,-1,-1,-1,-1,-1,-1,-1,-1,-1,-1,-1,-1,-1,-1,-1],"split_conditions":[4E0,4.59E1,5.62E1,6.96E1,6.88E1,5.34E1,3.29E1,2.86E1,7.12E1,6.91E1,8.73E1,4.59E1,5.21E1,6.1E1,8.8933334E1,-2.6108908E-2,-2.8038737E-3,3.4295548E-2,-1.832998E-2,6.60836E-3,3.3106335E-2,7.446663E-3,2.374641E-2,3.118188E-2,-2.0904478E-2,-3.1617633E-3,-1.7377438E-2,3.5114326E-2,7.792771E-3,-3.4255374E-2,9.521151E-3],"split_indices":[20,17,17,19,3,3,0,17,19,14,40,14,1,8,40,0,0,0,0,0,0,0,0,0,0,0,0,0,0,0,0],"split_type":[0,0,0,0,0,0,0,0,0,0,0,0,0,0,0,0,0,0,0,0,0,0,0,0,0,0,0,0,0,0,0],"sum_hessian":[1.6134751E3,7.9578894E2,8.176862E2,7.82049E1,7.1758405E2,7.574648E2,6.0221386E1,7.022404E1,7.980864E0,3.589548E2,3.5862927E2,4.7991812E2,2.775467E2,3.7710735E1,2.2510653E1,4.301217E1,2.721187E1,5.668583E0,2.3122811E0,3.2389255E2,3.506225E1,4.9638454E1,3.089908E2,5.6537094E0,4.742644E2,1.8999615E2,8.755054E1,2.8942041E1,8.768693E0,6.0275717E0,1.6483082E1],"tree_param":{"num_deleted":"0","num_feature":"42","num_nodes":"31","size_leaf_vector":"1"}},{"base_weights":[-4.8518987E-4,2.298837E-1,-2.3234263E-1,-4.7554252E-1,2.5508603E-1,-3.8894513E-1,1.9759724E-2,2.781582E-2,-6.0002196E-1,2.7108946E-1,-3.4098163E-2,-1.9550453E-1,-5.128862E-1,-6.520515E-2,4.9140865E-1,-3.4073755E-2,-9.390916E-3,9.563894E-3,2.571785E-2,-1.2588712E-2,1.2327644E-2,2.8035372E-2,-2.4013234E-2,-1.8729027E-2,9.423075E-4,2.550396E-2,-2.5204284E-2],"categories":[],"categories_nodes":[],"categories_segments":[],"categories_sizes":[],"default_left":[0,0,0,0,0,0,0,0,0,0,0,0,0,0,0,0,0,0,0,0,0,0,0,0,0,0,0],"id":2,"left_children":[1,3,5,7,9,11,13,-1,15,17,-1,19,21,23,25,-1,-1,-1,-1,-1,-1,-1,-1,-1,-1,-1,-1],"loss_changes":[7.648894E1,1.2916218E1,2.8186413E1,3.8753643E0,1.1500614E1,1.0435913E1,1.1043173E1,0E0,1.2392521E0,1.1894436E1,0E0,6.968726E0,6.7039566E0,7.0783772E0,3.7131233E0,0E0,0E0,0E0,0E0,0E0,0E0,0E0,0E0,0E0,0E0,0E0,0E0],"parents":[2147483647,0,0,1,1,2,2,3,3,4,4,5,5,6,6,8,8,9,9,11,11,12,12,13,13,14,14],"right_children":[2,4,6,8,10,12,14,-1,16,18,-1,20,22,24,26,-1,-1,-1,-1,-1,-1,-1,-1,-1,-1,-1,-1],"split_conditions":[4E0,4.26E1,5.34E1,2.8006558E2,6.67E1,7E0,5.62E1,2.781582E-2,4.41E1,1E2,-3.4098163E-2,6.13E1,4.59E1,2.5E1,1E0,-3.4073755E-2,-9.390916E-3,9.563894E-3,2.571785E-2,-1.2588712E-2,1.2327644E-2,2.8035372E-2,-2.4013234E-2,-1.8729027E-2,9.423075E-4,2.550396E-2,-2.5204284E-2],"split_indices":[20,3,3,41,18,20,17,0,2,17,0,1,14,17,38,0,0,0,0,0,0,0,0,0,0,0,0],"split_type":[0,0,0,0,0,0,0,0,0,0,0,0,0,0,0,0,0,0,0,0,0,0,0,0,0,0,0],"sum_hessian":[1.4296354E3,7.171248E2,7.1251056E2,2.3996881E1,6.931279E2,4.3909775E2,2.734128E2,1.9658799E0,2.2031E1,6.832114E2,9.916492E0,1.7268036E2,2.664174E2,2.3255368E2,4.0859123E1,1.49177E1,7.1133018E0,5.734765E2,1.0973494E2,1.4681828E2,2.5862074E1,4.152638E0,2.6226474E2,4.492225E1,1.8763144E2,3.8643326E1,2.2157974E0],"tree_param":{"num_deleted":"0","num_feature":"42","num_nodes":"27","size_leaf_vector":"1"}},{"base_weights":[-2.5565822E-3,2.5092643E-1,-1.602558E-1,8.231045E-2,3.7126684E-1,-2.2062966E-1,3.4096432E-1,-2.683288E-2,4.7706893E-1,5.483552E-1,2.0373262E-1,-4.7133076E-1,-1.2649783E-1,4.0854394E-1,-4.5577922E-1,-6.8402877E-3,1.0357552E-2,9.581145E-3,3.3746358E-2,-1.11590065E-2,2.7570039E-2,3.863529E-3,2.6145782E-2,-2.4047427E-2,9.629688E-3,-1.9237382E-2,-1.767531E-3,1.1802527E-2,3.0212747E-2,-2.4232026E-2,-3.4936005E-3],"categories":[],"categories_nodes":[],"categories_segments":[],"categories_sizes":[],"default_left":[0,0,0,0,0,0,0,0,0,0,0,0,0,0,0,0,0,0,0,0,0,0,0,0,0,0,0,0,0,0,0],"id":3,"left_children":[1,3,5,7,9,11,13,15,17,19,21,23,25,27,29,-1,-1,-1,-1,-1,-1,-1,-1,-1,-1,-1,-1,-1,-1,-1,-1],"loss_changes":[5.4682808E1,1.0609215E1,2.560895E1,9.495902E0,8.938843E0,1.7707142E1,5.1301975E0,5.6239805E0,3.2480927E0,7.7597733E0,7.0137386E0,9.005306E0,1.4402063E1,3.0426483E0,1.9042444E-1,0E0,0E0,0E0,0E0,0E0,0E0,0E0,0E0,0E0,0E0,0E0,0E0,0E0,0E0,0E0,0E0],"parents":[2147483647,0,0,1,1,2,2,3,3,4,4,5,5,6,6,7,7,8,8,9,9,10,10,11,11,12,12,13,13,14,14],"right_children":[2,4,6,8,10,12,14,16,18,20,22,24,26,28,30,-1,-1,-1,-1,-1,-1,-1,-1,-1,-1,-1,-1,-1,-1,-1,-1],"split_conditions":[3E0,6.57E1,5.15E1,8.1E1,9E1,2.8E1,8.15E1,9.6E1,6.76E1,4.17E1,9.83E1,8.5E1,2.22E1,5.09E1,9.41E1,-6.8402877E-3,1.0357552E-2,9.581145E-3,3.3746358E-2,-1.11590065E-2,2.7570039E-2,3.863529E-3,2.6145782E-2,-2.4047427E-2,9.629688E-3,-1.9237382E-2,-1.767531E-3,1.1802527E-2,3.0212747E-2,-2.4232026E-2,-3.4936005E-3],"split_indices":[20,3,17,17,12,15,0,40,19,15,0,6,17,1,15,0,0,0,0,0,0,0,0,0,0,0,0,0,0,0,0],"split_type":[0,0,0,0,0,0,0,0,0,0,0,0,0,0,0,0,0,0,0,0,0,0,0,0,0,0,0,0,0,0,0],"sum_hessian":[1.3655496E3,5.2345215E2,8.420974E2,2.188414E2,3.0461075E2,7.521677E2,8.992966E1,1.7231732E2,4.6524086E1,1.467569E2,1.5785385E2,2.0401268E2,5.481551E2,8.343721E1,6.492447E0,1.1620791E2,5.6109413E1,2.4724213E1,2.1799871E1,1.0710416E1,1.3604648E2,1.21398094E2,3.645576E1,1.8706516E2,1.6947525E1,1.2209967E2,4.260554E2,5.5147346E1,2.8289864E1,4.909718E0,1.5827286E0],"tree_param":{"num_deleted":"0","num_feature":"42","num_nodes":"31","size_leaf_vector":"1"}},{"base_weights":[2.0845293E-3,2.5979745E-1,-1.5185466E-1,1.7172976E-1,4.6753234E-1,-4.0960225E-1,-3.3097547E-2,6.2509906E-3,3.0540448E-1,5.2747643E-1,-1.3735434E-2,-6.16245E-1,-2.2838174E-1,-4.367566E-1,4.8680898E-2,9.347509E-3,-7.463319E-3,1.64952E-2,-2.0828808E-2,-2.2850543E-2,2.4662526E-2,-1.4545791E-2,2.530284E-2,-2.8560933E-2,2.4052981E-2,-3.22047E-2,-5.602059E-3,4.5517483E-3,-2.266232E-2,-9.847898E-4,1.6454196E-2],"categories":[],"categories_nodes":[],"categories_segments":[],"categories_sizes":[],"default_left":[0,0,0,0,0,0,0,0,0,0,0,0,0,0,0,0,0,0,0,0,0,0,0,0,0,0,0,0,0,0,0],"id":4,"left_children":[1,3,5,7,9,11,13,15,17,19,21,23,25,27,29,-1,-1,-1,-1,-1,-1,-1,-1,-1,-1,-1,-1,-1,-1,-1,-1],"loss_changes":[5.0614746E1,8.632023E0,2.443252E1,7.451168E0,4.086439E0,9.261681E0,1.8118761E1,5.30444E0,8.959553E0,3.0125198E0,3.2176824E0,2.889225E0,6.781787E0,3.3857746E0,1.0227869E1,0E0,0E0,0E0,0E0,0E0,0E0,0E0,0E0,0E0,0E0,0E0,0E0,0E0,0E0,0E0,0E0],"parents":[2147483647,0,0,1,1,2,2,3,3,4,4,5,5,6,6,7,7,8,8,9,9,10,10,11,11,12,12,13,13,14,14],"right_children":[2,4,6,8,10,12,14,16,18,20,22,24,26,28,30,-1,-1,-1,-1,-1,-1,-1,-1,-1,-1,-1,-1,-1,-1,-1,-1],"split_conditions":[3E0,6E1,4.84E1,6.61E1,5.12E1,4.76E1,2.22E1,5.9E1,5.02E1,1.5852576E2,5.42E1,7.94E1,4.25E1,4.88E1,5.15E1,9.347509E-3,-7.463319E-3,1.64952E-2,-2.0828808E-2,-2.2850543E-2,2.4662526E-2,-1.4545791E-2,2.530284E-2,-2.8560933E-2,2.4052981E-2,-3.22047E-2,-5.602059E-3,4.5517483E-3,-2.266232E-2,-9.847898E-4,1.6454196E-2],"split_indices":[20,17,3,3,5,15,17,19,4,41,9,16,19,7,17,0,0,0,0,0,0,0,0,0,0,0,0,0,0,0,0],"split_type":[0,0,0,0,0,0,0,0,0,0,0,0,0,0,0,0,0,0,0,0,0,0,0,0,0,0,0,0,0,0,0],"sum_hessian":[1.2734333E3,4.758976E2,7.975357E2,3.3575058E2,1.4014703E2,2.5063171E2,5.46904E2,1.5058917E2,1.8516139E2,1.24522026E2,1.5625014E1,1.1575622E2,1.348755E2,9.125579E1,4.556482E2,6.926081E1,8.132837E1,1.7209013E2,1.3071252E1,1.873352E0,1.22648674E2,1.0506387E1,5.1186266E0,1.1446E2,1.296223E0,2.2461061E1,1.1241444E2,1.0019454E1,8.1236336E1,3.7359384E2,8.2054344E1],"tree_param":{"num_deleted":"0","num_feature":"42","num_nodes":"31","size_leaf_vector":"1"}},{"base_weights":[-1.1823029E-2,-9.986843E-2,3.7066743E-1,9.092858E-2,-2.3788378E-1,-3.400447E-1,3.930604E-1,-3.0745456E-2,3.5555324E-1,-4.485774E-1,-1.4774023E-1,-2.8905239E-2,1.2354392E-2,5.256428E-1,2.778511E-1,-2.576968E-2,-1.2877885E-4,-6.2191477E-3,2.0608086E-2,-2.1403026E-2,1.7113378E-2,-1.2770041E-2,1.7731827E-3,-1.8570157E-2,2.461517E-2,-1.6687121E-2,1.5590841E-2],"categories":[],"categories_nodes":[],"categories_segments":[],"categories_sizes":[],"default_left":[0,0,0,0,0,0,0,0,0,0,0,0,0,0,0,0,0,0,0,0,0,0,0,0,0,0,0],"id":5,"left_children":[1,3,5,7,9,11,13,15,17,19,21,-1,-1,23,25,-1,-1,-1,-1,-1,-1,-1,-1,-1,-1,-1,-1],"loss_changes":[4.1136974E1,2.617022E1,3.798191E0,1.3458981E1,1.0868526E1,1.6283066E0,3.2180595E0,4.337357E0,6.731455E0,4.0758476E0,1.0336981E1,0E0,0E0,2.3141384E0,5.557743E0,0E0,0E0,0E0,0E0,0E0,0E0,0E0,0E0,0E0,0E0,0E0,0E0],"parents":[2147483647,0,0,1,1,2,2,3,3,4,4,5,5,6,6,7,7,8,8,9,9,10,10,13,13,14,14],"right_children":[2,4,6,8,10,12,14,16,18,20,22,-1,-1,24,26,-1,-1,-1,-1,-1,-1,-1,-1,-1,-1,-1,-1],"split_conditions":[5.15E1,4E0,4.78E1,7.69E1,2.8E1,5.01E1,5.49E1,1.09E1,4.42E1,9.14E1,5.34E1,-2.8905239E-2,1.2354392E-2,3.49E1,3.5706244E2,-2.576968E-2,-1.2877885E-4,-6.2191477E-3,2.0608086E-2,-2.1403026E-2,1.7113378E-2,-1.2770041E-2,1.7731827E-3,-1.8570157E-2,2.461517E-2,-1.6687121E-2,1.5590841E-2],"split_indices":[17,20,3,6,15,16,4,17,1,6,3,0,0,6,41,0,0,0,0,0,0,0,0,0,0,0,0],"split_type":[0,0,0,0,0,0,0,0,0,0,0,0,0,0,0,0,0,0,0,0,0,0,0,0,0,0,0],"sum_hessian":[1.2190135E3,9.916358E2,2.2737776E2,4.164E2,5.752358E2,6.4253817E0,2.2095238E2,2.8597134E2,1.3042863E2,1.7093524E2,4.0430057E2,4.270623E0,2.1547582E0,1.0074285E2,1.2020953E2,1.2847031E1,2.7312433E2,2.2332039E1,1.08096596E2,1.6602928E2,4.905953E0,2.3375809E2,1.7054247E2,1.7530828E0,9.898977E1,1.099302E1,1.09216515E2],"tree_param":{"num_deleted":"0","num_feature":"42","num_nodes":"27","size_leaf_vector":"1"}},{"base_weights":[-7.354511E-3,1.7934708E-1,-1.8664242E-1,3.3050112E-2,3.068313E-1,-2.3857297E-1,3.3450893E-1,-7.92359E-2,3.6130762E-1,-4.0646893E-1,3.3532318E-1,-4.995664E-1,-1.6459875E-1,5.06956E-1,-2.1714674E-1,1.8304075E-3,-1.7245991E-2,-5.639722E-3,2.2705633E-2,2.2803284E-2,-2.6212025E-2,1.7481754E-2,7.0913513E-3,2.4744475E-2,-2.398541E-2,-1.2912062E-2,-7.6542754E-4,2.5032291E-2,-2.2243124E-2,-2.2328397E-2,2.8043244E-2],"categories":[],"categories_nodes":[],"categories_segments":[],"categories_sizes":[],"default_left":[0,0,0,0,0,0,0,0,0,0,0,0,0,0,0,0,0,0,0,0,0,0,0,0,0,0,0,0,0,0,0],"id":6,"left_children":[1,3,5,7,9,11,13,15,17,19,21,23,25,27,29,-1,-1,-1,-1,-1,-1,-1,-1,-1,-1,-1,-1,-1,-1,-1,-1],"loss_changes":[3.9501633E1,1.0770052E1,1.6387403E1,1.0006162E1,6.4389057E0,1.0483881E1,5.368914E0,7.4032106E0,4.8982677E0,2.3478115E0,2.738186E0,4.5793457E0,7.7375536E0,2.418583E0,3.6421368E0,0E0,0E0,0E0,0E0,0E0,0E0,0E0,0E0,0E0,0E0,0E0,0E0,0E0,0E0,0E0,0E0],"parents":[2147483647,0,0,1,1,2,2,3,3,4,4,5,5,6,6,7,7,8,8,9,9,10,10,11,11,12,12,13,13,14,14],"right_children":[2,4,6,8,10,12,14,16,18,20,22,24,26,28,30,-1,-1,-1,-1,-1,-1,-1,-1,-1,-1,-1,-1,-1,-1,-1,-1],"split_conditions":[4E0,6.53E1,5.15E1,5.15E1,2.86E1,1.21E1,5.65E1,1.8E3,4.88E1,3.18E1,6.11E1,4.84E1,5.36E1,7.47E1,7.19E1,1.8304075E-3,-1.7245991E-2,-5.639722E-3,2.2705633E-2,2.2803284E-2,-2.6212025E-2,1.7481754E-2,7.0913513E-3,2.4744475E-2,-2.398541E-2,-1.2912062E-2,-7.6542754E-4,2.5032291E-2,-2.2243124E-2,-2.2328397E-2,2.8043244E-2],"split_indices":[20,3,17,17,17,17,19,22,16,5,11,14,15,0,1,0,0,0,0,0,0,0,0,0,0,0,0,0,0,0,0],"split_type":[0,0,0,0,0,0,0,0,0,0,0,0,0,0,0,0,0,0,0,0,0,0,0,0,0,0,0,0,0,0,0],"sum_hessian":[1.1776924E3,5.76918E2,6.0077435E2,2.693413E2,3.075767E2,5.4692615E2,5.384823E1,2.0136974E2,6.7971565E1,1.1202413E1,2.963743E2,1.1925847E2,4.2766766E2,4.1098206E1,1.2750025E1,1.4515495E2,5.6214787E1,1.5493433E1,5.2478134E1,1.4459693E0,9.756444E0,2.2704396E2,6.933032E1,3.110767E0,1.161477E2,2.3321991E2,1.9444775E2,3.967718E1,1.421022E0,9.940593E0,2.8094316E0],"tree_param":{"num_deleted":"0","num_feature":"42","num_nodes":"31","size_leaf_vector":"1"}},{"base_weights":[-3.9735003E-3,1.7607059E-1,-1.8229441E-1,9.463089E-2,3.8126403E-1,-3.296299E-1,9.269968E-3,4.463675E-3,3.0980712E-1,3.1359994E-1,7.1213245E-1,-5.1966524E-1,-2.1322459E-1,-3.208492E-1,9.3294814E-2,-1.8354485E-2,2.0507027E-3,-1.25338035E-2,1.657579E-2,1.6900325E-2,-9.67537E-3,3.7176516E-2,9.425685E-3,-9.477517E-3,-2.7509488E-2,-1.7478549E-3,-1.7275335E-2,1.3952841E-2,-1.9455375E-2,-1.0921033E-2,7.25539E-3],"categories":[],"categories_nodes":[],"categories_segments":[],"categories_sizes":[],"default_left":[0,0,0,0,0,0,0,0,0,0,0,0,0,0,0,0,0,0,0,0,0,0,0,0,0,0,0,0,0,0,0],"id":7,"left_children":[1,3,5,7,9,11,13,15,17,19,21,23,25,27,29,-1,-1,-1,-1,-1,-1,-1,-1,-1,-1,-1,-1,-1,-1,-1,-1],"loss_changes":[3.7289845E1,9.614897E0,1.6472963E1,8.056733E0,3.3995152E0,7.164074E0,7.1049685E0,5.004166E0,4.3469725E0,4.6217804E0,1.3322315E0,3.3713188E0,6.130945E0,3.8169613E0,4.7050076E0,0E0,0E0,0E0,0E0,0E0,0E0,0E0,0E0,0E0,0E0,0E0,0E0,0E0,0E0,0E0,0E0],"parents":[2147483647,0,0,1,1,2,2,3,3,4,4,5,5,6,6,7,7,8,8,9,9,10,10,11,11,12,12,13,13,14,14],"right_children":[2,4,6,8,10,12,14,16,18,20,22,24,26,28,30,-1,-1,-1,-1,-1,-1,-1,-1,-1,-1,-1,-1,-1,-1,-1,-1],"split_conditions":[4E0,5.15E1,5.35E1,7.69E1,7.2E1,4.14E1,2.78E1,7E0,2E0,5.02E1,9.753333E1,2.05E1,7E0,4.5E1,4.76E1,-1.8354485E-2,2.0507027E-3,-1.25338035E-2,1.657579E-2,1.6900325E-2,-9.67537E-3,3.7176516E-2,9.425685E-3,-9.477517E-3,-2.7509488E-2,-1.7478549E-3,-1.7275335E-2,1.3952841E-2,-1.9455375E-2,-1.0921033E-2,7.25539E-3],"split_indices":[20,17,3,6,14,15,15,21,2,5,40,8,20,12,17,0,0,0,0,0,0,0,0,0,0,0,0,0,0,0,0],"split_type":[0,0,0,0,0,0,0,0,0,0,0,0,0,0,0,0,0,0,0,0,0,0,0,0,0,0,0,0,0,0,0],"sum_hessian":[1.1590741E3,5.7675793E2,5.823162E2,4.141417E2,1.6261626E2,3.2866748E2,2.5364874E2,2.9270978E2,1.214319E2,1.3694728E2,2.5668966E1,1.2326932E2,2.0539816E2,5.0776073E1,2.0287267E2,2.5565062E1,2.671447E2,1.0581708E1,1.108502E2,1.22889725E2,1.4057561E1,2.0293865E1,5.3751E0,2.9101267E1,9.416805E1,1.02323E2,1.03075165E2,7.304455E0,4.347162E1,3.3602325E1,1.6927034E2],"tree_param":{"num_deleted":"0","num_feature":"42","num_nodes":"31","size_leaf_vector":"1"}},{"base_weights":[7.651359E-3,1.03612885E-1,-3.0215922E-1,2.2235861E-1,-8.22118E-3,-4.3349132E-1,-1.3224379E-2,-1.1487042E-1,2.6767525E-1,-9.934148E-2,1.6935933E-1,2.454794E-2,-4.4793606E-1,-2.4904563E-1,2.2732E-1,-3.12692E-2,2.7896198E-3,1.3131137E-2,-7.95435E-3,-6.026847E-3,2.4035463E-2,-1.2134197E-2,1.1173971E-2,-7.3034307E-3,-2.2986732E-2,1.2896268E-2,-2.052408E-2,1.4431398E-2,-2.270825E-2],"categories":[],"categories_nodes":[],"categories_segments":[],"categories_sizes":[],"default_left":[0,0,0,0,0,0,0,0,0,0,0,0,0,0,0,0,0,0,0,0,0,0,0,0,0,0,0,0,0],"id":8,"left_children":[1,3,5,7,9,11,13,15,17,19,21,-1,23,25,27,-1,-1,-1,-1,-1,-1,-1,-1,-1,-1,-1,-1,-1,-1],"loss_changes":[3.3665424E1,1.14826975E1,1.0155342E1,6.445286E0,7.2429547E0,2.8963547E0,4.8853946E0,5.2335205E0,4.029789E0,6.5659723E0,5.3422313E0,0E0,3.1705017E0,4.976158E0,3.110543E0,0E0,0E0,0E0,0E0,0E0,0E0,0E0,0E0,0E0,0E0,0E0,0E0,0E0,0E0],"parents":[2147483647,0,0,1,1,2,2,3,3,4,4,5,5,6,6,7,7,8,8,9,9,10,10,12,12,13,13,14,14],"right_children":[2,4,6,8,10,12,14,16,18,20,22,-1,24,26,28,-1,-1,-1,-1,-1,-1,-1,-1,-1,-1,-1,-1,-1,-1],"split_conditions":[7E0,3E0,5.48E1,2.45E1,7E1,4.59E1,5.42E1,8.9E1,9.81E1,8.1424744E2,4.12E1,2.454794E-2,2.05E1,2.4E1,5.72E1,-3.12692E-2,2.7896198E-3,1.3131137E-2,-7.95435E-3,-6.026847E-3,2.4035463E-2,-1.2134197E-2,1.1173971E-2,-7.3034307E-3,-2.2986732E-2,1.2896268E-2,-2.052408E-2,1.4431398E-2,-2.270825E-2],"split_indices":[20,20,3,11,6,14,2,40,8,41,1,0,8,8,4,0,0,0,0,0,0,0,0,0,0,0,0,0,0],"split_type":[0,0,0,0,0,0,0,0,0,0,0,0,0,0,0,0,0,0,0,0,0,0,0,0,0,0,0,0,0],"sum_hessian":[1.1299125E3,8.633079E2,2.6660455E2,4.1813986E2,4.4516803E2,1.828787E2,8.3725845E1,4.931497E1,3.688249E2,2.9455457E2,1.5061346E2,2.0175786E0,1.8086111E2,4.2256577E1,4.146927E1,1.0702512E1,3.8612457E1,3.5022397E2,1.860092E1,2.8020126E2,1.4353308E1,2.2515799E1,1.2809766E2,3.3406612E1,1.474545E2,1.1651901E1,3.0604675E1,3.7375362E1,4.093908E0],"tree_param":{"num_deleted":"0","num_feature":"42","num_nodes":"29","size_leaf_vector":"1"}},{"base_weights":[9.6004806E-4,-3.9244506E-1,7.254851E-2,4.5374906E-1,-4.1450268E-1,-3.7150069E-3,3.436986E-1,-2.1836984E-3,2.9363248E-2,-5.4741645E-1,-2.498901E-1,-9.327632E-2,1.9968633E-1,3.612712E-1,-2.5426844E-2,-2.7289085E-2,-7.857907E-3,-1.433309E-2,1.2615403E-2,-1.8644277E-3,-1.8399928E-2,3.8825474E-3,1.6134365E-2,1.3323748E-2,2.696605E-2],"categories":[],"categories_nodes":[],"categories_segments":[],"categories_sizes":[],"default_left":[0,0,0,0,0,0,0,0,0,0,0,0,0,0,0,0,0,0,0,0,0,0,0,0,0],"id":9,"left_children":[1,3,5,7,9,11,13,-1,-1,15,17,19,21,23,-1,-1,-1,-1,-1,-1,-1,-1,-1,-1,-1],"loss_changes":[3.0809576E1,3.3693047E0,1.9140385E1,5.22361E-1,3.4409122E0,1.3203089E1,3.4895744E0,0E0,0E0,1.8561401E0,2.865797E0,8.21288E0,3.9546547E0,2.8906345E0,0E0,0E0,0E0,0E0,0E0,0E0,0E0,0E0,0E0,0E0,0E0],"parents":[2147483647,0,0,1,1,2,2,3,3,4,4,5,5,6,6,9,9,10,10,11,11,12,12,13,13],"right_children":[2,4,6,8,10,12,14,-1,-1,16,18,20,22,24,-1,-1,-1,-1,-1,-1,-1,-1,-1,-1,-1],"split_conditions":[2.22E1,4.84E1,5.15E1,5.01E1,7.1E0,7.26E1,6.67E1,-2.1836984E-3,2.9363248E-2,5.34E1,7.9013116E2,9.25E1,8.17E1,8.23E1,-2.5426844E-2,-2.7289085E-2,-7.857907E-3,-1.433309E-2,1.2615403E-2,-1.8644277E-3,-1.8399928E-2,3.8825474E-3,1.6134365E-2,1.3323748E-2,2.696605E-2],"split_indices":[17,14,17,2,17,6,18,0,0,16,41,7,7,0,0,0,0,0,0,0,0,0,0,0,0],"split_type":[0,0,0,0,0,0,0,0,0,0,0,0,0,0,0,0,0,0,0,0,0,0,0,0,0],"sum_hessian":[1.09155E3,1.6722244E2,9.243276E2,3.6515858E0,1.6357085E2,7.2234485E2,2.0198274E2,1.2925107E0,2.359075E0,8.8954994E1,7.461586E1,5.0196863E2,2.2037624E2,1.9886024E2,3.1224942E0,7.61497E1,1.2805296E1,6.648985E1,8.126002E0,4.3231146E2,6.9657166E1,1.2966177E2,9.071447E1,1.5821396E2,4.0646286E1],"tree_param":{"num_deleted":"0","num_feature":"42","num_nodes":"25","size_leaf_vector":"1"}},{"base_weights":[-2.858211E-3,-4.670981E-1,5.183008E-2,4.5271096E-1,-5.0152826E-1,-1.8922465E-2,3.1415716E-1,-1.8681226E-3,2.873563E-2,1.236608E-2,-5.177293E-1,-1.1174425E-1,1.4124586E-1,1.8310942E-1,4.1410342E-1,-2.8200883E-2,-1.6867114E-2,-1.8027357E-3,-1.2544395E-2,1.2129485E-3,1.4948196E-2,-1.0314167E-2,1.5168374E-2,2.645504E-2,1.2224715E-2],"categories":[],"categories_nodes":[],"categories_segments":[],"categories_sizes":[],"default_left":[0,0,0,0,0,0,0,0,0,0,0,0,0,0,0,0,0,0,0,0,0,0,0,0,0],"id":10,"left_children":[1,3,5,7,9,11,13,-1,-1,-1,15,17,19,21,23,-1,-1,-1,-1,-1,-1,-1,-1,-1,-1],"loss_changes":[2.773808E1,3.918829E0,1.8149128E1,4.7134852E-1,1.573782E0,1.1480917E1,2.629408E0,0E0,0E0,0E0,1.4260464E0,5.8383975E0,6.173612E0,5.934242E0,2.7017078E0,0E0,0E0,0E0,0E0,0E0,0E0,0E0,0E0,0E0,0E0],"parents":[2147483647,0,0,1,1,2,2,3,3,4,4,5,5,6,6,10,10,11,11,12,12,13,13,14,14],"right_children":[2,4,6,8,10,12,14,-1,-1,-1,16,18,20,22,24,-1,-1,-1,-1,-1,-1,-1,-1,-1,-1],"split_conditions":[1.21E1,4.84E1,5.15E1,5.01E1,3E1,6.53E1,6.23E1,-1.8681226E-3,2.873563E-2,1.236608E-2,1.8E3,7E0,7.83E1,3.97E1,6.36E1,-2.8200883E-2,-1.6867114E-2,-1.8027357E-3,-1.2544395E-2,1.2129485E-3,1.4948196E-2,-1.0314167E-2,1.5168374E-2,2.645504E-2,1.2224715E-2],"split_indices":[17,14,17,2,12,3,6,0,0,0,22,20,0,8,4,0,0,0,0,0,0,0,0,0,0],"split_type":[0,0,0,0,0,0,0,0,0,0,0,0,0,0,0,0,0,0,0,0,0,0,0,0,0],"sum_hessian":[1.0902014E3,1.1393939E2,9.76262E2,3.5850725E0,1.10354324E2,7.69762E2,2.0649998E2,1.2344519E0,2.3506207E0,1.8643203E0,1.0849E2,4.875669E2,2.821951E2,9.081868E1,1.15681305E2,5.925151E1,4.923849E1,3.4218997E2,1.453769E2,1.7738477E2,1.0481035E2,2.453326E1,6.6285416E1,5.04174E1,6.526391E1],"tree_param":{"num_deleted":"0","num_feature":"42","num_nodes":"25","size_leaf_vector":"1"}},{"base_weights":[-9.5275283E-4,1.5409839E-1,-1.5789671E-1,4.1150693E-2,2.4453005E-1,-2.9582086E-1,6.014701E-3,-3.3388764E-2,3.695664E-1,3.1116408E-1,1.3611035E-2,-1.078655E-1,-4.011418E-1,-6.4321476E-1,5.9930358E-2,3.3280961E-3,-1.4280903E-2,1.9852169E-2,-1.6248344E-2,1.0239425E-2,2.238463E-2,-2.3405517E-2,7.367819E-3,-1.5301E-2,1.4032426E-3,-1.9972054E-2,9.620068E-3,-3.7153515E-3,-3.035516E-2,-2.18902E-3,9.018163E-3],"categories":[],"categories_nodes":[],"categories_segments":[],"categories_sizes":[],"default_left":[0,0,0,0,0,0,0,0,0,0,0,0,0,0,0,0,0,0,0,0,0,0,0,0,0,0,0,0,0,0,0],"id":11,"left_children":[1,3,5,7,9,11,13,15,17,19,21,23,25,27,29,-1,-1,-1,-1,-1,-1,-1,-1,-1,-1,-1,-1,-1,-1,-1,-1],"loss_changes":[2.5782671E1,5.431773E0,1.1905839E1,5.851516E0,4.545616E0,5.6088676E0,8.509432E0,5.985194E0,2.5034223E0,3.4383736E0,5.5092854E0,3.3807836E0,4.912279E0,2.6075745E-1,3.43329E0,0E0,0E0,0E0,0E0,0E0,0E0,0E0,0E0,0E0,0E0,0E0,0E0,0E0,0E0,0E0,0E0],"parents":[2147483647,0,0,1,1,2,2,3,3,4,4,5,5,6,6,7,7,8,8,9,9,10,10,11,11,12,12,13,13,14,14],"right_children":[2,4,6,8,10,12,14,16,18,20,22,24,26,28,30,-1,-1,-1,-1,-1,-1,-1,-1,-1,-1,-1,-1,-1,-1,-1,-1],"split_conditions":[4E0,6.37E1,5.36E1,5.07E1,6.11E1,3.61E1,4.25E1,1.7E3,6.4E1,4.92E1,3.18E1,1.89E1,8.5E1,5.79E1,9E1,3.3280961E-3,-1.4280903E-2,1.9852169E-2,-1.6248344E-2,1.0239425E-2,2.238463E-2,-2.3405517E-2,7.367819E-3,-1.5301E-2,1.4032426E-3,-1.9972054E-2,9.620068E-3,-3.7153515E-3,-3.035516E-2,-2.18902E-3,9.018163E-3],"split_indices":[20,3,15,16,11,8,19,22,8,11,0,15,6,15,12,0,0,0,0,0,0,0,0,0,0,0,0,0,0,0,0],"split_type":[0,0,0,0,0,0,0,0,0,0,0,0,0,0,0,0,0,0,0,0,0,0,0,0,0,0,0,0,0,0,0],"sum_hessian":[1.057118E3,5.317767E2,5.2534143E2,2.3722832E2,2.9454834E2,2.8476157E2,2.4057988E2,1.9422394E2,4.300438E1,2.2826357E2,6.628477E1,1.0313543E2,1.8162613E2,1.744144E1,2.2313844E2,1.4158745E2,5.263649E1,3.9599598E1,3.4047813E0,1.593804E2,6.888317E1,1.3901475E1,5.2383297E1,3.798349E1,6.515194E1,1.7014993E2,1.1476199E1,1.154364E0,1.6287075E1,1.2630141E2,9.683703E1],"tree_param":{"num_deleted":"0","num_feature":"42","num_nodes":"31","size_leaf_vector":"1"}},{"base_weights":[-2.0788265E-3,-3.876151E-1,6.351704E-2,2.7323538E-2,-4.1665646E-1,-3.135103E-1,1.10273354E-1,-5.346641E-1,-2.796349E-1,-5.8244354E-1,-1.4238869E-1,4.5489263E-2,3.0859572E-1,-2.5759434E-2,3.7585974E-3,1.2896805E-3,-1.576916E-2,-1.4717338E-2,-3.1675745E-2,-1.3944304E-2,7.5982586E-3,1.5741004E-2,2.6647223E-4,1.4523417E-2,-2.049373E-2],"categories":[],"categories_nodes":[],"categories_segments":[],"categories_sizes":[],"default_left":[0,0,0,0,0,0,0,0,0,0,0,0,0,0,0,0,0,0,0,0,0,0,0,0,0],"id":12,"left_children":[1,3,5,-1,7,9,11,13,15,17,19,21,23,-1,-1,-1,-1,-1,-1,-1,-1,-1,-1,-1,-1],"loss_changes":[2.6463743E1,4.6993484E0,1.58067045E1,0E0,2.2225552E0,4.4556494E0,1.0217024E1,1.8900719E0,1.5670948E0,9.056864E-1,3.2988544E0,7.243785E0,2.2939472E0,0E0,0E0,0E0,0E0,0E0,0E0,0E0,0E0,0E0,0E0,0E0,0E0],"parents":[2147483647,0,0,1,1,2,2,4,4,5,5,6,6,7,7,8,8,9,9,10,10,11,11,12,12],"right_children":[2,4,6,-1,8,10,12,14,16,18,20,22,24,-1,-1,-1,-1,-1,-1,-1,-1,-1,-1,-1,-1],"split_conditions":[2.22E1,4.59E1,4.35E1,2.7323538E-2,6.8E0,4.72E1,5.15E1,7.02E1,3.34E1,6.5E0,5.61E1,2.24E1,6.67E1,-2.5759434E-2,3.7585974E-3,1.2896805E-3,-1.576916E-2,-1.4717338E-2,-3.1675745E-2,-1.3944304E-2,7.5982586E-3,1.5741004E-2,2.6647223E-4,1.4523417E-2,-2.049373E-2],"split_indices":[17,14,3,0,17,15,17,16,16,2,8,1,18,0,0,0,0,0,0,0,0,0,0,0,0],"split_type":[0,0,0,0,0,0,0,0,0,0,0,0,0,0,0,0,0,0,0,0,0,0,0,0,0],"sum_hessian":[1.0440602E3,1.5095267E2,8.931075E2,3.604145E0,1.4734853E2,9.778175E1,7.953257E2,7.7296074E1,7.005245E1,3.6902187E1,6.0879562E1,6.006065E2,1.947192E2,7.292934E1,4.366742E0,1.3215047E1,5.6837402E1,1.3321959E1,2.358023E1,3.9583855E1,2.129571E1,6.802495E1,5.3258154E2,1.918597E2,2.8594978E0],"tree_param":{"num_deleted":"0","num_feature":"42","num_nodes":"25","size_leaf_vector":"1"}},{"base_weights":[5.9420597E-3,1.961038E-1,-1.10175446E-1,5.5481322E-2,2.8781766E-1,-3.7126276E-1,-4.3094527E-2,-6.6926324E-1,1.1429382E-1,1.5775968E-1,4.558324E-1,5.0298554E-1,-4.0523544E-1,-2.9068643E-1,2.8028466E-2,3.7443424E-3,-3.5211835E-2,-5.99294E-3,1.1129942E-2,1.2035003E-2,-1.5420439E-2,-1.1189599E-2,2.3730513E-2,1.2501426E-3,2.7934888E-2,-2.3252191E-2,-1.2337812E-2,-1.568247E-2,1.9525968E-2,-5.723309E-4,1.5754256E-2],"categories":[],"categories_nodes":[],"categories_segments":[],"categories_sizes":[],"default_left":[0,0,0,0,0,0,0,0,0,0,0,0,0,0,0,0,0,0,0,0,0,0,0,0,0,0,0,0,0,0,0],"id":13,"left_children":[1,3,5,7,9,11,13,15,17,19,21,23,25,27,29,-1,-1,-1,-1,-1,-1,-1,-1,-1,-1,-1,-1,-1,-1,-1,-1],"loss_changes":[2.3101229E1,5.096114E0,1.1357882E1,6.828627E0,5.153122E0,4.183695E0,9.13453E0,1.1037402E0,4.886264E0,7.6292515E0,5.396061E0,2.8696454E-1,1.7050114E0,5.029875E0,5.302317E0,0E0,0E0,0E0,0E0,0E0,0E0,0E0,0E0,0E0,0E0,0E0,0E0,0E0,0E0,0E0,0E0],"parents":[2147483647,0,0,1,1,2,2,3,3,4,4,5,5,6,6,7,7,8,8,9,9,10,10,11,11,12,12,13,13,14,14],"right_children":[2,4,6,8,10,12,14,16,18,20,22,24,26,28,30,-1,-1,-1,-1,-1,-1,-1,-1,-1,-1,-1,-1,-1,-1,-1,-1],"split_conditions":[3E0,6.37E1,2.22E1,4.83E1,7.88E1,4.84E1,4.79E1,2.89E1,9E0,5.01E1,4.17E1,8.83E1,8.8933334E1,6.59E1,5.02E1,3.7443424E-3,-3.5211835E-2,-5.99294E-3,1.1129942E-2,1.2035003E-2,-1.5420439E-2,-1.1189599E-2,2.3730513E-2,1.2501426E-3,2.7934888E-2,-2.3252191E-2,-1.2337812E-2,-1.568247E-2,1.9525968E-2,-5.723309E-4,1.5754256E-2],"split_indices":[20,3,17,14,0,14,3,6,21,16,15,7,40,4,16,0,0,0,0,0,0,0,0,0,0,0,0,0,0,0,0],"split_type":[0,0,0,0,0,0,0,0,0,0,0,0,0,0,0,0,0,0,0,0,0,0,0,0,0,0,0,0,0,0,0],"sum_hessian":[1.0438246E3,3.9542453E2,6.484001E2,1.5685251E2,2.38572E2,1.3142726E2,5.1697284E2,1.0838199E1,1.4601431E2,1.3578749E2,1.0278452E2,4.296445E0,1.2713082E2,1.1453867E2,4.0243414E2,1.4591082E0,9.379091E0,5.105095E1,9.496336E1,1.1183447E2,2.3953014E1,9.198146E0,9.358637E1,1.1480078E0,3.1484373E0,6.67894E1,6.034142E1,1.0665214E2,7.8865304E0,3.5826062E2,4.4173546E1],"tree_param":{"num_deleted":"0","num_feature":"42","num_nodes":"31","size_leaf_vector":"1"}},{"base_weights":[-8.995751E-3,-4.398904E-1,3.914387E-2,-5.756401E-1,-2.8540352E-1,-2.6661152E-2,2.8565738E-1,-6.054054E-1,-6.485505E-2,-5.635674E-1,-1.1620207E-1,-1.13410965E-1,1.2717672E-1,2.2858515E-1,5.9567165E-1,-5.537993E-3,-2.8411785E-2,-2.0308478E-2,2.0212917E-2,-2.951971E-4,-3.019233E-2,3.2439008E-3,-1.9605007E-2,-1.4291622E-2,-3.13184E-3,2.4455215E-3,1.8049829E-2,1.2521084E-2,-7.4208123E-3,2.7616844E-3,2.9499402E-2],"categories":[],"categories_nodes":[],"categories_segments":[],"categories_sizes":[],"default_left":[0,0,0,0,0,0,0,0,0,0,0,0,0,0,0,0,0,0,0,0,0,0,0,0,0,0,0,0,0,0,0],"id":14,"left_children":[1,3,5,7,9,11,13,15,17,19,21,23,25,27,29,-1,-1,-1,-1,-1,-1,-1,-1,-1,-1,-1,-1,-1,-1,-1,-1],"loss_changes":[2.0965204E1,1.9328709E0,1.4760359E1,7.568836E-1,2.269289E0,9.610574E0,3.2283897E0,5.30838E-1,1.0886686E0,1.1044917E0,1.994378E0,4.091189E0,5.156328E0,3.2567577E0,8.812256E-1,0E0,0E0,0E0,0E0,0E0,0E0,0E0,0E0,0E0,0E0,0E0,0E0,0E0,0E0,0E0,0E0],"parents":[2147483647,0,0,1,1,2,2,3,3,4,4,5,5,6,6,7,7,8,8,9,9,10,10,11,11,12,12,13,13,14,14],"right_children":[2,4,6,8,10,12,14,16,18,20,22,24,26,28,30,-1,-1,-1,-1,-1,-1,-1,-1,-1,-1,-1,-1,-1,-1,-1,-1],"split_conditions":[1.21E1,4.94E1,5.15E1,7.26E1,1.6E3,6.53E1,7.2E1,3.02E1,5.56E1,4.26E1,5.45E1,5E1,9.72E1,5.02E1,2.29E1,-5.537993E-3,-2.8411785E-2,-2.0308478E-2,2.0212917E-2,-2.951971E-4,-3.019233E-2,3.2439008E-3,-1.9605007E-2,-1.4291622E-2,-3.13184E-3,2.4455215E-3,1.8049829E-2,1.2521084E-2,-7.4208123E-3,2.7616844E-3,2.9499402E-2],"split_indices":[17,16,17,6,22,3,14,16,19,4,8,12,0,5,8,0,0,0,0,0,0,0,0,0,0,0,0,0,0,0,0],"split_type":[0,0,0,0,0,0,0,0,0,0,0,0,0,0,0,0,0,0,0,0,0,0,0,0,0,0,0,0,0,0,0],"sum_hessian":[1.00851086E3,1.00367E2,9.0814386E2,5.1681984E1,4.8685013E1,7.176441E2,1.9049977E2,4.8626072E1,3.0559125E0,1.7355692E1,3.1329319E1,4.5908148E2,2.585626E2,1.6264278E2,2.7856993E1,2.83597E0,4.57901E1,1.828047E0,1.2278655E0,3.010709E0,1.4344983E1,2.02962E1,1.1033119E1,7.978344E1,3.7929807E2,2.0539175E2,5.317085E1,1.4472858E2,1.7914192E1,3.0518205E0,2.4805174E1],"tree_param":{"num_deleted":"0","num_feature":"42","num_nodes":"31","size_leaf_vector":"1"}},{"base_weights":[3.2814133E-3,-3.9994672E-1,6.754169E-2,-4.9691236E-1,-2.3766182E-1,4.8516667E-3,2.8972715E-1,9.533614E-3,-5.138262E-1,9.102339E-2,-3.2154435E-1,-4.4034857E-1,3.3613037E-2,6.1846083E-1,2.4446788E-1,-1.1657367E-2,-2.5753729E-2,-2.189151E-2,2.3189792E-2,-1.8633196E-2,3.25165E-3,-2.233337E-2,8.595542E-3,-1.0000955E-2,3.3981018E-3,3.1951033E-2,-1.6823107E-2,1.2783021E-2,-8.676607E-3],"categories":[],"categories_nodes":[],"categories_segments":[],"categories_sizes":[],"default_left":[0,0,0,0,0,0,0,0,0,0,0,0,0,0,0,0,0,0,0,0,0,0,0,0,0,0,0,0,0],"id":15,"left_children":[1,3,5,7,9,11,13,-1,15,17,19,21,23,25,27,-1,-1,-1,-1,-1,-1,-1,-1,-1,-1,-1,-1,-1,-1],"loss_changes":[2.6065151E1,2.0341835E0,1.208298E1,1.1550884E0,1.5244493E0,8.697941E0,2.6588993E0,0E0,1.0708447E0,3.221208E0,1.6136374E0,1.5698671E0,6.858462E0,2.3463116E0,3.0057564E0,0E0,0E0,0E0,0E0,0E0,0E0,0E0,0E0,0E0,0E0,0E0,0E0,0E0,0E0],"parents":[2147483647,0,0,1,1,2,2,3,3,4,4,5,5,6,6,8,8,9,9,10,10,11,11,12,12,13,13,14,14],"right_children":[2,4,6,8,10,12,14,-1,16,18,20,22,24,26,28,-1,-1,-1,-1,-1,-1,-1,-1,-1,-1,-1,-1,-1,-1],"split_conditions":[2.22E1,1E2,5.15E1,3E1,3.3E1,6.846667E1,2.5E1,9.533614E-3,2.7524554E2,1.21E1,8.281432E2,6.05E1,2.5E1,5.65E1,5.02E1,-1.1657367E-2,-2.5753729E-2,-2.189151E-2,2.3189792E-2,-1.8633196E-2,3.25165E-3,-2.233337E-2,8.595542E-3,-1.0000955E-2,3.3981018E-3,3.1951033E-2,-1.6823107E-2,1.2783021E-2,-8.676607E-3],"split_indices":[17,12,17,12,16,40,18,0,41,17,41,9,15,2,5,0,0,0,0,0,0,0,0,0,0,0,0,0,0],"split_type":[0,0,0,0,0,0,0,0,0,0,0,0,0,0,0,0,0,0,0,0,0,0,0,0,0,0,0,0,0],"sum_hessian":[1.00347687E3,1.370748E2,8.664021E2,8.4256775E1,5.281802E1,6.76697E2,1.8970506E2,1.6414471E0,8.2615326E1,1.0718094E1,4.2099926E1,4.002187E1,6.366752E2,2.1118233E1,1.6858682E2,1.663926E1,6.5976074E1,4.4650702E0,6.2530236E0,3.40402E1,8.059729E0,3.699981E1,3.022059E0,8.886611E1,5.47809E2,1.9646759E1,1.4714748E0,1.5497325E2,1.3613585E1],"tree_param":{"num_deleted":"0","num_feature":"42","num_nodes":"29","size_leaf_vector":"1"}},{"base_weights":[-1.8825834E-3,1.4096645E-1,-1.5159364E-1,7.5244375E-2,3.050033E-1,-2.8696755E-1,1.8022828E-3,-3.0033572E-2,2.1478896E-1,1.3834669E-1,4.4654125E-1,-3.216459E-1,9.7593784E-2,-3.0970025E-1,6.987238E-2,1.9758274E-3,-1.2407945E-2,-1.4128662E-2,1.20410025E-2,1.2196533E-2,-2.351808E-2,-5.6068003E-3,2.2449117E-2,-1.6137233E-2,2.4513013E-3,-5.0230506E-3,2.9689241E-2,-1.630721E-2,9.690276E-3,2.2192856E-2,4.472346E-4],"categories":[],"categories_nodes":[],"categories_segments":[],"categories_sizes":[],"default_left":[0,0,0,0,0,0,0,0,0,0,0,0,0,0,0,0,0,0,0,0,0,0,0,0,0,0,0,0,0,0,0],"id":16,"left_children":[1,3,5,7,9,11,13,15,17,19,21,23,25,27,29,-1,-1,-1,-1,-1,-1,-1,-1,-1,-1,-1,-1,-1,-1,-1,-1],"loss_changes":[2.1017189E1,5.3942413E0,9.964943E0,5.305976E0,3.309908E0,3.4370365E0,4.8210535E0,3.7681282E0,4.4337196E0,6.1007633E0,2.3770142E0,3.277647E0,2.6765466E0,1.2215014E0,4.7272973E0,0E0,0E0,0E0,0E0,0E0,0E0,0E0,0E0,0E0,0E0,0E0,0E0,0E0,0E0,0E0,0E0],"parents":[2147483647,0,0,1,1,2,2,3,3,4,4,5,5,6,6,7,7,8,8,9,9,10,10,11,11,12,12,13,13,14,14],"right_children":[2,4,6,8,10,12,14,16,18,20,22,24,26,28,30,-1,-1,-1,-1,-1,-1,-1,-1,-1,-1,-1,-1,-1,-1,-1,-1],"split_conditions":[4E0,5.15E1,5.34E1,6.88E1,6.23E1,7E1,4.76E1,8.89E1,4.59E1,6.96E1,5.87E1,9.8E1,6.1E1,9.4E1,1.51E1,1.9758274E-3,-1.2407945E-2,-1.4128662E-2,1.20410025E-2,1.2196533E-2,-2.351808E-2,-5.6068003E-3,2.2449117E-2,-1.6137233E-2,2.4513013E-3,-5.0230506E-3,2.9689241E-2,-1.630721E-2,9.690276E-3,2.2192856E-2,4.472346E-4],"split_indices":[20,17,3,3,6,6,17,15,17,19,19,0,1,6,1,0,0,0,0,0,0,0,0,0,0,0,0,0,0,0,0],"split_type":[0,0,0,0,0,0,0,0,0,0,0,0,0,0,0,0,0,0,0,0,0,0,0,0,0,0,0,0,0,0,0],"sum_hessian":[9.8035175E2,5.0170886E2,4.7864288E2,3.5944577E2,1.422631E2,2.5370235E2,2.2494054E2,2.0541461E2,1.5403116E2,6.642392E1,7.583918E1,2.3289688E2,2.0805468E1,3.957548E1,1.8536507E2,1.5865448E2,4.676013E1,1.3442937E1,1.4058823E2,5.5908443E1,1.0515477E1,6.2261624E0,6.9613014E1,2.1210982E2,2.0787062E1,1.5863433E1,4.9420347E0,3.630447E1,3.2710102E0,2.191424E1,1.6345082E2],"tree_param":{"num_deleted":"0","num_feature":"42","num_nodes":"31","size_leaf_vector":"1"}},{"base_weights":[3.6062025E-3,9.242385E-2,-2.0702167E-1,-2.6547307E-1,1.1339226E-1,-3.0746493E-1,-1.7701568E-2,-1.5379176E-1,-3.0654239E-2,1.8541287E-1,2.4205143E-2,1.3244256E-1,-3.461202E-1,-2.0308983E-1,1.5952972E-1,-1.883372E-2,2.8381962E-3,5.71482E-3,1.38573665E-2,3.052649E-3,-2.1190627E-2,1.3634308E-2,-2.5038809E-2,-3.1575002E-3,-1.8436853E-2,-1.8202031E-2,9.45102E-3,9.995623E-3,-2.5268432E-2],"categories":[],"categories_nodes":[],"categories_segments":[],"categories_sizes":[],"default_left":[0,0,0,0,0,0,0,0,0,0,0,0,0,0,0,0,0,0,0,0,0,0,0,0,0,0,0,0,0],"id":17,"left_children":[1,3,5,7,9,11,13,15,-1,17,19,21,23,25,27,-1,-1,-1,-1,-1,-1,-1,-1,-1,-1,-1,-1,-1,-1],"loss_changes":[1.822924E1,5.1795626E0,5.489662E0,1.6521437E0,4.15876E0,3.264965E0,3.372598E0,1.8535168E0,0E0,2.5189762E0,6.3247404E0,2.095536E0,3.01614E0,4.271805E0,2.5212383E0,0E0,0E0,0E0,0E0,0E0,0E0,0E0,0E0,0E0,0E0,0E0,0E0,0E0,0E0],"parents":[2147483647,0,0,1,1,2,2,3,3,4,4,5,5,6,6,7,7,9,9,10,10,11,11,12,12,13,13,14,14],"right_children":[2,4,6,8,10,12,14,16,-1,18,20,22,24,26,28,-1,-1,-1,-1,-1,-1,-1,-1,-1,-1,-1,-1,-1,-1],"split_conditions":[6E0,4.26E1,5.48E1,1.3E1,3E0,2.6E1,1.2E1,6.28E1,-3.0654239E-2,7.62E1,6.7E1,1.2E1,2.05E1,6.98E1,1.2E1,-1.883372E-2,2.8381962E-3,5.71482E-3,1.38573665E-2,3.052649E-3,-2.1190627E-2,1.3634308E-2,-2.5038809E-2,-3.1575002E-3,-1.8436853E-2,-1.8202031E-2,9.45102E-3,9.995623E-3,-2.5268432E-2],"split_indices":[20,3,3,21,20,9,21,15,0,3,11,20,8,15,20,0,0,0,0,0,0,0,0,0,0,0,0,0,0],"split_type":[0,0,0,0,0,0,0,0,0,0,0,0,0,0,0,0,0,0,0,0,0,0,0,0,0,0,0,0,0],"sum_hessian":[9.72009E2,6.84178E2,2.87831E2,3.7091602E1,6.4708636E2,1.875683E2,1.0026271E2,3.0533163E1,6.5584393E0,3.5728003E2,2.8980634E2,1.4915403E1,1.726529E2,4.8918095E1,5.1344612E1,1.3246541E1,1.7286621E1,2.4358969E2,1.1369034E2,2.6728717E2,2.251916E1,1.2494358E1,2.4210458E0,3.280631E1,1.3984659E2,3.2902557E1,1.601554E1,4.8007366E1,3.3372443E0],"tree_param":{"num_deleted":"0","num_feature":"42","num_nodes":"29","size_leaf_vector":"1"}},{"base_weights":[-4.9542785E-3,-3.5326082E-1,5.0520528E-2,2.6129737E-2,-3.7749854E-1,-4.7872838E-2,2.0137258E-1,-4.5078796E-1,-1.7905219E-1,-1.0128332E-1,2.2129256E-1,-1.7719413E-1,2.4434417E-1,7.659085E-3,-2.0879112E-2,-1.8128118E-2,-3.9204644E-4,-1.7606639E-3,-1.1969298E-2,3.2206584E-2,7.4898154E-3,-1.8840209E-2,1.2413872E-2,7.3487326E-3,1.9963294E-2],"categories":[],"categories_nodes":[],"categories_segments":[],"categories_sizes":[],"default_left":[0,0,0,0,0,0,0,0,0,0,0,0,0,0,0,0,0,0,0,0,0,0,0,0,0],"id":18,"left_children":[1,3,5,-1,7,9,11,13,15,17,19,21,23,-1,-1,-1,-1,-1,-1,-1,-1,-1,-1,-1,-1],"loss_changes":[1.869557E1,3.272066E0,1.2401316E1,0E0,1.798151E0,7.3038206E0,5.416239E0,8.678093E-1,1.4113184E0,4.3198733E0,2.1401577E0,3.892271E0,4.7037735E0,0E0,0E0,0E0,0E0,0E0,0E0,0E0,0E0,0E0,0E0,0E0,0E0],"parents":[2147483647,0,0,1,1,2,2,4,4,5,5,6,6,7,7,8,8,9,9,10,10,11,11,12,12],"right_children":[2,4,6,-1,8,10,12,14,16,18,20,22,24,-1,-1,-1,-1,-1,-1,-1,-1,-1,-1,-1,-1],"split_conditions":[2.22E1,4.59E1,6.7E1,2.6129737E-2,9.4433334E1,5.15E1,3.18E1,3E1,4.94E1,7E0,7.3E1,8.83E1,8.64E1,7.659085E-3,-2.0879112E-2,-1.8128118E-2,-3.9204644E-4,-1.7606639E-3,-1.1969298E-2,3.2206584E-2,7.4898154E-3,-1.8840209E-2,1.2413872E-2,7.3487326E-3,1.9963294E-2],"split_indices":[17,14,3,0,40,17,15,12,16,20,40,7,0,0,0,0,0,0,0,0,0,0,0,0,0],"split_type":[0,0,0,0,0,0,0,0,0,0,0,0,0,0,0,0,0,0,0,0,0,0,0,0,0],"sum_hessian":[9.652591E2,1.3173026E2,8.335288E2,2.6354005E0,1.2909485E2,5.0497662E2,3.285522E2,9.316253E1,3.5932327E1,4.219897E2,8.2986946E1,3.3110497E1,2.954417E2,1.6408806E0,9.1521645E1,1.4821589E1,2.1110737E1,3.0744598E2,1.1454369E2,6.843733E0,7.614321E1,2.1657995E1,1.14525E1,2.1158435E2,8.385735E1],"tree_param":{"num_deleted":"0","num_feature":"42","num_nodes":"25","size_leaf_vector":"1"}},{"base_weights":[-3.6321818E-3,8.572573E-2,-2.1187124E-1,8.0665145E-3,1.9581297E-1,-2.7169064E-1,3.3244133E-2,6.40205E-2,-2.1076445E-1,-4.672922E-1,2.0809415E-1,7.901169E-2,-3.093848E-1,3.191651E-1,-1.6663973E-1,8.115413E-4,1.744348E-2,-2.483659E-2,-2.7718549E-3,-2.5262048E-2,-7.871761E-3,2.1811062E-2,7.742636E-3,-1.6263181E-2,1.6466059E-2,-1.55731365E-2,3.7116176E-3,-2.0238236E-2,2.0613557E-2,8.571023E-3,-1.5303616E-2],"categories":[],"categories_nodes":[],"categories_segments":[],"categories_sizes":[],"default_left":[0,0,0,0,0,0,0,0,0,0,0,0,0,0,0,0,0,0,0,0,0,0,0,0,0,0,0,0,0,0,0],"id":19,"left_children":[1,3,5,7,9,11,13,15,17,19,21,23,25,27,29,-1,-1,-1,-1,-1,-1,-1,-1,-1,-1,-1,-1,-1,-1,-1,-1],"loss_changes":[1.735329E1,5.5773234E0,4.1166058E0,4.7169356E0,2.3145695E0,3.0065498E0,3.2642841E0,4.5551443E0,3.9517305E0,2.732563E-2,2.5493279E0,3.0412612E0,2.9611435E0,2.7522452E0,2.1679306E0,0E0,0E0,0E0,0E0,0E0,0E0,0E0,0E0,0E0,0E0,0E0,0E0,0E0,0E0,0E0,0E0],"parents":[2147483647,0,0,1,1,2,2,3,3,4,4,5,5,6,6,7,7,8,8,9,9,10,10,11,11,12,12,13,13,14,14],"right_children":[2,4,6,8,10,12,14,16,18,20,22,24,26,28,30,-1,-1,-1,-1,-1,-1,-1,-1,-1,-1,-1,-1,-1,-1,-1,-1],"split_conditions":[6E0,7E1,6.72E1,9.25E1,4.48E1,2.67E1,4.4E1,6.7E1,4.85E1,7.5E1,5.24E1,1E0,8.62E1,5E1,4.83E1,8.115413E-4,1.744348E-2,-2.483659E-2,-2.7718549E-3,-2.5262048E-2,-7.871761E-3,2.1811062E-2,7.742636E-3,-1.6263181E-2,1.6466059E-2,-1.55731365E-2,3.7116176E-3,-2.0238236E-2,2.0613557E-2,8.571023E-3,-1.5303616E-2],"split_indices":[20,6,6,7,3,9,9,19,1,7,19,29,15,13,14,0,0,0,0,0,0,0,0,0,0,0,0,0,0,0,0],"split_type":[0,0,0,0,0,0,0,0,0,0,0,0,0,0,0,0,0,0,0,0,0,0,0,0,0,0,0,0,0,0,0],"sum_hessian":[9.302098E2,6.513945E2,2.788153E2,3.8270764E2,2.6868683E2,2.240152E2,5.48001E1,3.054536E2,7.725403E1,4.077336E0,2.646095E2,2.1613165E1,2.0240202E2,2.22528E1,3.25473E1,2.6855765E2,3.6895943E1,2.2516577E1,5.473745E1,2.249314E0,1.8280218E0,2.8778173E1,2.3583131E2,8.40271E0,1.3210456E1,1.8520416E2,1.7197872E1,2.994251E0,1.9258549E1,1.0601486E1,2.1945814E1],"tree_param":{"num_deleted":"0","num_feature":"42","num_nodes":"31","size_leaf_vector":"1"}},{"base_weights":[3.363826E-3,-1.1622805E-1,1.9794598E-1,-1.5340018E-2,-2.7029327E-1,-7.315143E-2,2.386431E-1,-5.431426E-2,2.6552027E-1,-4.9667856E-1,-2.2175543E-1,-3.248643E-1,2.2009486E-1,1.5934642E-1,3.9429748E-1,-3.413727E-3,1.8185783E-2,-1.1725233E-2,1.4887686E-2,-2.914077E-2,-8.542868E-3,2.372245E-2,-1.0567344E-2,-1.1775871E-3,-2.5405526E-2,1.5463719E-2,-2.1303568E-2,5.734187E-3,2.8287487E-2,2.0365788E-2,1.1244139E-3],"categories":[],"categories_nodes":[],"categories_segments":[],"categories_sizes":[],"default_left":[0,0,0,0,0,0,0,0,0,0,0,0,0,0,0,0,0,0,0,0,0,0,0,0,0,0,0,0,0,0,0],"id":20,"left_children":[1,3,5,7,9,11,13,15,17,19,21,23,25,27,29,-1,-1,-1,-1,-1,-1,-1,-1,-1,-1,-1,-1,-1,-1,-1,-1],"loss_changes":[2.1842825E1,9.031455E0,3.9629364E0,3.8768375E0,2.3949413E0,3.5959792E0,3.762497E0,3.1050003E0,1.5868294E0,1.687604E0,2.024127E0,1.8491256E0,2.1384377E0,3.0196576E0,2.2274761E0,0E0,0E0,0E0,0E0,0E0,0E0,0E0,0E0,0E0,0E0,0E0,0E0,0E0,0E0,0E0,0E0],"parents":[2147483647,0,0,1,1,2,2,3,3,4,4,5,5,6,6,7,7,8,8,9,9,10,10,11,11,12,12,13,13,14,14],"right_children":[2,4,6,8,10,12,14,16,18,20,22,24,26,28,30,-1,-1,-1,-1,-1,-1,-1,-1,-1,-1,-1,-1,-1,-1,-1,-1],"split_conditions":[6.53E1,6E0,3.96E1,5.18E1,5.5E1,8.67E1,7.83E1,7.335583E2,7E0,5.2E1,4.59E1,3.6E0,9.67E1,6.5E1,6.56564E2,-3.413727E-3,1.8185783E-2,-1.1725233E-2,1.4887686E-2,-2.914077E-2,-8.542868E-3,2.372245E-2,-1.0567344E-2,-1.1775871E-3,-2.5405526E-2,1.5463719E-2,-2.1303568E-2,5.734187E-3,2.8287487E-2,2.0365788E-2,1.1244139E-3],"split_indices":[3,20,15,16,7,7,0,41,21,6,14,15,7,9,41,0,0,0,0,0,0,0,0,0,0,0,0,0,0,0,0],"split_type":[0,0,0,0,0,0,0,0,0,0,0,0,0,0,0,0,0,0,0,0,0,0,0,0,0,0,0,0,0,0,0],"sum_hessian":[9.3626447E2,5.801701E2,3.5609436E2,3.5138727E2,2.2878287E2,4.6354458E1,3.097399E2,3.0941806E2,4.1969193E1,3.843568E1,1.9034718E2,2.4874033E1,2.1480427E1,2.0681062E2,1.02929276E2,2.9648502E2,1.2933059E1,4.239136E0,3.7730057E1,2.4871824E1,1.3563857E1,2.4564042E0,1.8789078E2,1.1666865E1,1.3207168E1,1.87463E1,2.7341268E0,1.950677E2,1.1742933E1,8.8667404E1,1.4261865E1],"tree_param":{"num_deleted":"0","num_feature":"42","num_nodes":"31","size_leaf_vector":"1"}},{"base_weights":[3.3139805E-3,-6.0494035E-2,2.9264086E-1,-3.3323404E-1,-4.9729794E-3,3.096409E-1,-2.6068814E-2,4.9840266E-1,-3.6196074E-1,-8.6198345E-2,1.3143699E-1,3.2507846E-1,-2.3309315E-2,3.6106964E-3,2.635111E-2,-2.1183586E-2,-9.621098E-3,-2.8544494E-3,-2.7014127E-2,-1.3166714E-3,9.79913E-3,1.2564328E-2,2.5811415E-2],"categories":[],"categories_nodes":[],"categories_segments":[],"categories_sizes":[],"default_left":[0,0,0,0,0,0,0,0,0,0,0,0,0,0,0,0,0,0,0,0,0,0,0],"id":21,"left_children":[1,3,5,7,9,11,-1,13,15,17,19,21,-1,-1,-1,-1,-1,-1,-1,-1,-1,-1,-1],"loss_changes":[1.739903E1,1.1691519E1,2.7394924E0,3.3363428E0,7.136042E0,2.346159E0,0E0,1.20975494E-1,1.9249687E0,4.6786184E0,3.3422031E0,1.694191E0,0E0,0E0,0E0,0E0,0E0,0E0,0E0,0E0,0E0,0E0,0E0],"parents":[2147483647,0,0,1,1,2,2,3,3,4,4,5,5,7,7,8,8,9,9,10,10,11,11],"right_children":[2,4,6,8,10,12,-1,14,16,18,20,22,-1,-1,-1,-1,-1,-1,-1,-1,-1,-1,-1],"split_conditions":[5.62E1,2.22E1,8.86E1,4.84E1,6.61E1,6.67E1,-2.6068814E-2,8.83E1,7.9E0,1.2E1,4.47E1,7.2E1,-2.3309315E-2,3.6106964E-3,2.635111E-2,-2.1183586E-2,-9.621098E-3,-2.8544494E-3,-2.7014127E-2,-1.3166714E-3,9.79913E-3,1.2564328E-2,2.5811415E-2],"split_indices":[17,17,5,14,3,18,0,7,17,20,11,14,0,0,0,0,0,0,0,0,0,0,0],"split_type":[0,0,0,0,0,0,0,0,0,0,0,0,0,0,0,0,0,0,0,0,0,0,0],"sum_hessian":[9.4010516E2,7.7101495E2,1.6909018E2,1.2939186E2,6.416231E2,1.666156E2,2.4745839E0,3.665184E0,1.2572667E2,4.0243484E2,2.3918826E2,1.6427997E2,2.3356233E0,1.0298359E0,2.6353478E0,7.098966E1,5.4737007E1,3.8666074E2,1.5774103E1,8.38626E1,1.5532567E2,1.408325E2,2.3447477E1],"tree_param":{"num_deleted":"0","num_feature":"42","num_nodes":"23","size_leaf_vector":"1"}},{"base_weights":[1.1884697E-2,1.423739E-1,-1.22813985E-1,3.27194E-2,2.2170328E-1,-3.4283465E-1,-3.525064E-2,6.5812916E-1,-7.2172924E-4,1.6744289E-1,4.7302815E-1,-6.087619E-1,-2.7616876E-1,-4.9301076E-1,7.594415E-3,-2.7429347E-4,3.381961E-2,-1.3780779E-2,3.2367539E-3,-1.4030884E-3,1.0798871E-2,-1.8501675E-2,2.263168E-2,-2.9692644E-2,9.714887E-3,-2.179538E-3,-1.6223034E-2,1.7200604E-2,-2.6874183E-2,-1.7625771E-2,1.8553798E-3],"categories":[],"categories_nodes":[],"categories_segments":[],"categories_sizes":[],"default_left":[0,0,0,0,0,0,0,0,0,0,0,0,0,0,0,0,0,0,0,0,0,0,0,0,0,0,0,0,0,0,0],"id":22,"left_children":[1,3,5,7,9,11,13,15,17,19,21,23,25,27,29,-1,-1,-1,-1,-1,-1,-1,-1,-1,-1,-1,-1,-1,-1,-1,-1],"loss_changes":[1.6266737E1,4.080002E0,8.760019E0,4.156497E0,3.6212845E0,2.0944128E0,6.42036E0,6.314144E-1,4.2397165E0,3.2646608E0,1.5099239E0,1.2224226E0,2.0103655E0,2.8288298E0,4.0526257E0,0E0,0E0,0E0,0E0,0E0,0E0,0E0,0E0,0E0,0E0,0E0,0E0,0E0,0E0,0E0,0E0],"parents":[2147483647,0,0,1,1,2,2,3,3,4,4,5,5,6,6,7,7,8,8,9,9,10,10,11,11,12,12,13,13,14,14],"right_children":[2,4,6,8,10,12,14,16,18,20,22,24,26,28,30,-1,-1,-1,-1,-1,-1,-1,-1,-1,-1,-1,-1,-1,-1,-1,-1],"split_conditions":[4E0,6.27E1,3.49E1,2.2E1,8.1E1,2.8E1,4.25E1,1.3E1,4.11E1,4.96E1,5.07E1,6.99E1,3.89E1,8E0,7.7E0,-2.7429347E-4,3.381961E-2,-1.3780779E-2,3.2367539E-3,-1.4030884E-3,1.0798871E-2,-1.8501675E-2,2.263168E-2,-2.9692644E-2,9.714887E-3,-2.179538E-3,-1.6223034E-2,1.7200604E-2,-2.6874183E-2,-1.7625771E-2,1.8553798E-3],"split_indices":[20,6,15,9,17,6,19,21,0,1,3,16,19,21,17,0,0,0,0,0,0,0,0,0,0,0,0,0,0,0,0],"split_type":[0,0,0,0,0,0,0,0,0,0,0,0,0,0,0,0,0,0,0,0,0,0,0,0,0,0,0,0,0,0,0],"sum_hessian":[9.2307654E2,4.688298E2,4.5424673E2,1.975112E2,2.713186E2,1.2831953E2,3.2592722E2,8.88725E0,1.8862395E2,2.2478714E2,4.6531464E1,2.3764835E1,1.045547E2,2.6815886E1,2.9911133E2,1.2341089E0,7.653141E0,3.5495247E1,1.5312871E2,6.031202E1,1.6447511E2,1.0214725E0,4.550999E1,2.2604645E1,1.1601902E0,2.8767832E1,7.578687E1,2.5120316E0,2.4303854E1,2.224764E1,2.7686368E2],"tree_param":{"num_deleted":"0","num_feature":"42","num_nodes":"31","size_leaf_vector":"1"}},{"base_weights":[-3.8141692E-3,-6.289176E-2,2.5659946E-1,-3.6892265E-1,-2.161571E-2,3.8198692E-1,1.5016538E-1,4.2573762E-1,-4.040568E-1,-7.2635286E-2,2.2011688E-1,4.1098192E-1,-2.2822317E-2,-3.712714E-1,2.0667079E-1,-5.513034E-4,2.6559517E-2,-2.4837922E-2,-1.3140664E-2,-7.357139E-3,1.4915124E-3,-6.204476E-3,1.448052E-2,-8.72481E-3,1.9475693E-2,-2.9591927E-2,2.19796E-2,-3.8742183E-3,1.295244E-2],"categories":[],"categories_nodes":[],"categories_segments":[],"categories_sizes":[],"default_left":[0,0,0,0,0,0,0,0,0,0,0,0,0,0,0,0,0,0,0,0,0,0,0,0,0,0,0,0,0],"id":23,"left_children":[1,3,5,7,9,11,13,15,17,19,21,23,-1,25,27,-1,-1,-1,-1,-1,-1,-1,-1,-1,-1,-1,-1,-1,-1],"loss_changes":[1.4024731E1,9.375551E0,2.1808205E0,2.669654E0,8.109121E0,2.2253714E0,2.83675E0,3.1986922E-1,1.2168436E0,5.220748E0,4.224993E0,1.088315E0,0E0,2.7329683E0,2.045077E0,0E0,0E0,0E0,0E0,0E0,0E0,0E0,0E0,0E0,0E0,0E0,0E0,0E0,0E0],"parents":[2147483647,0,0,1,1,2,2,3,3,4,4,5,5,6,6,7,7,8,8,9,9,10,10,11,11,13,13,14,14],"right_children":[2,4,6,8,10,12,14,16,18,20,22,24,-1,26,28,-1,-1,-1,-1,-1,-1,-1,-1,-1,-1,-1,-1,-1,-1],"split_conditions":[5.15E1,1.21E1,5.37E1,4.84E1,8E1,8.93E1,3.5706244E2,9.67E1,4.82E1,4.45E1,4.83E1,4.84E1,-2.2822317E-2,5.62E1,1.77E1,-5.513034E-4,2.6559517E-2,-2.4837922E-2,-1.3140664E-2,-7.357139E-3,1.4915124E-3,-6.204476E-3,1.448052E-2,-8.72481E-3,1.9475693E-2,-2.9591927E-2,2.19796E-2,-3.8742183E-3,1.295244E-2],"split_indices":[17,17,4,14,6,1,41,7,16,11,1,3,0,5,0,0,0,0,0,0,0,0,0,0,0,0,0,0,0],"split_type":[0,0,0,0,0,0,0,0,0,0,0,0,0,0,0,0,0,0,0,0,0,0,0,0,0,0,0,0,0],"sum_hessian":[9.091491E2,7.417789E2,1.6737021E2,8.70254E1,6.547535E2,7.541677E1,9.195343E1,3.1198556E0,8.390554E1,5.4133905E2,1.1341445E2,7.3660065E1,1.7567058E0,8.336729E0,8.361671E1,1.1549293E0,1.9649265E0,3.4135136E1,4.977041E1,2.908592E2,2.5047984E2,2.499133E1,8.842313E1,2.2342095E0,7.142585E1,6.4654927E0,1.871236E0,1.813332E1,6.548338E1],"tree_param":{"num_deleted":"0","num_feature":"42","num_nodes":"29","size_leaf_vector":"1"}},{"base_weights":[8.842785E-3,-4.3633583E-1,5.26947E-2,-4.7480014E-1,-1.1810717E-1,-2.3041211E-2,1.9585903E-1,7.599234E-3,-4.8831984E-1,2.9521182E-1,-3.7098917E-1,-2.4873793E-1,1.8712528E-2,-2.8832233E-1,2.2644937E-1,-2.2546312E-2,7.794916E-3,2.0367155E-2,-3.8798947E-3,-2.4038358E-2,-3.118595E-3,-1.3142542E-2,2.6313644E-2,-1.0057895E-3,9.535036E-3,2.1009892E-2,-1.7621826E-2,1.284691E-2,4.6194732E-4],"categories":[],"categories_nodes":[],"categories_segments":[],"categories_sizes":[],"default_left":[0,0,0,0,0,0,0,0,0,0,0,0,0,0,0,0,0,0,0,0,0,0,0,0,0,0,0,0,0],"id":24,"left_children":[1,3,5,7,9,11,13,-1,15,17,19,21,23,25,27,-1,-1,-1,-1,-1,-1,-1,-1,-1,-1,-1,-1,-1,-1],"loss_changes":[1.7669012E1,9.261713E-1,8.93663E0,7.256317E-1,1.2131718E0,5.0924225E0,4.301282E0,0E0,6.997452E-1,3.2279444E-1,2.9788947E-1,3.2506084E0,3.6279674E0,1.5820117E0,3.427743E0,0E0,0E0,0E0,0E0,0E0,0E0,0E0,0E0,0E0,0E0,0E0,0E0,0E0,0E0],"parents":[2147483647,0,0,1,1,2,2,3,3,4,4,5,5,6,6,8,8,9,9,10,10,11,11,12,12,13,13,14,14],"right_children":[2,4,6,8,10,12,14,-1,16,18,20,22,24,26,28,-1,-1,-1,-1,-1,-1,-1,-1,-1,-1,-1,-1,-1,-1],"split_conditions":[1.21E1,5.59E1,6.88E1,2.54E1,6.3E1,4.17E1,4.76E1,7.599234E-3,9.4E1,4.6E1,5.04E1,6.77E1,5.38E1,3.18E1,6.11E1,-2.2546312E-2,7.794916E-3,2.0367155E-2,-3.8798947E-3,-2.4038358E-2,-3.118595E-3,-1.3142542E-2,2.6313644E-2,-1.0057895E-3,9.535036E-3,2.1009892E-2,-1.7621826E-2,1.284691E-2,4.6194732E-4],"split_indices":[17,5,3,19,5,3,17,0,6,6,1,5,17,5,11,0,0,0,0,0,0,0,0,0,0,0,0,0,0],"split_type":[0,0,0,0,0,0,0,0,0,0,0,0,0,0,0,0,0,0,0,0,0,0,0,0,0,0,0,0,0],"sum_hessian":[9.024716E2,7.9962555E1,8.225091E2,7.081297E1,9.149575E0,5.385929E2,2.839162E2,1.1730936E0,6.9639885E1,3.3968234E0,5.7527523E0,8.315516E1,4.554377E2,1.627093E1,2.6764526E2,6.861288E1,1.0270066E0,2.2460983E0,1.1507251E0,3.1331122E0,2.61964E0,7.978788E1,3.367279E0,3.7647263E2,7.896511E1,1.4490976E0,1.4821832E1,2.0993076E2,5.771452E1],"tree_param":{"num_deleted":"0","num_feature":"42","num_nodes":"29","size_leaf_vector":"1"}},{"base_weights":[-8.8814355E-4,-3.7025484E-1,3.6793005E-2,-4.461568E-1,-1.1138847E-1,-1.3104395E-2,2.577108E-1,-5.349433E-1,-1.0697696E-1,1.7316365E-1,-3.4687838E-1,-2.4289152E-1,2.543602E-2,3.9164394E-1,1.4774436E-1,-2.493696E-2,1.7247917E-3,-1.983246E-2,8.458111E-3,1.4698446E-2,-2.0556044E-2,-2.008082E-2,7.6660593E-3,-1.8899558E-2,-4.926664E-3,-1.1668514E-2,2.6392327E-3,1.9176874E-2,-1.7317776E-2,-8.511328E-3,1.0646631E-2],"categories":[],"categories_nodes":[],"categories_segments":[],"categories_sizes":[],"default_left":[0,0,0,0,0,0,0,0,0,0,0,0,0,0,0,0,0,0,0,0,0,0,0,0,0,0,0,0,0,0,0],"id":25,"left_children":[1,3,5,7,9,11,13,15,17,19,21,23,25,27,29,-1,-1,-1,-1,-1,-1,-1,-1,-1,-1,-1,-1,-1,-1,-1,-1],"loss_changes":[1.2406739E1,1.5617313E0,8.920883E0,1.8408966E0,1.4329524E0,5.861411E0,2.126522E0,5.756588E-1,1.5419486E0,1.1455355E0,6.8286395E-1,2.1906977E0,5.381922E0,1.9786263E0,2.5620134E0,0E0,0E0,0E0,0E0,0E0,0E0,0E0,0E0,0E0,0E0,0E0,0E0,0E0,0E0,0E0,0E0],"parents":[2147483647,0,0,1,1,2,2,3,3,4,4,5,5,6,6,7,7,8,8,9,9,10,10,11,11,12,12,13,13,14,14],"right_children":[2,4,6,8,10,12,14,16,18,20,22,24,26,28,30,-1,-1,-1,-1,-1,-1,-1,-1,-1,-1,-1,-1,-1,-1,-1,-1],"split_conditions":[1.21E1,5.32E1,5.71E1,5.18E1,7E0,4.54E1,5.49E1,7.54E1,1.9E3,9.47E1,9.81E1,4.86E1,2.5E1,9.83E1,4.2025946E2,-2.493696E-2,1.7247917E-3,-1.983246E-2,8.458111E-3,1.4698446E-2,-2.0556044E-2,-2.008082E-2,7.6660593E-3,-1.8899558E-2,-4.926664E-3,-1.1668514E-2,2.6392327E-3,1.9176874E-2,-1.7317776E-2,-8.511328E-3,1.0646631E-2],"split_indices":[17,1,17,16,20,19,4,3,22,8,8,3,15,7,41,0,0,0,0,0,0,0,0,0,0,0,0,0,0,0,0],"split_type":[0,0,0,0,0,0,0,0,0,0,0,0,0,0,0,0,0,0,0,0,0,0,0,0,0,0,0,0,0,0,0],"sum_hessian":[8.8903186E2,8.1318825E1,8.077131E2,6.2210075E1,1.9108751E1,6.5981366E2,1.478994E2,4.8754974E1,1.3455101E1,8.796808E0,1.0311944E1,9.385645E1,5.659572E2,6.5297195E1,8.26022E1,4.7212807E1,1.5421679E0,6.0339766E0,7.4211245E0,7.538202E0,1.2586062E0,8.788385E0,1.5235584E0,3.9217907E1,5.4638542E1,5.8267567E1,5.0768964E2,6.3037086E1,2.2601085E0,1.695582E1,6.5646385E1],"tree_param":{"num_deleted":"0","num_feature":"42","num_nodes":"31","size_leaf_vector":"1"}},{"base_weights":[2.4349424E-3,1.2934256E-1,-1.3031179E-1,-5.1285887E-1,1.4371498E-1,-3.363359E-1,-5.0369218E-2,-2.2225168E-3,-2.519116E-2,-2.4015848E-1,1.6112109E-1,-1.2746476E-1,-4.1433114E-1,-4.883789E-1,-9.487112E-3,2.91537E-2,-1.84649E-2,1.2123836E-2,4.3003657E-3,6.429556E-3,-1.9682683E-2,-2.193776E-2,1.0852791E-2,1.4422298E-2,-2.5722371E-2,9.766299E-3,-2.7467052E-3],"categories":[],"categories_nodes":[],"categories_segments":[],"categories_sizes":[],"default_left":[0,0,0,0,0,0,0,0,0,0,0,0,0,0,0,0,0,0,0,0,0,0,0,0,0,0,0],"id":26,"left_children":[1,3,5,7,9,11,13,-1,-1,15,17,19,21,23,25,-1,-1,-1,-1,-1,-1,-1,-1,-1,-1,-1,-1],"loss_changes":[1.4814302E1,4.2378726E0,7.0586243E0,1.8664908E-1,2.9907808E0,1.8905916E0,5.5645967E0,0E0,0E0,3.2802699E0,2.967023E0,2.9525657E0,4.3044643E0,2.0059748E0,3.3524253E0,0E0,0E0,0E0,0E0,0E0,0E0,0E0,0E0,0E0,0E0,0E0,0E0],"parents":[2147483647,0,0,1,1,2,2,3,3,4,4,5,5,6,6,9,9,10,10,11,11,12,12,13,13,14,14],"right_children":[2,4,6,8,10,12,14,-1,-1,16,18,20,22,24,26,-1,-1,-1,-1,-1,-1,-1,-1,-1,-1,-1,-1],"split_conditions":[4E0,1.09E1,3.49E1,3.4E1,4.26E1,2.47E1,4.25E1,-2.2225168E-3,-2.519116E-2,2.8006558E2,8.5E1,8.23E1,8.5E1,8E0,4.88E1,2.91537E-2,-1.84649E-2,1.2123836E-2,4.3003657E-3,6.429556E-3,-1.9682683E-2,-2.193776E-2,1.0852791E-2,1.4422298E-2,-2.5722371E-2,9.766299E-3,-2.7467052E-3],"split_indices":[20,17,15,16,3,8,19,0,0,41,12,0,6,21,14,0,0,0,0,0,0,0,0,0,0,0,0],"split_type":[0,0,0,0,0,0,0,0,0,0,0,0,0,0,0,0,0,0,0,0,0,0,0,0,0,0,0],"sum_hessian":[8.7696545E2,4.4835907E2,4.2860638E2,8.903527E0,4.3945554E2,1.1874188E2,3.098645E2,1.0453748E0,7.8581524E0,1.8395924E1,4.210596E2,3.3143837E1,8.5598045E1,2.5331226E1,2.8453326E2,2.416631E0,1.5979292E1,1.5736655E2,2.6369308E2,1.8047863E1,1.5095975E1,7.727888E1,8.319169E0,2.0441365E0,2.328709E1,5.2035484E1,2.3249779E2],"tree_param":{"num_deleted":"0","num_feature":"42","num_nodes":"27","size_leaf_vector":"1"}},{"base_weights":[4.4370038E-3,-3.3947596E-1,5.3840756E-2,-4.1097137E-1,-1.7387791E-1,-1.9178782E-1,9.618819E-2,-1.6509444E-1,-4.7443905E-1,-3.4588546E-2,-5.101652E-1,-3.8282907E-1,-2.1775633E-2,4.5050766E-2,2.5879264E-1,-1.4810925E-2,1.6968962E-2,-3.4621016E-3,-2.3524148E-2,2.0162744E-2,-7.5981636E-3,-1.7554663E-3,-2.5629938E-2,-3.0565897E-2,-1.147188E-2,-2.1376148E-2,4.042376E-3,-6.7925337E-3,3.994989E-3,1.704464E-2,5.6050224E-3],"categories":[],"categories_nodes":[],"categories_segments":[],"categories_sizes":[],"default_left":[0,0,0,0,0,0,0,0,0,0,0,0,0,0,0,0,0,0,0,0,0,0,0,0,0,0,0,0,0,0,0],"id":27,"left_children":[1,3,5,7,9,11,13,15,17,19,21,23,25,27,29,-1,-1,-1,-1,-1,-1,-1,-1,-1,-1,-1,-1,-1,-1,-1,-1],"loss_changes":[1.4847913E1,1.2138681E0,7.9693727E0,1.0887079E0,1.6267505E0,3.6521344E0,5.411466E0,1.6955551E0,1.0964699E0,1.7862414E0,2.5921655E-1,1.8022547E0,3.1334996E0,4.2825804E0,2.4534187E0,0E0,0E0,0E0,0E0,0E0,0E0,0E0,0E0,0E0,0E0,0E0,0E0,0E0,0E0,0E0,0E0],"parents":[2147483647,0,0,1,1,2,2,3,3,4,4,5,5,6,6,7,7,8,8,9,9,10,10,11,11,12,12,13,13,14,14],"right_children":[2,4,6,8,10,12,14,16,18,20,22,24,26,28,30,-1,-1,-1,-1,-1,-1,-1,-1,-1,-1,-1,-1,-1,-1,-1,-1],"split_conditions":[2.22E1,1.21E1,4.79E1,4.26E1,9.25E1,8.57E1,5.15E1,6.2E1,4E1,3.54E1,3.6E0,4E1,4.7E1,2.45E1,5.92E1,-1.4810925E-2,1.6968962E-2,-3.4621016E-3,-2.3524148E-2,2.0162744E-2,-7.5981636E-3,-1.7554663E-3,-2.5629938E-2,-3.0565897E-2,-1.147188E-2,-2.1376148E-2,4.042376E-3,-6.7925337E-3,3.994989E-3,1.704464E-2,5.6050224E-3],"split_indices":[17,17,3,4,7,40,17,9,12,6,15,6,19,11,4,0,0,0,0,0,0,0,0,0,0,0,0,0,0,0,0],"split_type":[0,0,0,0,0,0,0,0,0,0,0,0,0,0,0,0,0,0,0,0,0,0,0,0,0,0,0,0,0,0,0],"sum_hessian":[8.7139935E2,1.08569786E2,7.628295E2,7.4588715E1,3.398107E1,1.1155283E2,6.5127673E2,1.618986E1,5.8398853E1,2.496433E1,9.016739E0,5.1820477E1,5.973236E1,4.9662558E2,1.5465114E2,1.2791372E1,3.398488E0,6.666602E0,5.173225E1,4.822652E0,2.014168E1,1.2318946E0,7.7848444E0,1.4060768E1,3.775971E1,1.1030065E1,4.8702293E1,9.005058E1,4.0657498E2,8.050864E1,7.41425E1],"tree_param":{"num_deleted":"0","num_feature":"42","num_nodes":"31","size_leaf_vector":"1"}},{"base_weights":[-6.514191E-3,-3.2125127E-1,3.9612174E-2,4.5763478E-1,-3.529985E-1,-1.1762948E-2,2.3134702E-1,-1.6700876E-3,2.6999095E-2,-3.8219172E-1,6.014641E-2,-8.214583E-2,1.373726E-1,2.4850425E-1,-2.467767E-2,-1.8340714E-2,-4.5480924E-3,-2.0261187E-2,1.6341453E-2,-1.5318871E-2,-1.5542229E-3,7.5690774E-3,-1.2597521E-2,1.3000215E-2,-3.8797725E-3],"categories":[],"categories_nodes":[],"categories_segments":[],"categories_sizes":[],"default_left":[0,0,0,0,0,0,0,0,0,0,0,0,0,0,0,0,0,0,0,0,0,0,0,0,0],"id":28,"left_children":[1,3,5,7,9,11,13,-1,-1,15,17,19,21,23,-1,-1,-1,-1,-1,-1,-1,-1,-1,-1,-1],"loss_changes":[1.2597143E1,2.9363747E0,7.4595146E0,3.694203E-1,1.3210554E0,6.2918544E0,2.304308E0,0E0,0E0,6.66399E-1,1.4511223E0,4.991563E0,2.5295625E0,2.1578178E0,0E0,0E0,0E0,0E0,0E0,0E0,0E0,0E0,0E0,0E0,0E0],"parents":[2147483647,0,0,1,1,2,2,3,3,4,4,5,5,6,6,9,9,10,10,11,11,12,12,13,13],"right_children":[2,4,6,8,10,12,14,-1,-1,16,18,20,22,24,-1,-1,-1,-1,-1,-1,-1,-1,-1,-1,-1],"split_conditions":[2.22E1,4.84E1,5.15E1,8.83E1,6.39E1,7.2E1,6.67E1,-1.6700876E-3,2.6999095E-2,8.490743E2,1.29E1,2.5E1,6.4323035E2,5.61E1,-2.467767E-2,-1.8340714E-2,-4.5480924E-3,-2.0261187E-2,1.6341453E-2,-1.5318871E-2,-1.5542229E-3,7.5690774E-3,-1.2597521E-2,1.3000215E-2,-3.8797725E-3],"split_indices":[17,14,17,7,19,6,18,0,0,41,17,15,41,11,0,0,0,0,0,0,0,0,0,0,0],"split_type":[0,0,0,0,0,0,0,0,0,0,0,0,0,0,0,0,0,0,0,0,0,0,0,0,0],"sum_hessian":[8.6545874E2,1.0970997E2,7.557488E2,3.6661713E0,1.0604379E2,5.9692883E2,1.5881998E2,1.0173397E0,2.6488316E0,9.9129135E1,6.9146557E0,4.059053E2,1.9102351E2,1.5620053E2,2.6194456E0,9.0425766E1,8.703369E0,2.3585408E0,4.556115E0,6.202666E1,3.4387863E2,1.7854959E2,1.24739275E1,1.3952852E2,1.667202E1],"tree_param":{"num_deleted":"0","num_feature":"42","num_nodes":"25","size_leaf_vector":"1"}},{"base_weights":[-8.618656E-4,-5.2745115E-2,2.4039733E-1,-3.4939218E-1,-1.608503E-2,1.895723E-1,5.113578E-1,2.0349398E-2,-3.8806194E-1,-2.6144972E-1,1.2342105E-2,2.1854927E-1,-4.908483E-1,-5.5083698E-3,5.8104426E-1,-2.004236E-2,-5.515041E-3,-1.4177707E-2,2.6004367E-2,-1.1483218E-3,8.187677E-3,6.7329183E-3,2.0473499E-2,-3.0106107E-2,-3.4272987E-3,3.140706E-2,7.0910593E-3],"categories":[],"categories_nodes":[],"categories_segments":[],"categories_sizes":[],"default_left":[0,0,0,0,0,0,0,0,0,0,0,0,0,0,0,0,0,0,0,0,0,0,0,0,0,0,0],"id":29,"left_children":[1,3,5,7,9,11,13,-1,15,17,19,21,23,-1,25,-1,-1,-1,-1,-1,-1,-1,-1,-1,-1,-1,-1],"loss_changes":[1.0905958E1,7.791225E0,2.0073423E0,2.6534948E0,4.4639645E0,2.7265253E0,1.1298294E0,0E0,1.0885878E0,3.2082906E0,3.6926684E0,1.9912529E0,3.6382568E-1,0E0,9.3302107E-1,0E0,0E0,0E0,0E0,0E0,0E0,0E0,0E0,0E0,0E0,0E0,0E0],"parents":[2147483647,0,0,1,1,2,2,3,3,4,4,5,5,6,6,8,8,9,9,10,10,11,11,12,12,14,14],"right_children":[2,4,6,8,10,12,14,-1,16,18,20,22,24,-1,26,-1,-1,-1,-1,-1,-1,-1,-1,-1,-1,-1,-1],"split_conditions":[5.62E1,1.21E1,7.2E1,4.84E1,4.05E1,7.64E1,2.05E1,2.0349398E-2,5.47E1,6.77E1,9.52E1,8.78E1,5.08E1,-5.5083698E-3,9.753333E1,-2.004236E-2,-5.515041E-3,-1.4177707E-2,2.6004367E-2,-1.1483218E-3,8.187677E-3,6.7329183E-3,2.0473499E-2,-3.0106107E-2,-3.4272987E-3,3.140706E-2,7.0910593E-3],"split_indices":[17,17,14,14,3,5,8,0,1,5,0,0,0,0,40,0,0,0,0,0,0,0,0,0,0,0,0],"split_type":[0,0,0,0,0,0,0,0,0,0,0,0,0,0,0,0,0,0,0,0,0,0,0,0,0,0,0],"sum_hessian":[8.688544E2,7.1584766E2,1.5300674E2,7.760937E1,6.382383E2,1.305572E2,2.2449535E1,2.9810517E0,7.462832E1,6.524541E1,5.7299286E2,1.2600559E2,4.5516186E0,2.1339934E0,2.0315542E1,6.0708157E1,1.392016E1,6.2032726E1,3.212681E0,4.692614E2,1.0373145E2,9.90782E1,2.6927393E1,2.6688938E0,1.8827245E0,1.531133E1,5.0042114E0],"tree_param":{"num_deleted":"0","num_feature":"42","num_nodes":"27","size_leaf_vector":"1"}},{"base_weights":[4.0930877E-3,1.0405544E-1,-1.00563206E-1,5.0824463E-2,2.4109305E-1,-2.8719106E-1,-4.0122785E-2,-3.001842E-1,7.177397E-2,3.355835E-1,3.403994E-2,-3.4109655E-1,4.615395E-2,-2.1778363E-1,2.5395932E-2,1.0301842E-2,-1.7531144E-2,1.0563784E-2,7.7478966E-4,1.7658139E-2,-1.8533344E-3,-2.1327065E-2,1.5211187E-2,-2.6475132E-2,-1.2565414E-2,2.4962995E-2,-4.1116197E-3,2.6987647E-3,-1.4603011E-2,7.868399E-3,-2.3778174E-3],"categories":[],"categories_nodes":[],"categories_segments":[],"categories_sizes":[],"default_left":[0,0,0,0,0,0,0,0,0,0,0,0,0,0,0,0,0,0,0,0,0,0,0,0,0,0,0,0,0,0,0],"id":30,"left_children":[1,3,5,7,9,11,13,15,17,19,21,23,25,27,29,-1,-1,-1,-1,-1,-1,-1,-1,-1,-1,-1,-1,-1,-1,-1,-1],"loss_changes":[8.980637E0,3.1879187E0,4.71687E0,2.3622656E0,2.3831034E0,1.8589563E0,3.710423E0,9.6444046E-1,2.6697164E0,1.8173046E0,6.3263245E0,1.1533041E0,1.1317191E0,2.56844E0,2.7418392E0,0E0,0E0,0E0,0E0,0E0,0E0,0E0,0E0,0E0,0E0,0E0,0E0,0E0,0E0,0E0,0E0],"parents":[2147483647,0,0,1,1,2,2,3,3,4,4,5,5,6,6,7,7,8,8,9,9,10,10,11,11,12,12,13,13,14,14],"right_children":[2,4,6,8,10,12,14,16,18,20,22,24,26,28,30,-1,-1,-1,-1,-1,-1,-1,-1,-1,-1,-1,-1,-1,-1,-1,-1],"split_conditions":[4E0,7.69E1,2.8E1,7E0,1.9E3,5.49E1,6E1,3.2495374E2,4.55E1,5.34E1,8.29E1,2.8E1,4.2140344E2,4.72E1,5.29E1,1.0301842E-2,-1.7531144E-2,1.0563784E-2,7.7478966E-4,1.7658139E-2,-1.8533344E-3,-2.1327065E-2,1.5211187E-2,-2.6475132E-2,-1.2565414E-2,2.4962995E-2,-4.1116197E-3,2.6987647E-3,-1.4603011E-2,7.868399E-3,-2.3778174E-3],"split_indices":[20,6,15,21,22,4,12,41,1,9,15,6,41,1,14,0,0,0,0,0,0,0,0,0,0,0,0,0,0,0,0],"split_type":[0,0,0,0,0,0,0,0,0,0,0,0,0,0,0,0,0,0,0,0,0,0,0,0,0,0,0,0,0,0,0],"sum_hessian":[8.5603046E2,4.378374E2,4.1819308E2,3.165295E2,1.21307884E2,1.0120144E2,3.1699164E2,1.6926785E1,2.9960272E2,8.278385E1,3.8524025E1,8.709012E1,1.41113205E1,8.465418E1,2.3233745E2,2.1758063E0,1.4750978E1,7.4145096E1,2.2545764E2,7.189217E1,1.0891678E1,1.4171667E1,2.435236E1,1.5386611E1,7.170351E1,2.2287223E0,1.1882598E1,2.3644823E1,6.1009357E1,7.932274E1,1.5301471E2],"tree_param":{"num_deleted":"0","num_feature":"42","num_nodes":"31","size_leaf_vector":"1"}},{"base_weights":[4.092749E-3,-5.113611E-2,2.5135738E-1,-1.2730163E-1,9.644228E-2,3.8397408E-1,1.3269672E-1,-1.549522E-1,3.0907527E-1,-2.6997927E-1,1.3401298E-1,4.0871203E-1,-2.0780079E-2,-1.0582374E-1,2.5556356E-1,-1.5919188E-2,-5.2823755E-3,-2.997354E-3,2.3165602E-2,-1.8914523E-2,6.174972E-4,-1.0825755E-2,7.813613E-3,2.114445E-2,5.5254204E-3,-2.9412597E-2,1.7364997E-3,3.540772E-4,2.4041185E-2],"categories":[],"categories_nodes":[],"categories_segments":[],"categories_sizes":[],"default_left":[0,0,0,0,0,0,0,0,0,0,0,0,0,0,0,0,0,0,0,0,0,0,0,0,0,0,0,0,0],"id":31,"left_children":[1,3,5,7,9,11,13,15,17,19,21,23,-1,25,27,-1,-1,-1,-1,-1,-1,-1,-1,-1,-1,-1,-1,-1,-1],"loss_changes":[1.1653874E1,7.8565254E0,2.3906727E0,5.6159945E0,3.322244E0,1.7525988E0,2.496032E0,3.1916294E0,2.1936185E0,9.686358E-1,3.2682443E0,1.1812983E0,0E0,2.3583262E0,3.8491335E0,0E0,0E0,0E0,0E0,0E0,0E0,0E0,0E0,0E0,0E0,0E0,0E0,0E0,0E0],"parents":[2147483647,0,0,1,1,2,2,3,3,4,4,5,5,6,6,7,7,8,8,9,9,10,10,11,11,13,13,14,14],"right_children":[2,4,6,8,10,12,14,16,18,20,22,24,-1,26,28,-1,-1,-1,-1,-1,-1,-1,-1,-1,-1,-1,-1,-1,-1],"split_conditions":[5.15E1,6.53E1,5.49E1,8.8E1,3.85E1,8.93E1,4.8507944E2,1.3E1,2.53E1,6.79E1,2.8E1,9.57E1,-2.0780079E-2,9.08E1,7.67E1,-1.5919188E-2,-5.2823755E-3,-2.997354E-3,2.3165602E-2,-1.8914523E-2,6.174972E-4,-1.0825755E-2,7.813613E-3,2.114445E-2,5.5254204E-3,-2.9412597E-2,1.7364997E-3,3.540772E-4,2.4041185E-2],"split_indices":[17,3,4,6,17,1,41,15,8,4,15,15,0,40,4,0,0,0,0,0,0,0,0,0,0,0,0,0,0],"split_type":[0,0,0,0,0,0,0,0,0,0,0,0,0,0,0,0,0,0,0,0,0,0,0,0,0,0,0,0,0],"sum_hessian":[8.5105005E2,6.964445E2,1.5460555E2,4.5947394E2,2.3697058E2,7.174232E1,8.286322E1,4.3282248E2,2.6651459E1,2.1347591E1,2.15623E2,7.030599E1,1.4363256E0,2.822898E1,5.4634243E1,6.718184E1,3.6564066E2,9.717178E0,1.6934278E1,1.3575547E1,7.772043E0,2.0044174E1,1.9557883E2,5.7280594E1,1.3025399E1,5.0066013E0,2.3222378E1,2.9578634E1,2.5055607E1],"tree_param":{"num_deleted":"0","num_feature":"42","num_nodes":"29","size_leaf_vector":"1"}},{"base_weights":[-1.72752E-4,-3.9717963E-1,3.7671797E-2,1.4887631E-2,-4.134254E-1,-3.3550993E-2,1.6352561E-1,-5.2039737E-1,-2.6651025E-1,-8.1110775E-2,1.774901E-1,-2.635852E-1,1.8988724E-1,1.0572714E-3,-2.434517E-2,6.5748645E-3,-1.470611E-2,-4.2413385E-3,2.3942774E-2,-1.7081166E-2,1.1947244E-2,-1.8810306E-2,2.5150085E-2,6.2206225E-3,1.5948208E-2],"categories":[],"categories_nodes":[],"categories_segments":[],"categories_sizes":[],"default_left":[0,0,0,0,0,0,0,0,0,0,0,0,0,0,0,0,0,0,0,0,0,0,0,0,0],"id":32,"left_children":[1,3,5,-1,7,9,11,13,15,17,19,21,23,-1,-1,-1,-1,-1,-1,-1,-1,-1,-1,-1,-1],"loss_changes":[1.2615882E1,1.0284176E0,6.878243E0,0E0,9.653435E-1,4.941035E0,3.181775E0,4.6818638E-1,8.7334013E-1,3.2926636E0,4.562356E0,2.391234E0,2.1661596E0,0E0,0E0,0E0,0E0,0E0,0E0,0E0,0E0,0E0,0E0,0E0,0E0],"parents":[2147483647,0,0,1,1,2,2,4,4,5,5,6,6,7,7,8,8,9,9,10,10,11,11,12,12],"right_children":[2,4,6,-1,8,10,12,14,16,18,20,22,24,-1,-1,-1,-1,-1,-1,-1,-1,-1,-1,-1,-1],"split_conditions":[1.21E1,4.59E1,7E1,1.4887631E-2,8.8933334E1,6.39E1,3.57E1,2.85E1,1E0,8.419319E2,3.07E1,7.94E1,6.32E1,1.0572714E-3,-2.434517E-2,6.5748645E-3,-1.470611E-2,-4.2413385E-3,2.3942774E-2,-1.7081166E-2,1.1947244E-2,-1.8810306E-2,2.5150085E-2,6.2206225E-3,1.5948208E-2],"split_indices":[17,14,6,0,40,19,17,16,36,41,0,16,14,0,0,0,0,0,0,0,0,0,0,0,0],"split_type":[0,0,0,0,0,0,0,0,0,0,0,0,0,0,0,0,0,0,0,0,0,0,0,0,0],"sum_hessian":[8.372896E2,7.187661E1,7.65413E2,1.061696E0,7.081491E1,4.8935748E2,2.760555E2,3.921272E1,3.1602194E1,3.9996173E2,8.9395744E1,1.542013E1,2.606354E2,1.4252764E0,3.778744E1,3.8112626E0,2.7790932E1,3.9256406E2,7.3976803E0,1.1653374E1,7.774237E1,1.3479458E1,1.9406719E0,2.0003998E2,6.059542E1],"tree_param":{"num_deleted":"0","num_feature":"42","num_nodes":"25","size_leaf_vector":"1"}},{"base_weights":[3.7964657E-3,-6.780137E-2,1.3090214E-1,-3.7114552E-1,-4.0987417E-2,6.1500393E-2,2.7440208E-1,-1.5723073E-1,-4.6755686E-1,-6.045247E-2,3.1441116E-1,3.0513654E-2,4.880435E-1,-2.3728004E-1,3.3957765E-1,1.4556177E-2,-1.1935018E-2,-2.2956079E-2,7.867908E-3,-1.0139014E-2,-1.104909E-3,-8.796431E-3,2.1403583E-2,4.059751E-3,-8.692793E-3,-5.6715854E-3,2.5147885E-2,-1.8755065E-2,1.9768436E-2,9.091374E-3,2.3364183E-2],"categories":[],"categories_nodes":[],"categories_segments":[],"categories_sizes":[],"default_left":[0,0,0,0,0,0,0,0,0,0,0,0,0,0,0,0,0,0,0,0,0,0,0,0,0,0,0,0,0,0,0],"id":33,"left_children":[1,3,5,7,9,11,13,15,17,19,21,23,25,27,29,-1,-1,-1,-1,-1,-1,-1,-1,-1,-1,-1,-1,-1,-1,-1,-1],"loss_changes":[7.6695876E0,4.36702E0,3.0039196E0,8.117528E-1,3.4589133E0,2.707747E0,3.3862433E0,9.005841E-1,9.1316366E-1,2.7862837E0,2.2477005E0,2.6054835E0,6.8823886E-1,1.6589682E0,2.048068E0,0E0,0E0,0E0,0E0,0E0,0E0,0E0,0E0,0E0,0E0,0E0,0E0,0E0,0E0,0E0,0E0],"parents":[2147483647,0,0,1,1,2,2,3,3,4,4,5,5,6,6,7,7,8,8,9,9,10,10,11,11,12,12,13,13,14,14],"right_children":[2,4,6,8,10,12,14,16,18,20,22,24,26,28,30,-1,-1,-1,-1,-1,-1,-1,-1,-1,-1,-1,-1,-1,-1,-1,-1],"split_conditions":[6.61E1,6.786667E1,7.83E1,6.310892E1,6.95E1,7.21E1,3.26E1,4.93E1,6.4E1,4.05E1,8E0,9.63E1,1.4E1,6.21E1,5.98E1,1.4556177E-2,-1.1935018E-2,-2.2956079E-2,7.867908E-3,-1.0139014E-2,-1.104909E-3,-8.796431E-3,2.1403583E-2,4.059751E-3,-8.692793E-3,-5.6715854E-3,2.5147885E-2,-1.8755065E-2,1.9768436E-2,9.091374E-3,2.3364183E-2],"split_indices":[3,40,0,41,16,14,15,16,6,3,2,15,2,2,14,0,0,0,0,0,0,0,0,0,0,0,0,0,0,0,0],"split_type":[0,0,0,0,0,0,0,0,0,0,0,0,0,0,0,0,0,0,0,0,0,0,0,0,0,0,0,0,0,0,0],"sum_hessian":[8.4039606E2,5.3793854E2,3.0245752E2,4.2437428E1,4.955011E2,2.0501779E2,9.7439735E1,1.4165164E1,2.8272264E1,4.7071603E2,2.4785067E1,1.9233148E2,1.2686308E1,1.0651093E1,8.678864E1,2.1592712E0,1.2005893E1,2.6746572E1,1.5256928E0,8.303988E1,3.8767615E2,5.8929777E0,1.8892088E1,1.523773E2,3.9954178E1,1.2146503E0,1.1471658E1,8.781983E0,1.8691096E0,5.059539E1,3.619325E1],"tree_param":{"num_deleted":"0","num_feature":"42","num_nodes":"31","size_leaf_vector":"1"}},{"base_weights":[-9.9371E-4,-5.070686E-2,2.2570111E-1,-2.767405E-1,-8.879499E-3,2.7790886E-1,-8.005637E-2,2.2931168E-2,-3.0542067E-1,-2.1835679E-1,2.7163804E-2,2.039085E-1,5.0732815E-1,-4.3821368E-1,2.3323876E-1,-1.4461997E-2,1.6303472E-2,1.1980121E-2,-1.2651208E-2,-5.601935E-3,3.5157073E-3,1.0788595E-2,-1.4924422E-2,2.4601158E-2,-1.0668132E-2,-3.23406E-2,3.9753225E-3,-2.1760417E-2,2.2393715E-2],"categories":[],"categories_nodes":[],"categories_segments":[],"categories_sizes":[],"default_left":[0,0,0,0,0,0,0,0,0,0,0,0,0,0,0,0,0,0,0,0,0,0,0,0,0,0,0,0,0],"id":34,"left_children":[1,3,5,7,9,11,13,-1,15,17,19,21,23,25,27,-1,-1,-1,-1,-1,-1,-1,-1,-1,-1,-1,-1,-1,-1],"loss_changes":[9.325002E0,6.4128103E0,2.4022903E0,2.5755892E0,4.340019E0,2.038457E0,2.6626482E0,0E0,1.2366247E0,2.6568651E0,3.8040624E0,1.9825664E0,1.0422449E0,1.6975424E0,2.7255585E0,0E0,0E0,0E0,0E0,0E0,0E0,0E0,0E0,0E0,0E0,0E0,0E0,0E0,0E0],"parents":[2147483647,0,0,1,1,2,2,3,3,4,4,5,5,6,6,8,8,9,9,10,10,11,11,12,12,13,13,14,14],"right_children":[2,4,6,8,10,12,14,-1,16,18,20,22,24,26,28,-1,-1,-1,-1,-1,-1,-1,-1,-1,-1,-1,-1,-1,-1],"split_conditions":[5.15E1,2.22E1,7.12E1,4.84E1,2.8E1,6.68E1,7.44E1,2.2931168E-2,6.96E1,4.32E1,6E1,5.61E1,5.02E1,5.02E1,7.34E1,-1.4461997E-2,1.6303472E-2,1.1980121E-2,-1.2651208E-2,-5.601935E-3,3.5157073E-3,1.0788595E-2,-1.4924422E-2,2.4601158E-2,-1.0668132E-2,-3.23406E-2,3.9753225E-3,-2.1760417E-2,2.2393715E-2],"split_indices":[17,17,19,14,15,19,6,0,19,17,12,11,5,1,19,0,0,0,0,0,0,0,0,0,0,0,0,0,0],"split_type":[0,0,0,0,0,0,0,0,0,0,0,0,0,0,0,0,0,0,0,0,0,0,0,0,0,0,0,0,0],"sum_hessian":[8.2502045E2,6.7740106E2,1.4761942E2,1.04725975E2,5.726751E2,1.2618308E2,2.1436327E1,2.977262E0,1.0174871E2,8.317968E1,4.894954E2,9.712234E1,2.9060743E1,9.778793E0,1.1657534E1,9.99818E1,1.7669145E0,9.094489E0,7.40852E1,1.22686005E2,3.668094E2,9.16521E1,5.4702387E0,2.7903877E1,1.1568658E0,6.094657E0,3.684136E0,2.873254E0,8.784279E0],"tree_param":{"num_deleted":"0","num_feature":"42","num_nodes":"29","size_leaf_vector":"1"}},{"base_weights":[-2.7484251E-3,-2.903891E-1,2.5738874E-2,2.2590231E-2,-3.307414E-1,-1.6133785E-1,5.986625E-2,-4.3567637E-1,-1.9995229E-1,-5.2728474E-1,-7.677325E-2,2.5620982E-1,3.5535198E-2,-2.0722559E-2,-1.5797444E-3,-1.9726383E-2,-9.5810747E-4,-2.4916472E-2,-2.9288286E-3,2.5716806E-3,-1.1584435E-2,1.8322889E-2,-4.264706E-3,-3.3751427E-4,9.109923E-3],"categories":[],"categories_nodes":[],"categories_segments":[],"categories_sizes":[],"default_left":[0,0,0,0,0,0,0,0,0,0,0,0,0,0,0,0,0,0,0,0,0,0,0,0,0],"id":35,"left_children":[1,3,5,-1,7,9,11,13,15,17,19,21,23,-1,-1,-1,-1,-1,-1,-1,-1,-1,-1,-1,-1],"loss_changes":[6.7350373E0,2.5675097E0,4.786996E0,0E0,8.726473E-1,3.5325882E0,3.0152364E0,3.6332273E-1,1.4333478E0,2.1945953E-1,2.325892E0,3.7367716E0,4.060215E0,0E0,0E0,0E0,0E0,0E0,0E0,0E0,0E0,0E0,0E0,0E0,0E0],"parents":[2147483647,0,0,1,1,2,2,4,4,5,5,6,6,7,7,8,8,9,9,10,10,11,11,12,12],"right_children":[2,4,6,-1,8,10,12,14,16,18,20,22,24,-1,-1,-1,-1,-1,-1,-1,-1,-1,-1,-1,-1],"split_conditions":[1.21E1,4.84E1,4.79E1,2.2590231E-2,1.8E3,4.25E1,2.24E1,5.59E1,4.94E1,6E1,6.21E1,4.32E1,5.15E1,-2.0722559E-2,-1.5797444E-3,-1.9726383E-2,-9.5810747E-4,-2.4916472E-2,-2.9288286E-3,2.5716806E-3,-1.1584435E-2,1.8322889E-2,-4.264706E-3,-3.3751427E-4,9.109923E-3],"split_indices":[17,14,3,0,22,19,1,5,16,4,14,2,17,0,0,0,0,0,0,0,0,0,0,0,0],"split_type":[0,0,0,0,0,0,0,0,0,0,0,0,0,0,0,0,0,0,0,0,0,0,0,0,0],"sum_hessian":[8.196422E2,7.286642E1,7.467758E2,2.8656318E0,7.0000786E1,1.145225E2,6.322533E2,3.7287136E1,3.271365E1,2.0317541E1,9.4204956E1,6.84498E1,5.638035E2,3.4942104E1,2.3450315E0,1.3266294E1,1.9447355E1,1.8994452E1,1.3230889E0,5.4571594E1,3.9633366E1,4.7728493E1,2.0721308E1,4.491425E2,1.1466103E2],"tree_param":{"num_deleted":"0","num_feature":"42","num_nodes":"25","size_leaf_vector":"1"}},{"base_weights":[-4.2685526E-3,-3.2251468E-1,2.6058652E-2,1.3051202E-2,-3.471681E-1,-1.5047281E-2,2.0088315E-1,-4.011306E-1,-1.2867387E-1,-8.671875E-2,1.04171686E-1,2.1963377E-1,-2.2915214E-2,-1.9209165E-2,-7.309206E-4,-1.4325055E-2,5.3722896E-3,-1.1182187E-2,-1.1364127E-3,2.2532705E-2,3.0934396E-3,2.3948608E-2,7.950944E-3],"categories":[],"categories_nodes":[],"categories_segments":[],"categories_sizes":[],"default_left":[0,0,0,0,0,0,0,0,0,0,0,0,0,0,0,0,0,0,0,0,0,0,0],"id":36,"left_children":[1,3,5,-1,7,9,11,13,15,17,19,21,-1,-1,-1,-1,-1,-1,-1,-1,-1,-1,-1],"loss_changes":[7.8961687E0,1.1957159E0,5.372555E0,0E0,7.512684E-1,5.1888366E0,2.0290318E0,5.340233E-1,7.7140176E-1,3.7622871E0,3.1629615E0,1.759481E0,0E0,0E0,0E0,0E0,0E0,0E0,0E0,0E0,0E0,0E0,0E0],"parents":[2147483647,0,0,1,1,2,2,4,4,5,5,6,6,7,7,8,8,9,9,10,10,11,11],"right_children":[2,4,6,-1,8,10,12,14,16,18,20,22,-1,-1,-1,-1,-1,-1,-1,-1,-1,-1,-1],"split_conditions":[1.21E1,4.84E1,5.15E1,1.3051202E-2,5.49E1,6.53E1,6.67E1,7.27E1,6.08E1,6E1,4.72E1,2.5E1,-2.2915214E-2,-1.9209165E-2,-7.309206E-4,-1.4325055E-2,5.3722896E-3,-1.1182187E-2,-1.1364127E-3,2.2532705E-2,3.0934396E-3,2.3948608E-2,7.950944E-3],"split_indices":[17,14,17,0,1,3,18,3,4,12,6,18,0,0,0,0,0,0,0,0,0,0,0],"split_type":[0,0,0,0,0,0,0,0,0,0,0,0,0,0,0,0,0,0,0,0,0,0,0],"sum_hessian":[8.158825E2,6.9979E1,7.459035E2,2.2077594E0,6.777123E1,6.047963E2,1.4110715E2,5.3544132E1,1.4227103E1,3.779246E2,2.2687173E2,1.3828455E2,2.8225884E0,5.006509E1,3.4790394E0,7.8699303E0,6.3571734E0,1.030497E2,2.748749E2,1.7314047E1,2.095577E2,1.5053831E1,1.2323072E2],"tree_param":{"num_deleted":"0","num_feature":"42","num_nodes":"23","size_leaf_vector":"1"}},{"base_weights":[1.1188505E-2,-2.4707882E-1,4.9665306E-2,2.2597233E-2,-2.780952E-1,-2.0064834E-1,7.8346394E-2,-3.7981796E-1,-1.4745143E-1,1.8577233E-1,-3.20681E-1,2.50237E-2,1.665634E-1,9.402446E-3,-1.7837893E-2,-9.200666E-3,1.4723982E-2,-2.2962503E-2,1.6434135E-2,1.4961672E-2,-1.7021919E-2,-3.8498687E-4,1.4218096E-2,2.5689032E-2,5.2021598E-3],"categories":[],"categories_nodes":[],"categories_segments":[],"categories_sizes":[],"default_left":[0,0,0,0,0,0,0,0,0,0,0,0,0,0,0,0,0,0,0,0,0,0,0,0,0],"id":37,"left_children":[1,3,5,-1,7,9,11,13,15,17,19,21,23,-1,-1,-1,-1,-1,-1,-1,-1,-1,-1,-1,-1],"loss_changes":[8.061233E0,2.6121202E0,5.0855246E0,0E0,1.2854409E0,3.4522414E0,2.977537E0,6.5056324E-1,1.3390298E0,2.4760237E0,2.259163E0,3.8776634E0,4.83787E0,0E0,0E0,0E0,0E0,0E0,0E0,0E0,0E0,0E0,0E0,0E0,0E0],"parents":[2147483647,0,0,1,1,2,2,4,4,5,5,6,6,7,7,8,8,9,9,10,10,11,11,12,12],"right_children":[2,4,6,-1,8,10,12,14,16,18,20,22,24,-1,-1,-1,-1,-1,-1,-1,-1,-1,-1,-1,-1],"split_conditions":[2.22E1,4.84E1,4.35E1,2.2597233E-2,7.9E0,1E1,6.09E1,3E1,8.0880347E2,4.6E1,1.53E1,5.05E1,6.16E1,9.402446E-3,-1.7837893E-2,-9.200666E-3,1.4723982E-2,-2.2962503E-2,1.6434135E-2,1.4961672E-2,-1.7021919E-2,-3.8498687E-4,1.4218096E-2,2.5689032E-2,5.2021598E-3],"split_indices":[17,14,3,0,17,21,19,12,41,1,9,16,19,0,0,0,0,0,0,0,0,0,0,0,0],"split_type":[0,0,0,0,0,0,0,0,0,0,0,0,0,0,0,0,0,0,0,0,0,0,0,0,0],"sum_hessian":[8.085278E2,1.0399275E2,7.0453503E2,3.4092727E0,1.0058348E2,7.168762E1,6.328474E2,5.5264397E1,4.5319088E1,1.6834656E1,5.4852966E1,3.9539288E2,2.374545E2,1.1322995E0,5.4132095E1,4.1069534E1,4.2495513E0,2.9967957E0,1.383786E1,3.979997E0,5.087297E1,3.5552383E2,3.9869072E1,2.5209024E1,2.1224547E2],"tree_param":{"num_deleted":"0","num_feature":"42","num_nodes":"25","size_leaf_vector":"1"}},{"base_weights":[-6.3632685E-3,-5.11442E-2,2.1054246E-1,-1.1051324E-1,9.165103E-2,3.258388E-1,1.0897771E-1,-3.688803E-1,-6.8300776E-2,1.241699E-1,-2.9334265E-1,1.8919569E-1,5.433034E-1,-2.9773897E-1,1.8580665E-1,-2.3828851E-2,-1.1010958E-2,-9.662727E-4,-1.4647746E-2,1.1341289E-3,1.5717939E-2,-2.757788E-2,4.4070673E-3,1.8778581E-2,-1.1058417E-3,7.780876E-5,2.681272E-2,-2.4900516E-2,1.9890865E-2,1.0137537E-2,-2.7723335E-2],"categories":[],"categories_nodes":[],"categories_segments":[],"categories_sizes":[],"default_left":[0,0,0,0,0,0,0,0,0,0,0,0,0,0,0,0,0,0,0,0,0,0,0,0,0,0,0,0,0,0,0],"id":38,"left_children":[1,3,5,7,9,11,13,15,17,19,21,23,25,27,29,-1,-1,-1,-1,-1,-1,-1,-1,-1,-1,-1,-1,-1,-1,-1,-1],"loss_changes":[7.7727094E0,5.6340346E0,1.5610051E0,5.084217E0,2.4900274E0,1.7645407E0,2.397784E0,1.1530228E0,4.8642917E0,4.022503E0,2.0192237E0,2.0046382E0,6.7804384E-1,2.6222417E0,2.1762664E0,0E0,0E0,0E0,0E0,0E0,0E0,0E0,0E0,0E0,0E0,0E0,0E0,0E0,0E0,0E0,0E0],"parents":[2147483647,0,0,1,1,2,2,3,3,4,4,5,5,6,6,7,7,8,8,9,9,10,10,11,11,12,12,13,13,14,14],"right_children":[2,4,6,8,10,12,14,16,18,20,22,24,26,28,30,-1,-1,-1,-1,-1,-1,-1,-1,-1,-1,-1,-1,-1,-1,-1,-1],"split_conditions":[5.15E1,7.2E1,5.37E1,1.18E1,6.489248E2,6.84E1,9.08E1,4.77E1,9.42E1,9.5833336E1,9.25E1,8.3666664E1,3.6E0,6.100435E2,1E2,-2.3828851E-2,-1.1010958E-2,-9.662727E-4,-1.4647746E-2,1.1341289E-3,1.5717939E-2,-2.757788E-2,4.4070673E-3,1.8778581E-2,-1.1058417E-3,7.780876E-5,2.681272E-2,-2.4900516E-2,1.9890865E-2,1.0137537E-2,-2.7723335E-2],"split_indices":[17,6,4,15,41,6,40,0,7,40,7,40,15,41,6,0,0,0,0,0,0,0,0,0,0,0,0,0,0,0,0],"split_type":[0,0,0,0,0,0,0,0,0,0,0,0,0,0,0,0,0,0,0,0,0,0,0,0,0,0,0,0,0,0,0],"sum_hessian":[7.9768756E2,6.6194403E2,1.3574356E2,4.6774432E2,1.9419969E2,6.2333138E1,7.341043E1,6.4384415E1,4.033599E2,1.7982368E2,1.4376016E1,3.9658108E1,2.267503E1,1.1115711E1,6.229472E1,2.636425E1,3.802017E1,3.423331E2,6.1026802E1,1.2583707E2,5.3986614E1,7.5398283E0,6.8361874E0,1.8632994E1,2.1025116E1,2.1146717E0,2.0560358E1,8.485975E0,2.629736E0,6.0194565E1,2.1001537E0],"tree_param":{"num_deleted":"0","num_feature":"42","num_nodes":"31","size_leaf_vector":"1"}},{"base_weights":[5.627939E-3,-2.4183415E-1,4.5980565E-2,-1.6745155E-1,-4.4103894E-1,3.2433541E-3,2.2996554E-1,3.6711615E-1,-2.1953006E-1,-3.9056282E-2,-5.463778E-1,-2.7902016E-1,2.8173821E-2,2.4819817E-1,-2.0826494E-2,-1.8815912E-2,3.0387826E-2,-1.3401768E-2,2.7251185E-3,-1.3281767E-2,8.403588E-3,-2.6729416E-2,8.446711E-3,-1.7320883E-2,1.5310782E-2,3.0841173E-3,-5.79913E-3,1.3561885E-2,-1.1155283E-3],"categories":[],"categories_nodes":[],"categories_segments":[],"categories_sizes":[],"default_left":[0,0,0,0,0,0,0,0,0,0,0,0,0,0,0,0,0,0,0,0,0,0,0,0,0,0,0,0,0],"id":39,"left_children":[1,3,5,7,9,11,13,15,17,19,21,23,25,27,-1,-1,-1,-1,-1,-1,-1,-1,-1,-1,-1,-1,-1,-1,-1],"loss_changes":[7.9615984E0,1.5677824E0,5.3881884E0,2.4165688E0,1.230257E0,3.9318097E0,1.7694788E0,2.2375965E0,1.7030966E0,4.9698332E-1,9.5187235E-1,3.130585E0,3.2638898E0,1.8474197E0,0E0,0E0,0E0,0E0,0E0,0E0,0E0,0E0,0E0,0E0,0E0,0E0,0E0,0E0,0E0],"parents":[2147483647,0,0,1,1,2,2,3,3,4,4,5,5,6,6,7,7,8,8,9,9,10,10,11,11,12,12,13,13],"right_children":[2,4,6,8,10,12,14,16,18,20,22,24,26,28,-1,-1,-1,-1,-1,-1,-1,-1,-1,-1,-1,-1,-1,-1,-1],"split_conditions":[4.54E1,1.1E1,5.62E1,2.6E1,2.1E1,1.67E1,6.67E1,4.43E1,5.07E1,8.5433334E1,6.99E1,8.8E1,1E0,7.08E1,-2.0826494E-2,-1.8815912E-2,3.0387826E-2,-1.3401768E-2,2.7251185E-3,-1.3281767E-2,8.403588E-3,-2.6729416E-2,8.446711E-3,-1.7320883E-2,1.5310782E-2,3.0841173E-3,-5.79913E-3,1.3561885E-2,-1.1155283E-3],"split_indices":[19,20,17,9,8,15,18,3,1,40,16,6,33,19,0,0,0,0,0,0,0,0,0,0,0,0,0,0,0],"split_type":[0,0,0,0,0,0,0,0,0,0,0,0,0,0,0,0,0,0,0,0,0,0,0,0,0,0,0,0,0],"sum_hessian":[7.947601E2,1.1058808E2,6.84172E2,8.2129745E1,2.8458336E1,5.561963E2,1.27975685E2,6.646509E0,7.548324E1,6.2505584E0,2.2207777E1,4.4145805E1,5.120505E2,1.254443E2,2.531387E0,1.7525729E0,4.893936E0,5.8934574E1,1.6548662E1,2.756141E0,3.4944172E0,2.107027E1,1.1375059E0,3.8087315E1,6.0584917E0,4.0789316E2,1.04157364E2,1.0488775E2,2.0556555E1],"tree_param":{"num_deleted":"0","num_feature":"42","num_nodes":"29","size_leaf_vector":"1"}},{"base_weights":[-1.0010168E-2,-8.186516E-2,1.0567504E-1,5.32594E-2,-1.4299954E-1,-2.9640762E-2,1.7352849E-1,9.983978E-2,-5.10727E-1,-2.1627325E-1,-1.0742785E-2,3.0932281E-2,-5.353419E-1,5.0600015E-2,3.3168626E-1,3.0484058E-2,3.1230026E-3,-3.168926E-2,-4.408947E-3,-3.0431596E-3,-1.2839111E-2,1.2245878E-2,-3.4675521E-3,-6.0421615E-3,7.677061E-3,-2.8390892E-2,-6.300845E-3,1.7428052E-2,-2.5915073E-3,-1.0087189E-2,1.7623236E-2],"categories":[],"categories_nodes":[],"categories_segments":[],"categories_sizes":[],"default_left":[0,0,0,0,0,0,0,0,0,0,0,0,0,0,0,0,0,0,0,0,0,0,0,0,0,0,0,0,0,0,0],"id":40,"left_children":[1,3,5,7,9,11,13,15,17,19,21,23,25,27,29,-1,-1,-1,-1,-1,-1,-1,-1,-1,-1,-1,-1,-1,-1,-1,-1],"loss_changes":[6.5263615E0,4.009094E0,2.768561E0,4.0466022E0,3.2311392E0,3.129146E0,3.879074E0,2.4249597E0,8.5713124E-1,2.1799707E0,2.2805355E0,2.145222E0,3.0667114E-1,4.188882E0,3.020463E0,0E0,0E0,0E0,0E0,0E0,0E0,0E0,0E0,0E0,0E0,0E0,0E0,0E0,0E0,0E0,0E0],"parents":[2147483647,0,0,1,1,2,2,3,3,4,4,5,5,6,6,7,7,8,8,9,9,10,10,11,11,12,12,13,13,14,14],"right_children":[2,4,6,8,10,12,14,16,18,20,22,24,26,28,30,-1,-1,-1,-1,-1,-1,-1,-1,-1,-1,-1,-1,-1,-1,-1,-1],"split_conditions":[6.72E1,3E0,4.00422E2,7.12E1,9E1,9.25E1,8.67E1,4.59E1,5.12E1,2.7524554E2,3.13E1,6.61E1,6.23E1,7.26E1,1.5E1,3.0484058E-2,3.1230026E-3,-3.168926E-2,-4.408947E-3,-3.0431596E-3,-1.2839111E-2,1.2245878E-2,-3.4675521E-3,-6.0421615E-3,7.677061E-3,-2.8390892E-2,-6.300845E-3,1.7428052E-2,-2.5915073E-3,-1.0087189E-2,1.7623236E-2],"split_indices":[6,20,41,19,12,7,7,5,1,41,9,3,1,6,15,0,0,0,0,0,0,0,0,0,0,0,0,0,0,0,0],"split_type":[0,0,0,0,0,0,0,0,0,0,0,0,0,0,0,0,0,0,0,0,0,0,0,0,0,0,0,0,0,0,0],"sum_hessian":[7.8267163E2,4.8301172E2,2.996599E2,1.5050562E2,3.325061E2,1.0030461E2,1.9935529E2,1.3993571E2,1.0569906E1,2.1347374E2,1.1903235E2,9.058135E1,9.723264E0,1.1306172E2,8.6293564E1,5.7287645E0,1.3420694E2,6.619586E0,3.95032E0,6.845716E1,1.4501657E2,2.1898054E1,9.71343E1,4.1518764E1,4.9062588E1,7.2544336E0,2.4688299E0,2.674237E1,8.631935E1,8.079867E0,7.821369E1],"tree_param":{"num_deleted":"0","num_feature":"42","num_nodes":"31","size_leaf_vector":"1"}},{"base_weights":[2.7800563E-3,-4.25225E-2,2.2522411E-1,-1.0856871E-1,8.9638844E-2,4.7634503E-1,1.7096518E-1,-1.3059796E-1,2.5862303E-1,3.365581E-2,3.827812E-1,5.214781E-1,-1.0014635E-2,1.1609126E-1,4.7661006E-1,-1.0177204E-2,-2.3491578E-3,-2.288728E-2,1.5971217E-2,-1.5728593E-2,3.1974658E-3,2.1730952E-2,-4.3271114E-3,7.700478E-3,2.8611163E-2,-5.160223E-3,1.0823839E-2,2.8051026E-2,-1.2096881E-2],"categories":[],"categories_nodes":[],"categories_segments":[],"categories_sizes":[],"default_left":[0,0,0,0,0,0,0,0,0,0,0,0,0,0,0,0,0,0,0,0,0,0,0,0,0,0,0,0,0],"id":41,"left_children":[1,3,5,7,9,11,13,15,17,19,21,23,-1,25,27,-1,-1,-1,-1,-1,-1,-1,-1,-1,-1,-1,-1,-1,-1],"loss_changes":[7.846023E0,5.6584053E0,1.6972184E0,3.5340848E0,3.5329149E0,8.563738E-1,1.7818625E0,3.0442133E0,2.0522778E0,2.6503391E0,1.7128563E0,7.391901E-1,0E0,2.7614613E0,1.993624E0,0E0,0E0,0E0,0E0,0E0,0E0,0E0,0E0,0E0,0E0,0E0,0E0,0E0,0E0],"parents":[2147483647,0,0,1,1,2,2,3,3,4,4,5,5,6,6,7,7,8,8,9,9,10,10,11,11,13,13,14,14],"right_children":[2,4,6,8,10,12,14,16,18,20,22,24,-1,26,28,-1,-1,-1,-1,-1,-1,-1,-1,-1,-1,-1,-1,-1,-1],"split_conditions":[5.15E1,6.61E1,8.3666664E1,8.8E1,9.72E1,5.49E1,6.9635626E2,5.13E1,4.68E1,3.57E1,1E0,1.5852576E2,-1.0014635E-2,6.23E1,1E0,-1.0177204E-2,-2.3491578E-3,-2.288728E-2,1.5971217E-2,-1.5728593E-2,3.1974658E-3,2.1730952E-2,-4.3271114E-3,7.700478E-3,2.8611163E-2,-5.160223E-3,1.0823839E-2,2.8051026E-2,-1.2096881E-2],"split_indices":[17,3,40,6,0,4,41,19,9,17,26,41,0,6,38,0,0,0,0,0,0,0,0,0,0,0,0,0,0],"split_type":[0,0,0,0,0,0,0,0,0,0,0,0,0,0,0,0,0,0,0,0,0,0,0,0,0,0,0,0,0],"sum_hessian":[7.762446E2,6.457109E2,1.3053372E2,4.3069162E2,2.1501929E2,2.1534218E1,1.08999504E2,4.0704462E2,2.364698E1,1.8166373E2,3.3355564E1,2.0514082E1,1.0201372E0,9.3812645E1,1.5186856E1,1.824175E2,2.2462712E2,2.0639424E0,2.1583038E1,1.5263453E1,1.6640028E2,2.7579699E1,5.775864E0,5.7842116E0,1.472987E1,3.289859E1,6.0914055E1,1.2853097E1,2.333759E0],"tree_param":{"num_deleted":"0","num_feature":"42","num_nodes":"29","size_leaf_vector":"1"}},{"base_weights":[-4.955471E-4,-4.6016905E-2,2.2267891E-1,-1.0750001E-1,8.666911E-2,3.255373E-1,1.1340391E-1,-1.3779011E-1,1.773375E-1,-2.128699E-1,1.2959573E-1,2.0481794E-1,4.6839482E-1,1.5540445E-1,-3.059881E-2,-5.1314626E-3,-2.7070211E-2,1.3727726E-2,-1.3709714E-2,-1.916349E-2,8.8319025E-4,2.5950468E-3,1.3804959E-2,2.0006813E-2,-2.35924E-3,2.3540752E-2,2.034357E-3,-1.0681437E-2,9.611513E-3],"categories":[],"categories_nodes":[],"categories_segments":[],"categories_sizes":[],"default_left":[0,0,0,0,0,0,0,0,0,0,0,0,0,0,0,0,0,0,0,0,0,0,0,0,0,0,0,0,0],"id":42,"left_children":[1,3,5,7,9,11,13,15,17,19,21,23,25,27,-1,-1,-1,-1,-1,-1,-1,-1,-1,-1,-1,-1,-1,-1,-1],"loss_changes":[8.0183735E0,5.3590884E0,1.4586439E0,3.8989124E0,2.710709E0,1.061698E0,2.3486357E0,4.3917875E0,2.7977982E0,1.3250501E0,2.3095074E0,2.4408107E0,6.7392683E-1,1.5303324E0,0E0,0E0,0E0,0E0,0E0,0E0,0E0,0E0,0E0,0E0,0E0,0E0,0E0,0E0,0E0],"parents":[2147483647,0,0,1,1,2,2,3,3,4,4,5,5,6,6,7,7,8,8,9,9,10,10,11,11,12,12,13,13],"right_children":[2,4,6,8,10,12,14,16,18,20,22,24,26,28,-1,-1,-1,-1,-1,-1,-1,-1,-1,-1,-1,-1,-1,-1,-1],"split_conditions":[5.15E1,7.09E1,5.49E1,7.48E1,5E1,6.12E1,6.28E1,6.8E1,5.23E1,8.67E1,8.83E1,8.3666664E1,9.38E1,8.963333E1,-3.059881E-2,-5.1314626E-3,-2.7070211E-2,1.3727726E-2,-1.3709714E-2,-1.916349E-2,8.8319025E-4,2.5950468E-3,1.3804959E-2,2.0006813E-2,-2.35924E-3,2.3540752E-2,2.034357E-3,-1.0681437E-2,9.611513E-3],"split_indices":[17,6,4,3,17,19,9,6,8,7,7,40,8,40,0,0,0,0,0,0,0,0,0,0,0,0,0,0,0],"split_type":[0,0,0,0,0,0,0,0,0,0,0,0,0,0,0,0,0,0,0,0,0,0,0,0,0,0,0,0,0],"sum_hessian":[7.8686145E2,6.5434576E2,1.3251569E2,4.4730466E2,2.0704109E2,6.703866E1,6.547703E1,4.0486963E2,4.2435028E1,2.5356241E1,1.8168484E2,3.7917538E1,2.912112E1,6.3101456E1,2.3755748E0,3.8656223E2,1.8307419E1,3.389406E1,8.54097E0,1.2712536E1,1.2643706E1,1.303563E2,5.132855E1,1.917273E1,1.8744806E1,2.5535131E1,3.5859895E0,7.6649094E0,5.5436546E1],"tree_param":{"num_deleted":"0","num_feature":"42","num_nodes":"29","size_leaf_vector":"1"}},{"base_weights":[2.1968824E-3,-2.6422095E-1,4.029196E-2,2.2773E-2,-2.99139E-1,-1.7150033E-1,7.76154E-2,-5.398684E-1,-2.409812E-1,-3.455259E-1,7.21372E-3,3.8034264E-2,2.1739654E-1,-2.5153786E-2,-5.7033E-3,-1.4518806E-2,-3.373452E-3,-1.6994749E-3,-2.139318E-2,1.5927799E-2,-7.712381E-3,-2.3994783E-4,8.674075E-3,8.995443E-4,1.2121313E-2],"categories":[],"categories_nodes":[],"categories_segments":[],"categories_sizes":[],"default_left":[0,0,0,0,0,0,0,0,0,0,0,0,0,0,0,0,0,0,0,0,0,0,0,0,0],"id":43,"left_children":[1,3,5,-1,7,9,11,13,15,17,19,21,23,-1,-1,-1,-1,-1,-1,-1,-1,-1,-1,-1,-1],"loss_changes":[7.8866634E0,2.7964258E0,5.389657E0,0E0,1.1564465E0,3.1822352E0,3.1922638E0,5.1333427E-2,1.0240269E0,2.0495973E0,3.2687387E0,3.037457E0,1.3011584E0,0E0,0E0,0E0,0E0,0E0,0E0,0E0,0E0,0E0,0E0,0E0,0E0],"parents":[2147483647,0,0,1,1,2,2,4,4,5,5,6,6,7,7,8,8,9,9,10,10,11,11,12,12],"right_children":[2,4,6,-1,8,10,12,14,16,18,20,22,24,-1,-1,-1,-1,-1,-1,-1,-1,-1,-1,-1,-1],"split_conditions":[2.22E1,4.84E1,4.79E1,2.2773E-2,5.6E1,6.41E1,5.15E1,7.38E1,1.21E1,3.43E1,7.36E1,8E1,2.02E1,-2.5153786E-2,-5.7033E-3,-1.4518806E-2,-3.373452E-3,-1.6994749E-3,-2.139318E-2,1.5927799E-2,-7.712381E-3,-2.3994783E-4,8.674075E-3,8.995443E-4,1.2121313E-2],"split_indices":[17,14,3,0,14,15,17,3,17,8,15,6,0,0,0,0,0,0,0,0,0,0,0,0,0],"split_type":[0,0,0,0,0,0,0,0,0,0,0,0,0,0,0,0,0,0,0,0,0,0,0,0,0],"sum_hessian":[7.74613E2,9.601429E1,6.785987E2,3.4615393E0,9.255275E1,1.01023834E2,5.775748E2,1.6074993E1,7.647775E1,5.0615818E1,5.0408016E1,4.5130698E2,1.2626787E2,1.4959575E1,1.1154187E0,5.0503986E1,2.597377E1,1.548097E1,3.513485E1,1.6736769E1,3.367125E1,3.5341022E2,9.789676E1,2.6658813E1,9.9609055E1],"tree_param":{"num_deleted":"0","num_feature":"42","num_nodes":"25","size_leaf_vector":"1"}},{"base_weights":[8.359573E-3,-2.455593E-1,4.2741705E-2,2.1786232E-2,-2.7412716E-1,5.5479992E-2,-5.211626E-1,-3.5335702E-1,-1.5851676E-1,1.6743438E-2,2.1367778E-1,-1.434629E-1,-5.9082186E-1,-1.6843932E-2,4.4759316E-3,8.580076E-3,-1.17491465E-2,-2.237805E-3,5.146092E-3,1.0401326E-2,-2.2236086E-2,-1.6698578E-2,4.94657E-3,-4.892113E-3,-2.811827E-2],"categories":[],"categories_nodes":[],"categories_segments":[],"categories_sizes":[],"default_left":[0,0,0,0,0,0,0,0,0,0,0,0,0,0,0,0,0,0,0,0,0,0,0,0,0],"id":44,"left_children":[1,3,5,-1,7,9,11,13,15,17,19,21,23,-1,-1,-1,-1,-1,-1,-1,-1,-1,-1,-1,-1],"loss_changes":[6.8290977E0,2.1040359E0,4.9817224E0,0E0,7.6215315E-1,4.1294785E0,3.0159855E-1,5.451493E-1,1.456463E0,3.5313501E0,1.7758446E0,2.780191E-1,1.2449217E-1,0E0,0E0,0E0,0E0,0E0,0E0,0E0,0E0,0E0,0E0,0E0,0E0],"parents":[2147483647,0,0,1,1,2,2,4,4,5,5,6,6,7,7,8,8,9,9,10,10,11,11,12,12],"right_children":[2,4,6,-1,8,10,12,14,16,18,20,22,24,-1,-1,-1,-1,-1,-1,-1,-1,-1,-1,-1,-1],"split_conditions":[2.22E1,4.59E1,1.2E1,2.1786232E-2,5.49E1,5.15E1,2.1E1,6.55E1,3.34E1,6.53E1,6E1,1.3E1,3E1,-1.6843932E-2,4.4759316E-3,8.580076E-3,-1.17491465E-2,-2.237805E-3,5.146092E-3,1.0401326E-2,-2.2236086E-2,-1.6698578E-2,4.94657E-3,-4.892113E-3,-2.811827E-2],"split_indices":[17,14,20,0,4,17,8,9,16,3,18,20,12,0,0,0,0,0,0,0,0,0,0,0,0],"split_type":[0,0,0,0,0,0,0,0,0,0,0,0,0,0,0,0,0,0,0,0,0,0,0,0,0],"sum_hessian":[7.7958923E2,9.209308E1,6.8749615E2,2.748664E0,8.934441E1,6.7336707E2,1.4129052E1,5.1549137E1,3.7795277E1,5.419833E2,1.3138383E2,2.7717469E0,1.1357306E1,4.946825E1,2.0808852E0,8.347682E0,2.9447598E1,3.2277286E2,2.1921039E2,1.2900912E2,2.3747115E0,1.1665041E0,1.6052427E0,1.0806493E0,1.0276656E1],"tree_param":{"num_deleted":"0","num_feature":"42","num_nodes":"25","size_leaf_vector":"1"}},{"base_weights":[9.596766E-3,-3.5662327E-2,2.2645746E-1,-2.5022164E-1,5.33363E-4,2.684125E-1,3.4769408E-3,-4.423212E-1,-1.13415755E-1,8.120614E-2,-8.373628E-2,2.9739767E-1,-3.4128293E-1,4.4081622E-1,-2.8540298E-1,1.0287085E-3,-2.2143537E-2,-2.2375703E-2,-1.5406526E-3,1.7790882E-2,2.5466764E-3,8.2410155E-3,-5.278371E-3,1.1447132E-2,2.6774328E-2,3.3210737E-3,-2.6435744E-2,2.5145488E-2,-1.7356143E-3,-2.7950183E-2,7.3364447E-3],"categories":[],"categories_nodes":[],"categories_segments":[],"categories_sizes":[],"default_left":[0,0,0,0,0,0,0,0,0,0,0,0,0,0,0,0,0,0,0,0,0,0,0,0,0,0,0,0,0,0,0],"id":45,"left_children":[1,3,5,7,9,11,13,15,17,19,21,23,25,27,29,-1,-1,-1,-1,-1,-1,-1,-1,-1,-1,-1,-1,-1,-1,-1,-1],"loss_changes":[7.6369824E0,5.001296E0,1.2556877E0,2.3827524E0,3.7622364E0,2.1196928E0,2.9923716E0,8.988676E-1,1.678597E0,2.1593194E0,2.4500482E0,1.2081394E0,6.334033E-1,5.584873E-1,2.2701554E0,0E0,0E0,0E0,0E0,0E0,0E0,0E0,0E0,0E0,0E0,0E0,0E0,0E0,0E0,0E0,0E0],"parents":[2147483647,0,0,1,1,2,2,3,3,4,4,5,5,6,6,7,7,8,8,9,9,10,10,11,11,12,12,13,13,14,14],"right_children":[2,4,6,8,10,12,14,16,18,20,22,24,26,28,30,-1,-1,-1,-1,-1,-1,-1,-1,-1,-1,-1,-1,-1,-1,-1,-1],"split_conditions":[5.15E1,4.26E1,6.93E1,4.76E1,4E0,6.58E1,8.5E1,4E1,4.27E1,3.92E1,1.51E1,7.182184E2,2E3,5.98E1,6.65E1,1.0287085E-3,-2.2143537E-2,-2.2375703E-2,-1.5406526E-3,1.7790882E-2,2.5466764E-3,8.2410155E-3,-5.278371E-3,1.1447132E-2,2.6774328E-2,3.3210737E-3,-2.6435744E-2,2.5145488E-2,-1.7356143E-3,-2.7950183E-2,7.3364447E-3],"split_indices":[17,3,16,15,20,11,17,4,19,6,1,41,22,14,19,0,0,0,0,0,0,0,0,0,0,0,0,0,0,0,0],"split_type":[0,0,0,0,0,0,0,0,0,0,0,0,0,0,0,0,0,0,0,0,0,0,0,0,0,0,0,0,0,0,0],"sum_hessian":[7.7591205E2,6.4276825E2,1.3314386E2,9.1757324E1,5.510109E2,1.1185349E2,2.129036E1,3.7051147E1,5.4706177E1,2.815356E2,2.6947528E2,1.0736403E2,4.4894686E0,8.217951E0,1.3072409E1,3.642849E0,3.34083E1,8.271928E0,4.6434246E1,1.9142288E1,2.6239334E2,2.95054E1,2.3996988E2,9.574905E1,1.1614981E1,1.984174E0,2.5052943E0,6.4354763E0,1.782474E0,7.211541E0,5.860867E0],"tree_param":{"num_deleted":"0","num_feature":"42","num_nodes":"31","size_leaf_vector":"1"}},{"base_weights":[4.713378E-3,1.2914155E-1,-6.915024E-2,-8.51794E-2,1.6713473E-1,-2.3892207E-1,-2.5081525E-2,-7.335004E-1,1.070886E-1,-1.12500936E-1,1.9719867E-1,-3.0768856E-1,3.7091322E-2,-1.8851236E-1,3.412895E-2,-3.5551827E-2,-1.1166537E-2,1.577938E-2,-4.693702E-3,-2.2001633E-2,3.913192E-3,1.498234E-2,5.3174105E-3,1.7339466E-3,-1.6026126E-2,-1.2221625E-2,1.2934608E-2,-1.6675644E-2,-4.079418E-3,1.1129456E-2,-7.983497E-4],"categories":[],"categories_nodes":[],"categories_segments":[],"categories_sizes":[],"default_left":[0,0,0,0,0,0,0,0,0,0,0,0,0,0,0,0,0,0,0,0,0,0,0,0,0,0,0,0,0,0,0],"id":46,"left_children":[1,3,5,7,9,11,13,15,17,19,21,23,25,27,29,-1,-1,-1,-1,-1,-1,-1,-1,-1,-1,-1,-1,-1,-1,-1,-1],"loss_changes":[7.0423007E0,2.3410892E0,3.590471E0,5.5504217E0,2.068142E0,1.8919492E0,3.7149968E0,4.368639E-2,1.8360084E0,1.8783171E0,2.309784E0,1.347434E0,1.7016559E0,1.7781582E0,3.126347E0,0E0,0E0,0E0,0E0,0E0,0E0,0E0,0E0,0E0,0E0,0E0,0E0,0E0,0E0,0E0,0E0],"parents":[2147483647,0,0,1,1,2,2,3,3,4,4,5,5,6,6,7,7,8,8,9,9,10,10,11,11,12,12,13,13,14,14],"right_children":[2,4,6,8,10,12,14,16,18,20,22,24,26,28,30,-1,-1,-1,-1,-1,-1,-1,-1,-1,-1,-1,-1,-1,-1,-1,-1],"split_conditions":[3E0,2.45E1,2.8E1,8.9E1,5E1,5.02E1,6E1,1E0,5.14E1,9E0,8.5E1,4E0,9.4E0,5.48E1,4.88E1,-3.5551827E-2,-1.1166537E-2,1.577938E-2,-4.693702E-3,-2.2001633E-2,3.913192E-3,1.498234E-2,5.3174105E-3,1.7339466E-3,-1.6026126E-2,-1.2221625E-2,1.2934608E-2,-1.6675644E-2,-4.079418E-3,1.1129456E-2,-7.983497E-4],"split_indices":[20,11,15,40,17,4,12,23,15,21,12,20,17,14,14,0,0,0,0,0,0,0,0,0,0,0,0,0,0,0,0],"split_type":[0,0,0,0,0,0,0,0,0,0,0,0,0,0,0,0,0,0,0,0,0,0,0,0,0,0,0,0,0,0,0],"sum_hessian":[7.638748E2,2.8420853E2,4.796663E2,4.2571373E1,2.4163716E2,9.775719E1,3.819091E2,8.964707E0,3.3606667E1,2.3137396E1,2.1849977E2,7.814923E1,1.9607956E1,1.00870125E2,2.8103897E2,7.3546395E0,1.6100676E0,1.5247813E1,1.8358852E1,7.4105864E0,1.57268095E1,7.898557E1,1.3951419E2,9.623363E0,6.852586E1,8.735252E0,1.0872704E1,3.409507E1,6.677506E1,5.4111668E1,2.2692729E2],"tree_param":{"num_deleted":"0","num_feature":"42","num_nodes":"31","size_leaf_vector":"1"}},{"base_weights":[-6.8252073E-3,-2.30943E-1,2.4024112E-2,-4.1168207E-1,-1.0121432E-1,-1.4692703E-1,5.8614813E-2,3.701041E-2,-4.7934234E-1,2.9787868E-1,-1.981382E-1,-1.6808447E-1,2.0317243E-2,2.813286E-1,3.079809E-2,-1.6287351E-2,1.4692514E-2,-2.4267828E-2,-3.5177448E-3,-1.2694986E-2,2.3142258E-2,-1.5848614E-2,2.1908227E-3,-1.7456414E-2,-5.605914E-3,1.8834911E-2,-4.488407E-3,1.5634656E-4,1.3810166E-2],"categories":[],"categories_nodes":[],"categories_segments":[],"categories_sizes":[],"default_left":[0,0,0,0,0,0,0,0,0,0,0,0,0,0,0,0,0,0,0,0,0,0,0,0,0,0,0,0,0],"id":47,"left_children":[1,3,5,7,9,11,13,15,17,19,21,23,-1,25,27,-1,-1,-1,-1,-1,-1,-1,-1,-1,-1,-1,-1,-1,-1],"loss_changes":[5.204891E0,2.0856128E0,3.924788E0,1.164824E0,2.1834211E0,1.5058863E0,3.4057817E0,8.40509E-1,7.385888E-1,1.5736605E0,1.7188596E0,9.826946E-1,0E0,3.2440186E0,3.7069268E0,0E0,0E0,0E0,0E0,0E0,0E0,0E0,0E0,0E0,0E0,0E0,0E0,0E0,0E0],"parents":[2147483647,0,0,1,1,2,2,3,3,4,4,5,5,6,6,7,7,8,8,9,9,10,10,11,11,13,13,14,14],"right_children":[2,4,6,8,10,12,14,16,18,20,22,24,-1,26,28,-1,-1,-1,-1,-1,-1,-1,-1,-1,-1,-1,-1,-1,-1],"split_conditions":[4.17E1,4.72E1,5E1,4.14E1,1E1,8.69E1,2.24E1,4.78E1,5.49E1,3.53E1,5.72E1,3.3E0,2.0317243E-2,4.32E1,8.08E1,-1.6287351E-2,1.4692514E-2,-2.4267828E-2,-3.5177448E-3,-1.2694986E-2,2.3142258E-2,-1.5848614E-2,2.1908227E-3,-1.7456414E-2,-5.605914E-3,1.8834911E-2,-4.488407E-3,1.5634656E-4,1.3810166E-2],"split_indices":[3,15,17,4,21,16,1,16,4,0,8,17,0,2,3,0,0,0,0,0,0,0,0,0,0,0,0,0,0],"split_type":[0,0,0,0,0,0,0,0,0,0,0,0,0,0,0,0,0,0,0,0,0,0,0,0,0,0,0,0,0],"sum_hessian":[7.5065466E2,8.988247E1,6.607722E2,3.646752E1,5.3414944E1,1.1054571E2,5.502265E2,4.8497496E0,3.1617771E1,9.95135E0,4.3463593E1,1.0760426E2,2.9414492E0,5.987807E1,4.9034842E2,1.9130344E0,2.9367154E0,2.7148165E1,4.469608E0,2.6049635E0,7.346387E0,2.6445507E1,1.7018087E1,1.6208492E1,9.139577E1,4.3937862E1,1.5940209E1,4.4729672E2,4.3051674E1],"tree_param":{"num_deleted":"0","num_feature":"42","num_nodes":"29","size_leaf_vector":"1"}},{"base_weights":[5.5595447E-4,-3.9742976E-2,1.9425741E-1,-9.745947E-2,6.740878E-2,2.3409447E-1,-9.9856965E-2,-4.2987946E-2,-2.1209691E-1,-3.238409E-1,9.96618E-2,1.9057217E-1,5.3633857E-1,-4.2234933E-1,4.4746554E-1,-1.1371572E-2,-1.9093016E-4,-1.2204702E-2,7.88433E-4,2.6881706E-3,-1.8765805E-2,1.2458729E-3,1.2928471E-2,1.1370038E-2,1.2973382E-3,2.7854277E-2,-2.8988603E-3,4.492868E-3,-2.238007E-2,-6.57917E-3,2.7322313E-2],"categories":[],"categories_nodes":[],"categories_segments":[],"categories_sizes":[],"default_left":[0,0,0,0,0,0,0,0,0,0,0,0,0,0,0,0,0,0,0,0,0,0,0,0,0,0,0,0,0,0,0],"id":48,"left_children":[1,3,5,7,9,11,13,15,17,19,21,23,25,27,29,-1,-1,-1,-1,-1,-1,-1,-1,-1,-1,-1,-1,-1,-1,-1,-1],"loss_changes":[5.893168E0,3.8728662E0,1.5514064E0,2.528458E0,2.8084846E0,1.3883271E0,3.1128225E0,2.2508888E0,1.7797084E0,6.3742614E-1,2.7413986E0,1.0183866E0,7.328658E-1,4.866259E-1,7.3650765E-1,0E0,0E0,0E0,0E0,0E0,0E0,0E0,0E0,0E0,0E0,0E0,0E0,0E0,0E0,0E0,0E0],"parents":[2147483647,0,0,1,1,2,2,3,3,4,4,5,5,6,6,7,7,8,8,9,9,10,10,11,11,12,12,13,13,14,14],"right_children":[2,4,6,8,10,12,14,16,18,20,22,24,26,28,30,-1,-1,-1,-1,-1,-1,-1,-1,-1,-1,-1,-1,-1,-1,-1,-1],"split_conditions":[5.15E1,6.53E1,5.12E1,7E0,2.93E1,6.9635626E2,5.18E1,2E0,5.48E1,6E-1,9.5166664E1,5.41E1,6.81E1,5.58E1,6.86E1,-1.1371572E-2,-1.9093016E-4,-1.2204702E-2,7.88433E-4,2.6881706E-3,-1.8765805E-2,1.2458729E-3,1.2928471E-2,1.1370038E-2,1.2973382E-3,2.7854277E-2,-2.8988603E-3,4.492868E-3,-2.238007E-2,-6.57917E-3,2.7322313E-2],"split_indices":[17,3,5,20,17,41,1,20,3,0,40,8,16,14,4,0,0,0,0,0,0,0,0,0,0,0,0,0,0,0,0],"split_type":[0,0,0,0,0,0,0,0,0,0,0,0,0,0,0,0,0,0,0,0,0,0,0,0,0,0,0,0,0,0,0],"sum_hessian":[7.5257056E2,6.2375433E2,1.288162E2,4.054632E2,2.1829117E2,1.1366538E2,1.5150813E1,2.7597836E2,1.2948483E2,1.579835E1,2.0249281E2,1.0106844E2,1.2596942E1,9.7059145E0,5.4448986E0,4.2003155E1,2.339752E2,1.0279997E2,2.6684864E1,3.1717985E0,1.2626552E1,1.4734857E2,5.5144257E1,7.254338E1,2.8525063E1,1.1041564E1,1.5553782E0,1.1687938E0,8.537121E0,1.1756904E0,4.269208E0],"tree_param":{"num_deleted":"0","num_feature":"42","num_nodes":"31","size_leaf_vector":"1"}},{"base_weights":[2.9021476E-3,9.1211155E-2,-8.587999E-2,-9.332473E-3,1.6232948E-1,-1.1450197E-1,2.03857E-1,8.250708E-2,-2.301508E-1,2.7800733E-2,2.535079E-1,-1.9841263E-1,-1.7865222E-2,4.0665686E-1,-1.7761359E-1,1.5088098E-4,1.9585855E-2,-2.3662232E-2,-1.674631E-3,1.1027655E-2,-9.068032E-3,1.2923125E-2,-6.0945423E-3,3.8020902E-3,-1.197202E-2,2.306552E-3,-1.2097014E-2,-5.7800133E-3,2.1632385E-2,-3.145823E-2,6.25791E-3],"categories":[],"categories_nodes":[],"categories_segments":[],"categories_sizes":[],"default_left":[0,0,0,0,0,0,0,0,0,0,0,0,0,0,0,0,0,0,0,0,0,0,0,0,0,0,0,0,0,0,0],"id":49,"left_children":[1,3,5,7,9,11,13,15,17,19,21,23,25,27,29,-1,-1,-1,-1,-1,-1,-1,-1,-1,-1,-1,-1,-1,-1,-1,-1],"loss_changes":[5.8917313E0,2.695555E0,3.1357706E0,3.2109292E0,2.6988344E0,2.767583E0,2.7265468E0,3.1228986E0,2.628882E0,4.5684085E0,1.7676353E0,3.525373E0,2.7952235E0,9.715059E-1,2.2104776E0,