{"learner":{"attributes":{"scikit_learn":"{\"_estimator_type\": \"ranker\"}"},"feature_names":[],"feature_types":[],"gradient_booster":{"model":{"cats":{"enc":[],"feature_segments":[],"sorted_idx":[]},"gbtree_model_param":{"num_parallel_tree":"1","num_trees":"220"},"iteration_indptr":[0,1,2,3,4,5,6,7,8,9,10,11,12,13,14,15,16,17,18,19,20,21,22,23,24,25,26,27,28,29,30,31,32,33,34,35,36,37,38,39,40,41,42,43,44,45,46,47,48,49,50,51,52,53,54,55,56,57,58,59,60,61,62,63,64,65,66,67,68,69,70,71,72,73,74,75,76,77,78,79,80,81,82,83,84,85,86,87,88,89,90,91,92,93,94,95,96,97,98,99,100,101,102,103,104,105,106,107,108,109,110,111,112,113,114,115,116,117,118,119,120,121,122,123,124,125,126,127,128,129,130,131,132,133,134,135,136,137,138,139,140,141,142,143,144,145,146,147,148,149,150,151,152,153,154,155,156,157,158,159,160,161,162,163,164,165,166,167,168,169,170,171,172,173,174,175,176,177,178,179,180,181,182,183,184,185,186,187,188,189,190,191,192,193,194,195,196,197,198,199,200,201,202,203,204,205,206,207,208,209,210,211,212,213,214,215,216,217,218,219,220],"tree_info":[0,0,0,0,0,0,0,0,0,0,0,0,0,0,0,0,0,0,0,0,0,0,0,0,0,0,0,0,0,0,0,0,0,0,0,0,0,0,0,0,0,0,0,0,0,0,0,0,0,0,0,0,0,0,0,0,0,0,0,0,0,0,0,0,0,0,0,0,0,0,0,0,0,0,0,0,0,0,0,0,0,0,0,0,0,0,0,0,0,0,0,0,0,0,0,0,0,0,0,0,0,0,0,0,0,0,0,0,0,0,0,0,0,0,0,0,0,0,0,0,0,0,0,0,0,0,0,0,0,0,0,0,0,0,0,0,0,0,0,0,0,0,0,0,0,0,0,0,0,0,0,0,0,0,0,0,0,0,0,0,0,0,0,0,0,0,0,0,0,0,0,0,0,0,0,0,0,0,0,0,0,0,0,0,0,0,0,0,0,0,0,0,0,0,0,0,0,0,0,0,0,0,0,0,0,0,0,0,0,0,0,0,0,0,0,0,0,0,0,0],"trees":[{"base_weights":[1.691546E-3,3.9828008E-1,-2.4513775E-1,2.7507752E-1,5.44091E-1,-4.0305215E-1,-9.561285E-3,2.030878E-1,6.016133E-1,-1.323264E-2,5.582323E-1,-7.7293444E-1,-3.3151224E-1,1.880599E-1,-3.0596396E-1,4.4908756E-4,1.5077503E-2,2.8549263E-3,3.0065916E-2,1.6751107E-2,2.7609866E-2,-3.7261218E-2,-2.201252E-3,-1.6079623E-2,2.2062039E-2,1.1707034E-2,-2.0312578E-3,-3.2713447E-2,-7.1508177E-3],"categories":[],"categories_nodes":[],"categories_segments":[],"categories_sizes":[],"default_left":[0,0,0,0,0,0,0,0,0,0,0,0,0,0,0,0,0,0,0,0,0,0,0,0,0,0,0,0,0],"id":0,"left_children":[1,3,5,7,9,11,13,15,17,-1,19,21,23,25,27,-1,-1,-1,-1,-1,-1,-1,-1,-1,-1,-1,-1,-1,-1],"loss_changes":[8.041192E1,5.481411E0,1.8831373E1,3.9255886E0,1.893013E0,7.7130356E0,1.2043533E1,3.6593423E0,1.0474615E0,0E0,1.1780281E0,1.8748665E0,5.642311E0,2.0887156E0,4.952517E0,0E0,0E0,0E0,0E0,0E0,0E0,0E0,0E0,0E0,0E0,0E0,0E0,0E0,0E0],"parents":[2147483647,0,0,1,1,2,2,3,3,4,4,5,5,6,6,7,7,8,8,10,10,11,11,12,12,13,13,14,14],"right_children":[2,4,6,8,10,12,14,16,18,-1,20,22,24,26,28,-1,-1,-1,-1,-1,-1,-1,-1,-1,-1,-1,-1,-1,-1],"split_conditions":[4E0,7E1,5.35E1,5.15E1,5E1,2.8E1,7E0,6.96E1,5.5E1,-1.323264E-2,8E0,9.83E1,5.15E1,9.12E1,4.28E1,4.4908756E-4,1.5077503E-2,2.8549263E-3,3.0065916E-2,1.6751107E-2,2.7609866E-2,-3.7261218E-2,-2.201252E-3,-1.6079623E-2,2.2062039E-2,1.1707034E-2,-2.0312578E-3,-3.2713447E-2,-7.1508177E-3],"split_indices":[26,7,21,23,9,7,26,21,19,0,27,0,23,9,25,0,0,0,0,0,0,0,0,0,0,0,0,0,0],"split_type":[0,0,0,0,0,0,0,0,0,0,0,0,0,0,0,0,0,0,0,0,0,0,0,0,0,0,0,0,0],"sum_hessian":[8.190578E2,3.139262E2,5.051316E2,1.7203204E2,1.4189418E2,3.0190317E2,2.0322841E2,1.4255089E2,2.9481155E1,1.9602131E0,1.3993396E2,4.7021782E1,2.548814E2,1.2219543E2,8.103298E1,5.8393948E1,8.415694E1,3.5009532E0,2.5980204E1,3.4206665E1,1.057273E2,4.353657E1,3.4852123E0,2.4777676E2,7.1046314E0,9.323265E1,2.8962772E1,1.9752493E1,6.128049E1],"tree_param":{"num_deleted":"0","num_feature":"56","num_nodes":"29","size_leaf_vector":"1"}},{"base_weights":[-5.6858826E-3,-2.7989516E-1,2.3457892E-1,-5.039218E-1,-1.5863904E-1,-1.0924089E-1,2.7094203E-1,-6.5854543E-1,-2.1040757E-1,-7.751048E-1,-1.1966142E-1,-2.1211791E-1,4.3902546E-1,1.9977176E-1,4.2477348E-1,-3.4231316E-2,-2.0438204E-2,-3.8226567E-2,-4.21326E-3,-3.6531515E-2,1.4154925E-2,-1.8347E-2,-1.8610364E-3,-2.8324297E-2,-6.948941E-4,2.6487932E-2,-1.9653168E-2,-1.4567854E-3,1.2854601E-2,-1.0356016E-2,2.222429E-2],"categories":[],"categories_nodes":[],"categories_segments":[],"categories_sizes":[],"default_left":[0,0,0,0,0,0,0,0,0,0,0,0,0,0,0,0,0,0,0,0,0,0,0,0,0,0,0,0,0,0,0],"id":1,"left_children":[1,3,5,7,9,11,13,15,17,19,21,23,25,27,29,-1,-1,-1,-1,-1,-1,-1,-1,-1,-1,-1,-1,-1,-1,-1,-1],"loss_changes":[1.547856E2,2.9708687E1,1.5691277E1,1.7295662E1,1.7036041E1,6.915535E0,1.2300308E1,4.834404E0,9.94375E0,1.995079E0,1.5150992E1,8.390905E0,2.856516E0,1.549791E1,1.6303314E1,0E0,0E0,0E0,0E0,0E0,0E0,0E0,0E0,0E0,0E0,0E0,0E0,0E0,0E0,0E0,0E0],"parents":[2147483647,0,0,1,1,2,2,3,3,4,4,5,5,6,6,7,7,8,8,9,9,10,10,11,11,12,12,13,13,14,14],"right_children":[2,4,6,8,10,12,14,16,18,20,22,24,26,28,30,-1,-1,-1,-1,-1,-1,-1,-1,-1,-1,-1,-1,-1,-1,-1,-1],"split_conditions":[5.61E1,4.84E1,3.56E1,6.4E1,5.2E0,1E2,7.9E1,6.69E1,4.22E1,7.23E1,1.43E1,8.17E1,9.58E1,9E0,3.85E1,-3.4231316E-2,-2.0438204E-2,-3.8226567E-2,-4.21326E-3,-3.6531515E-2,1.4154925E-2,-1.8347E-2,-1.8610364E-3,-2.8324297E-2,-6.948941E-4,2.6487932E-2,-1.9653168E-2,-1.4567854E-3,1.2854601E-2,-1.0356016E-2,2.222429E-2],"split_indices":[25,3,21,21,23,23,7,0,25,22,21,9,9,27,1,0,0,0,0,0,0,0,0,0,0,0,0,0,0,0,0],"split_type":[0,0,0,0,0,0,0,0,0,0,0,0,0,0,0,0,0,0,0,0,0,0,0,0,0,0,0,0,0,0,0],"sum_hessian":[2.347011E3,1.0959865E3,1.2510247E3,3.8355762E2,7.124288E2,1.19425896E2,1.1315988E3,2.5023903E2,1.3331857E2,4.1018696E1,6.714101E2,1.01176765E2,1.8249134E1,7.755488E2,3.5604993E2,1.6466493E2,8.55741E1,1.9434574E1,1.13884E2,3.9977966E1,1.0407295E0,1.4242894E2,5.2898114E2,3.1563744E1,6.961302E1,1.5922714E1,2.3264203E0,2.0964328E2,5.659055E2,3.371469E1,3.2233524E2],"tree_param":{"num_deleted":"0","num_feature":"56","num_nodes":"31","size_leaf_vector":"1"}},{"base_weights":[-3.4197832E-3,2.1145827E-1,-2.4528366E-1,7.103853E-2,3.3525708E-1,-3.7317863E-1,-6.439293E-2,3.3734464E-3,4.2800987E-1,4.0036112E-1,6.5237455E-2,-5.614817E-1,-2.864342E-1,4.358296E-3,-4.7831616E-1,6.0447534E-3,-8.924366E-3,2.8597418E-2,-2.9396962E-3,1.0891728E-2,2.2882083E-2,1.2753915E-2,-1.0665749E-2,-2.6601745E-2,7.757536E-5,-2.7985917E-3,-1.7004184E-2,-6.0782116E-3,6.1618793E-3,-3.297039E-2,-5.6046643E-3],"categories":[],"categories_nodes":[],"categories_segments":[],"categories_sizes":[],"default_left":[0,0,0,0,0,0,0,0,0,0,0,0,0,0,0,0,0,0,0,0,0,0,0,0,0,0,0,0,0,0,0],"id":2,"left_children":[1,3,5,7,9,11,13,15,17,19,21,23,25,27,29,-1,-1,-1,-1,-1,-1,-1,-1,-1,-1,-1,-1,-1,-1,-1,-1],"loss_changes":[1.1219192E2,1.9843681E1,2.3466736E1,1.2972647E1,1.0642967E1,9.520866E0,1.2014287E1,1.1990466E1,8.810229E0,8.223885E0,7.954302E0,3.1142273E0,8.37001E0,6.7350197E0,5.3014994E0,0E0,0E0,0E0,0E0,0E0,0E0,0E0,0E0,0E0,0E0,0E0,0E0,0E0,0E0,0E0,0E0],"parents":[2147483647,0,0,1,1,2,2,3,3,4,4,5,5,6,6,7,7,8,8,9,9,10,10,11,11,12,12,13,13,14,14],"right_children":[2,4,6,8,10,12,14,16,18,20,22,24,26,28,30,-1,-1,-1,-1,-1,-1,-1,-1,-1,-1,-1,-1,-1,-1,-1,-1],"split_conditions":[4E0,6.36E1,5.91E1,6.87E1,6.11E1,4.92E1,9E0,1.6E3,5.28E1,4.4831927E2,2E0,6.77E1,5E1,5E1,4.73E1,6.0447534E-3,-8.924366E-3,2.8597418E-2,-2.9396962E-3,1.0891728E-2,2.2882083E-2,1.2753915E-2,-1.0665749E-2,-2.6601745E-2,7.757536E-5,-2.7985917E-3,-1.7004184E-2,-6.0782116E-3,6.1618793E-3,-3.297039E-2,-5.6046643E-3],"split_indices":[26,3,21,25,17,3,26,28,10,55,26,22,19,19,25,0,0,0,0,0,0,0,0,0,0,0,0,0,0,0,0],"split_type":[0,0,0,0,0,0,0,0,0,0,0,0,0,0,0,0,0,0,0,0,0,0,0,0,0,0,0,0,0,0,0],"sum_hessian":[2.1563333E3,1.1419482E3,1.0143851E3,5.3594135E2,6.0600684E2,5.934929E2,4.2089218E2,4.5155835E2,8.438302E1,4.8781198E2,1.18194855E2,1.8510442E2,4.083885E2,3.6195935E2,5.8932842E1,2.7403473E2,1.7752362E2,5.9156902E1,2.5226112E1,1.9953712E2,2.8827487E2,6.868743E1,4.950742E1,1.75785E2,9.31941E0,1.1887353E2,2.8951495E2,1.7640605E2,1.855533E2,3.353553E1,2.5397312E1],"tree_param":{"num_deleted":"0","num_feature":"56","num_nodes":"31","size_leaf_vector":"1"}},{"base_weights":[5.833202E-4,1.8668354E-1,-2.1317074E-1,-3.9407632E-1,2.1403483E-1,-3.6563078E-1,-3.8488146E-2,-5.033057E-1,5.264737E-1,1.8145826E-1,5.337501E-1,-5.6108546E-1,-2.7887243E-1,7.295132E-2,-2.872872E-1,-9.534435E-3,-3.1369563E-2,6.3402327E-3,3.0272303E-2,8.939674E-3,-1.9600578E-2,1.2312772E-2,3.6126107E-2,-3.4223683E-2,-1.9550813E-2,-1.6207203E-2,-5.2226586E-3,5.0242622E-3,-2.602176E-2,-1.9901743E-2,3.7069747E-3],"categories":[],"categories_nodes":[],"categories_segments":[],"categories_sizes":[],"default_left":[0,0,0,0,0,0,0,0,0,0,0,0,0,0,0,0,0,0,0,0,0,0,0,0,0,0,0,0,0,0,0],"id":3,"left_children":[1,3,5,7,9,11,13,15,17,19,21,23,25,27,29,-1,-1,-1,-1,-1,-1,-1,-1,-1,-1,-1,-1,-1,-1,-1,-1],"loss_changes":[8.037844E1,1.7259129E1,2.5028614E1,5.2455225E0,1.0636036E1,8.325027E0,1.221386E1,2.3315525E0,2.1244454E-1,1.0066956E1,6.374523E0,3.470951E0,4.582901E0,7.7531643E0,7.848486E0,0E0,0E0,0E0,0E0,0E0,0E0,0E0,0E0,0E0,0E0,0E0,0E0,0E0,0E0,0E0,0E0],"parents":[2147483647,0,0,1,1,2,2,3,3,4,4,5,5,6,6,7,7,8,8,9,9,10,10,11,11,12,12,13,13,14,14],"right_children":[2,4,6,8,10,12,14,16,18,20,22,24,26,28,30,-1,-1,-1,-1,-1,-1,-1,-1,-1,-1,-1,-1,-1,-1,-1,-1],"split_conditions":[4E0,4.45E1,5.35E1,8.9E1,8.3E1,4.92E1,7E0,5.51E1,5.13E1,7.5E1,7.96E1,6.5E0,8.973333E1,8.8E1,5.6E1,-9.534435E-3,-3.1369563E-2,6.3402327E-3,3.0272303E-2,8.939674E-3,-1.9600578E-2,1.2312772E-2,3.6126107E-2,-3.4223683E-2,-1.9550813E-2,-1.6207203E-2,-5.2226586E-3,5.0242622E-3,-2.602176E-2,-1.9901743E-2,3.7069747E-3],"split_indices":[26,3,21,4,3,3,26,20,0,24,2,21,54,7,3,0,0,0,0,0,0,0,0,0,0,0,0,0,0,0,0],"split_type":[0,0,0,0,0,0,0,0,0,0,0,0,0,0,0,0,0,0,0,0,0,0,0,0,0,0,0,0,0,0,0],"sum_hessian":[2.0181901E3,1.0789651E3,9.39225E2,4.780543E1,1.0311597E3,5.0081247E2,4.384125E2,4.3220894E1,4.5845385E0,9.375151E2,9.36446E1,1.5194362E2,3.4886887E2,3.0337576E2,1.3503674E2,1.8265402E1,2.495549E1,1.9085786E0,2.6759596E0,9.128799E2,2.4635159E1,4.8842056E1,4.4802547E1,5.6672558E1,9.5271065E1,2.317225E2,1.1714635E2,2.872971E2,1.6078653E1,9.4981964E1,4.0054775E1],"tree_param":{"num_deleted":"0","num_feature":"56","num_nodes":"31","size_leaf_vector":"1"}},{"base_weights":[3.0646354E-3,1.7225185E-1,-1.9983634E-1,7.582274E-2,2.996204E-1,-3.4509578E-1,-3.8019612E-2,3.0797556E-2,4.951982E-1,3.208344E-1,-6.158173E-1,-5.459393E-1,-2.582369E-1,6.439398E-2,-2.9723573E-1,-6.3784287E-4,1.793082E-2,-1.5603317E-2,2.6439445E-2,8.221239E-3,1.9473344E-2,-3.404748E-2,6.200884E-3,-1.416414E-2,-2.8386103E-2,-1.419538E-2,9.452685E-4,1.5470115E-2,-3.117527E-4,-1.6160773E-2,2.2024184E-2],"categories":[],"categories_nodes":[],"categories_segments":[],"categories_sizes":[],"default_left":[0,0,0,0,0,0,0,0,0,0,0,0,0,0,0,0,0,0,0,0,0,0,0,0,0,0,0,0,0,0,0],"id":4,"left_children":[1,3,5,7,9,11,13,15,17,19,21,23,25,27,29,-1,-1,-1,-1,-1,-1,-1,-1,-1,-1,-1,-1,-1,-1,-1,-1],"loss_changes":[6.650574E1,1.2947855E1,2.0690487E1,1.1364914E1,9.069042E0,7.926319E0,1.1121211E1,9.029328E0,4.7825394E0,6.788517E0,1.2616258E0,2.4892082E0,5.2202206E0,5.9936905E0,5.985729E0,0E0,0E0,0E0,0E0,0E0,0E0,0E0,0E0,0E0,0E0,0E0,0E0,0E0,0E0,0E0,0E0],"parents":[2147483647,0,0,1,1,2,2,3,3,4,4,5,5,6,6,7,7,8,8,9,9,10,10,11,11,12,12,13,13,14,14],"right_children":[2,4,6,8,10,12,14,16,18,20,22,24,26,28,30,-1,-1,-1,-1,-1,-1,-1,-1,-1,-1,-1,-1,-1,-1,-1,-1],"split_conditions":[4E0,6.89E1,5.35E1,1E2,7.5E1,4.92E1,7E0,6.93E1,4.99E1,9.4E1,9.83E1,3.11E1,1E0,3.35E1,6.08E1,-6.3784287E-4,1.793082E-2,-1.5603317E-2,2.6439445E-2,8.221239E-3,1.9473344E-2,-3.404748E-2,6.200884E-3,-1.416414E-2,-2.8386103E-2,-1.419538E-2,9.452685E-4,1.5470115E-2,-3.117527E-4,-1.6160773E-2,2.2024184E-2],"split_indices":[26,3,21,23,24,3,26,22,22,54,9,10,29,11,25,0,0,0,0,0,0,0,0,0,0,0,0,0,0,0,0],"split_type":[0,0,0,0,0,0,0,0,0,0,0,0,0,0,0,0,0,0,0,0,0,0,0,0,0,0,0,0,0,0,0],"sum_hessian":[1.9349436E3,1.0552303E3,8.797133E2,6.0164606E2,4.5358426E2,4.6285715E2,4.1685617E2,5.444777E2,5.716835E1,4.440729E2,9.511338E0,1.3782422E2,3.2503293E2,2.994489E2,1.1740726E2,4.86165E2,5.8312702E1,5.323798E0,5.1844555E1,2.0015533E2,2.4391757E2,8.010091E0,1.5012476E0,3.852542E1,9.92988E1,2.6963083E2,5.5402096E1,5.9965218E1,2.394837E2,1.09448326E2,7.9589367E0],"tree_param":{"num_deleted":"0","num_feature":"56","num_nodes":"31","size_leaf_vector":"1"}},{"base_weights":[-3.090708E-3,8.374211E-2,-3.5752243E-1,-1.0089581E-2,2.1764675E-1,-4.6531007E-1,-4.528809E-2,-4.4776633E-2,4.8738304E-1,7.202749E-2,3.004798E-1,-4.771554E-1,3.3876958E-1,-3.540292E-1,1.0976563E-1,-1.6263828E-2,8.662469E-5,-4.5644687E-4,2.7118763E-2,1.0179031E-3,3.997524E-2,1.4621989E-2,-1.5769767E-2,4.890601E-3,-2.2165725E-2,2.4025682E-2,-4.6618413E-3,-2.352678E-2,4.2237355E-3,-9.683674E-3,1.2010041E-2],"categories":[],"categories_nodes":[],"categories_segments":[],"categories_sizes":[],"default_left":[0,0,0,0,0,0,0,0,0,0,0,0,0,0,0,0,0,0,0,0,0,0,0,0,0,0,0,0,0,0,0],"id":5,"left_children":[1,3,5,7,9,11,13,15,17,19,21,23,25,27,29,-1,-1,-1,-1,-1,-1,-1,-1,-1,-1,-1,-1,-1,-1,-1,-1],"loss_changes":[5.734804E1,1.8808393E1,1.2315258E1,1.5232054E1,7.413168E0,2.788948E0,4.6148934E0,1.219862E1,3.3067942E0,9.058503E0,6.3879356E0,2.4936104E0,4.683777E-1,2.4921708E0,3.3591864E0,0E0,0E0,0E0,0E0,0E0,0E0,0E0,0E0,0E0,0E0,0E0,0E0,0E0,0E0,0E0,0E0],"parents":[2147483647,0,0,1,1,2,2,3,3,4,4,5,5,6,6,7,7,8,8,9,9,10,10,11,11,12,12,13,13,14,14],"right_children":[2,4,6,8,10,12,14,16,18,20,22,24,26,28,30,-1,-1,-1,-1,-1,-1,-1,-1,-1,-1,-1,-1,-1,-1,-1,-1],"split_conditions":[7E0,6.6E1,5.44E1,7.65E1,6.88E1,5.15E1,2.79E1,3.12E1,4.94E1,1.6E3,9.14E1,1.5E1,5.01E1,8.11E1,1.2E1,-1.6263828E-2,8.662469E-5,-4.5644687E-4,2.7118763E-2,1.0179031E-3,3.997524E-2,1.4621989E-2,-1.5769767E-2,4.890601E-3,-2.2165725E-2,2.4025682E-2,-4.6618413E-3,-2.352678E-2,4.2237355E-3,-9.683674E-3,1.2010041E-2],"split_indices":[26,3,3,23,21,23,21,21,22,51,5,11,22,2,27,0,0,0,0,0,0,0,0,0,0,0,0,0,0,0,0],"split_type":[0,0,0,0,0,0,0,0,0,0,0,0,0,0,0,0,0,0,0,0,0,0,0,0,0,0,0,0,0,0,0],"sum_hessian":[1.8610155E3,1.4955377E3,3.654778E2,8.800001E2,6.1553754E2,2.7125015E2,9.422767E1,8.236611E2,5.633906E1,2.2399724E2,3.915403E2,2.6779306E2,3.457102E0,3.098693E1,6.3240734E1,1.04828255E2,7.188328E2,1.0802459E1,4.5536602E1,2.1237636E2,1.1620874E1,3.7794296E2,1.3597342E1,6.6801424E0,2.611129E2,2.2266006E0,1.2305013E0,2.235984E1,8.627091E0,2.0467377E1,4.2773357E1],"tree_param":{"num_deleted":"0","num_feature":"56","num_nodes":"31","size_leaf_vector":"1"}},{"base_weights":[-4.8853676E-3,1.510071E-1,-1.8840784E-1,4.964125E-2,2.8719333E-1,-3.414302E-1,-2.9780683E-3,-7.955663E-3,3.559023E-1,9.695127E-2,3.9497262E-1,-4.9613407E-1,-2.5630277E-1,-1.4442563E-1,1.3488528E-1,5.7142327E-4,-2.5579207E-2,-9.106674E-4,2.218215E-2,8.211999E-3,-1.5116797E-2,-5.745657E-3,1.8865433E-2,-2.4152325E-2,6.2034098E-3,-1.4798605E-2,-2.5734166E-3,-1.333699E-2,1.340531E-3,2.1417484E-2,2.3543765E-3],"categories":[],"categories_nodes":[],"categories_segments":[],"categories_sizes":[],"default_left":[0,0,0,0,0,0,0,0,0,0,0,0,0,0,0,0,0,0,0,0,0,0,0,0,0,0,0,0,0,0,0],"id":6,"left_children":[1,3,5,7,9,11,13,15,17,19,21,23,25,27,29,-1,-1,-1,-1,-1,-1,-1,-1,-1,-1,-1,-1,-1,-1,-1,-1],"loss_changes":[5.1358173E1,1.3382366E1,2.3393414E1,9.844845E0,8.441448E0,5.7961464E0,7.3161373E0,5.458311E0,4.565441E0,5.6754565E0,3.4095688E0,4.1810837E0,4.222721E0,4.9124675E0,5.320753E0,0E0,0E0,0E0,0E0,0E0,0E0,0E0,0E0,0E0,0E0,0E0,0E0,0E0,0E0,0E0,0E0],"parents":[2147483647,0,0,1,1,2,2,3,3,4,4,5,5,6,6,7,7,8,8,9,9,10,10,11,11,12,12,13,13,14,14],"right_children":[2,4,6,8,10,12,14,16,18,20,22,24,26,28,30,-1,-1,-1,-1,-1,-1,-1,-1,-1,-1,-1,-1,-1,-1,-1,-1],"split_conditions":[4E0,7.2E1,5.91E1,5.15E1,9.4E1,1.39E1,5E1,1E0,4.99E1,2E3,8.1E0,8.5E1,1E0,5.35E1,3.35E1,5.7142327E-4,-2.5579207E-2,-9.106674E-4,2.218215E-2,8.211999E-3,-1.5116797E-2,-5.745657E-3,1.8865433E-2,-2.4152325E-2,6.2034098E-3,-1.4798605E-2,-2.5734166E-3,-1.333699E-2,1.340531E-3,2.1417484E-2,2.3543765E-3],"split_indices":[26,7,21,23,54,21,19,49,22,28,1,7,29,10,11,0,0,0,0,0,0,0,0,0,0,0,0,0,0,0,0],"split_type":[0,0,0,0,0,0,0,0,0,0,0,0,0,0,0,0,0,0,0,0,0,0,0,0,0,0,0,0,0,0,0],"sum_hessian":[1.7927339E3,9.6945044E2,8.232834E2,5.567149E2,4.127355E2,4.5050406E2,3.7277933E2,4.6957352E2,8.714141E1,1.5008998E2,2.6264554E2,1.578486E2,2.9265546E2,1.8396967E2,1.8880968E2,4.5401538E2,1.5558139E1,2.3542755E1,6.359865E1,1.25905106E2,2.4184874E1,1.14231415E1,2.5122238E2,1.4852501E2,9.323599E0,2.139229E2,7.8732544E1,9.7814026E1,8.615564E1,3.56853E1,1.5312437E2],"tree_param":{"num_deleted":"0","num_feature":"56","num_nodes":"31","size_leaf_vector":"1"}},{"base_weights":[-7.74394E-3,1.5342978E-1,-2.015427E-1,2.0960221E-2,2.6055756E-1,-3.5401952E-1,-4.8041448E-2,1.4276864E-1,-1.7215051E-1,2.3083991E-1,5.810465E-1,-4.3720576E-1,-1.5564793E-1,8.683727E-3,-4.1340935E-1,9.791071E-3,-7.2593945E-3,2.5027167E-2,-1.0667741E-2,1.2718777E-2,8.622273E-4,-1.3477114E-2,2.7980715E-2,-1.0384161E-2,-2.3538483E-2,-4.6329442E-3,-2.6034305E-2,1.0853035E-2,-2.4462002E-3,-2.9813347E-2,-7.902585E-3],"categories":[],"categories_nodes":[],"categories_segments":[],"categories_sizes":[],"default_left":[0,0,0,0,0,0,0,0,0,0,0,0,0,0,0,0,0,0,0,0,0,0,0,0,0,0,0,0,0,0,0],"id":7,"left_children":[1,3,5,7,9,11,13,15,17,19,21,23,25,27,29,-1,-1,-1,-1,-1,-1,-1,-1,-1,-1,-1,-1,-1,-1,-1,-1],"loss_changes":[5.5031574E1,1.364418E1,1.8702389E1,1.0176955E1,4.903282E0,6.5375137E0,8.294885E0,6.07494E0,8.072212E0,5.3508854E0,1.8139925E0,4.853447E0,2.6109009E0,5.1081915E0,3.0463486E0,0E0,0E0,0E0,0E0,0E0,0E0,0E0,0E0,0E0,0E0,0E0,0E0,0E0,0E0,0E0,0E0],"parents":[2147483647,0,0,1,1,2,2,3,3,4,4,5,5,6,6,7,7,8,8,9,9,10,10,11,11,12,12,13,13,14,14],"right_children":[2,4,6,8,10,12,14,16,18,20,22,24,26,28,30,-1,-1,-1,-1,-1,-1,-1,-1,-1,-1,-1,-1,-1,-1,-1,-1],"split_conditions":[4E0,6.36E1,5.35E1,1.6E3,6.4E1,5.46E1,9E0,5.31E1,1.4939174E2,6.11E1,5.47E1,3.74E1,5E1,3.35E1,4.55E1,9.791071E-3,-7.2593945E-3,2.5027167E-2,-1.0667741E-2,1.2718777E-2,8.622273E-4,-1.3477114E-2,2.7980715E-2,-1.0384161E-2,-2.3538483E-2,-4.6329442E-3,-2.6034305E-2,1.0853035E-2,-2.4462002E-3,-2.9813347E-2,-7.902585E-3],"split_indices":[26,3,21,28,11,3,26,1,55,17,25,10,21,11,25,0,0,0,0,0,0,0,0,0,0,0,0,0,0,0,0],"split_type":[0,0,0,0,0,0,0,0,0,0,0,0,0,0,0,0,0,0,0,0,0,0,0,0,0,0,0,0,0,0,0],"sum_hessian":[1.7594531E3,9.607175E2,7.9873553E2,4.3019363E2,5.3052386E2,3.999185E2,3.9881708E2,2.6398972E2,1.6620393E2,4.873941E2,4.3129772E1,2.807447E2,1.19173805E2,3.46234E2,5.258306E1,2.1214099E2,5.1848732E1,1.2857547E1,1.5334637E2,3.912499E2,9.614418E1,1.5705447E0,4.1559227E1,8.3771576E1,1.9697311E2,1.07296486E2,1.1877319E1,7.313469E1,2.730993E2,2.463391E1,2.7949154E1],"tree_param":{"num_deleted":"0","num_feature":"56","num_nodes":"31","size_leaf_vector":"1"}},{"base_weights":[2.9705428E-3,8.204196E-2,-3.3936426E-1,-4.529898E-2,1.7307407E-1,-3.803334E-1,3.949813E-1,-2.7044746E-1,3.0080343E-3,1.2928982E-1,3.6520818E-1,-5.12966E-1,-2.602653E-1,7.334098E-1,-1.0221943E-1,-1.46353645E-2,1.9618293E-2,1.00238845E-2,-1.5612413E-3,4.212407E-3,1.869392E-2,5.0163576E-3,2.0377489E-2,-2.8401285E-2,-1.8363709E-2,-1.3051304E-2,2.174624E-2,1.0644999E-2,3.521636E-2,2.6158325E-2,-1.9449847E-2],"categories":[],"categories_nodes":[],"categories_segments":[],"categories_sizes":[],"default_left":[0,0,0,0,0,0,0,0,0,0,0,0,0,0,0,0,0,0,0,0,0,0,0,0,0,0,0,0,0,0,0],"id":8,"left_children":[1,3,5,7,9,11,13,15,17,19,21,23,25,27,29,-1,-1,-1,-1,-1,-1,-1,-1,-1,-1,-1,-1,-1,-1,-1,-1],"loss_changes":[4.702165E1,1.6367357E1,9.986584E0,6.409273E0,6.8678474E0,4.765953E0,3.087201E0,4.1986427E0,4.038239E0,6.816269E0,3.3212795E0,1.4973183E0,3.8150349E0,4.0390015E-2,2.1662445E0,0E0,0E0,0E0,0E0,0E0,0E0,0E0,0E0,0E0,0E0,0E0,0E0,0E0,0E0,0E0,0E0],"parents":[2147483647,0,0,1,1,2,2,3,3,4,4,5,5,6,6,7,7,8,8,9,9,10,10,11,11,12,12,13,13,14,14],"right_children":[2,4,6,8,10,12,14,16,18,20,22,24,26,28,30,-1,-1,-1,-1,-1,-1,-1,-1,-1,-1,-1,-1,-1,-1,-1,-1],"split_conditions":[7E0,5.82E1,7.98E1,3.46E1,8.5E1,5E1,2.56E1,8.09E1,3.3E1,5.36E1,6.32E1,4.27E1,1E2,1.1E1,3E0,-1.46353645E-2,1.9618293E-2,1.00238845E-2,-1.5612413E-3,4.212407E-3,1.869392E-2,5.0163576E-3,2.0377489E-2,-2.8401285E-2,-1.8363709E-2,-1.3051304E-2,2.174624E-2,1.0644999E-2,3.521636E-2,2.6158325E-2,-1.9449847E-2],"split_indices":[26,25,7,21,7,3,17,3,11,23,21,25,54,27,1,0,0,0,0,0,0,0,0,0,0,0,0,0,0,0,0],"split_type":[0,0,0,0,0,0,0,0,0,0,0,0,0,0,0,0,0,0,0,0,0,0,0,0,0,0,0,0,0,0,0],"sum_hessian":[1.7346755E3,1.4099274E3,3.2474817E2,5.880009E2,8.2192645E2,3.0813577E2,1.6612406E1,1.028979E2,4.85103E2,6.710195E2,1.5090698E2,1.4454175E2,1.6359402E2,9.5452E0,7.0672045E0,9.6093285E1,6.804619E0,7.017916E1,4.1492383E2,5.980363E2,7.2983154E1,3.943693E1,1.11470055E2,6.5133736E1,7.940802E1,1.5800099E2,5.5930314E0,1.487595E0,8.057606E0,2.0035393E0,5.0636654E0],"tree_param":{"num_deleted":"0","num_feature":"56","num_nodes":"31","size_leaf_vector":"1"}},{"base_weights":[3.282595E-3,7.690326E-2,-3.2407707E-1,1.7894147E-1,-1.8256044E-2,-3.6180377E-1,3.9042544E-1,1.266595E-1,3.649795E-1,-1.9428088E-1,7.739465E-2,-1.0570622E-1,-4.2434448E-1,3.297566E-2,-1.4456011E-1,2.528745E-3,1.3570343E-2,1.9973647E-2,-7.967205E-3,-1.901061E-2,-5.704226E-3,4.5731926E-4,1.1100882E-2,-8.549742E-4,-2.4690688E-2,-2.1816531E-2,-7.849975E-3,-1.6844196E-2,1.9142402E-2],"categories":[],"categories_nodes":[],"categories_segments":[],"categories_sizes":[],"default_left":[0,0,0,0,0,0,0,0,0,0,0,0,0,0,0,0,0,0,0,0,0,0,0,0,0,0,0,0,0],"id":9,"left_children":[1,3,5,7,9,11,13,15,17,19,21,23,25,-1,27,-1,-1,-1,-1,-1,-1,-1,-1,-1,-1,-1,-1,-1,-1],"loss_changes":[4.0777557E1,1.3416086E1,8.543423E0,6.428791E0,1.207033E1,4.6822014E0,3.0865366E0,6.4162064E0,6.3199654E0,3.8238611E0,5.2856455E0,2.278043E0,3.4837074E0,0E0,1.1479598E0,0E0,0E0,0E0,0E0,0E0,0E0,0E0,0E0,0E0,0E0,0E0,0E0,0E0,0E0],"parents":[2147483647,0,0,1,1,2,2,3,3,4,4,5,5,6,6,7,7,8,8,9,9,10,10,11,11,12,12,14,14],"right_children":[2,4,6,8,10,12,14,16,18,20,22,24,26,-1,28,-1,-1,-1,-1,-1,-1,-1,-1,-1,-1,-1,-1,-1,-1],"split_conditions":[7E0,3E0,8.2E1,5.12E1,5.38E1,2.47E1,2.56E1,7.84E1,7.86E1,5E1,5.1493945E2,5.59E1,7.06E1,3.297566E-2,8.62E1,2.528745E-3,1.3570343E-2,1.9973647E-2,-7.967205E-3,-1.901061E-2,-5.704226E-3,4.5731926E-4,1.1100882E-2,-8.549742E-4,-2.4690688E-2,-2.1816531E-2,-7.849975E-3,-1.6844196E-2,1.9142402E-2],"split_indices":[26,26,7,22,21,10,17,7,5,1,55,4,21,0,21,0,0,0,0,0,0,0,0,0,0,0,0,0,0],"split_type":[0,0,0,0,0,0,0,0,0,0,0,0,0,0,0,0,0,0,0,0,0,0,0,0,0,0,0,0,0],"sum_hessian":[1.6895433E3,1.3800898E3,3.0945346E2,6.65464E2,7.1462585E2,2.9449603E2,1.4957433E1,5.210509E2,1.4441312E2,2.5116765E2,4.634582E2,5.8435833E1,2.3606021E2,8.850082E0,6.10735E0,3.725454E2,1.485055E2,1.262568E2,1.815632E1,5.591184E1,1.952558E2,3.3263034E2,1.3082785E2,4.991674E1,8.519091E0,1.8916162E2,4.6898586E1,4.6462574E0,1.4610924E0],"tree_param":{"num_deleted":"0","num_feature":"56","num_nodes":"29","size_leaf_vector":"1"}},{"base_weights":[-1.04633635E-2,-1.498014E-1,1.3560927E-1,-2.3532927E-2,-2.9088977E-1,6.72708E-4,1.9572179E-1,-3.73874E-1,-5.0335154E-3,-3.7145087E-1,-8.3340965E-2,-2.3213688E-1,1.2839961E-1,1.5667582E-1,5.0440025E-1,-3.033865E-2,6.2816213E-3,-2.8456755E-2,2.919951E-4,-1.9729326E-2,-4.7078407E-3,-1.5602994E-2,9.070668E-4,8.1433635E-3,-1.661267E-2,1.5739063E-2,-6.1202544E-4,-2.8736949E-2,7.7809705E-3,-2.1173926E-2,2.858405E-2],"categories":[],"categories_nodes":[],"categories_segments":[],"categories_sizes":[],"default_left":[0,0,0,0,0,0,0,0,0,0,0,0,0,0,0,0,0,0,0,0,0,0,0,0,0,0,0,0,0,0,0],"id":10,"left_children":[1,3,5,7,9,11,13,15,17,19,21,23,25,27,29,-1,-1,-1,-1,-1,-1,-1,-1,-1,-1,-1,-1,-1,-1,-1,-1],"loss_changes":[3.3390568E1,1.4948904E1,6.496704E0,2.8777158E0,6.591053E0,7.4118676E0,6.5835934E0,3.5471897E0,3.064653E0,5.0424614E0,3.072266E0,5.078972E0,5.064746E0,6.5056944E0,8.224173E0,0E0,0E0,0E0,0E0,0E0,0E0,0E0,0E0,0E0,0E0,0E0,0E0,0E0,0E0,0E0,0E0],"parents":[2147483647,0,0,1,1,2,2,3,3,4,4,5,5,6,6,7,7,8,8,9,9,10,10,11,11,12,12,13,13,14,14],"right_children":[2,4,6,8,10,12,14,16,18,20,22,24,26,28,30,-1,-1,-1,-1,-1,-1,-1,-1,-1,-1,-1,-1,-1,-1,-1,-1],"split_conditions":[5.79E1,6E0,6.84E1,4E1,5.41E1,2.94E1,8.3E1,8.21E1,3.02E1,7.17E1,5E1,7.12E1,2E0,4.95E1,7.42E1,-3.033865E-2,6.2816213E-3,-2.8456755E-2,2.919951E-4,-1.9729326E-2,-4.7078407E-3,-1.5602994E-2,9.070668E-4,8.1433635E-3,-1.661267E-2,1.5739063E-2,-6.1202544E-4,-2.8736949E-2,7.7809705E-3,-2.1173926E-2,2.858405E-2],"split_indices":[25,26,21,18,3,2,3,21,5,21,22,9,26,13,21,0,0,0,0,0,0,0,0,0,0,0,0,0,0,0,0],"split_type":[0,0,0,0,0,0,0,0,0,0,0,0,0,0,0,0,0,0,0,0,0,0,0,0,0,0,0,0,0,0,0],"sum_hessian":[1.6381364E3,8.383794E2,7.9975696E2,4.4316473E2,3.9521466E2,2.4685245E2,5.5290454E2,2.1070997E1,4.2209372E2,2.840223E2,1.11192345E2,8.710465E1,1.5974779E2,4.9242484E2,6.04797E1,1.3057966E1,8.013032E0,6.4465785E0,4.1564716E2,2.2641684E2,5.760546E1,3.057128E1,8.062106E1,2.1601175E1,6.550348E1,6.1743336E1,9.8004456E1,8.930895E0,4.8349393E2,6.785654E0,5.3694046E1],"tree_param":{"num_deleted":"0","num_feature":"56","num_nodes":"31","size_leaf_vector":"1"}},{"base_weights":[-3.7051921E-3,-1.7300513E-1,1.3211514E-1,-7.632399E-2,-3.1813407E-1,6.265846E-2,2.2944233E-1,-5.016498E-1,-4.329112E-2,-3.585395E-1,4.4597653E-1,2.6659814E-3,2.3714983E-1,8.640349E-3,3.0382657E-1,-7.988344E-3,-2.8896004E-2,-5.856117E-3,2.3137748E-3,-5.70984E-3,-1.8776534E-2,-1.7955901E-2,2.8066963E-2,-9.974235E-3,3.0848663E-3,1.428403E-2,-6.072556E-3,8.74482E-3,-1.7754681E-2,1.439941E-2,-2.4270797E-2],"categories":[],"categories_nodes":[],"categories_segments":[],"categories_sizes":[],"default_left":[0,0,0,0,0,0,0,0,0,0,0,0,0,0,0,0,0,0,0,0,0,0,0,0,0,0,0,0,0,0,0],"id":11,"left_children":[1,3,5,7,9,11,13,15,17,19,21,23,25,27,29,-1,-1,-1,-1,-1,-1,-1,-1,-1,-1,-1,-1,-1,-1,-1,-1],"loss_changes":[3.6784996E1,9.962381E0,5.9833126E0,6.0007133E0,8.970398E0,5.438964E0,6.060831E0,1.2657313E0,3.2927294E0,3.6187553E0,2.5236077E0,5.751268E0,4.022122E0,7.1499963E0,3.9697552E0,0E0,0E0,0E0,0E0,0E0,0E0,0E0,0E0,0E0,0E0,0E0,0E0,0E0,0E0,0E0,0E0],"parents":[2147483647,0,0,1,1,2,2,3,3,4,4,5,5,6,6,7,7,8,8,9,9,10,10,11,11,12,12,13,13,14,14],"right_children":[2,4,6,8,10,12,14,16,18,20,22,24,26,28,30,-1,-1,-1,-1,-1,-1,-1,-1,-1,-1,-1,-1,-1,-1,-1,-1],"split_conditions":[5.63E1,7E0,7.2E1,6.753333E1,7.84E1,5.07E1,4.89E1,3.751079E1,5.91E1,2.47E1,5E1,9E0,6.32E1,3E0,6.67E1,-7.988344E-3,-2.8896004E-2,-5.856117E-3,2.3137748E-3,-5.70984E-3,-1.8776534E-2,-1.7955901E-2,2.8066963E-2,-9.974235E-3,3.0848663E-3,1.428403E-2,-6.072556E-3,8.74482E-3,-1.7754681E-2,1.439941E-2,-2.4270797E-2],"split_indices":[25,26,7,54,7,22,1,55,21,10,22,27,2,26,24,0,0,0,0,0,0,0,0,0,0,0,0,0,0,0,0],"split_type":[0,0,0,0,0,0,0,0,0,0,0,0,0,0,0,0,0,0,0,0,0,0,0,0,0,0,0,0,0,0,0],"sum_hessian":[1.5973461E3,7.1089166E2,8.864544E2,4.2776004E2,2.831316E2,5.1844403E2,3.680104E2,2.960084E1,3.981592E2,2.6951675E2,1.3614857E1,3.8670724E2,1.317368E2,9.307279E1,2.749376E2,9.771618E0,1.9829224E1,2.074681E2,1.9069112E2,5.5266827E1,2.1424991E2,2.1063967E0,1.150846E1,8.715271E1,2.9955453E2,1.0850508E2,2.3231731E1,6.4150055E1,2.8922743E1,2.7049786E2,4.4397507E0],"tree_param":{"num_deleted":"0","num_feature":"56","num_nodes":"31","size_leaf_vector":"1"}},{"base_weights":[-9.482453E-3,-1.412809E-1,1.442096E-1,-3.5636428E-1,-9.756805E-2,-3.067958E-1,1.7724909E-1,-5.761794E-1,-1.7712975E-1,-4.3392044E-1,-7.42683E-2,-4.967539E-1,4.8013806E-1,1.8896484E-1,-3.2981366E-1,-2.670214E-2,-1.7360881E-3,1.2092111E-2,-1.2965693E-2,6.238053E-3,-2.2627065E-2,-1.3666409E-2,-2.0234196E-3,-3.0557936E-2,7.601022E-3,3.1482834E-2,-1.8437529E-2,5.8761965E-3,1.3452289E-2,-2.5520014E-2,1.9823795E-2],"categories":[],"categories_nodes":[],"categories_segments":[],"categories_sizes":[],"default_left":[0,0,0,0,0,0,0,0,0,0,0,0,0,0,0,0,0,0,0,0,0,0,0,0,0,0,0,0,0,0,0],"id":12,"left_children":[1,3,5,7,9,11,13,15,17,19,21,23,25,27,29,-1,-1,-1,-1,-1,-1,-1,-1,-1,-1,-1,-1,-1,-1,-1,-1],"loss_changes":[3.2193005E1,8.001928E0,1.0998653E1,5.553055E0,5.5465484E0,7.8384852E0,4.1406384E0,5.6594276E-1,4.105553E0,1.8952904E0,4.4743385E0,5.148266E0,2.3818734E0,4.253187E0,3.2051296E0,0E0,0E0,0E0,0E0,0E0,0E0,0E0,0E0,0E0,0E0,0E0,0E0,0E0,0E0,0E0,0E0],"parents":[2147483647,0,0,1,1,2,2,3,3,4,4,5,5,6,6,7,7,8,8,9,9,10,10,11,11,12,12,13,13,14,14],"right_children":[2,4,6,8,10,12,14,16,18,20,22,24,26,28,30,-1,-1,-1,-1,-1,-1,-1,-1,-1,-1,-1,-1,-1,-1,-1,-1],"split_conditions":[5.87E1,4.26E1,4.77E1,4.87E1,6.753333E1,6.71E1,7.5E1,1E0,2.37E1,3.751079E1,1.43E1,8.2E1,9.84E1,5.1493945E2,5.62E1,-2.670214E-2,-1.7360881E-3,1.2092111E-2,-1.2965693E-2,6.238053E-3,-2.2627065E-2,-1.3666409E-2,-2.0234196E-3,-3.0557936E-2,7.601022E-3,3.1482834E-2,-1.8437529E-2,5.8761965E-3,1.3452289E-2,-2.5520014E-2,1.9823795E-2],"split_indices":[25,25,3,3,54,25,24,35,10,55,21,2,10,55,15,0,0,0,0,0,0,0,0,0,0,0,0,0,0,0,0],"split_type":[0,0,0,0,0,0,0,0,0,0,0,0,0,0,0,0,0,0,0,0,0,0,0,0,0,0,0,0,0,0,0],"sum_hessian":[1.5868707E3,8.5433417E2,7.325365E2,1.428545E2,7.114797E2,4.9322124E1,6.8321436E2,6.2969936E1,7.988458E1,4.4722534E1,6.6675714E2,4.008782E1,9.234307E0,6.685209E2,1.4693476E1,6.089691E1,2.073025E0,1.5583772E1,6.4300804E1,4.6735897E0,4.0048946E1,7.424249E1,5.9251465E2,3.1450148E1,8.63767E0,7.613112E0,1.6211956E0,4.3840714E2,2.3011375E2,1.1475213E1,3.2182627E0],"tree_param":{"num_deleted":"0","num_feature":"56","num_nodes":"31","size_leaf_vector":"1"}},{"base_weights":[-1.8294554E-3,-1.1047713E-1,1.6001235E-1,-3.531299E-2,-3.10686E-1,2.2278377E-1,-2.7752819E-2,-8.851091E-2,2.1077453E-1,-3.8824844E-1,5.8523305E-2,2.7875963E-1,-1.9782031E-2,2.3644076E-1,-1.1519646E-1,-9.358228E-3,-5.334329E-4,-1.1512287E-2,1.3548327E-2,-2.7823491E-2,-1.5205348E-2,-2.528974E-3,3.075729E-2,1.778317E-2,7.910449E-3,5.1316726E-3,-2.0346636E-2,-8.094801E-3,1.890164E-2,5.710798E-3,-1.1950611E-2],"categories":[],"categories_nodes":[],"categories_segments":[],"categories_sizes":[],"default_left":[0,0,0,0,0,0,0,0,0,0,0,0,0,0,0,0,0,0,0,0,0,0,0,0,0,0,0,0,0,0,0],"id":13,"left_children":[1,3,5,7,9,11,13,15,17,19,21,23,25,27,29,-1,-1,-1,-1,-1,-1,-1,-1,-1,-1,-1,-1,-1,-1,-1,-1],"loss_changes":[2.7589867E1,1.4114397E1,7.4357166E0,8.975622E0,7.3610096E0,6.421793E0,3.7053263E0,5.153933E0,5.2293515E0,2.2025948E0,3.308562E0,4.5196915E0,5.252288E0,3.1424544E0,4.4181695E0,0E0,0E0,0E0,0E0,0E0,0E0,0E0,0E0,0E0,0E0,0E0,0E0,0E0,0E0,0E0,0E0],"parents":[2147483647,0,0,1,1,2,2,3,3,4,4,5,5,6,6,7,7,8,8,9,9,10,10,11,11,12,12,13,13,14,14],"right_children":[2,4,6,8,10,12,14,16,18,20,22,24,26,28,30,-1,-1,-1,-1,-1,-1,-1,-1,-1,-1,-1,-1,-1,-1,-1,-1],"split_conditions":[6.36E1,7E0,4E0,5.12E1,5.44E1,6.11E1,5.27E1,1E1,5.4E1,3.48E1,8.2E1,6.4E1,5.549E2,3.9E1,4.22E1,-9.358228E-3,-5.334329E-4,-1.1512287E-2,1.3548327E-2,-2.7823491E-2,-1.5205348E-2,-2.528974E-3,3.075729E-2,1.778317E-2,7.910449E-3,5.1316726E-3,-2.0346636E-2,-8.094801E-3,1.890164E-2,5.710798E-3,-1.1950611E-2],"split_indices":[3,26,26,22,3,17,7,27,25,25,7,25,55,17,11,0,0,0,0,0,0,0,0,0,0,0,0,0,0,0,0],"split_type":[0,0,0,0,0,0,0,0,0,0,0,0,0,0,0,0,0,0,0,0,0,0,0,0,0,0,0,0,0,0,0],"sum_hessian":[1.5666495E3,9.3760034E2,6.290492E2,6.82705E2,2.5489531E2,4.7127448E2,1.577747E2,5.6198615E2,1.2071884E2,2.1059271E2,4.43026E1,3.8276617E2,8.850831E1,3.8726273E1,1.1904844E2,2.1887346E2,3.431127E2,1.9217367E1,1.0150147E2,3.5385445E1,1.7520726E2,3.8354218E1,5.9483843E0,1.7805196E2,2.047142E2,6.826382E1,2.0244486E1,1.1858947E1,2.6867325E1,4.568382E1,7.336462E1],"tree_param":{"num_deleted":"0","num_feature":"56","num_nodes":"31","size_leaf_vector":"1"}},{"base_weights":[-1.0097041E-3,1.2850916E-1,-1.5728228E-1,-7.822434E-3,2.3503517E-1,-2.824425E-1,-8.360354E-3,-3.3185965E-1,5.1273182E-2,2.4854513E-2,2.849821E-1,-3.10188E-1,1.8495181E-1,-1.4348416E-1,1.2932195E-1,-2.0248784E-2,3.0422637E-2,-2.3303559E-2,3.571922E-3,2.5030432E-2,-4.365913E-3,1.0381057E-2,1.994211E-2,-2.009061E-2,-1.0725658E-2,2.5122458E-2,-5.813381E-3,-1.3140155E-2,2.7722386E-3,1.2331071E-2,-2.658572E-3],"categories":[],"categories_nodes":[],"categories_segments":[],"categories_sizes":[],"default_left":[0,0,0,0,0,0,0,0,0,0,0,0,0,0,0,0,0,0,0,0,0,0,0,0,0,0,0,0,0,0,0],"id":14,"left_children":[1,3,5,7,9,11,13,15,17,19,21,23,25,27,29,-1,-1,-1,-1,-1,-1,-1,-1,-1,-1,-1,-1,-1,-1,-1,-1],"loss_changes":[3.0670763E1,1.20358515E1,1.2797325E1,7.0024953E0,4.874956E0,4.9072456E0,5.879535E0,7.0793834E0,4.998167E0,5.934388E0,3.104145E0,3.3245392E0,2.626583E0,4.8788013E0,4.2879257E0,0E0,0E0,0E0,0E0,0E0,0E0,0E0,0E0,0E0,0E0,0E0,0E0,0E0,0E0,0E0,0E0],"parents":[2147483647,0,0,1,1,2,2,3,3,4,4,5,5,6,6,7,7,8,8,9,9,10,10,11,11,12,12,13,13,14,14],"right_children":[2,4,6,8,10,12,14,16,18,20,22,24,26,28,30,-1,-1,-1,-1,-1,-1,-1,-1,-1,-1,-1,-1,-1,-1,-1,-1],"split_conditions":[4E0,6.24E1,5.85E1,8E0,8.763333E1,8.5E1,5E1,8E0,4.5E1,4E1,9.74E1,1.39E1,2.56E1,5.79E1,3.93E1,-2.0248784E-2,3.0422637E-2,-2.3303559E-2,3.571922E-3,2.5030432E-2,-4.365913E-3,1.0381057E-2,1.994211E-2,-2.009061E-2,-1.0725658E-2,2.5122458E-2,-5.813381E-3,-1.3140155E-2,2.7722386E-3,1.2331071E-2,-2.658572E-3],"split_indices":[26,3,21,27,54,7,19,50,18,24,0,21,17,10,2,0,0,0,0,0,0,0,0,0,0,0,0,0,0,0,0],"split_type":[0,0,0,0,0,0,0,0,0,0,0,0,0,0,0,0,0,0,0,0,0,0,0,0,0,0,0,0,0,0,0],"sum_hessian":[1.5129371E3,8.274002E2,6.855369E2,3.6341498E2,4.6398526E2,3.7190036E2,3.1363654E2,5.5199955E1,3.0821503E2,8.943454E1,3.7455072E2,3.5144168E2,2.04587E1,1.5826346E2,1.5537308E2,5.0004436E1,5.1955156E0,1.3519048E1,2.9469595E2,1.5887569E1,7.354697E1,2.81038E2,9.3512726E1,1.19158356E2,2.3228333E2,8.9225E0,1.15362E1,9.149624E1,6.676721E1,8.75697E1,6.7803375E1],"tree_param":{"num_deleted":"0","num_feature":"56","num_nodes":"31","size_leaf_vector":"1"}},{"base_weights":[8.969387E-5,-1.2754396E-1,1.3321699E-1,-1.6671287E-2,-2.5232002E-1,5.1438097E-2,2.3372011E-1,1.7009158E-2,-3.2067105E-1,-4.2138043E-1,-1.800449E-1,8.313847E-2,-2.868675E-1,8.180944E-2,3.2783687E-1,-3.8983817E-3,4.1314685E-3,-2.037085E-2,1.1381059E-2,-2.0262783E-2,2.040498E-2,-1.1740125E-2,-2.2579325E-4,-1.2694933E-3,1.0242973E-2,-3.51918E-2,-1.9604207E-3,7.3893205E-3,-1.9170385E-2,-2.0517865E-2,1.6755268E-2],"categories":[],"categories_nodes":[],"categories_segments":[],"categories_sizes":[],"default_left":[0,0,0,0,0,0,0,0,0,0,0,0,0,0,0,0,0,0,0,0,0,0,0,0,0,0,0,0,0,0,0],"id":15,"left_children":[1,3,5,7,9,11,13,15,17,19,21,23,25,27,29,-1,-1,-1,-1,-1,-1,-1,-1,-1,-1,-1,-1,-1,-1,-1,-1],"loss_changes":[2.5964478E1,1.0787598E1,6.1329603E0,4.249204E0,4.3929195E0,4.4677343E0,4.7605553E0,2.9103258E0,3.2714815E0,3.0012703E0,3.66572E0,6.1114264E0,4.264097E0,5.5166607E0,7.4094543E0,0E0,0E0,0E0,0E0,0E0,0E0,0E0,0E0,0E0,0E0,0E0,0E0,0E0,0E0,0E0,0E0],"parents":[2147483647,0,0,1,1,2,2,3,3,4,4,5,5,6,6,7,7,8,8,9,9,10,10,11,11,12,12,13,13,14,14],"right_children":[2,4,6,8,10,12,14,16,18,20,22,24,26,28,30,-1,-1,-1,-1,-1,-1,-1,-1,-1,-1,-1,-1,-1,-1,-1,-1],"split_conditions":[5.79E1,6E0,7.2E1,5.85E1,4.26E1,7.11E1,9.4E1,1E1,1E0,7.03E1,5.79E1,8.81E1,5.61E1,2E3,6.25E1,-3.8983817E-3,4.1314685E-3,-2.037085E-2,1.1381059E-2,-2.0262783E-2,2.040498E-2,-1.1740125E-2,-2.2579325E-4,-1.2694933E-3,1.0242973E-2,-3.51918E-2,-1.9604207E-3,7.3893205E-3,-1.9170385E-2,-2.0517865E-2,1.6755268E-2],"split_indices":[25,26,7,11,25,25,54,27,38,22,10,21,0,28,9,0,0,0,0,0,0,0,0,0,0,0,0,0,0,0,0],"split_type":[0,0,0,0,0,0,0,0,0,0,0,0,0,0,0,0,0,0,0,0,0,0,0,0,0,0,0,0,0,0,0],"sum_hessian":[1.5256842E3,7.789392E2,7.4674506E2,4.131688E2,3.6577042E2,4.1272604E2,3.34019E2,3.7297894E2,4.0189857E1,1.0780498E2,2.5796542E2,3.7819315E2,3.4532875E1,1.2863565E2,2.0538336E2,1.5627057E2,2.1670836E2,3.287611E1,7.3137484E0,1.0492081E2,2.8841708E0,1.7605519E2,8.191024E1,2.1413246E2,1.6406068E2,1.0501985E1,2.4030893E1,1.1137595E2,1.72597E1,1.0438724E1,1.9494464E2],"tree_param":{"num_deleted":"0","num_feature":"56","num_nodes":"31","size_leaf_vector":"1"}},{"base_weights":[-1.4599734E-3,-1.5389884E-1,1.2037386E-1,-2.3205352E-1,1.7523361E-2,8.8527225E-2,3.8211748E-1,-1.2319331E-1,-3.6880684E-1,1.9475009E-1,-6.953476E-2,-2.9720294E-1,1.2026829E-1,4.5725745E-1,8.884221E-2,-3.7346627E-3,-2.3144286E-2,-2.678704E-2,-1.4454642E-2,-1.3581905E-2,1.3470873E-2,-7.3972493E-3,6.9569973E-3,1.4353096E-2,-1.7799862E-2,1.6395854E-3,1.0633453E-2,2.2414723E-2,-1.397369E-2,1.6635682E-2,-1.0423126E-2],"categories":[],"categories_nodes":[],"categories_segments":[],"categories_sizes":[],"default_left":[0,0,0,0,0,0,0,0,0,0,0,0,0,0,0,0,0,0,0,0,0,0,0,0,0,0,0,0,0,0,0],"id":16,"left_children":[1,3,5,7,9,11,13,15,17,19,21,23,25,27,29,-1,-1,-1,-1,-1,-1,-1,-1,-1,-1,-1,-1,-1,-1,-1,-1],"loss_changes":[2.7473246E1,8.808279E0,6.812765E0,6.6656303E0,3.2082732E0,9.036371E0,1.9085922E0,3.9290218E0,1.9204216E0,3.6646955E0,2.99863E0,3.5567622E0,6.59986E0,2.3940268E0,1.8672017E0,0E0,0E0,0E0,0E0,0E0,0E0,0E0,0E0,0E0,0E0,0E0,0E0,0E0,0E0,0E0,0E0],"parents":[2147483647,0,0,1,1,2,2,3,3,4,4,5,5,6,6,7,7,8,8,9,9,10,10,11,11,12,12,13,13,14,14],"right_children":[2,4,6,8,10,12,14,16,18,20,22,24,26,28,30,-1,-1,-1,-1,-1,-1,-1,-1,-1,-1,-1,-1,-1,-1,-1,-1],"split_conditions":[5.62E1,5.6E1,5.15E1,7E0,4.48E1,3.18E1,7.03E1,5.81E1,3.48E1,1.43E1,7.32E1,4.06E1,7.2E1,1.9E3,3.18E1,-3.7346627E-3,-2.3144286E-2,-2.678704E-2,-1.4454642E-2,-1.3581905E-2,1.3470873E-2,-7.3972493E-3,6.9569973E-3,1.4353096E-2,-1.7799862E-2,1.6395854E-3,1.0633453E-2,2.2414723E-2,-1.397369E-2,1.6635682E-2,-1.0423126E-2],"split_indices":[25,3,23,26,1,21,25,11,25,21,3,5,7,28,10,0,0,0,0,0,0,0,0,0,0,0,0,0,0,0,0],"split_type":[0,0,0,0,0,0,0,0,0,0,0,0,0,0,0,0,0,0,0,0,0,0,0,0,0,0,0,0,0,0,0],"sum_hessian":[1.4768694E3,6.5589526E2,8.2097406E2,4.50211E2,2.0568428E2,7.333522E2,8.762189E1,2.5193965E2,1.9827136E2,6.726552E1,1.3841876E2,5.499498E1,6.783572E2,6.921688E1,1.8405008E1,2.2977716E2,2.2162495E1,3.2034035E1,1.6623732E2,1.1310377E1,5.5955143E1,9.7485214E1,4.0933548E1,7.199337E0,4.7795643E1,3.947349E2,2.8362228E2,6.6120636E1,3.0962446E0,9.710755E0,8.694252E0],"tree_param":{"num_deleted":"0","num_feature":"56","num_nodes":"31","size_leaf_vector":"1"}},{"base_weights":[-4.7821665E-4,-8.590861E-2,1.8501864E-1,-1.5332869E-1,1.5439612E-1,4.094711E-1,1.2443531E-1,-7.632465E-2,-3.4063718E-1,8.350181E-2,4.7766793E-1,-5.4167736E-1,4.8959577E-1,3.478031E-2,3.2095027E-1,-5.281739E-3,1.08373E-2,-2.1185473E-2,-1.176348E-2,-4.673473E-3,8.989478E-3,-2.5129238E-2,2.4746211E-2,1.4077901E-2,-3.3481505E-2,-6.1717276E-3,2.5197951E-2,2.6166663E-3,-3.4310635E-2,5.9676855E-3,2.8176209E-2],"categories":[],"categories_nodes":[],"categories_segments":[],"categories_sizes":[],"default_left":[0,0,0,0,0,0,0,0,0,0,0,0,0,0,0,0,0,0,0,0,0,0,0,0,0,0,0,0,0,0,0],"id":17,"left_children":[1,3,5,7,9,11,13,15,17,19,21,23,25,27,29,-1,-1,-1,-1,-1,-1,-1,-1,-1,-1,-1,-1,-1,-1,-1,-1],"loss_changes":[2.3171278E1,1.6247799E1,6.2084475E0,1.125345E1,4.992608E0,7.7467594E0,6.413688E0,7.2719564E0,2.1990871E0,3.9857047E0,3.3105478E0,1.687367E0,4.0842934E0,4.7451067E0,6.4608727E0,0E0,0E0,0E0,0E0,0E0,0E0,0E0,0E0,0E0,0E0,0E0,0E0,0E0,0E0,0E0,0E0],"parents":[2147483647,0,0,1,1,2,2,3,3,4,4,5,5,6,6,7,7,8,8,9,9,10,10,11,11,12,12,13,13,14,14],"right_children":[2,4,6,8,10,12,14,16,18,20,22,24,26,28,30,-1,-1,-1,-1,-1,-1,-1,-1,-1,-1,-1,-1,-1,-1,-1,-1],"split_conditions":[6.89E1,7.09E1,5.53E1,7E0,5.32E1,4.63E1,8.47E1,6.115271E2,4.27E1,9.17E1,8.72E1,4.83E1,4.12E1,1E2,8.05E1,-5.281739E-3,1.08373E-2,-2.1185473E-2,-1.176348E-2,-4.673473E-3,8.989478E-3,-2.5129238E-2,2.4746211E-2,1.4077901E-2,-3.3481505E-2,-6.1717276E-3,2.5197951E-2,2.6166663E-3,-3.4310635E-2,5.9676855E-3,2.8176209E-2],"split_indices":[3,7,7,26,22,22,2,55,25,54,54,20,21,7,3,0,0,0,0,0,0,0,0,0,0,0,0,0,0,0,0],"split_type":[0,0,0,0,0,0,0,0,0,0,0,0,0,0,0,0,0,0,0,0,0,0,0,0,0,0,0,0,0,0,0],"sum_hessian":[1.459777E3,9.9991254E2,4.5986444E2,7.811787E2,2.187338E2,9.627372E1,3.6359073E2,5.547893E2,2.2638943E2,1.8063095E2,3.8102848E1,6.9429097E0,8.933081E1,2.5065024E2,1.1294048E2,4.9188358E2,6.29057E1,8.341947E1,1.4296996E2,6.921731E1,1.1141364E2,1.9573672E0,3.614548E1,1.2038844E0,5.739025E0,8.901185E0,8.042963E1,2.4459344E2,6.0567894E0,7.0905365E1,4.203512E1],"tree_param":{"num_deleted":"0","num_feature":"56","num_nodes":"31","size_leaf_vector":"1"}},{"base_weights":[-5.5604614E-3,-1.7382789E-1,8.380055E-2,-2.319455E-1,1.3700405E-1,5.8966625E-2,2.8826958E-1,-4.424303E-1,-1.6961063E-1,2.3193862E-1,-5.0638264E-1,-7.9527415E-2,1.0697045E-1,-9.779673E-2,3.6673376E-1,-2.079849E-2,2.1362796E-2,-2.9922312E-2,-6.4904145E-3,1.5880335E-2,-8.427124E-3,-2.7057964E-2,-1.6463904E-3,-1.3816638E-4,-1.638302E-2,3.4946597E-3,1.7242188E-2,-2.4265219E-2,6.4823236E-3,2.9193917E-2,1.2688548E-2],"categories":[],"categories_nodes":[],"categories_segments":[],"categories_sizes":[],"default_left":[0,0,0,0,0,0,0,0,0,0,0,0,0,0,0,0,0,0,0,0,0,0,0,0,0,0,0,0,0,0,0],"id":18,"left_children":[1,3,5,7,9,11,13,15,17,19,21,23,25,27,29,-1,-1,-1,-1,-1,-1,-1,-1,-1,-1,-1,-1,-1,-1,-1,-1],"loss_changes":[2.2099674E1,9.247176E0,4.85421E0,5.550766E0,5.0917854E0,5.711279E0,3.1831493E0,2.0298634E0,4.0791025E0,3.7026002E0,4.5509815E-1,4.8155184E0,5.1236796E0,2.0636308E0,1.8460217E0,0E0,0E0,0E0,0E0,0E0,0E0,0E0,0E0,0E0,0E0,0E0,0E0,0E0,0E0,0E0,0E0],"parents":[2147483647,0,0,1,1,2,2,3,3,4,4,5,5,6,6,7,7,8,8,9,9,10,10,11,11,12,12,13,13,14,14],"right_children":[2,4,6,8,10,12,14,16,18,20,22,24,26,28,30,-1,-1,-1,-1,-1,-1,-1,-1,-1,-1,-1,-1,-1,-1,-1,-1],"split_conditions":[5.4E1,7.06E1,5.15E1,1.18E1,5.28E1,5.67E1,4.08E1,5.15E1,5.2E0,1E0,9.34E1,5E0,6.14E1,1.1E1,1E0,-2.079849E-2,2.1362796E-2,-2.9922312E-2,-6.4904145E-3,1.5880335E-2,-8.427124E-3,-2.7057964E-2,-1.6463904E-3,-1.3816638E-4,-1.638302E-2,3.4946597E-3,1.7242188E-2,-2.4265219E-2,6.4823236E-3,2.9193917E-2,1.2688548E-2],"split_indices":[25,7,23,21,25,21,0,23,23,45,2,26,11,27,43,0,0,0,0,0,0,0,0,0,0,0,0,0,0,0,0],"split_type":[0,0,0,0,0,0,0,0,0,0,0,0,0,0,0,0,0,0,0,0,0,0,0,0,0,0,0,0,0,0,0],"sum_hessian":[1.4673684E3,5.08578E2,9.5879034E2,4.2872244E2,7.985558E1,8.5633026E2,1.0246008E2,9.628427E1,3.3243817E2,7.025635E1,9.599233E0,2.2021326E2,6.36117E2,1.7256666E1,8.5203415E1,9.483649E1,1.4477831E0,1.4729043E1,3.177091E2,5.4671368E1,1.5584979E1,7.706535E0,1.8926973E0,1.745294E2,4.5683857E1,5.764745E2,5.9642532E1,5.5857763E0,1.167089E1,1.7845749E1,6.7357666E1],"tree_param":{"num_deleted":"0","num_feature":"56","num_nodes":"31","size_leaf_vector":"1"}},{"base_weights":[-1.1602761E-3,-1.63558E-1,8.925331E-2,-2.2332658E-1,1.3850978E-1,2.2295471E-2,1.825987E-1,-4.4713888E-1,-1.5999225E-1,-5.5256057E-1,1.9917783E-1,-1.555887E-2,2.9628238E-1,2.8233823E-1,7.786988E-2,-2.0967389E-2,2.0050213E-2,-2.4267447E-3,-1.3120667E-2,-2.775362E-2,-6.8421504E-3,1.3703572E-2,-1.1841297E-2,-2.7882552E-2,-7.1773255E-5,6.792089E-3,3.616116E-2,-1.077435E-2,1.4571793E-2,-7.5387545E-3,8.567735E-3],"categories":[],"categories_nodes":[],"categories_segments":[],"categories_sizes":[],"default_left":[0,0,0,0,0,0,0,0,0,0,0,0,0,0,0,0,0,0,0,0,0,0,0,0,0,0,0,0,0,0,0],"id":19,"left_children":[1,3,5,7,9,11,13,15,17,19,21,23,25,27,29,-1,-1,-1,-1,-1,-1,-1,-1,-1,-1,-1,-1,-1,-1,-1,-1],"loss_changes":[2.0889204E1,9.222985E0,5.7071486E0,5.9415226E0,3.6867146E0,5.539118E0,3.9592676E0,1.8121548E0,4.632498E0,7.154441E-2,3.9351327E0,3.9624593E0,4.634309E0,4.3129063E0,5.2235622E0,0E0,0E0,0E0,0E0,0E0,0E0,0E0,0E0,0E0,0E0,0E0,0E0,0E0,0E0,0E0,0E0],"parents":[2147483647,0,0,1,1,2,2,3,3,4,4,5,5,6,6,7,7,8,8,9,9,10,10,11,11,12,12,13,13,14,14],"right_children":[2,4,6,8,10,12,14,16,18,20,22,24,26,28,30,-1,-1,-1,-1,-1,-1,-1,-1,-1,-1,-1,-1,-1,-1,-1,-1],"split_conditions":[5.42E1,7.06E1,6.89E1,1.18E1,7.623333E1,6.91E1,8.12E1,5.62E1,7E0,8E0,5.05E1,2.98E1,7.98E1,3.89E1,4.97E1,-2.0967389E-2,2.0050213E-2,-2.4267447E-3,-1.3120667E-2,-2.775362E-2,-6.8421504E-3,1.3703572E-2,-1.1841297E-2,-2.7882552E-2,-7.1773255E-5,6.792089E-3,3.616116E-2,-1.077435E-2,1.4571793E-2,-7.5387545E-3,8.567735E-3],"split_indices":[25,7,3,21,54,22,9,23,26,26,22,4,7,21,1,0,0,0,0,0,0,0,0,0,0,0,0,0,0,0,0],"split_type":[0,0,0,0,0,0,0,0,0,0,0,0,0,0,0,0,0,0,0,0,0,0,0,0,0,0,0,0,0,0,0],"sum_hessian":[1.4202904E3,5.0759503E2,9.126954E2,4.2401102E2,8.358402E1,5.323329E2,3.803625E2,9.19178E1,3.3209323E2,5.9603295E0,7.762369E1,4.6870758E2,6.3625313E1,1.9377954E2,1.8658296E2,9.058348E1,1.334314E0,1.8481026E2,1.4728296E2,4.578675E0,1.3816546E0,6.3552E1,1.40716915E1,9.414318E0,4.5929324E2,5.0665955E1,1.2959356E1,1.3848819E1,1.7993073E2,5.8473915E1,1.2810904E2],"tree_param":{"num_deleted":"0","num_feature":"56","num_nodes":"31","size_leaf_vector":"1"}},{"base_weights":[2.3382027E-3,-1.2716651E-1,1.4185062E-1,-3.0903652E-1,-5.0609175E-2,-2.3451358E-2,1.8056506E-1,-4.4437024E-1,-2.0264097E-1,-5.929861E-1,-2.8032254E-2,-2.0013179E-1,3.25451E-1,1.9385552E-1,-2.6293057E-1,-2.3612037E-2,-1.11525655E-2,-1.3672596E-2,-1.8588469E-3,-2.956386E-2,-9.295608E-4,-1.766568E-2,-2.254182E-4,1.4718857E-3,-2.338785E-2,2.0548716E-2,-1.6106827E-2,6.0386E-3,1.3493147E-2,-2.6205901E-2,2.4596276E-2],"categories":[],"categories_nodes":[],"categories_segments":[],"categories_sizes":[],"default_left":[0,0,0,0,0,0,0,0,0,0,0,0,0,0,0,0,0,0,0,0,0,0,0,0,0,0,0,0,0,0,0],"id":20,"left_children":[1,3,5,7,9,11,13,15,17,19,21,23,25,27,29,-1,-1,-1,-1,-1,-1,-1,-1,-1,-1,-1,-1,-1,-1,-1,-1],"loss_changes":[2.5659952E1,1.0236453E1,4.3803864E0,3.0303307E0,6.344875E0,8.141184E0,3.3271008E0,1.3428631E0,2.013163E0,7.422457E-1,4.1962724E0,6.537161E0,4.1790075E0,3.35816E0,4.6823087E0,0E0,0E0,0E0,0E0,0E0,0E0,0E0,0E0,0E0,0E0,0E0,0E0,0E0,0E0,0E0,0E0],"parents":[2147483647,0,0,1,1,2,2,3,3,4,4,5,5,6,6,7,7,8,8,9,9,10,10,11,11,12,12,13,13,14,14],"right_children":[2,4,6,8,10,12,14,16,18,20,22,24,26,28,30,-1,-1,-1,-1,-1,-1,-1,-1,-1,-1,-1,-1,-1,-1,-1,-1],"split_conditions":[5.82E1,4.87E1,5.19E1,4.66E1,5.2E0,6.47E1,7.5E1,5.02E1,5.79E1,5.97E1,4.39E1,6.03E1,7.26E1,5.1493945E2,5.07E1,-2.3612037E-2,-1.11525655E-2,-1.3672596E-2,-1.8588469E-3,-2.956386E-2,-9.295608E-4,-1.766568E-2,-2.254182E-4,1.4718857E-3,-2.338785E-2,2.0548716E-2,-1.6106827E-2,6.0386E-3,1.3493147E-2,-2.6205901E-2,2.4596276E-2],"split_indices":[25,3,3,25,23,25,24,4,10,0,4,25,25,55,15,0,0,0,0,0,0,0,0,0,0,0,0,0,0,0,0],"split_type":[0,0,0,0,0,0,0,0,0,0,0,0,0,0,0,0,0,0,0,0,0,0,0,0,0,0,0,0,0,0,0],"sum_hessian":[1.4178279E3,7.353413E2,6.824866E2,2.1676031E2,5.18581E2,1.2959937E2,5.528872E2,9.372785E1,1.2303246E2,1.9512161E1,4.9906882E2,8.637278E1,4.322658E1,5.374564E2,1.5430778E1,6.510843E1,2.8619423E1,7.495675E1,4.8075718E1,1.7390377E1,2.1217837E0,2.8502802E1,4.70566E2,5.0591785E1,3.5781E1,3.659892E1,6.6276636E0,3.45621E2,1.9183542E2,1.1306236E1,4.1245413E0],"tree_param":{"num_deleted":"0","num_feature":"56","num_nodes":"31","size_leaf_vector":"1"}},{"base_weights":[1.9564824E-3,5.6645114E-2,-2.4622843E-1,-1.3117082E-2,1.5223809E-1,-2.913418E-1,3.9617962E-1,-4.2423166E-2,3.530454E-1,1.3595405E-1,6.829201E-1,-3.6764425E-1,-1.0130665E-1,-1.5633842E-2,4.8107296E-1,-4.0180446E-3,9.151928E-3,-1.7113654E-2,2.6280323E-2,6.8010497E-3,-2.5708577E-2,3.2658447E-2,4.511926E-3,-1.7146705E-2,2.0299634E-2,1.9981475E-3,-1.5588071E-2,3.2676175E-2,9.616187E-3],"categories":[],"categories_nodes":[],"categories_segments":[],"categories_sizes":[],"default_left":[0,0,0,0,0,0,0,0,0,0,0,0,0,0,0,0,0,0,0,0,0,0,0,0,0,0,0,0,0],"id":21,"left_children":[1,3,5,7,9,11,13,15,17,19,21,23,25,-1,27,-1,-1,-1,-1,-1,-1,-1,-1,-1,-1,-1,-1,-1,-1],"loss_changes":[1.9262934E1,7.7576704E0,7.565366E0,7.244073E0,4.1292505E0,3.4373837E0,1.2941611E0,7.2166934E0,8.740504E0,5.2314634E0,2.6976538E-1,2.080206E0,2.5345569E0,0E0,8.656075E-1,0E0,0E0,0E0,0E0,0E0,0E0,0E0,0E0,0E0,0E0,0E0,0E0,0E0,0E0],"parents":[2147483647,0,0,1,1,2,2,3,3,4,4,5,5,6,6,7,7,8,8,9,9,10,10,11,11,12,12,14,14],"right_children":[2,4,6,8,10,12,14,16,18,20,22,24,26,-1,28,-1,-1,-1,-1,-1,-1,-1,-1,-1,-1,-1,-1,-1,-1],"split_conditions":[7E0,6.6E1,7.98E1,8.69E1,1.9E3,5.17E1,4.95E1,5.17E1,9.426667E1,1E0,1.9E1,5.15E1,5.02E1,-1.5633842E-2,4.7E0,-4.0180446E-3,9.151928E-3,-1.7113654E-2,2.6280323E-2,6.8010497E-3,-2.5708577E-2,3.2658447E-2,4.511926E-3,-1.7146705E-2,2.0299634E-2,1.9981475E-3,-1.5588071E-2,3.2676175E-2,9.616187E-3],"split_indices":[26,3,7,4,51,3,4,22,54,49,50,23,1,0,0,0,0,0,0,0,0,0,0,0,0,0,0,0,0],"split_type":[0,0,0,0,0,0,0,0,0,0,0,0,0,0,0,0,0,0,0,0,0,0,0,0,0,0,0,0,0],"sum_hessian":[1.4167878E3,1.1617231E3,2.5506465E2,6.721988E2,4.8952435E2,2.3894072E2,1.6123938E1,6.2336804E2,4.8830753E1,4.76413E2,1.3111363E1,1.6968694E2,6.925379E1,1.271931E0,1.4852007E1,5.2418536E2,9.918265E1,1.1509597E1,3.7321156E1,4.67326E2,9.087016E0,1.1939178E1,1.1721845E0,1.6758696E2,2.0999656E0,4.404905E1,2.520474E1,6.675108E0,8.176899E0],"tree_param":{"num_deleted":"0","num_feature":"56","num_nodes":"29","size_leaf_vector":"1"}},{"base_weights":[1.0565411E-2,-1.0950716E-1,1.3485856E-1,-2.7299836E-1,-4.1652933E-2,1.2091927E-1,5.972119E-1,-4.118481E-1,-9.278722E-2,-3.7546104E-1,-1.5656466E-2,2.095718E-3,1.7587005E-1,6.9952536E-1,-8.735196E-3,-2.3611166E-2,-1.2837457E-2,-1.8274274E-2,2.7015533E-3,5.9863593E-4,-2.2379633E-2,-8.452758E-3,1.2550277E-3,-3.3889022E-3,1.2654067E-2,8.600422E-3,-1.5989404E-2,3.598803E-2,-3.4655067E-3],"categories":[],"categories_nodes":[],"categories_segments":[],"categories_sizes":[],"default_left":[0,0,0,0,0,0,0,0,0,0,0,0,0,0,0,0,0,0,0,0,0,0,0,0,0,0,0,0,0],"id":22,"left_children":[1,3,5,7,9,11,13,15,17,19,21,23,25,27,-1,-1,-1,-1,-1,-1,-1,-1,-1,-1,-1,-1,-1,-1,-1],"loss_changes":[2.0890652E1,7.8854027E0,4.3458595E0,5.1744556E0,4.3718815E0,4.368636E0,1.76792E0,1.4984341E0,4.4505E0,1.7327623E0,3.525818E0,4.6229267E0,3.7878618E0,1.4601526E0,0E0,0E0,0E0,0E0,0E0,0E0,0E0,0E0,0E0,0E0,0E0,0E0,0E0,0E0,0E0],"parents":[2147483647,0,0,1,1,2,2,3,3,4,4,5,5,6,6,7,7,8,8,9,9,10,10,11,11,12,12,13,13],"right_children":[2,4,6,8,10,12,14,16,18,20,22,24,26,28,-1,-1,-1,-1,-1,-1,-1,-1,-1,-1,-1,-1,-1,-1,-1],"split_conditions":[5.79E1,4.87E1,8.69E1,6.4E1,1.13E1,5.94E1,8E1,4.79E1,7.5E1,4.81E1,2.73E1,5.11E1,7.5E1,9.76E1,-8.735196E-3,-2.3611166E-2,-1.2837457E-2,-1.8274274E-2,2.7015533E-3,5.9863593E-4,-2.2379633E-2,-8.452758E-3,1.2550277E-3,-3.3889022E-3,1.2654067E-2,8.600422E-3,-1.5989404E-2,3.598803E-2,-3.4655067E-3],"split_indices":[25,3,22,21,23,3,3,0,18,5,21,22,24,54,0,0,0,0,0,0,0,0,0,0,0,0,0,0,0],"split_type":[0,0,0,0,0,0,0,0,0,0,0,0,0,0,0,0,0,0,0,0,0,0,0,0,0,0,0,0,0],"sum_hessian":[1.3973965E3,7.108385E2,6.86558E2,2.074267E2,5.034118E2,6.679345E2,1.8623436E1,1.16287025E2,9.113966E1,3.520681E1,4.68205E2,2.1160764E2,4.563269E2,1.6614502E1,2.008934E0,5.9481686E1,5.6805336E1,2.9228348E1,6.191132E1,8.657415E0,2.6549395E1,9.3707054E1,3.7449792E2,1.6634988E2,4.5257748E1,4.4433823E2,1.1988685E1,1.4683778E1,1.9307244E0],"tree_param":{"num_deleted":"0","num_feature":"56","num_nodes":"29","size_leaf_vector":"1"}},{"base_weights":[7.9689425E-4,1.0389141E-1,-1.2069892E-1,2.1021623E-2,2.0799112E-1,-2.0956115E-1,-2.1426346E-4,-3.2192793E-2,2.1021481E-1,2.3327553E-1,-4.6312562E-1,-6.3361056E-2,-2.9295868E-1,5.7740007E-2,-3.7587976E-1,-3.2829742E-3,1.5763955E-2,1.3413032E-2,-1.6164359E-2,2.885099E-3,1.4164729E-2,-3.090294E-2,-2.4194345E-3,-6.640519E-3,2.1130022E-2,-1.409424E-2,1.3470893E-2,1.369463E-3,2.440295E-2,7.5694937E-3,-2.0554334E-2],"categories":[],"categories_nodes":[],"categories_segments":[],"categories_sizes":[],"default_left":[0,0,0,0,0,0,0,0,0,0,0,0,0,0,0,0,0,0,0,0,0,0,0,0,0,0,0,0,0,0,0],"id":23,"left_children":[1,3,5,7,9,11,13,15,17,19,21,23,25,27,29,-1,-1,-1,-1,-1,-1,-1,-1,-1,-1,-1,-1,-1,-1,-1,-1],"loss_changes":[1.7279242E1,6.432604E0,6.779854E0,4.204762E0,5.7400513E0,4.4213715E0,5.9043045E0,5.1193523E0,4.714069E0,4.3793983E0,1.0913086E0,6.092417E0,2.8915977E0,3.0890462E0,1.687294E0,0E0,0E0,0E0,0E0,0E0,0E0,0E0,0E0,0E0,0E0,0E0,0E0,0E0,0E0,0E0,0E0],"parents":[2147483647,0,0,1,1,2,2,3,3,4,4,5,5,6,6,7,7,8,8,9,9,10,10,11,11,12,12,13,13,14,14],"right_children":[2,4,6,8,10,12,14,16,18,20,22,24,26,28,30,-1,-1,-1,-1,-1,-1,-1,-1,-1,-1,-1,-1,-1,-1,-1,-1],"split_conditions":[4E0,9.47E1,5.33E1,5.07E1,6E1,6E0,1E0,6.5E1,7.77E1,5.82E1,2.99E1,6.44E1,7.02E1,1.8E3,4.52E1,-3.2829742E-3,1.5763955E-2,1.3413032E-2,-1.6164359E-2,2.885099E-3,1.4164729E-2,-3.090294E-2,-2.4194345E-3,-6.640519E-3,2.1130022E-2,-1.409424E-2,1.3470893E-2,1.369463E-3,2.440295E-2,7.5694937E-3,-2.0554334E-2],"split_indices":[26,54,3,22,24,26,33,11,4,20,2,1,22,51,5,0,0,0,0,0,0,0,0,0,0,0,0,0,0,0,0],"split_type":[0,0,0,0,0,0,0,0,0,0,0,0,0,0,0,0,0,0,0,0,0,0,0,0,0,0,0,0,0,0,0],"sum_hessian":[1.377118E3,7.4506866E2,6.3204944E2,4.1563773E2,3.294309E2,3.6325052E2,2.6879892E2,3.2517224E2,9.046547E1,3.1822464E2,1.1206268E1,1.3271176E2,2.3053877E2,2.3375316E2,3.504576E1,2.947344E2,3.043784E1,7.886912E1,1.1596352E1,1.0416101E2,2.1406363E2,6.721611E0,4.4846573E0,1.1535264E2,1.7359114E1,2.2346564E2,7.0731306E0,2.2248975E2,1.12634115E1,4.367892E0,3.0677868E1],"tree_param":{"num_deleted":"0","num_feature":"56","num_nodes":"31","size_leaf_vector":"1"}},{"base_weights":[9.428371E-3,-2.3472597E-1,6.497919E-2,-3.9435515E-1,-7.063855E-2,1.3735442E-1,-5.2163806E-2,-1.9578649E-1,-4.5075172E-1,-1.3259192E-1,4.6222788E-1,1.11352E-1,4.1082278E-1,-1.6027085E-1,7.9196095E-2,2.0934388E-2,-1.3691234E-2,-2.4285737E-2,-1.0093584E-2,-1.7960599E-2,-7.895621E-4,3.414363E-2,-7.5841146E-3,6.4633014E-3,-5.026345E-3,6.368351E-3,2.586591E-2,-1.7599106E-2,-3.8960495E-3,5.981118E-3,-1.3620939E-2],"categories":[],"categories_nodes":[],"categories_segments":[],"categories_sizes":[],"default_left":[0,0,0,0,0,0,0,0,0,0,0,0,0,0,0,0,0,0,0,0,0,0,0,0,0,0,0,0,0,0,0],"id":24,"left_children":[1,3,5,7,9,11,13,15,17,19,21,23,25,27,29,-1,-1,-1,-1,-1,-1,-1,-1,-1,-1,-1,-1,-1,-1,-1,-1],"loss_changes":[1.8710398E1,6.664323E0,9.535309E0,1.3426609E0,4.2844744E0,4.8862686E0,6.121442E0,2.3732278E0,1.8649368E0,3.5240746E0,2.6882973E0,4.599382E0,2.5470161E0,3.97817E0,4.046845E0,0E0,0E0,0E0,0E0,0E0,0E0,0E0,0E0,0E0,0E0,0E0,0E0,0E0,0E0,0E0,0E0],"parents":[2147483647,0,0,1,1,2,2,3,3,4,4,5,5,6,6,7,7,8,8,9,9,10,10,11,11,12,12,13,13,14,14],"right_children":[2,4,6,8,10,12,14,16,18,20,22,24,26,28,30,-1,-1,-1,-1,-1,-1,-1,-1,-1,-1,-1,-1,-1,-1,-1,-1],"split_conditions":[4.87E1,6.4E1,4E0,2.04E1,6.51E1,8.34E1,5.91E1,3.11E1,4.35E1,7.5E1,1.5E3,6.15E1,7.42E1,7.2166664E1,5.4E1,2.0934388E-2,-1.3691234E-2,-2.4285737E-2,-1.0093584E-2,-1.7960599E-2,-7.895621E-4,3.414363E-2,-7.5841146E-3,6.4633014E-3,-5.026345E-3,6.368351E-3,2.586591E-2,-1.7599106E-2,-3.8960495E-3,5.981118E-3,-1.3620939E-2],"split_indices":[3,21,26,10,25,3,21,22,3,18,28,17,21,54,11,0,0,0,0,0,0,0,0,0,0,0,0,0,0,0,0],"split_type":[0,0,0,0,0,0,0,0,0,0,0,0,0,0,0,0,0,0,0,0,0,0,0,0,0,0,0,0,0,0,0],"sum_hessian":[1.3769708E3,2.545063E2,1.1224646E3,1.281521E2,1.263542E2,6.936779E2,4.2878665E2,2.9533281E1,9.861881E1,1.1400132E2,1.23528805E1,6.349893E2,5.86886E1,2.3506659E2,1.9372005E2,3.6066654E0,2.5926617E1,6.961841E1,2.9000402E1,3.3478065E1,8.0523254E1,8.237148E0,4.115732E0,5.550905E2,7.989879E1,2.3056889E1,3.563171E1,5.563532E1,1.7943127E2,1.7051668E2,2.3203371E1],"tree_param":{"num_deleted":"0","num_feature":"56","num_nodes":"31","size_leaf_vector":"1"}},{"base_weights":[-2.7248308E-3,-1.13551766E-1,1.1441683E-1,-4.4757402E-1,-8.699042E-2,3.803575E-2,2.025943E-1,2.0487351E-2,-4.923895E-1,-2.2425042E-1,-3.2143548E-2,-6.5003216E-2,1.7356375E-1,2.1908021E-1,-5.518529E-1,-2.2988603E-2,7.384959E-4,-1.6865695E-2,-2.2102834E-3,-8.721256E-3,8.7983167E-4,-9.2770514E-4,-2.0889262E-2,-2.9809227E-2,1.0173095E-2,-1.3743612E-3,1.1432332E-2,-2.9219545E-2,-7.5220596E-4],"categories":[],"categories_nodes":[],"categories_segments":[],"categories_sizes":[],"default_left":[0,0,0,0,0,0,0,0,0,0,0,0,0,0,0,0,0,0,0,0,0,0,0,0,0,0,0,0,0],"id":25,"left_children":[1,3,5,7,9,11,13,-1,15,17,19,21,23,25,27,-1,-1,-1,-1,-1,-1,-1,-1,-1,-1,-1,-1,-1,-1],"loss_changes":[1.753486E1,6.110688E0,4.4132605E0,2.3258133E0,4.842481E0,4.9476895E0,3.9324417E0,0E0,4.7055435E-1,4.8230886E0,3.864015E0,3.5607507E0,6.8925276E0,2.6181946E0,3.4441066E-1,0E0,0E0,0E0,0E0,0E0,0E0,0E0,0E0,0E0,0E0,0E0,0E0,0E0,0E0],"parents":[2147483647,0,0,1,1,2,2,3,3,4,4,5,5,6,6,8,8,9,9,10,10,11,11,12,12,13,13,14,14],"right_children":[2,4,6,8,10,12,14,-1,16,18,20,22,24,26,28,-1,-1,-1,-1,-1,-1,-1,-1,-1,-1,-1,-1,-1,-1],"split_conditions":[5.82E1,1.18E1,7.09E1,4E1,4.87E1,8.81E1,6.67E1,2.0487351E-2,9.64E1,6.43E1,4.92E1,6.76E1,2.86E1,8.803333E1,9.29E1,-2.2988603E-2,7.384959E-4,-1.6865695E-2,-2.2102834E-3,-8.721256E-3,8.7983167E-4,-9.2770514E-4,-2.0889262E-2,-2.9809227E-2,1.0173095E-2,-1.3743612E-3,1.1432332E-2,-2.9219545E-2,-7.5220596E-4],"split_indices":[25,23,7,9,3,21,24,0,21,21,22,7,24,54,4,0,0,0,0,0,0,0,0,0,0,0,0,0,0],"split_type":[0,0,0,0,0,0,0,0,0,0,0,0,0,0,0,0,0,0,0,0,0,0,0,0,0,0,0,0,0],"sum_hessian":[1.3482578E3,6.9282117E2,6.5543665E2,4.9633553E1,6.431876E2,3.5213116E2,3.0330545E2,1.8274416E0,4.780611E1,1.8257309E2,4.6061453E2,2.0039767E2,1.517335E2,2.9765277E2,5.652666E0,4.6126953E1,1.6791573E0,9.7443474E1,8.512961E1,1.1080512E2,3.498094E2,1.814807E2,1.8916965E1,8.142822E0,1.4359068E2,3.6595085E1,2.610577E2,4.565119E0,1.0875475E0],"tree_param":{"num_deleted":"0","num_feature":"56","num_nodes":"29","size_leaf_vector":"1"}},{"base_weights":[2.700058E-3,1.0431508E-1,-1.2124498E-1,-3.2322998E-3,1.9079278E-1,-2.4515438E-1,1.5106548E-2,5.7720598E-2,-2.3992929E-1,-3.4707752E-1,2.0632741E-1,-2.8072816E-1,2.1145776E-1,6.438978E-2,-3.411917E-1,-1.2260087E-2,5.5285273E-3,-2.186262E-2,-1.1980865E-3,-2.9376287E-2,1.5479231E-2,-1.6586078E-2,9.989732E-3,-1.3252014E-2,2.5781926E-2,1.4187773E-2,-1.6604621E-2,-4.1543107E-4,9.297912E-3,-2.5029216E-2,3.1851924E-3],"categories":[],"categories_nodes":[],"categories_segments":[],"categories_sizes":[],"default_left":[0,0,0,0,0,0,0,0,0,0,0,0,0,0,0,0,0,0,0,0,0,0,0,0,0,0,0,0,0,0,0],"id":26,"left_children":[1,3,5,7,9,11,13,15,17,19,21,23,25,27,29,-1,-1,-1,-1,-1,-1,-1,-1,-1,-1,-1,-1,-1,-1,-1,-1],"loss_changes":[1.6878185E1,6.8493032E0,1.0204614E1,4.76874E0,3.4965858E0,5.210102E0,5.09342E0,5.6939626E0,3.5347085E0,2.7848473E0,3.678236E0,3.6563435E0,1.5588914E0,2.6673205E0,3.1700969E0,0E0,0E0,0E0,0E0,0E0,0E0,0E0,0E0,0E0,0E0,0E0,0E0,0E0,0E0,0E0,0E0],"parents":[2147483647,0,0,1,1,2,2,3,3,4,4,5,5,6,6,7,7,8,8,9,9,10,10,11,11,12,12,13,13,14,14],"right_children":[2,4,6,8,10,12,14,16,18,20,22,24,26,28,30,-1,-1,-1,-1,-1,-1,-1,-1,-1,-1,-1,-1,-1,-1,-1,-1],"split_conditions":[4E0,6.26E1,5.85E1,5.65E1,2.3956917E2,8.5E1,9E0,5E1,3.57E1,7.81E1,5E1,8.71E1,7.05E1,1E0,4.97E1,-1.2260087E-2,5.5285273E-3,-2.186262E-2,-1.1980865E-3,-2.9376287E-2,1.5479231E-2,-1.6586078E-2,9.989732E-3,-1.3252014E-2,2.5781926E-2,1.4187773E-2,-1.6604621E-2,-4.1543107E-4,9.297912E-3,-2.5029216E-2,3.1851924E-3],"split_indices":[26,3,21,3,55,7,26,7,2,3,9,23,1,31,25,0,0,0,0,0,0,0,0,0,0,0,0,0,0,0,0],"split_type":[0,0,0,0,0,0,0,0,0,0,0,0,0,0,0,0,0,0,0,0,0,0,0,0,0,0,0,0,0,0,0],"sum_hessian":[1.3376996E3,7.3516907E2,6.025305E2,3.2818246E2,4.0698663E2,3.15166E2,2.873645E2,2.6169864E2,6.648382E1,1.0705609E1,3.9628104E2,2.9281552E2,2.2350464E1,2.533098E2,3.4054714E1,4.2491802E1,2.1920685E2,3.0169743E1,3.631407E1,7.4681063E0,3.237503E0,9.795373E0,3.8648566E2,2.8894376E2,3.8717592E0,1.9424213E1,2.9262521E0,1.6765175E2,8.565806E1,2.2100258E1,1.1954457E1],"tree_param":{"num_deleted":"0","num_feature":"56","num_nodes":"31","size_leaf_vector":"1"}},{"base_weights":[2.9763783E-4,-1.1411995E-1,1.2394796E-1,-4.778531E-2,-2.8511634E-1,3.907402E-3,1.7463076E-1,-3.218188E-1,-4.3406426E-3,-5.464096E-1,-2.2321448E-1,-3.9044386E-1,4.0353015E-2,6.171298E-1,1.4804572E-1,-2.1773878E-2,-3.254676E-3,-2.248873E-3,8.813677E-3,-2.7653499E-2,-1.4100582E-2,-1.0686298E-2,2.0920353E-2,-2.5176851E-2,1.1318012E-2,1.0080017E-2,-1.7012419E-3,3.1595208E-2,-8.108359E-3,4.80541E-3,1.3615124E-2],"categories":[],"categories_nodes":[],"categories_segments":[],"categories_sizes":[],"default_left":[0,0,0,0,0,0,0,0,0,0,0,0,0,0,0,0,0,0,0,0,0,0,0,0,0,0,0,0,0,0,0],"id":27,"left_children":[1,3,5,7,9,11,13,15,17,19,21,23,25,27,29,-1,-1,-1,-1,-1,-1,-1,-1,-1,-1,-1,-1,-1,-1,-1,-1],"loss_changes":[1.8744373E1,7.789238E0,3.8732061E0,5.918188E0,2.9607038E0,2.7534254E0,5.1569853E0,2.708325E0,3.9440439E0,3.3983612E-1,1.6761699E0,1.9277797E0,2.5256774E0,1.8454294E0,2.663601E0,0E0,0E0,0E0,0E0,0E0,0E0,0E0,0E0,0E0,0E0,0E0,0E0,0E0,0E0,0E0,0E0],"parents":[2147483647,0,0,1,1,2,2,3,3,4,4,5,5,6,6,7,7,8,8,9,9,10,10,11,11,12,12,13,13,14,14],"right_children":[2,4,6,8,10,12,14,16,18,20,22,24,26,28,30,-1,-1,-1,-1,-1,-1,-1,-1,-1,-1,-1,-1,-1,-1,-1,-1],"split_conditions":[5.94E1,7E0,5.79E1,3.18E1,2.8E1,4.91E1,4.23E1,1E0,6.28E1,6.737426E2,8.8E1,9.13E1,4.48E1,7.66E1,9.97E1,-2.1773878E-2,-3.254676E-3,-2.248873E-3,8.813677E-3,-2.7653499E-2,-1.4100582E-2,-1.0686298E-2,2.0920353E-2,-2.5176851E-2,1.1318012E-2,1.0080017E-2,-1.7012419E-3,3.1595208E-2,-8.108359E-3,4.80541E-3,1.3615124E-2],"split_indices":[3,26,25,21,7,4,7,30,25,55,7,21,1,3,0,0,0,0,0,0,0,0,0,0,0,0,0,0,0,0,0],"split_type":[0,0,0,0,0,0,0,0,0,0,0,0,0,0,0,0,0,0,0,0,0,0,0,0,0,0,0,0,0,0,0],"sum_hessian":[1.3224996E3,6.869424E2,6.355572E2,4.9604642E2,1.9089598E2,1.8906215E2,4.4649506E2,6.6828285E1,4.292181E2,3.476354E1,1.5613245E2,1.500867E1,1.7405348E2,2.3794106E1,4.2270096E2,3.98309E1,2.6997387E1,3.5027554E2,7.8942566E1,2.5381695E1,9.381843E0,1.5373273E2,2.3997266E0,1.2002336E1,3.0063336E0,5.129272E1,1.2276075E2,2.1631666E1,2.1624396E0,3.3521838E2,8.748257E1],"tree_param":{"num_deleted":"0","num_feature":"56","num_nodes":"31","size_leaf_vector":"1"}},{"base_weights":[-1.4443356E-2,-9.278461E-2,1.3108283E-1,-1.151094E-1,3.341151E-1,1.427026E-1,-4.3960539E-1,-1.6318543E-1,8.635206E-2,4.1099367E-1,-3.9420494E-1,2.2770101E-1,7.248088E-2,-2.806097E-2,-4.013277E-2,-1.6827164E-2,-5.5565196E-3,-1.0804867E-2,8.5174665E-3,-1.9291617E-2,2.0223334E-2,-2.7428046E-2,3.1567812E-3,1.2446393E-3,1.4340941E-2,8.729816E-3,-1.3592957E-3,-8.849625E-3,7.2900616E-3],"categories":[],"categories_nodes":[],"categories_segments":[],"categories_sizes":[],"default_left":[0,0,0,0,0,0,0,0,0,0,0,0,0,0,0,0,0,0,0,0,0,0,0,0,0,0,0,0,0],"id":28,"left_children":[1,3,5,7,9,11,13,15,17,19,21,23,25,-1,27,-1,-1,-1,-1,-1,-1,-1,-1,-1,-1,-1,-1,-1,-1],"loss_changes":[1.4910835E1,8.147689E0,3.1106553E0,7.8497076E0,2.577042E0,2.6631994E0,6.628536E-1,5.4118423E0,5.316187E0,1.4916706E0,5.18747E-1,3.680585E0,3.1004882E0,0E0,1.7286806E-1,0E0,0E0,0E0,0E0,0E0,0E0,0E0,0E0,0E0,0E0,0E0,0E0,0E0,0E0],"parents":[2147483647,0,0,1,1,2,2,3,3,4,4,5,5,6,6,7,7,8,8,9,9,10,10,11,11,12,12,14,14],"right_children":[2,4,6,8,10,12,14,16,18,20,22,24,26,-1,28,-1,-1,-1,-1,-1,-1,-1,-1,-1,-1,-1,-1,-1,-1],"split_conditions":[6.7E1,7.5E1,7.5E1,7.2E1,7.43E1,7.67E1,7.56E1,1.78E1,3.64388E2,2.95E1,2.37E1,5.77E1,6.39E1,-2.806097E-2,8.85E1,-1.6827164E-2,-5.5565196E-3,-1.0804867E-2,8.5174665E-3,-1.9291617E-2,2.0223334E-2,-2.7428046E-2,3.1567812E-3,1.2446393E-3,1.4340941E-2,8.729816E-3,-1.3592957E-3,-8.849625E-3,7.2900616E-3],"split_indices":[3,23,24,7,25,9,3,21,55,7,10,25,25,0,4,0,0,0,0,0,0,0,0,0,0,0,0,0,0],"split_type":[0,0,0,0,0,0,0,0,0,0,0,0,0,0,0,0,0,0,0,0,0,0,0,0,0,0,0,0,0],"sum_hessian":[1.3054069E3,8.488692E2,4.5653766E2,8.075164E2,4.1352768E1,4.483096E2,8.228072E0,6.521239E2,1.5539252E2,3.787741E1,3.475354E0,2.0159816E2,2.4671144E2,5.172668E0,3.0554042E0,1.0178507E2,5.503388E2,3.6864685E1,1.1852784E2,1.123625E0,3.6753788E1,2.1181273E0,1.3572265E0,6.3516346E1,1.380818E2,1.125081E2,1.3420334E2,1.7402916E0,1.3151126E0],"tree_param":{"num_deleted":"0","num_feature":"56","num_nodes":"29","size_leaf_vector":"1"}},{"base_weights":[1.3892057E-3,4.781034E-2,-2.057008E-1,-5.9450444E-2,1.086384E-1,-2.560407E-1,4.2060187E-1,-1.1770934E-1,2.7382964E-1,8.449308E-2,4.040476E-1,-5.233015E-1,-2.0428859E-1,6.470958E-1,-1.3563724E-2,-2.7447212E-2,-3.7298207E-3,-1.8502003E-2,1.4795472E-2,3.2555095E-3,2.7567191E-2,2.619412E-2,-4.1822055E-3,-2.5980884E-2,6.451971E-4,5.521318E-3,-1.0790714E-2,-2.0154223E-3,3.428505E-2,-2.0001277E-2,1.6235292E-2],"categories":[],"categories_nodes":[],"categories_segments":[],"categories_sizes":[],"default_left":[0,0,0,0,0,0,0,0,0,0,0,0,0,0,0,0,0,0,0,0,0,0,0,0,0,0,0,0,0,0,0],"id":29,"left_children":[1,3,5,7,9,11,13,15,17,19,21,23,25,27,29,-1,-1,-1,-1,-1,-1,-1,-1,-1,-1,-1,-1,-1,-1,-1,-1],"loss_changes":[1.260174E1,6.9941077E0,7.697098E0,7.5776305E0,4.835829E0,2.9550524E0,1.8112555E0,5.6190443E0,2.3507218E0,4.0116587E0,4.6081066E0,1.0385361E0,2.2263713E0,9.9870014E-1,1.3947145E0,0E0,0E0,0E0,0E0,0E0,0E0,0E0,0E0,0E0,0E0,0E0,0E0,0E0,0E0,0E0,0E0],"parents":[2147483647,0,0,1,1,2,2,3,3,4,4,5,5,6,6,7,7,8,8,9,9,10,10,11,11,12,12,13,13,14,14],"right_children":[2,4,6,8,10,12,14,16,18,20,22,24,26,28,30,-1,-1,-1,-1,-1,-1,-1,-1,-1,-1,-1,-1,-1,-1,-1,-1],"split_conditions":[7E0,5.85E1,7.98E1,5.15E1,7.21E1,2.8E1,2.56E1,4.26E1,4.65E1,8.78E1,6.99E1,9.06E1,1.02E1,2.8E1,9.1E1,-2.7447212E-2,-3.7298207E-3,-1.8502003E-2,1.4795472E-2,3.2555095E-3,2.7567191E-2,2.619412E-2,-4.1822055E-3,-2.5980884E-2,6.451971E-4,5.521318E-3,-1.0790714E-2,-2.0154223E-3,3.428505E-2,-2.0001277E-2,1.6235292E-2],"split_indices":[26,21,7,23,20,7,17,3,7,22,0,0,1,2,7,0,0,0,0,0,0,0,0,0,0,0,0,0,0,0,0],"split_type":[0,0,0,0,0,0,0,0,0,0,0,0,0,0,0,0,0,0,0,0,0,0,0,0,0,0,0,0,0,0,0],"sum_hessian":[1.3084303E3,1.069594E3,2.3883638E2,3.8707495E2,6.8251904E2,2.2172441E2,1.7111963E1,3.3014096E2,5.6933983E1,6.32375E2,5.0144035E1,3.419563E1,1.875288E2,1.0858709E1,6.2532544E0,2.0504265E1,3.096367E2,3.651055E0,5.328293E1,6.1948895E2,1.2886057E1,3.676689E1,1.3377145E1,3.0991283E1,3.2043438E0,1.8079382E1,1.694494E2,1.6493903E0,9.209319E0,2.802513E0,3.4507413E0],"tree_param":{"num_deleted":"0","num_feature":"56","num_nodes":"31","size_leaf_vector":"1"}},{"base_weights":[-2.92723E-3,-1.1378774E-1,1.1644728E-1,-4.5087275E-1,-8.8030554E-2,-3.0071607E-1,1.2836789E-1,-7.529745E-2,-4.9713963E-1,-1.10504314E-1,2.5897378E-1,-6.765024E-1,1.7349961E-1,3.829823E-1,1.1213088E-1,-2.5274424E-2,2.222499E-2,2.7050439E-3,-2.3207694E-2,-1.4217218E-2,-3.565533E-3,-7.876606E-3,1.6192114E-2,-3.277204E-2,-6.158039E-3,-2.5814146E-2,2.2012733E-2,-6.4539053E-3,2.4928644E-2,-2.4459088E-2,5.3795357E-3],"categories":[],"categories_nodes":[],"categories_segments":[],"categories_sizes":[],"default_left":[0,0,0,0,0,0,0,0,0,0,0,0,0,0,0,0,0,0,0,0,0,0,0,0,0,0,0,0,0,0,0],"id":30,"left_children":[1,3,5,7,9,11,13,15,17,19,21,23,25,27,29,-1,-1,-1,-1,-1,-1,-1,-1,-1,-1,-1,-1,-1,-1,-1,-1],"loss_changes":[1.7075705E1,5.76079E0,3.1359825E0,7.7523804E-1,4.892739E0,3.2807708E0,2.449173E0,2.1574047E0,4.7022915E-1,3.7340145E0,1.7499149E0,1.6185808E-1,2.399228E0,3.3144813E0,2.8504982E0,0E0,0E0,0E0,0E0,0E0,0E0,0E0,0E0,0E0,0E0,0E0,0E0,0E0,0E0,0E0,0E0],"parents":[2147483647,0,0,1,1,2,2,3,3,4,4,5,5,6,6,7,7,8,8,9,9,10,10,11,11,12,12,13,13,14,14],"right_children":[2,4,6,8,10,12,14,16,18,20,22,24,26,28,30,-1,-1,-1,-1,-1,-1,-1,-1,-1,-1,-1,-1,-1,-1,-1,-1],"split_conditions":[5.82E1,1.25E1,4.03E1,9E0,5.15E1,4.41E1,4.23E1,6.66E1,1.5E1,3.65E1,5.63E1,5E1,7.67E1,5.67E1,4.6E1,-2.5274424E-2,2.222499E-2,2.7050439E-3,-2.3207694E-2,-1.4217218E-2,-3.565533E-3,-7.876606E-3,1.6192114E-2,-3.277204E-2,-6.158039E-3,-2.5814146E-2,2.2012733E-2,-6.4539053E-3,2.4928644E-2,-2.4459088E-2,5.3795357E-3],"split_indices":[25,23,3,27,23,2,7,20,3,3,20,19,9,3,7,0,0,0,0,0,0,0,0,0,0,0,0,0,0,0,0],"split_type":[0,0,0,0,0,0,0,0,0,0,0,0,0,0,0,0,0,0,0,0,0,0,0,0,0,0,0,0,0,0,0],"sum_hessian":[1.2878971E3,6.677906E2,6.2010645E2,4.59987E1,6.217919E2,1.6419846E1,6.0368665E2,5.390865E0,4.0607838E1,5.847391E2,3.7052807E1,8.875043E0,7.544803E0,3.4564953E1,5.6912164E2,2.9155092E0,2.4753554E0,1.2242028E0,3.9383633E1,7.580491E1,5.0893417E2,6.820079E0,3.023273E1,7.715549E0,1.159494E0,1.9496386E0,5.5951643E0,8.522143E0,2.604281E1,5.3934927E0,5.6372815E2],"tree_param":{"num_deleted":"0","num_feature":"56","num_nodes":"31","size_leaf_vector":"1"}},{"base_weights":[1.6405024E-3,-6.983904E-2,1.3324848E-1,-1.20362185E-1,1.277744E-1,-4.1408306E-1,1.5001647E-1,-1.4981335E-1,2.2675295E-1,-1.7054425E-1,2.0644924E-1,-8.507843E-3,-6.453277E-1,1.9245195E-1,-5.0257575E-2,-1.8615618E-2,-4.9655545E-3,2.569761E-2,5.9770327E-3,-1.5457246E-2,9.625787E-3,1.0286942E-2,-2.934003E-2,1.2670414E-2,-1.767033E-2,-6.636982E-3,-3.1086653E-2,5.5584023E-3,1.61123E-2,-1.5296002E-2,5.6857355E-3],"categories":[],"categories_nodes":[],"categories_segments":[],"categories_sizes":[],"default_left":[0,0,0,0,0,0,0,0,0,0,0,0,0,0,0,0,0,0,0,0,0,0,0,0,0,0,0,0,0,0,0],"id":31,"left_children":[1,3,5,7,9,11,13,15,17,19,21,23,25,27,29,-1,-1,-1,-1,-1,-1,-1,-1,-1,-1,-1,-1,-1,-1,-1,-1],"loss_changes":[1.2180388E1,8.395916E0,4.256917E0,6.8784447E0,4.0657005E0,1.293797E0,3.7769394E0,6.3735876E0,1.6161909E0,2.5105982E0,2.768507E0,8.2924646E-1,7.733989E-2,4.1229362E0,4.062805E0,0E0,0E0,0E0,0E0,0E0,0E0,0E0,0E0,0E0,0E0,0E0,0E0,0E0,0E0,0E0,0E0],"parents":[2147483647,0,0,1,1,2,2,3,3,4,4,5,5,6,6,7,7,8,8,9,9,10,10,11,11,12,12,13,13,14,14],"right_children":[2,4,6,8,10,12,14,16,18,20,22,24,26,28,30,-1,-1,-1,-1,-1,-1,-1,-1,-1,-1,-1,-1,-1,-1,-1,-1],"split_conditions":[6.7E1,7.09E1,5E1,5.15E1,5.26E1,1.82E1,6.67E1,8.1E0,1E0,6.39E1,6.63E1,9E1,3.85E1,4.92E1,7.28E1,-1.8615618E-2,-4.9655545E-3,2.569761E-2,5.9770327E-3,-1.5457246E-2,9.625787E-3,1.0286942E-2,-2.934003E-2,1.2670414E-2,-1.767033E-2,-6.636982E-3,-3.1086653E-2,5.5584023E-3,1.61123E-2,-1.5296002E-2,5.6857355E-3],"split_indices":[3,7,9,23,20,2,17,21,43,3,3,18,1,17,17,0,0,0,0,0,0,0,0,0,0,0,0,0,0,0,0],"split_type":[0,0,0,0,0,0,0,0,0,0,0,0,0,0,0,0,0,0,0,0,0,0,0,0,0,0,0,0,0,0,0],"sum_hessian":[1.2923967E3,8.378843E2,4.5451242E2,6.6765607E2,1.7022823E2,1.2665296E1,4.4184714E2,6.1606757E2,5.15885E1,3.523253E1,1.349957E2,5.0508547E0,7.6144404E0,3.64633E2,7.721413E1,7.867782E1,5.373898E2,9.75083E0,4.183767E1,2.4388763E1,1.0843763E1,1.324585E2,2.537203E0,3.0604725E0,1.9903824E0,1.0636833E0,6.5507574E0,2.5894165E2,1.05691345E2,2.8826378E1,4.838775E1],"tree_param":{"num_deleted":"0","num_feature":"56","num_nodes":"31","size_leaf_vector":"1"}},{"base_weights":[6.7618433E-3,-2.1001816E-1,5.519141E-2,-3.5677814E-1,-6.354789E-2,1.2409655E-1,-5.3791873E-2,-1.8063731E-1,-4.558769E-1,-5.9520215E-1,-9.505049E-3,1.02229014E-1,3.7830207E-1,-1.4805509E-1,5.4537326E-2,1.7438363E-2,-1.1225729E-2,-2.5108783E-2,-9.125513E-3,-7.842346E-3,-2.8644936E-2,-1.1159238E-2,6.947128E-3,3.4259509E-3,1.5021451E-2,2.0934824E-2,-1.8874245E-2,-8.3348015E-3,8.822842E-3,-6.9061406E-3,6.1853332E-3],"categories":[],"categories_nodes":[],"categories_segments":[],"categories_sizes":[],"default_left":[0,0,0,0,0,0,0,0,0,0,0,0,0,0,0,0,0,0,0,0,0,0,0,0,0,0,0,0,0,0,0],"id":32,"left_children":[1,3,5,7,9,11,13,15,17,19,21,23,25,27,29,-1,-1,-1,-1,-1,-1,-1,-1,-1,-1,-1,-1,-1,-1,-1,-1],"loss_changes":[1.3412032E1,4.9876423E0,7.8486423E0,1.9307299E0,3.3899639E0,3.511404E0,4.1480594E0,1.8306599E0,1.7665167E0,5.6413174E-2,4.287733E0,3.5410705E0,3.7183824E0,2.8189802E0,3.2925797E0,0E0,0E0,0E0,0E0,0E0,0E0,0E0,0E0,0E0,0E0,0E0,0E0,0E0,0E0,0E0,0E0],"parents":[2147483647,0,0,1,1,2,2,3,3,4,4,5,5,6,6,7,7,8,8,9,9,10,10,11,11,12,12,13,13,14,14],"right_children":[2,4,6,8,10,12,14,16,18,20,22,24,26,28,30,-1,-1,-1,-1,-1,-1,-1,-1,-1,-1,-1,-1,-1,-1,-1,-1],"split_conditions":[4.87E1,6.4E1,4E0,3.69E1,4.22E1,7.21E1,5.85E1,3.11E1,4.35E1,1.6E1,4.09E1,8.3E1,6.05E1,8.5E1,5E1,1.7438363E-2,-1.1225729E-2,-2.5108783E-2,-9.125513E-3,-7.842346E-3,-2.8644936E-2,-1.1159238E-2,6.947128E-3,3.4259509E-3,1.5021451E-2,2.0934824E-2,-1.8874245E-2,-8.3348015E-3,8.822842E-3,-6.9061406E-3,6.1853332E-3],"split_indices":[3,21,26,10,25,20,21,22,3,7,10,3,11,7,19,0,0,0,0,0,0,0,0,0,0,0,0,0,0,0,0],"split_type":[0,0,0,0,0,0,0,0,0,0,0,0,0,0,0,0,0,0,0,0,0,0,0,0,0,0,0,0,0,0,0],"sum_hessian":[1.2749865E3,2.3209244E2,1.042894E3,1.1507091E2,1.1702152E2,6.388267E2,4.040673E2,4.2650352E1,7.2420555E1,9.68894E0,1.0733259E2,5.89775E2,4.905167E1,2.1582553E2,1.8824174E2,4.0078254E0,3.8642525E1,5.0573513E1,2.1847044E1,1.4264272E0,8.262513E0,4.3466534E1,6.386605E1,5.3147754E2,5.829751E1,4.4683403E1,4.368268E0,1.9528952E2,2.0536E1,5.3359074E1,1.3488268E2],"tree_param":{"num_deleted":"0","num_feature":"56","num_nodes":"31","size_leaf_vector":"1"}},{"base_weights":[-9.823986E-4,-1.4775185E-1,7.4623965E-2,-1.9447325E-1,9.182682E-2,8.920833E-3,1.4344175E-1,-2.9892778E-1,-1.0390609E-1,-3.1577587E-2,1.3809793E-1,-8.659037E-3,6.6100115E-1,1.9940709E-1,-6.632825E-4,-2.4606705E-2,-1.0852173E-2,4.313572E-3,-7.293735E-3,1.0377575E-2,-8.127277E-3,-2.0626471E-3,1.0140804E-2,-2.9284095E-3,3.4180246E-2,6.128164E-3,1.6464593E-2,-2.9422097E-2,2.5480082E-3],"categories":[],"categories_nodes":[],"categories_segments":[],"categories_sizes":[],"default_left":[0,0,0,0,0,0,0,0,0,0,0,0,0,0,0,0,0,0,0,0,0,0,0,0,0,0,0,0,0],"id":33,"left_children":[1,3,5,7,9,11,13,15,17,-1,19,21,23,25,27,-1,-1,-1,-1,-1,-1,-1,-1,-1,-1,-1,-1,-1,-1],"loss_changes":[1.4197009E1,4.890376E0,3.8165255E0,3.409833E0,2.7526712E0,4.9735737E0,3.325736E0,2.255807E0,2.3081467E0,0E0,2.0799146E0,3.6931052E0,8.7437105E-1,3.0663424E0,4.405078E0,0E0,0E0,0E0,0E0,0E0,0E0,0E0,0E0,0E0,0E0,0E0,0E0,0E0,0E0],"parents":[2147483647,0,0,1,1,2,2,3,3,4,4,5,5,6,6,7,7,8,8,10,10,11,11,12,12,13,13,14,14],"right_children":[2,4,6,8,10,12,14,16,18,-1,20,22,24,26,28,-1,-1,-1,-1,-1,-1,-1,-1,-1,-1,-1,-1,-1,-1],"split_conditions":[5.41E1,7.06E1,6.6E1,6.5E1,2.3E1,9.4E1,5.03E1,3.91E1,2.13E1,-3.1577587E-2,5.57E1,5.37E1,4.74E1,8.47E1,5.62E1,-2.4606705E-2,-1.0852173E-2,4.313572E-3,-7.293735E-3,1.0377575E-2,-8.127277E-3,-2.0626471E-3,1.0140804E-2,-2.9284095E-3,3.4180246E-2,6.128164E-3,1.6464593E-2,-2.9422097E-2,2.5480082E-3],"split_indices":[25,7,3,18,11,4,5,3,10,0,10,23,3,2,9,0,0,0,0,0,0,0,0,0,0,0,0,0,0],"split_type":[0,0,0,0,0,0,0,0,0,0,0,0,0,0,0,0,0,0,0,0,0,0,0,0,0,0,0,0,0],"sum_hessian":[1.2769973E3,4.3378165E2,8.4321564E2,3.6318173E2,7.0599915E1,4.3206302E2,4.1115262E2,1.6737784E2,1.958039E2,2.9532354E0,6.7646675E1,4.2187354E2,1.0189506E1,2.958099E2,1.15342705E2,2.9714071E1,1.3766377E2,4.398714E1,1.5181676E2,5.2684788E1,1.4961889E1,3.6487088E2,5.7002647E1,1.2665658E0,8.92294E0,2.1596786E2,7.984206E1,8.292866E0,1.0704984E2],"tree_param":{"num_deleted":"0","num_feature":"56","num_nodes":"29","size_leaf_vector":"1"}},{"base_weights":[9.508798E-3,-8.135425E-2,1.05635375E-1,-5.8883272E-2,-4.239025E-1,2.6997125E-2,1.8765697E-1,-3.5101995E-1,-3.338375E-2,-2.3811145E-2,-5.196081E-1,6.0774706E-2,-4.1689488E-1,2.0235676E-1,-5.2806664E-1,-1.7706526E-2,2.1269953E-2,-9.984782E-3,-7.0700617E-6,-1.8456724E-2,6.1384067E-3,1.4822849E-2,-2.5175327E-2,-1.5550731E-2,3.975789E-3,1.7156214E-2,-2.2275014E-2,-9.156767E-4,1.0566728E-2,-2.785989E-2,-2.631869E-3],"categories":[],"categories_nodes":[],"categories_segments":[],"categories_sizes":[],"default_left":[0,0,0,0,0,0,0,0,0,0,0,0,0,0,0,0,0,0,0,0,0,0,0,0,0,0,0,0,0,0,0],"id":34,"left_children":[1,3,5,7,9,11,13,15,17,19,21,23,25,27,29,-1,-1,-1,-1,-1,-1,-1,-1,-1,-1,-1,-1,-1,-1,-1,-1],"loss_changes":[1.1133509E1,5.0145464E0,3.9887362E0,4.57772E0,1.5225573E0,4.7923284E0,3.3155699E0,1.9493446E0,3.5589943E0,6.247286E-1,1.3152008E0,3.355545E0,1.6360185E0,2.1579266E0,2.3141325E-1,0E0,0E0,0E0,0E0,0E0,0E0,0E0,0E0,0E0,0E0,0E0,0E0,0E0,0E0,0E0,0E0],"parents":[2147483647,0,0,1,1,2,2,3,3,4,4,5,5,6,6,7,7,8,8,9,9,10,10,11,11,12,12,13,13,14,14],"right_children":[2,4,6,8,10,12,14,16,18,20,22,24,26,28,30,-1,-1,-1,-1,-1,-1,-1,-1,-1,-1,-1,-1,-1,-1,-1,-1],"split_conditions":[5.82E1,1.2E1,7E1,4.61E1,2.13E1,6.8E1,6.67E1,7.21E1,1.43E1,1.9E1,2.8E1,2.5E1,3.42E1,8.803333E1,3E0,-1.7706526E-2,2.1269953E-2,-9.984782E-3,-7.0700617E-6,-1.8456724E-2,6.1384067E-3,1.4822849E-2,-2.5175327E-2,-1.5550731E-2,3.975789E-3,1.7156214E-2,-2.2275014E-2,-9.156767E-4,1.0566728E-2,-2.785989E-2,-2.631869E-3],"split_indices":[25,26,7,4,10,7,24,22,21,7,22,21,11,54,26,0,0,0,0,0,0,0,0,0,0,0,0,0,0,0,0],"split_type":[0,0,0,0,0,0,0,0,0,0,0,0,0,0,0,0,0,0,0,0,0,0,0,0,0,0,0,0,0,0,0],"sum_hessian":[1.2722994E3,6.5415137E2,6.1814813E2,6.1520074E2,3.8950565E1,3.1639716E2,3.0175095E2,4.815793E1,5.6704285E2,7.8080497E0,3.1142517E1,2.9498615E2,2.1411013E1,2.965216E2,5.2293386E0,4.6393253E1,1.7646723E0,8.3952545E1,4.830903E2,1.7401469E0,6.0679026E0,1.0050819E0,3.0137436E1,1.786722E1,2.7711893E2,1.4933455E0,1.9917667E1,3.7777386E1,2.5874423E2,4.060062E0,1.1692768E0],"tree_param":{"num_deleted":"0","num_feature":"56","num_nodes":"31","size_leaf_vector":"1"}},{"base_weights":[-7.323292E-3,-2.2811203E-1,2.4604028E-2,-3.9029694E-1,-1.2746426E-1,-1.7604363E-1,5.1688273E-2,-1.3761602E-1,-4.815875E-1,3.0422977E-1,-1.7638913E-1,-2.3943633E-1,3.5712588E-1,-4.704188E-1,6.1339684E-2,5.8193523E-3,-1.5935052E-2,-2.5445292E-2,-1.21779675E-2,2.7010951E-2,-2.477713E-2,-9.384923E-3,1.3384585E-2,-1.872195E-2,-4.655456E-3,-1.4816459E-2,2.2337755E-2,-2.4962274E-2,1.654101E-2,-1.0677262E-2,3.393607E-3],"categories":[],"categories_nodes":[],"categories_segments":[],"categories_sizes":[],"default_left":[0,0,0,0,0,0,0,0,0,0,0,0,0,0,0,0,0,0,0,0,0,0,0,0,0,0,0,0,0,0,0],"id":35,"left_children":[1,3,5,7,9,11,13,15,17,19,21,23,25,27,29,-1,-1,-1,-1,-1,-1,-1,-1,-1,-1,-1,-1,-1,-1,-1,-1],"loss_changes":[8.840305E0,2.5264978E0,5.966461E0,1.3065376E0,2.1668582E0,4.5170393E0,4.904842E0,1.0736511E0,5.888243E-1,3.072191E0,1.4486969E0,2.7688913E0,1.5688654E0,1.493645E0,4.0139966E0,0E0,0E0,0E0,0E0,0E0,0E0,0E0,0E0,0E0,0E0,0E0,0E0,0E0,0E0,0E0,0E0],"parents":[2147483647,0,0,1,1,2,2,3,3,4,4,5,5,6,6,7,7,8,8,9,9,10,10,11,11,12,12,13,13,14,14],"right_children":[2,4,6,8,10,12,14,16,18,20,22,24,26,28,30,-1,-1,-1,-1,-1,-1,-1,-1,-1,-1,-1,-1,-1,-1,-1,-1],"split_conditions":[4.54E1,4.5E1,3.18E1,3.22E1,2.62E1,5.15E1,3.02E1,2.61E1,5.04E1,5.67E1,1E2,5.72E1,6.5E1,7.01E1,4.69E1,5.8193523E-3,-1.5935052E-2,-2.5445292E-2,-1.21779675E-2,2.7010951E-2,-2.477713E-2,-9.384923E-3,1.3384585E-2,-1.872195E-2,-4.655456E-3,-1.4816459E-2,2.2337755E-2,-2.4962274E-2,1.654101E-2,-1.0677262E-2,3.393607E-3],"split_indices":[25,3,21,10,11,23,5,21,1,3,54,3,18,22,23,0,0,0,0,0,0,0,0,0,0,0,0,0,0,0,0],"split_type":[0,0,0,0,0,0,0,0,0,0,0,0,0,0,0,0,0,0,0,0,0,0,0,0,0,0,0,0,0,0,0],"sum_hessian":[1.2519324E3,1.5723347E2,1.0946989E3,5.8887726E1,9.834576E1,1.2940805E2,9.6529083E2,1.6427473E1,4.246025E1,9.373719E0,8.897204E1,1.16247574E2,1.31604805E1,1.6480223E1,9.488106E2,7.573154E0,8.854319E0,2.8939747E1,1.3520506E1,7.2281322E0,2.1455872E0,8.394538E1,5.0266566E0,4.9494667E1,6.675291E1,1.943755E0,1.1216725E1,1.5342496E1,1.1377274E0,4.1848816E1,9.069618E2],"tree_param":{"num_deleted":"0","num_feature":"56","num_nodes":"31","size_leaf_vector":"1"}},{"base_weights":[-1.0513435E-3,-1.1308979E-1,7.84757E-2,-3.7674028E-1,-5.4329243E-2,8.6741425E-2,-5.2211785E-1,-2.3245476E-1,-4.6554548E-1,5.545347E-2,-1.61852E-1,3.5044566E-2,1.6448648E-1,-2.6948811E-2,-3.1452188E-3,1.0711297E-2,-1.2790483E-2,-2.535901E-2,-1.321546E-2,7.0163063E-3,-7.962712E-3,-8.626552E-5,-1.1360604E-2,5.1746103E-3,-6.065114E-3,1.8149316E-2,4.380121E-3],"categories":[],"categories_nodes":[],"categories_segments":[],"categories_sizes":[],"default_left":[0,0,0,0,0,0,0,0,0,0,0,0,0,0,0,0,0,0,0,0,0,0,0,0,0,0,0],"id":36,"left_children":[1,3,5,7,9,11,13,15,17,19,21,23,25,-1,-1,-1,-1,-1,-1,-1,-1,-1,-1,-1,-1,-1,-1],"loss_changes":[1.1172787E1,8.04013E0,3.6951418E0,1.0832014E0,5.05221E0,2.9048252E0,3.0124688E-1,1.0182457E0,7.681875E-1,4.988023E0,3.1305351E0,5.946969E0,4.5879817E0,0E0,0E0,0E0,0E0,0E0,0E0,0E0,0E0,0E0,0E0,0E0,0E0,0E0,0E0],"parents":[2147483647,0,0,1,1,2,2,3,3,4,4,5,5,6,6,7,7,8,8,9,9,10,10,11,11,12,12],"right_children":[2,4,6,8,10,12,14,16,18,20,22,24,26,-1,-1,-1,-1,-1,-1,-1,-1,-1,-1,-1,-1,-1,-1],"split_conditions":[5.91E1,4.77E1,1.2E1,3.85E1,4E0,6.89E1,5.92E1,3.11E1,5.04E1,1.6E3,3.06E1,9.47E1,5.27E1,-2.6948811E-2,-3.1452188E-3,1.0711297E-2,-1.2790483E-2,-2.535901E-2,-1.321546E-2,7.0163063E-3,-7.962712E-3,-8.626552E-5,-1.1360604E-2,5.1746103E-3,-6.065114E-3,1.8149316E-2,4.380121E-3],"split_indices":[21,3,26,10,26,3,7,22,1,28,17,21,7,0,0,0,0,0,0,0,0,0,0,0,0,0,0],"split_type":[0,0,0,0,0,0,0,0,0,0,0,0,0,0,0,0,0,0,0,0,0,0,0,0,0,0,0],"sum_hessian":[1.2515529E3,5.19363E2,7.321899E2,9.347223E1,4.2589078E2,7.2326263E2,8.927276E0,3.726588E1,5.6206345E1,2.1101831E2,2.1487245E2,4.354497E2,2.878129E2,7.299416E0,1.6278594E0,3.2666728E0,3.399921E1,3.405552E1,2.2150827E1,1.4760544E2,6.3412865E1,7.814986E1,1.367226E2,2.9633463E2,1.3911507E2,6.18447E1,2.259682E2],"tree_param":{"num_deleted":"0","num_feature":"56","num_nodes":"27","size_leaf_vector":"1"}},{"base_weights":[5.7855477E-3,9.087833E-2,-9.60079E-2,3.787949E-2,2.4213378E-1,-1.9751197E-1,1.2918207E-2,5.9468616E-2,-2.7252662E-1,3.5710242E-1,-1.0774377E-1,-2.509007E-1,-2.4008745E-2,8.03879E-2,-1.8431148E-1,-1.0059789E-3,6.807089E-3,-2.8133113E-2,1.06619205E-2,5.629442E-4,1.9529313E-2,-2.0263059E-2,3.8913677E-3,-1.5077455E-2,-4.862502E-3,-9.86879E-3,8.56149E-3,2.3243401E-2,1.6792224E-3,-2.159912E-2,1.1186913E-3],"categories":[],"categories_nodes":[],"categories_segments":[],"categories_sizes":[],"default_left":[0,0,0,0,0,0,0,0,0,0,0,0,0,0,0,0,0,0,0,0,0,0,0,0,0,0,0,0,0,0,0],"id":37,"left_children":[1,3,5,7,9,11,13,15,17,19,21,23,25,27,29,-1,-1,-1,-1,-1,-1,-1,-1,-1,-1,-1,-1,-1,-1,-1,-1],"loss_changes":[1.0645224E1,5.354799E0,6.190327E0,3.350698E0,7.0235357E0,2.6767244E0,3.6247969E0,3.5025573E0,6.02404E0,3.4597301E0,2.962204E0,2.6184855E0,2.9585497E0,3.786573E0,4.309836E0,0E0,0E0,0E0,0E0,0E0,0E0,0E0,0E0,0E0,0E0,0E0,0E0,0E0,0E0,0E0,0E0],"parents":[2147483647,0,0,1,1,2,2,3,3,4,4,5,5,6,6,7,7,8,8,9,9,10,10,11,11,12,12,13,13,14,14],"right_children":[2,4,6,8,10,12,14,16,18,20,22,24,26,28,30,-1,-1,-1,-1,-1,-1,-1,-1,-1,-1,-1,-1,-1,-1,-1,-1],"split_conditions":[4E0,7.84E1,5.85E1,1E0,6.48E1,1E0,7E0,6.29E1,5.19E1,4.81E1,9.27E1,9E1,4.66E1,6.19E1,4.73E1,-1.0059789E-3,6.807089E-3,-2.8133113E-2,1.06619205E-2,5.629442E-4,1.9529313E-2,-2.0263059E-2,3.8913677E-3,-1.5077455E-2,-4.862502E-3,-9.86879E-3,8.56149E-3,2.3243401E-2,1.6792224E-3,-2.159912E-2,1.1186913E-3],"split_indices":[26,7,21,48,17,29,26,3,11,1,54,54,2,21,25,0,0,0,0,0,0,0,0,0,0,0,0,0,0,0,0],"split_type":[0,0,0,0,0,0,0,0,0,0,0,0,0,0,0,0,0,0,0,0,0,0,0,0,0,0,0,0,0,0,0],"sum_hessian":[1.2265638E3,6.6815656E2,5.584073E2,4.9589795E2,1.7225862E2,2.885462E2,2.6986108E2,4.645575E2,3.1340443E1,1.296359E2,4.2622726E1,2.2024063E2,6.830558E1,2.0160541E2,6.825568E1,2.4610533E2,2.1845218E2,1.835931E1,1.29811325E1,2.3901728E1,1.0573417E2,1.4849775E1,2.7772951E1,1.3757614E2,8.266449E1,3.5719597E1,3.2585987E1,1.6935125E1,1.8467029E2,2.7636776E1,4.0618896E1],"tree_param":{"num_deleted":"0","num_feature":"56","num_nodes":"31","size_leaf_vector":"1"}},{"base_weights":[-2.6507215E-3,4.152451E-2,-2.0407121E-1,-5.63609E-2,9.574595E-2,-2.907057E-1,2.0689188E-2,-5.5664414E-1,-2.6419973E-2,7.6784045E-2,3.465726E-1,-4.5882052E-1,-2.364313E-1,-6.565126E-2,5.118217E-1,-3.1597953E-2,-1.2232189E-2,2.7320895E-3,-7.90645E-3,2.5602125E-3,1.50550725E-2,-2.030106E-2,2.2130294E-2,-7.7797205E-4,-2.4523044E-2,-3.4787317E-3,-1.3559486E-2,2.1462557E-3,-1.951556E-2,3.1122472E-2,2.5670715E-3],"categories":[],"categories_nodes":[],"categories_segments":[],"categories_sizes":[],"default_left":[0,0,0,0,0,0,0,0,0,0,0,0,0,0,0,0,0,0,0,0,0,0,0,0,0,0,0,0,0,0,0],"id":38,"left_children":[1,3,5,7,9,11,13,15,17,19,21,23,25,27,29,-1,-1,-1,-1,-1,-1,-1,-1,-1,-1,-1,-1,-1,-1,-1,-1],"loss_changes":[1.0848364E1,5.313848E0,4.2773867E0,5.333086E0,3.0308437E0,1.3148069E0,2.6750076E0,6.045909E-1,4.413182E0,3.0547326E0,5.469473E0,1.4100823E0,1.233778E0,2.273479E0,7.233634E-1,0E0,0E0,0E0,0E0,0E0,0E0,0E0,0E0,0E0,0E0,0E0,0E0,0E0,0E0,0E0,0E0],"parents":[2147483647,0,0,1,1,2,2,3,3,4,4,5,5,6,6,7,7,8,8,9,9,10,10,11,11,12,12,13,13,14,14],"right_children":[2,4,6,8,10,12,14,16,18,20,22,24,26,28,30,-1,-1,-1,-1,-1,-1,-1,-1,-1,-1,-1,-1,-1,-1,-1,-1],"split_conditions":[7E0,5.85E1,5.6E1,4.26E1,7.21E1,4.67E1,9.8333336E1,8.42E1,4E0,6.14E1,1.04E1,5.19E1,1.3E3,1E0,1.8E3,-3.1597953E-2,-1.2232189E-2,2.7320895E-3,-7.90645E-3,2.5602125E-3,1.50550725E-2,-2.030106E-2,2.2130294E-2,-7.7797205E-4,-2.4523044E-2,-3.4787317E-3,-1.3559486E-2,2.1462557E-3,-1.951556E-2,3.1122472E-2,2.5670715E-3],"split_indices":[26,21,3,3,20,22,54,9,26,11,2,20,28,45,28,0,0,0,0,0,0,0,0,0,0,0,0,0,0,0,0],"split_type":[0,0,0,0,0,0,0,0,0,0,0,0,0,0,0,0,0,0,0,0,0,0,0,0,0,0,0,0,0,0,0],"sum_hessian":[1.2168761E3,9.987782E2,2.1809789E2,3.56017E2,6.4276117E2,1.5716582E2,6.0932068E1,1.891169E1,3.3710532E2,5.9904236E2,4.3718853E1,3.6173637E1,1.2099218E2,5.2706013E1,8.226055E0,1.1352504E1,7.5591874E0,2.133098E2,1.2379551E2,5.5748987E2,4.155249E1,6.343474E0,3.7375378E1,6.14015E0,3.003349E1,3.580933E1,8.5182846E1,4.109423E1,1.1611783E1,5.447529E0,2.7785265E0],"tree_param":{"num_deleted":"0","num_feature":"56","num_nodes":"31","size_leaf_vector":"1"}},{"base_weights":[-8.2225853E-4,-2.6210144E-1,3.4115735E-2,-5.777354E-2,-3.1393778E-1,-3.3411923E-1,4.688779E-2,1.7227405E-1,-2.8952008E-1,-2.5145385E-1,-2.626887E-2,1.8311266E-2,-4.1456878E-1,-1.1605042E-1,6.855269E-2,-1.4111766E-2,1.3431457E-2,1.270851E-2,-1.8268162E-2,5.6693754E-3,-1.2685856E-2,-1.1181009E-2,-2.3725912E-2,-1.7219407E-3,-2.2608778E-2,2.4445487E-2,2.7524133E-3],"categories":[],"categories_nodes":[],"categories_segments":[],"categories_sizes":[],"default_left":[0,0,0,0,0,0,0,0,0,0,0,0,0,0,0,0,0,0,0,0,0,0,0,0,0,0,0],"id":39,"left_children":[1,3,5,7,9,11,13,15,17,19,-1,-1,21,23,25,-1,-1,-1,-1,-1,-1,-1,-1,-1,-1,-1,-1],"loss_changes":[1.1065309E1,1.492526E0,5.047447E0,1.6806453E0,1.7418995E0,2.348001E0,3.661114E0,1.0939643E0,1.1759648E0,1.1286798E0,0E0,0E0,4.615183E-1,3.6388142E0,3.1646829E0,0E0,0E0,0E0,0E0,0E0,0E0,0E0,0E0,0E0,0E0,0E0,0E0],"parents":[2147483647,0,0,1,1,2,2,3,3,4,4,5,5,6,6,7,7,8,8,9,9,12,12,13,13,14,14],"right_children":[2,4,6,8,10,12,14,16,18,20,-1,-1,22,24,26,-1,-1,-1,-1,-1,-1,-1,-1,-1,-1,-1,-1],"split_conditions":[4.54E1,2.44E1,6.91E1,3.91E1,1.2E1,3E0,3.18E1,4.99E1,7.05E1,4.17E1,-2.626887E-2,1.8311266E-2,6.3966667E1,8.85E1,9.949143E1,-1.4111766E-2,1.3431457E-2,1.270851E-2,-1.8268162E-2,5.6693754E-3,-1.2685856E-2,-1.1181009E-2,-2.3725912E-2,-1.7219407E-3,-2.2608778E-2,2.4445487E-2,2.7524133E-3],"split_indices":[25,10,54,25,26,26,21,22,54,9,0,0,54,10,55,0,0,0,0,0,0,0,0,0,0,0,0],"split_type":[0,0,0,0,0,0,0,0,0,0,0,0,0,0,0,0,0,0,0,0,0,0,0,0,0,0,0],"sum_hessian":[1.2097869E3,1.4177074E2,1.0680161E3,2.9201609E1,1.1256913E2,3.4789757E1,1.0332263E3,1.4809064E1,1.4392545E1,9.328456E1,1.928457E1,2.9301298E0,3.1859629E1,1.2064523E2,9.125811E2,2.6860816E0,1.2122983E1,2.1451929E0,1.2247352E1,6.683729E0,8.660083E1,1.4431359E1,1.742827E1,1.0152468E2,1.912055E1,1.265193E1,8.999292E2],"tree_param":{"num_deleted":"0","num_feature":"56","num_nodes":"27","size_leaf_vector":"1"}},{"base_weights":[-3.1887179E-3,-9.241331E-2,9.157918E-2,-5.674552E-1,-7.706249E-2,-5.2378055E-2,1.2744926E-1,-6.0810703E-1,-4.227321E-3,-2.0709509E-1,-3.94482E-2,3.0033362E-1,-1.6602972E-1,-5.4724995E-2,1.61678E-1,-2.8458038E-2,-4.809408E-3,-1.0785808E-2,7.966923E-3,-1.0954491E-2,-5.802181E-4,-2.6653571E-2,2.3071984E-2,1.5290431E-2,-1.1069177E-2,-1.0914019E-2,3.7647323E-3,-3.1062167E-2,7.817348E-3],"categories":[],"categories_nodes":[],"categories_segments":[],"categories_sizes":[],"default_left":[0,0,0,0,0,0,0,0,0,0,0,0,0,0,0,0,0,0,0,0,0,0,0,0,0,0,0,0,0],"id":40,"left_children":[1,3,5,7,9,11,13,15,-1,17,19,21,23,25,27,-1,-1,-1,-1,-1,-1,-1,-1,-1,-1,-1,-1,-1,-1],"loss_changes":[1.0284223E1,4.515626E0,3.053738E0,3.0528116E-1,2.9649956E0,4.8101873E0,2.957087E0,1.3400888E-1,0E0,1.7557278E0,2.5595806E0,5.9201403E0,3.7560494E0,1.9901403E0,4.227556E0,0E0,0E0,0E0,0E0,0E0,0E0,0E0,0E0,0E0,0E0,0E0,0E0,0E0,0E0],"parents":[2147483647,0,0,1,1,2,2,3,3,4,4,5,5,6,6,7,7,9,9,10,10,11,11,12,12,13,13,14,14],"right_children":[2,4,6,8,10,12,14,16,-1,18,20,22,24,26,28,-1,-1,-1,-1,-1,-1,-1,-1,-1,-1,-1,-1,-1,-1],"split_conditions":[5.82E1,3.6E0,8.763333E1,1E0,4.54E1,5.21E1,5.26E1,6.7E1,-4.227321E-3,7.36E1,2.09E1,9E0,1.43E1,7E1,4.77E1,-2.8458038E-2,-4.809408E-3,-1.0785808E-2,7.966923E-3,-1.0954491E-2,-5.802181E-4,-2.6653571E-2,2.3071984E-2,1.5290431E-2,-1.1069177E-2,-1.0914019E-2,3.7647323E-3,-3.1062167E-2,7.817348E-3],"split_indices":[25,23,54,38,25,20,20,22,0,7,21,27,24,7,12,0,0,0,0,0,0,0,0,0,0,0,0,0,0],"split_type":[0,0,0,0,0,0,0,0,0,0,0,0,0,0,0,0,0,0,0,0,0,0,0,0,0,0,0,0,0],"sum_hessian":[1.2138567E3,6.252292E2,5.8862756E2,1.8220627E1,6.0700854E2,1.1730317E2,4.713244E2,1.6465916E1,1.7547108E0,1.3497903E2,4.720295E2,2.8106161E1,8.919701E1,7.443631E1,3.968881E2,1.5405219E1,1.0606971E0,1.2483917E2,1.0139862E1,5.3241386E1,4.1878812E2,4.989263E0,2.3116898E1,1.1642257E1,7.755475E1,3.1195944E1,4.3240368E1,4.58917E0,3.9229892E2],"tree_param":{"num_deleted":"0","num_feature":"56","num_nodes":"29","size_leaf_vector":"1"}},{"base_weights":[2.9084734E-3,-8.006962E-2,9.125262E-2,-5.8102723E-2,-4.5066693E-1,5.1978413E-2,2.1049242E-1,-4.3811145E-1,-4.379187E-2,-1.3621086E-1,-2.6456077E-2,7.588922E-2,-3.2819387E-1,1.3803612E-1,6.748387E-1,-2.4445005E-2,-8.937019E-3,-7.470108E-3,-1.17004005E-4,-1.6153805E-2,7.895108E-3,-1.2915238E-2,4.5068646E-3,-2.1820942E-2,1.8199086E-2,1.5712036E-2,-1.2497146E-4,5.594912E-3,3.2809068E-2],"categories":[],"categories_nodes":[],"categories_segments":[],"categories_sizes":[],"default_left":[0,0,0,0,0,0,0,0,0,0,0,0,0,0,0,0,0,0,0,0,0,0,0,0,0,0,0,0,0],"id":41,"left_children":[1,3,5,7,9,11,13,15,17,19,-1,21,23,25,27,-1,-1,-1,-1,-1,-1,-1,-1,-1,-1,-1,-1,-1,-1],"loss_changes":[8.869966E0,5.048198E0,2.731258E0,3.1878676E0,1.4031153E0,4.0516095E0,4.7600913E0,4.0664053E-1,2.8705754E0,9.1678536E-1,0E0,3.7081063E0,3.2669473E0,3.769746E0,4.6574116E-1,0E0,0E0,0E0,0E0,0E0,0E0,0E0,0E0,0E0,0E0,0E0,0E0,0E0,0E0],"parents":[2147483647,0,0,1,1,2,2,3,3,4,4,5,5,6,6,7,7,8,8,9,9,11,11,12,12,13,13,14,14],"right_children":[2,4,6,8,10,12,14,16,18,20,-1,22,24,26,28,-1,-1,-1,-1,-1,-1,-1,-1,-1,-1,-1,-1,-1,-1],"split_conditions":[5.82E1,1.2E1,8.08E1,5.2E0,3.48E1,6.64E1,8.41E1,9.78E1,4.87E1,7.67E1,-2.6456077E-2,3.2E1,9.84E1,3.89E1,4.59E1,-2.4445005E-2,-8.937019E-3,-7.470108E-3,-1.17004005E-4,-1.6153805E-2,7.895108E-3,-1.2915238E-2,4.5068646E-3,-2.1820942E-2,1.8199086E-2,1.5712036E-2,-1.2497146E-4,5.594912E-3,3.2809068E-2],"split_indices":[25,26,2,23,10,2,3,2,3,9,0,22,54,10,22,0,0,0,0,0,0,0,0,0,0,0,0,0,0],"split_type":[0,0,0,0,0,0,0,0,0,0,0,0,0,0,0,0,0,0,0,0,0,0,0,0,0,0,0,0,0],"sum_hessian":[1.207591E3,6.227652E2,5.848258E2,5.892273E2,3.353789E1,4.4122266E2,1.4360313E2,2.0094826E1,5.6913245E2,1.0916679E1,2.262121E1,4.1601782E2,2.5204842E1,1.2556653E2,1.8036598E1,1.2908291E1,7.1865354E0,1.4255495E2,4.265775E2,6.2600327E0,4.6566467E0,2.5257612E1,3.9076022E2,2.1097553E1,4.107288E0,4.953044E1,7.603609E1,1.9723799E0,1.6064219E1],"tree_param":{"num_deleted":"0","num_feature":"56","num_nodes":"29","size_leaf_vector":"1"}},{"base_weights":[3.2115437E-3,-8.207543E-2,8.993675E-2,-2.8502807E-1,-4.528069E-2,-5.2665792E-2,1.5347484E-1,-4.6744418E-1,-1.3791242E-1,-3.2217953E-2,-5.3133214E-1,-5.6008923E-1,-7.2651342E-3,5.776038E-2,2.4868965E-1,-2.2336196E-2,6.024063E-3,1.0325013E-2,-1.1540944E-2,-2.1872444E-3,1.5086126E-2,-7.4425167E-3,-2.9103741E-2,-3.5788186E-2,-2.6216703E-3,2.7100036E-3,-1.5602079E-2,-1.3462988E-2,4.377613E-3,7.872167E-3,1.7096816E-2],"categories":[],"categories_nodes":[],"categories_segments":[],"categories_sizes":[],"default_left":[0,0,0,0,0,0,0,0,0,0,0,0,0,0,0,0,0,0,0,0,0,0,0,0,0,0,0,0,0,0,0],"id":42,"left_children":[1,3,5,7,9,11,13,15,17,19,21,23,25,27,29,-1,-1,-1,-1,-1,-1,-1,-1,-1,-1,-1,-1,-1,-1,-1,-1],"loss_changes":[8.96626E0,4.548734E0,5.4553905E0,2.433888E0,3.2735763E0,4.2834067E0,3.7746668E0,7.9738426E-1,2.4007227E0,3.0697656E0,4.4188237E-1,1.7469163E0,3.966998E0,2.9839272E0,1.9356651E0,0E0,0E0,0E0,0E0,0E0,0E0,0E0,0E0,0E0,0E0,0E0,0E0,0E0,0E0,0E0,0E0],"parents":[2147483647,0,0,1,1,2,2,3,3,4,4,5,5,6,6,7,7,8,8,9,9,10,10,11,11,12,12,13,13,14,14],"right_children":[2,4,6,8,10,12,14,16,18,20,22,24,26,28,30,-1,-1,-1,-1,-1,-1,-1,-1,-1,-1,-1,-1,-1,-1,-1,-1],"split_conditions":[5.79E1,4.26E1,4.9E1,4.9E1,6.8E1,4.64E1,7.09E1,6.99E1,2.67E1,6.49E1,3.87E1,3.86E1,4.69E1,3.89E1,9.42E1,-2.2336196E-2,6.024063E-3,1.0325013E-2,-1.1540944E-2,-2.1872444E-3,1.5086126E-2,-7.4425167E-3,-2.9103741E-2,-3.5788186E-2,-2.6216703E-3,2.7100036E-3,-1.5602079E-2,-1.3462988E-2,4.377613E-3,7.872167E-3,1.7096816E-2],"split_indices":[25,25,1,3,11,3,7,22,10,11,3,2,1,21,9,0,0,0,0,0,0,0,0,0,0,0,0,0,0,0,0],"split_type":[0,0,0,0,0,0,0,0,0,0,0,0,0,0,0,0,0,0,0,0,0,0,0,0,0,0,0,0,0,0,0],"sum_hessian":[1.2098276E3,6.10004E2,5.9982355E2,9.2376656E1,5.176274E2,1.8494505E2,4.148785E2,4.007401E1,5.2302647E1,5.0532617E2,1.2301204E1,1.4071385E1,1.7087367E2,2.0785788E2,2.0702063E2,3.8435196E1,1.6388155E0,1.2487011E1,3.981563E1,4.8474954E2,2.057661E1,3.6495392E0,8.651665E0,9.103093E0,4.968292E0,1.4335883E2,2.7514837E1,1.9933863E1,1.8792401E2,1.3433054E2,7.2690094E1],"tree_param":{"num_deleted":"0","num_feature":"56","num_nodes":"31","size_leaf_vector":"1"}},{"base_weights":[-7.599442E-3,-1.1815102E-1,5.303331E-2,-2.796794E-1,-5.234196E-2,2.7273623E-2,2.7317742E-1,-3.1951576E-1,1.947436E-1,-8.408307E-2,4.4379097E-1,1.3139008E-2,3.9290318E-1,-3.5484783E-2,3.4256172E-1,-7.7363844E-3,-2.3121629E-2,-1.61102E-2,2.4879511E-2,1.1705311E-2,-5.349831E-3,3.19917E-2,3.7752579E-3,1.1890186E-3,-2.3806887E-2,2.6532734E-2,-2.476838E-4,-1.8787712E-2,1.1853522E-2,1.647119E-2,-1.6527327E-2],"categories":[],"categories_nodes":[],"categories_segments":[],"categories_sizes":[],"default_left":[0,0,0,0,0,0,0,0,0,0,0,0,0,0,0,0,0,0,0,0,0,0,0,0,0,0,0,0,0,0,0],"id":43,"left_children":[1,3,5,7,9,11,13,15,17,19,21,23,25,27,29,-1,-1,-1,-1,-1,-1,-1,-1,-1,-1,-1,-1,-1,-1,-1,-1],"loss_changes":[7.9844556E0,4.467041E0,4.3540096E0,2.3775244E0,4.7885275E0,3.5602822E0,1.7377839E0,3.130684E0,2.2536068E0,3.4406521E0,1.6882219E0,4.8109407E0,2.0136454E0,1.9423451E0,1.2574062E0,0E0,0E0,0E0,0E0,0E0,0E0,0E0,0E0,0E0,0E0,0E0,0E0,0E0,0E0,0E0,0E0],"parents":[2147483647,0,0,1,1,2,2,3,3,4,4,5,5,6,6,7,7,8,8,9,9,10,10,11,11,12,12,13,13,14,14],"right_children":[2,4,6,8,10,12,14,16,18,20,22,24,26,28,30,-1,-1,-1,-1,-1,-1,-1,-1,-1,-1,-1,-1,-1,-1,-1,-1],"split_conditions":[5.42E1,4.92E1,5.15E1,9.946667E1,8.8E1,1.8E3,3.86E1,4.4040988E2,4.76E1,2.62E1,4.87E1,1E0,5.04E1,6.2E1,8.76E1,-7.7363844E-3,-2.3121629E-2,-1.61102E-2,2.4879511E-2,1.1705311E-2,-5.349831E-3,3.19917E-2,3.7752579E-3,1.1890186E-3,-2.3806887E-2,2.6532734E-2,-2.476838E-4,-1.8787712E-2,1.1853522E-2,1.647119E-2,-1.6527327E-2],"split_indices":[25,22,23,54,7,51,0,55,21,11,25,49,13,7,22,0,0,0,0,0,0,0,0,0,0,0,0,0,0,0,0],"split_type":[0,0,0,0,0,0,0,0,0,0,0,0,0,0,0,0,0,0,0,0,0,0,0,0,0,0,0,0,0,0,0],"sum_hessian":[1.1888463E3,4.2068106E2,7.681653E2,1.2064876E2,3.0003232E2,6.889034E2,7.926189E1,1.11664345E2,8.984416E0,2.8292804E2,1.7104267E1,6.6445966E2,2.4443754E1,1.4654838E1,6.460705E1,6.474411E1,4.6920235E1,3.5326016E0,5.4518147E0,2.5266544E1,2.576615E2,9.145509E0,7.9587593E0,6.4968365E2,1.4775964E1,1.5978478E1,8.465277E0,6.22389E0,8.430948E0,6.310232E1,1.5047244E0],"tree_param":{"num_deleted":"0","num_feature":"56","num_nodes":"31","size_leaf_vector":"1"}},{"base_weights":[1.2424913E-2,5.2854244E-2,-1.783185E-1,2.2568575E-3,1.2761185E-1,-2.8256783E-1,8.744615E-2,-9.703332E-3,5.7785225E-1,1.3902548E-1,-4.721317E-1,1.3699074E-2,-2.9239047E-1,-3.6475182E-1,1.402871E-1,-2.071373E-3,7.935591E-3,-2.9201696E-3,3.39462E-2,-2.9680446E-2,6.6261725E-3,-2.6061647E-2,-3.5260986E-3,-7.202994E-4,-1.4311994E-2,2.621872E-3,-2.0490488E-2,9.4607694E-4,1.7819928E-2],"categories":[],"categories_nodes":[],"categories_segments":[],"categories_sizes":[],"default_left":[0,0,0,0,0,0,0,0,0,0,0,0,0,0,0,0,0,0,0,0,0,0,0,0,0,0,0,0,0],"id":44,"left_children":[1,3,5,7,9,11,13,15,17,19,21,-1,23,25,27,-1,-1,-1,-1,-1,-1,-1,-1,-1,-1,-1,-1,-1,-1],"loss_changes":[9.222812E0,3.731197E0,5.8250694E0,4.0653157E0,2.8043327E0,9.747181E-1,1.4915149E0,3.921168E0,1.422471E0,2.6884398E0,2.7039945E-1,0E0,1.0479422E0,2.8458393E-1,1.6507355E0,0E0,0E0,0E0,0E0,0E0,0E0,0E0,0E0,0E0,0E0,0E0,0E0,0E0,0E0],"parents":[2147483647,0,0,1,1,2,2,3,3,4,4,5,5,6,6,7,7,8,8,9,9,10,10,12,12,13,13,14,14],"right_children":[2,4,6,8,10,12,14,16,18,20,22,-1,24,26,28,-1,-1,-1,-1,-1,-1,-1,-1,-1,-1,-1,-1,-1,-1],"split_conditions":[7E0,6.7E1,5.6E1,9.4E1,8.33E1,4.59E1,4.76E1,5.17E1,7.42E1,4.89E1,9.02E1,1.3699074E-2,3E0,5.76E1,5.248421E2,-2.071373E-3,7.935591E-3,-2.9201696E-3,3.39462E-2,-2.9680446E-2,6.6261725E-3,-2.6061647E-2,-3.5260986E-3,-7.202994E-4,-1.4311994E-2,2.621872E-3,-2.0490488E-2,9.4607694E-4,1.7819928E-2],"split_indices":[26,3,3,4,24,20,4,22,21,12,5,0,1,3,55,0,0,0,0,0,0,0,0,0,0,0,0,0,0],"split_type":[0,0,0,0,0,0,0,0,0,0,0,0,0,0,0,0,0,0,0,0,0,0,0,0,0,0,0,0,0],"sum_hessian":[1.193295E3,9.853178E2,2.0797717E2,5.883485E2,3.9696936E2,1.493263E2,5.8650883E1,5.775279E2,1.0820575E1,3.904604E2,6.5089583E0,1.8653307E0,1.4746095E2,5.3953757E0,5.325551E1,4.8393936E2,9.358855E1,2.4947782E0,8.325796E0,3.010688E0,3.874497E2,4.6738358E0,1.8351227E0,1.269024E1,1.3477072E2,1.0271916E0,4.368184E0,3.7202847E1,1.6052662E1],"tree_param":{"num_deleted":"0","num_feature":"56","num_nodes":"29","size_leaf_vector":"1"}},{"base_weights":[9.727838E-3,-5.0128493E-2,1.191344E-1,-7.135319E-2,2.8536054E-1,6.813147E-2,2.5794688E-1,-1.1293183E-1,8.643445E-2,4.5512283E-1,-4.3750754E-1,8.6457096E-2,-3.2813527E-2,3.096852E-1,-3.193142E-1,-6.116538E-3,9.410878E-3,-2.0499574E-2,6.9709737E-3,2.2651875E-2,-1.2584247E-2,-2.2449702E-2,8.1167126E-4,-2.72494E-3,7.0673153E-3,1.7375153E-2,-9.327806E-3,1.8091377E-2,-2.9987643E-2],"categories":[],"categories_nodes":[],"categories_segments":[],"categories_sizes":[],"default_left":[0,0,0,0,0,0,0,0,0,0,0,0,0,0,0,0,0,0,0,0,0,0,0,0,0,0,0,0,0],"id":45,"left_children":[1,3,5,7,9,11,13,15,17,19,21,23,-1,25,27,-1,-1,-1,-1,-1,-1,-1,-1,-1,-1,-1,-1,-1,-1],"loss_changes":[7.709272E0,5.4436884E0,2.9260383E0,4.7139425E0,5.8254156E0,4.547477E0,3.446395E0,4.2382965E0,5.657464E0,1.4968324E0,2.6996684E-1,3.1274228E0,0E0,4.1603804E0,2.7639482E0,0E0,0E0,0E0,0E0,0E0,0E0,0E0,0E0,0E0,0E0,0E0,0E0,0E0,0E0],"parents":[2147483647,0,0,1,1,2,2,3,3,4,4,5,5,6,6,7,7,8,8,9,9,10,10,11,11,13,13,14,14],"right_children":[2,4,6,8,10,12,14,16,18,20,22,24,-1,26,28,-1,-1,-1,-1,-1,-1,-1,-1,-1,-1,-1,-1,-1,-1],"split_conditions":[6.7E1,6.87E1,8.83E1,9.5666664E1,6.3E1,1E2,9.74E1,5.15E1,4.91E1,6.48E1,7.15E1,6.82E1,-3.2813527E-2,6.49E1,9.59E1,-6.116538E-3,9.410878E-3,-2.0499574E-2,6.9709737E-3,2.2651875E-2,-1.2584247E-2,-2.2449702E-2,8.1167126E-4,-2.72494E-3,7.0673153E-3,1.7375153E-2,-9.327806E-3,1.8091377E-2,-2.9987643E-2],"split_indices":[3,25,2,54,10,7,10,23,4,3,1,21,0,22,2,0,0,0,0,0,0,0,0,0,0,0,0,0,0],"split_type":[0,0,0,0,0,0,0,0,0,0,0,0,0,0,0,0,0,0,0,0,0,0,0,0,0,0,0,0,0],"sum_hessian":[1.1749319E3,7.598617E2,4.1507016E2,7.1553796E2,4.4323685E1,3.0485013E2,1.1022005E2,5.6657965E2,1.4895836E2,3.625406E1,8.069629E0,2.9904672E2,5.8034143E0,1.0166438E2,8.555668E0,5.294753E2,3.7104343E1,1.594806E1,1.330103E2,3.4374603E1,1.8794535E0,7.010902E0,1.0587268E0,9.7070335E1,2.0197638E2,8.883472E1,1.2829661E1,2.7175944E0,5.8380737E0],"tree_param":{"num_deleted":"0","num_feature":"56","num_nodes":"29","size_leaf_vector":"1"}},{"base_weights":[1.615118E-2,9.181953E-2,-7.423827E-2,6.262212E-2,2.4176215E-1,-1.8304785E-1,4.0912956E-2,-1.7800742E-1,8.670556E-2,3.6190006E-1,-7.290522E-2,-7.33401E-2,-2.482747E-1,8.030247E-2,-2.4713734E-1,-1.3921791E-2,1.9296486E-2,-6.3007204E-3,5.13422E-3,1.8032102E-2,-5.6500733E-3,-2.4544636E-2,8.993396E-3,1.6060723E-3,-1.1698541E-2,-1.4577372E-2,-1.6977354E-3,1.2989059E-3,1.256092E-2,-2.1124616E-2,4.3339925E-3],"categories":[],"categories_nodes":[],"categories_segments":[],"categories_sizes":[],"default_left":[0,0,0,0,0,0,0,0,0,0,0,0,0,0,0,0,0,0,0,0,0,0,0,0,0,0,0,0,0,0,0],"id":46,"left_children":[1,3,5,7,9,11,13,15,17,19,21,23,25,27,29,-1,-1,-1,-1,-1,-1,-1,-1,-1,-1,-1,-1,-1,-1,-1,-1],"loss_changes":[8.151313E0,2.8213634E0,6.814816E0,3.17404E0,4.0121284E0,1.9782248E0,3.029202E0,4.139527E0,3.0976837E0,1.5058851E0,4.0092363E0,2.1663816E0,2.7698622E0,2.3827448E0,2.509479E0,0E0,0E0,0E0,0E0,0E0,0E0,0E0,0E0,0E0,0E0,0E0,0E0,0E0,0E0,0E0,0E0],"parents":[2147483647,0,0,1,1,2,2,3,3,4,4,5,5,6,6,7,7,8,8,9,9,10,10,11,11,12,12,13,13,14,14],"right_children":[2,4,6,8,10,12,14,16,18,20,22,24,26,28,30,-1,-1,-1,-1,-1,-1,-1,-1,-1,-1,-1,-1,-1,-1,-1,-1],"split_conditions":[4E0,8.5E1,5.85E1,4.92E1,5.97E1,3.74E1,9E0,6.71E1,2.45E1,7.9E1,8.33E1,4.902851E2,1E0,6.46E1,4.95E1,-1.3921791E-2,1.9296486E-2,-6.3007204E-3,5.13422E-3,1.8032102E-2,-5.6500733E-3,-2.4544636E-2,8.993396E-3,1.6060723E-3,-1.1698541E-2,-1.4577372E-2,-1.6977354E-3,1.2989059E-3,1.256092E-2,-2.1124616E-2,4.3339925E-3],"split_indices":[26,7,21,3,17,10,26,25,17,1,21,55,29,10,25,0,0,0,0,0,0,0,0,0,0,0,0,0,0,0,0],"split_type":[0,0,0,0,0,0,0,0,0,0,0,0,0,0,0,0,0,0,0,0,0,0,0,0,0,0,0,0,0,0,0],"sum_hessian":[1.1893826E3,6.474006E2,5.4198193E2,5.4330695E2,1.0409366E2,2.7830054E2,2.636814E2,4.873198E1,4.9457495E2,7.5201935E1,2.8891726E1,1.0471885E2,1.7358168E2,2.3272308E2,3.0958315E1,4.0543266E1,8.188712E0,5.2773937E1,4.4180103E2,6.985346E1,5.348469E0,1.013465E1,1.8757074E1,6.671402E1,3.800483E1,1.2721619E2,4.6365498E1,1.8598279E2,4.67403E1,1.8526651E1,1.2431663E1],"tree_param":{"num_deleted":"0","num_feature":"56","num_nodes":"31","size_leaf_vector":"1"}},{"base_weights":[-1.6414162E-3,-1.1332861E-1,5.697831E-2,-1.8847942E-1,2.9755378E-2,