{"learner":{"attributes":{"scikit_learn":"{\"_estimator_type\": \"ranker\"}"},"feature_names":[],"feature_types":[],"gradient_booster":{"model":{"cats":{"enc":[],"feature_segments":[],"sorted_idx":[]},"gbtree_model_param":{"num_parallel_tree":"1","num_trees":"300"},"iteration_indptr":[0,1,2,3,4,5,6,7,8,9,10,11,12,13,14,15,16,17,18,19,20,21,22,23,24,25,26,27,28,29,30,31,32,33,34,35,36,37,38,39,40,41,42,43,44,45,46,47,48,49,50,51,52,53,54,55,56,57,58,59,60,61,62,63,64,65,66,67,68,69,70,71,72,73,74,75,76,77,78,79,80,81,82,83,84,85,86,87,88,89,90,91,92,93,94,95,96,97,98,99,100,101,102,103,104,105,106,107,108,109,110,111,112,113,114,115,116,117,118,119,120,121,122,123,124,125,126,127,128,129,130,131,132,133,134,135,136,137,138,139,140,141,142,143,144,145,146,147,148,149,150,151,152,153,154,155,156,157,158,159,160,161,162,163,164,165,166,167,168,169,170,171,172,173,174,175,176,177,178,179,180,181,182,183,184,185,186,187,188,189,190,191,192,193,194,195,196,197,198,199,200,201,202,203,204,205,206,207,208,209,210,211,212,213,214,215,216,217,218,219,220,221,222,223,224,225,226,227,228,229,230,231,232,233,234,235,236,237,238,239,240,241,242,243,244,245,246,247,248,249,250,251,252,253,254,255,256,257,258,259,260,261,262,263,264,265,266,267,268,269,270,271,272,273,274,275,276,277,278,279,280,281,282,283,284,285,286,287,288,289,290,291,292,293,294,295,296,297,298,299,300],"tree_info":[0,0,0,0,0,0,0,0,0,0,0,0,0,0,0,0,0,0,0,0,0,0,0,0,0,0,0,0,0,0,0,0,0,0,0,0,0,0,0,0,0,0,0,0,0,0,0,0,0,0,0,0,0,0,0,0,0,0,0,0,0,0,0,0,0,0,0,0,0,0,0,0,0,0,0,0,0,0,0,0,0,0,0,0,0,0,0,0,0,0,0,0,0,0,0,0,0,0,0,0,0,0,0,0,0,0,0,0,0,0,0,0,0,0,0,0,0,0,0,0,0,0,0,0,0,0,0,0,0,0,0,0,0,0,0,0,0,0,0,0,0,0,0,0,0,0,0,0,0,0,0,0,0,0,0,0,0,0,0,0,0,0,0,0,0,0,0,0,0,0,0,0,0,0,0,0,0,0,0,0,0,0,0,0,0,0,0,0,0,0,0,0,0,0,0,0,0,0,0,0,0,0,0,0,0,0,0,0,0,0,0,0,0,0,0,0,0,0,0,0,0,0,0,0,0,0,0,0,0,0,0,0,0,0,0,0,0,0,0,0,0,0,0,0,0,0,0,0,0,0,0,0,0,0,0,0,0,0,0,0,0,0,0,0,0,0,0,0,0,0,0,0,0,0,0,0,0,0,0,0,0,0,0,0,0,0,0,0,0,0,0,0,0,0,0,0,0,0,0,0],"trees":[{"base_weights":[-1.7622514E-2,1.7213789E-1,-1.6067716E-1,1.293134E-1,1.646883E-2,-4.006897E-1,-8.712599E-2,7.013258E-2,1.2368344E-2,-2.362804E-3,-1.4046158E-2,-1.6709317E-2,-2.3511195E-1,3.515797E-3,-7.931012E-3,-3.3179463E-3,3.6728214E-3,-1.0864199E-2,-0E0],"categories":[],"categories_nodes":[],"categories_segments":[],"categories_sizes":[],"default_left":[0,0,0,0,0,0,0,0,0,0,0,0,0,0,0,0,0,0,0],"id":0,"left_children":[1,3,5,7,-1,9,11,13,-1,-1,-1,15,17,-1,-1,-1,-1,-1,-1],"loss_changes":[6.1743236E0,1.2199707E0,2.0880997E0,1.3119453E0,0E0,3.9476871E-1,9.9434835E-1,1.2469684E0,0E0,0E0,0E0,9.850655E-1,9.323046E-1,0E0,0E0,0E0,0E0,0E0,0E0],"parents":[2147483647,0,0,1,1,2,2,3,3,5,5,6,6,7,7,11,11,12,12],"right_children":[2,4,6,8,-1,10,12,14,-1,-1,-1,16,18,-1,-1,-1,-1,-1,-1],"split_conditions":[5E1,7.8533307E2,4.38E1,8.32E1,1.646883E-2,6.06E1,5.32E1,9.4433334E1,1.2368344E-2,-2.362804E-3,-1.4046158E-2,5.4E1,8.9933334E1,3.515797E-3,-7.931012E-3,-3.3179463E-3,3.6728214E-3,-1.0864199E-2,-0E0],"split_indices":[13,24,1,5,0,13,8,23,0,0,0,12,23,0,0,0,0,0,0],"split_type":[0,0,0,0,0,0,0,0,0,0,0,0,0,0,0,0,0,0,0],"sum_hessian":[2.2353674E2,9.500713E1,1.285296E2,8.8438866E1,6.5682697E0,2.7105265E1,1.0142435E2,7.608246E1,1.2356404E1,6.220593E0,2.088467E1,7.1605225E1,2.981912E1,6.862393E1,7.458526E0,4.4286945E1,2.731828E1,1.8520664E1,1.1298455E1],"tree_param":{"num_deleted":"0","num_feature":"25","num_nodes":"19","size_leaf_vector":"1"}},{"base_weights":[6.4515295E-3,-1.7949526E-1,1.19045146E-1,-3.474242E-1,9.17652E-2,-1.0027447E-3,2.1232137E-1,-5.624425E-1,-2.393253E-1,-2.6089412E-1,1.9403534E-1,5.0876085E-2,-1.2652546E-2,1.30994385E-2,2.693614E-1,-7.018646E-3,-2.0087354E-2,-9.107736E-3,3.4718828E-3,-1.2370258E-3,-1.28010195E-2,9.919102E-3,-3.5818727E-3,-1.9077696E-3,7.7855927E-3,-4.37383E-3,9.4130235E-3,1.1592428E-2,2.5002265E-3],"categories":[],"categories_nodes":[],"categories_segments":[],"categories_sizes":[],"default_left":[0,0,0,0,0,0,0,0,0,0,0,0,0,0,0,0,0,0,0,0,0,0,0,0,0,0,0,0,0],"id":1,"left_children":[1,3,5,7,9,11,13,15,17,19,21,23,-1,25,27,-1,-1,-1,-1,-1,-1,-1,-1,-1,-1,-1,-1,-1,-1],"loss_changes":[9.12145E0,7.5956955E0,3.1189368E0,1.8653736E0,2.37059E0,2.7709615E0,1.6690435E0,5.339365E-1,1.7788496E0,3.5120803E-1,2.3264828E0,2.6681309E0,0E0,1.9459982E0,2.3899517E0,0E0,0E0,0E0,0E0,0E0,0E0,0E0,0E0,0E0,0E0,0E0,0E0,0E0,0E0],"parents":[2147483647,0,0,1,1,2,2,3,3,4,4,5,5,6,6,7,7,8,8,9,9,10,10,11,11,13,13,14,14],"right_children":[2,4,6,8,10,12,14,16,18,20,22,24,-1,26,28,-1,-1,-1,-1,-1,-1,-1,-1,-1,-1,-1,-1,-1,-1],"split_conditions":[-2.0960921E-1,6.22E1,5.08E1,1E1,4E1,9.73E1,2.74E1,4.1242532E2,8.2864996E2,1E0,5.47E1,1.2917861E-1,-1.2652546E-2,5.18E1,5.96E1,-7.018646E-3,-2.0087354E-2,-9.107736E-3,3.4718828E-3,-1.2370258E-3,-1.28010195E-2,9.919102E-3,-3.5818727E-3,-1.9077696E-3,7.7855927E-3,-4.37383E-3,9.4130235E-3,1.1592428E-2,2.5002265E-3],"split_indices":[20,5,5,22,10,23,7,24,24,17,8,19,0,8,7,0,0,0,0,0,0,0,0,0,0,0,0,0,0],"split_type":[0,0,0,0,0,0,0,0,0,0,0,0,0,0,0,0,0,0,0,0,0,0,0,0,0,0,0,0,0],"sum_hessian":[4.3249878E2,1.6166252E2,2.7083624E2,1.001853E2,6.1477226E1,1.1788226E2,1.5295398E2,2.9776306E1,7.0409E1,1.2463551E1,4.9013676E1,1.0587313E2,1.2009133E1,3.576332E1,1.1719065E2,9.577756E0,2.0198551E1,6.0578876E1,9.830118E0,7.2136483E0,5.249902E0,3.472638E1,1.4287296E1,6.833499E1,3.753814E1,2.3419342E1,1.2343981E1,6.961706E1,4.7573593E1],"tree_param":{"num_deleted":"0","num_feature":"25","num_nodes":"29","size_leaf_vector":"1"}},{"base_weights":[-1.4089668E-2,-4.4347577E-2,3.8725552E-1,-1.9501925E-1,3.2644924E-2,-0E0,4.9222976E-1,-6.438477E-2,-2.9829752E-1,-1.07680475E-2,4.0013704E-1,1.9629918E-2,4.906016E-3,-1.0405463E-2,1.5114996E-3,-1.2936366E-3,-1.3375783E-2,8.094178E-4,-7.414434E-3,2.0350395E-2,4.527091E-3],"categories":[],"categories_nodes":[],"categories_segments":[],"categories_sizes":[],"default_left":[0,0,0,0,0,0,0,0,0,0,0,0,0,0,0,0,0,0,0,0,0],"id":2,"left_children":[1,3,5,7,9,-1,11,13,15,17,19,-1,-1,-1,-1,-1,-1,-1,-1,-1,-1],"loss_changes":[5.023477E0,4.613518E0,1.181273E0,1.6648302E0,4.2749166E0,0E0,7.5370646E-1,2.1705406E0,2.5702E0,2.1658576E0,1.5061464E0,0E0,0E0,0E0,0E0,0E0,0E0,0E0,0E0,0E0,0E0],"parents":[2147483647,0,0,1,1,2,2,3,3,4,4,6,6,7,7,8,8,9,9,10,10],"right_children":[2,4,6,8,10,-1,12,14,16,18,20,-1,-1,-1,-1,-1,-1,-1,-1,-1,-1],"split_conditions":[8.4E1,4.1E1,-4.8579365E-1,5.009953E2,9.58E1,-0E0,1.2E1,3.29E1,2.45E1,9.17E1,1E1,1.9629918E-2,4.906016E-3,-1.0405463E-2,1.5114996E-3,-1.2936366E-3,-1.3375783E-2,8.094178E-4,-7.414434E-3,2.0350395E-2,4.527091E-3],"split_indices":[5,3,19,24,6,0,22,0,9,6,22,0,0,0,0,0,0,0,0,0,0],"split_type":[0,0,0,0,0,0,0,0,0,0,0,0,0,0,0,0,0,0,0,0,0],"sum_hessian":[4.1730646E2,3.904002E2,2.6906261E1,1.323082E2,2.58092E2,6.139122E0,2.076714E1,6.1133423E1,7.117477E1,2.3183025E2,2.6261766E1,1.19699335E1,8.797207E0,1.7249374E1,4.388405E1,2.7770033E1,4.3404736E1,2.0033961E2,3.1490639E1,1.0213607E1,1.6048159E1],"tree_param":{"num_deleted":"0","num_feature":"25","num_nodes":"21","size_leaf_vector":"1"}},{"base_weights":[-1.9674918E-2,1.5819946E-1,-1.2385512E-1,2.0349918E-1,-1.8681794E-1,-1.6930304E-1,1.3104016E-1,-6.794476E-2,2.8059047E-1,5.3827986E-3,-4.0001217E-1,-3.4160092E-1,-1.0009743E-1,-2.5028655E-1,3.1874627E-1,-8.389222E-3,3.8927177E-3,2.2405852E-3,1.3526698E-2,-1.7756722E-3,-1.7713914E-2,-6.7496058E-3,-1.7775279E-2,8.61024E-3,-4.7336547E-3,7.157981E-4,-1.41977025E-2,1.4540795E-2,-4.0027752E-4],"categories":[],"categories_nodes":[],"categories_segments":[],"categories_sizes":[],"default_left":[0,0,0,0,0,0,0,0,0,0,0,0,0,0,0,0,0,0,0,0,0,0,0,0,0,0,0,0,0],"id":3,"left_children":[1,3,5,7,9,11,13,15,17,-1,19,21,23,25,27,-1,-1,-1,-1,-1,-1,-1,-1,-1,-1,-1,-1,-1,-1],"loss_changes":[7.8764715E0,2.5228448E0,3.1749759E0,3.0279422E0,1.6469169E0,2.546142E0,3.1055727E0,1.4433156E0,3.6374283E0,0E0,5.6418586E-1,1.3591814E0,3.8133326E0,1.0177798E0,1.7412741E0,0E0,0E0,0E0,0E0,0E0,0E0,0E0,0E0,0E0,0E0,0E0,0E0,0E0,0E0],"parents":[2147483647,0,0,1,1,2,2,3,3,4,4,5,5,6,6,7,7,8,8,10,10,11,11,12,12,13,13,14,14],"right_children":[2,4,6,8,10,12,14,16,18,-1,20,22,24,26,28,-1,-1,-1,-1,-1,-1,-1,-1,-1,-1,-1,-1,-1,-1],"split_conditions":[3.57E1,9.58E1,7.33E1,7E1,5.290105E2,-2.7325484E-1,4.57E1,-4.5088586E-1,4.06E1,5.3827986E-3,4.75E1,4.59E1,4.78E1,6.0086224E2,2.82044E-1,-8.389222E-3,3.8927177E-3,2.2405852E-3,1.3526698E-2,-1.7756722E-3,-1.7713914E-2,-6.7496058E-3,-1.7775279E-2,8.61024E-3,-4.7336547E-3,7.157981E-4,-1.41977025E-2,1.4540795E-2,-4.0027752E-4],"split_indices":[13,6,5,6,24,20,8,20,9,0,8,9,13,24,20,0,0,0,0,0,0,0,0,0,0,0,0,0,0],"split_type":[0,0,0,0,0,0,0,0,0,0,0,0,0,0,0,0,0,0,0,0,0,0,0,0,0,0,0,0,0],"sum_hessian":[4.214845E2,1.5423364E2,2.672509E2,1.3782722E2,1.6406418E1,2.283793E2,3.8871574E1,2.9677258E1,1.0814996E2,5.63526E0,1.0771157E1,6.1946674E1,1.6643262E2,1.2075351E1,2.6796223E1,1.4663911E1,1.5013347E1,5.105705E1,5.7092915E1,5.3657103E0,5.405447E0,4.569715E1,1.6249521E1,1.988109E1,1.4655153E2,5.6137E0,6.461651E0,1.7857187E1,8.939036E0],"tree_param":{"num_deleted":"0","num_feature":"25","num_nodes":"29","size_leaf_vector":"1"}},{"base_weights":[2.253575E-3,2.1336055E-1,-4.897184E-2,-9.5008425E-2,3.6011672E-1,-1.7727242E-1,3.3928894E-2,-3.8349548E-1,1.5730517E-1,4.6879393E-1,8.438059E-2,-2.8576726E-1,-3.4811243E-2,1.4814144E-1,-5.6596126E-2,-0E0,-1.7594574E-2,-1.3861489E-3,1.0086148E-2,9.691719E-3,2.0236814E-2,-4.9631917E-3,1.0944695E-2,3.8357107E-3,-1.0151012E-2,-3.7551771E-3,5.800565E-3,-2.8917235E-3,9.6324235E-3,9.631201E-4,-6.699206E-3],"categories":[],"categories_nodes":[],"categories_segments":[],"categories_sizes":[],"default_left":[0,0,0,0,0,0,0,0,0,0,0,0,0,0,0,0,0,0,0,0,0,0,0,0,0,0,0,0,0,0,0],"id":4,"left_children":[1,3,5,7,9,11,13,15,17,19,21,23,25,27,29,-1,-1,-1,-1,-1,-1,-1,-1,-1,-1,-1,-1,-1,-1,-1,-1],"loss_changes":[4.7877045E0,4.071604E0,3.794053E0,2.290673E0,1.5475287E0,2.043592E0,2.2548323E0,1.1508806E0,7.104065E-1,5.150366E-1,1.5909264E0,1.8433504E0,1.3449838E0,4.212523E0,1.8351595E0,0E0,0E0,0E0,0E0,0E0,0E0,0E0,0E0,0E0,0E0,0E0,0E0,0E0,0E0,0E0,0E0],"parents":[2147483647,0,0,1,1,2,2,3,3,4,4,5,5,6,6,7,7,8,8,9,9,10,10,11,11,12,12,13,13,14,14],"right_children":[2,4,6,8,10,12,14,16,18,20,22,24,26,28,30,-1,-1,-1,-1,-1,-1,-1,-1,-1,-1,-1,-1,-1,-1,-1,-1],"split_conditions":[1.69E1,3.8E1,1.35E1,3.8E0,5.15E1,4.7E1,2.62E1,-1.5267868E0,-7.2415006E-1,4.81E1,7.65E1,3.4053662E2,8.13E1,4.76E1,4.4721066E2,-0E0,-1.7594574E-2,-1.3861489E-3,1.0086148E-2,9.691719E-3,2.0236814E-2,-4.9631917E-3,1.0944695E-2,3.8357107E-3,-1.0151012E-2,-3.7551771E-3,5.800565E-3,-2.8917235E-3,9.6324235E-3,9.631201E-4,-6.699206E-3],"split_indices":[13,3,2,13,8,3,9,20,20,9,5,24,0,5,24,0,0,0,0,0,0,0,0,0,0,0,0,0,0,0,0],"split_type":[0,0,0,0,0,0,0,0,0,0,0,0,0,0,0,0,0,0,0,0,0,0,0,0,0,0,0,0,0,0,0],"sum_hessian":[4.342375E2,8.470065E1,3.4953683E2,2.6880163E1,5.7820488E1,1.3772696E2,2.1180988E2,1.2610685E1,1.4269479E1,3.9689262E1,1.8131226E1,7.58465E1,6.1880463E1,9.455451E1,1.1725537E2,5.017701E0,7.5929837E0,6.5850706E0,7.6844077E0,2.7096117E1,1.2593146E1,9.457147E0,8.67408E0,7.590764E0,6.825573E1,4.59143E1,1.59661665E1,3.8817715E1,5.5736794E1,7.641391E1,4.084146E1],"tree_param":{"num_deleted":"0","num_feature":"25","num_nodes":"31","size_leaf_vector":"1"}},{"base_weights":[-1.6792826E-2,-7.5458705E-2,1.3231935E-1,-3.5334334E-1,-3.0480152E-2,2.271559E-1,-0E0,-4.7699144E-1,2.5407323E-3,2.2117412E-2,-2.7502507E-1,4.1339645E-1,4.869212E-2,-1.279514E-1,2.7961722E-1,-5.0306143E-3,-1.825494E-2,5.7219253E-3,-1.4152153E-3,-1.1616289E-2,1.0205459E-2,1.8121967E-2,5.6489464E-3,5.2375193E-3,-6.3080047E-3,-1.3287511E-2,-0E0,-0E0,1.2380218E-2],"categories":[],"categories_nodes":[],"categories_segments":[],"categories_sizes":[],"default_left":[0,0,0,0,0,0,0,0,0,0,0,0,0,0,0,0,0,0,0,0,0,0,0,0,0,0,0,0,0],"id":5,"left_children":[1,3,5,7,9,11,13,15,-1,17,19,21,23,25,27,-1,-1,-1,-1,-1,-1,-1,-1,-1,-1,-1,-1,-1,-1],"loss_changes":[3.7152739E0,3.7038612E0,1.5473442E0,2.4564242E0,3.5298228E0,2.1610482E0,1.8503957E0,9.194741E-1,0E0,2.6438005E0,3.6265044E0,9.666028E-1,1.3354734E0,1.6047828E0,4.9507022E-1,0E0,0E0,0E0,0E0,0E0,0E0,0E0,0E0,0E0,0E0,0E0,0E0,0E0,0E0],"parents":[2147483647,0,0,1,1,2,2,3,3,4,4,5,5,6,6,7,7,9,9,10,10,11,11,12,12,13,13,14,14],"right_children":[2,4,6,8,10,12,14,16,-1,18,20,22,24,26,28,-1,-1,-1,-1,-1,-1,-1,-1,-1,-1,-1,-1,-1,-1],"split_conditions":[5.3672296E-1,4E1,6.206118E2,6.3E1,7.94E1,1.0153462E0,1.3114369E0,2.3E0,2.5407323E-3,6E0,1E2,7.5E1,3.12E1,6.790795E2,5E1,-5.0306143E-3,-1.825494E-2,5.7219253E-3,-1.4152153E-3,-1.1616289E-2,1.0205459E-2,1.8121967E-2,5.6489464E-3,5.2375193E-3,-6.3080047E-3,-1.3287511E-2,-0E0,-0E0,1.2380218E-2],"split_indices":[20,10,24,8,13,20,20,2,0,2,23,6,2,24,1,0,0,0,0,0,0,0,0,0,0,0,0,0,0],"split_type":[0,0,0,0,0,0,0,0,0,0,0,0,0,0,0,0,0,0,0,0,0,0,0,0,0,0,0,0,0],"sum_hessian":[4.2237692E2,3.0527213E2,1.1710479E2,3.968854E1,2.655836E2,6.840105E1,4.8703747E1,3.1346949E1,8.341593E0,2.190598E2,4.652379E1,3.1360317E1,3.704073E1,3.47276E1,1.3976144E1,1.1389728E1,1.995722E1,6.4042656E1,1.5501714E2,4.0387814E1,6.135972E0,1.4434074E1,1.6926243E1,2.6142021E1,1.0898706E1,9.245395E0,2.5482206E1,5.734337E0,8.241807E0],"tree_param":{"num_deleted":"0","num_feature":"25","num_nodes":"29","size_leaf_vector":"1"}},{"base_weights":[-6.4324066E-3,1.1870415E-1,-9.2154056E-2,-1.4960721E-1,2.4792145E-1,-4.4584326E-2,-3.0006102E-1,-2.8198034E-1,9.0085E-2,4.7760075E-1,8.7054074E-2,-7.391194E-2,1.2301592E-2,-4.015461E-1,9.28767E-3,-0E0,-1.4270281E-2,-8.1203515E-3,1.0069603E-2,1.6480988E-2,6.8790866E-3,4.94764E-3,-6.677726E-3,-3.431909E-3,2.857568E-3,-1.8382484E-2,-7.13043E-3,5.5403425E-3,-3.7975363E-3],"categories":[],"categories_nodes":[],"categories_segments":[],"categories_sizes":[],"default_left":[0,0,0,0,0,0,0,0,0,0,0,0,0,0,0,0,0,0,0,0,0,0,0,0,0,0,0,0,0],"id":6,"left_children":[1,3,5,7,9,11,13,15,17,19,21,23,-1,25,27,-1,-1,-1,-1,-1,-1,-1,-1,-1,-1,-1,-1,-1,-1],"loss_changes":[4.482854E0,5.9567018E0,2.3403077E0,1.8651161E0,4.013135E0,2.7171752E0,1.537497E0,1.9193943E0,2.0091918E0,3.4021282E-1,1.7706796E0,1.3738788E0,0E0,6.527991E-1,3.5819542E-1,0E0,0E0,0E0,0E0,0E0,0E0,0E0,0E0,0E0,0E0,0E0,0E0,0E0,0E0],"parents":[2147483647,0,0,1,1,2,2,3,3,4,4,5,5,6,6,7,7,8,8,9,9,10,10,11,11,13,13,14,14],"right_children":[2,4,6,8,10,12,14,16,18,20,22,24,-1,26,28,-1,-1,-1,-1,-1,-1,-1,-1,-1,-1,-1,-1,-1,-1],"split_conditions":[3.93E1,3.8E1,9.63E1,5.16E1,-2.8330034E-1,9.876667E1,6.25E1,4.3E1,-4.310153E-1,6.2E1,1E0,5.675731E-1,1.2301592E-2,-8.260367E-1,6.62E1,-0E0,-1.4270281E-2,-8.1203515E-3,1.0069603E-2,1.6480988E-2,6.8790866E-3,4.94764E-3,-6.677726E-3,-3.431909E-3,2.857568E-3,-1.8382484E-2,-7.13043E-3,5.5403425E-3,-3.7975363E-3],"split_indices":[13,3,13,8,19,23,8,8,19,3,18,19,0,19,8,0,0,0,0,0,0,0,0,0,0,0,0,0,0],"split_type":[0,0,0,0,0,0,0,0,0,0,0,0,0,0,0,0,0,0,0,0,0,0,0,0,0,0,0,0,0],"sum_hessian":[4.146102E2,1.6681876E2,2.4779143E2,5.3367447E1,1.1345132E2,2.0480359E2,4.2987835E1,3.495941E1,1.8408037E1,4.434079E1,6.911053E1,1.9458601E2,1.0217579E1,3.2650272E1,1.0337562E1,1.548863E1,1.9470781E1,6.8777733E0,1.1530263E1,3.1579952E1,1.2760839E1,5.674446E1,1.2366065E1,1.5896326E2,3.562276E1,1.1071238E1,2.1579037E1,5.1627645E0,5.1747975E0],"tree_param":{"num_deleted":"0","num_feature":"25","num_nodes":"29","size_leaf_vector":"1"}},{"base_weights":[-1.4934641E-2,5.685365E-2,-1.5268894E-1,1.5763866E-2,2.7413633E-1,-2.313884E-1,-4.9924054E-3,-1.3036533E-1,7.678432E-2,4.4068387E-1,-1.0228619E-1,-4.4307236E-2,-3.691841E-1,1.6715416E-1,-1.8591966E-1,-7.385963E-3,1.2977397E-3,-1.4998205E-3,3.7751908E-3,2.0760436E-2,3.7347723E-3,-1.233933E-2,5.12015E-3,1.7217202E-3,-1.3577163E-2,-1.4201076E-2,4.140522E-3,1.3188385E-2,-2.2945346E-3,-0E0,-1.2776206E-2],"categories":[],"categories_nodes":[],"categories_segments":[],"categories_sizes":[],"default_left":[0,0,0,0,0,0,0,0,0,0,0,0,0,0,0,0,0,0,0,0,0,0,0,0,0,0,0,0,0,0,0],"id":7,"left_children":[1,3,5,7,9,11,13,15,17,19,21,23,25,27,29,-1,-1,-1,-1,-1,-1,-1,-1,-1,-1,-1,-1,-1,-1,-1,-1],"loss_changes":[4.0254755E0,2.2664354E0,1.5521514E0,2.0171275E0,2.748964E0,2.159625E0,1.6866916E0,1.4054968E0,1.0426719E0,1.9039001E0,1.358308E0,1.8856066E0,2.9023414E0,1.9577849E0,1.1868758E0,0E0,0E0,0E0,0E0,0E0,0E0,0E0,0E0,0E0,0E0,0E0,0E0,0E0,0E0,0E0,0E0],"parents":[2147483647,0,0,1,1,2,2,3,3,4,4,5,5,6,6,7,7,8,8,9,9,10,10,11,11,12,12,13,13,14,14],"right_children":[2,4,6,8,10,12,14,16,18,20,22,24,26,28,30,-1,-1,-1,-1,-1,-1,-1,-1,-1,-1,-1,-1,-1,-1,-1,-1],"split_conditions":[5.51E1,6.07E1,5.45E1,3.8E1,9.38E1,3.5E1,8.1227696E-1,4.08E1,5.62E1,7.5E0,1.35E1,4.29E1,4.71E1,8.93E1,2.92E1,-7.385963E-3,1.2977397E-3,-1.4998205E-3,3.7751908E-3,2.0760436E-2,3.7347723E-3,-1.233933E-2,5.12015E-3,1.7217202E-3,-1.3577163E-2,-1.4201076E-2,4.140522E-3,1.3188385E-2,-2.2945346E-3,-0E0,-1.2776206E-2],"split_indices":[13,9,3,3,6,3,20,9,6,13,13,9,9,13,9,0,0,0,0,0,0,0,0,0,0,0,0,0,0,0,0],"split_type":[0,0,0,0,0,0,0,0,0,0,0,0,0,0,0,0,0,0,0,0,0,0,0,0,0,0,0,0,0,0,0],"sum_hessian":[4.0039713E2,2.6256345E2,1.3783368E2,2.2377225E2,3.8791214E1,8.785567E1,4.9978012E1,6.3799263E1,1.5997299E2,2.7208431E1,1.1582781E1,3.9308243E1,4.854742E1,2.4838802E1,2.513921E1,3.8803337E1,2.4995926E1,4.2913593E1,1.17059395E2,1.3305963E1,1.390247E1,5.472508E0,6.1102734E0,3.2257107E1,7.051138E0,4.087592E1,7.6715E0,1.1547711E1,1.329109E1,1.5422867E1,9.716343E0],"tree_param":{"num_deleted":"0","num_feature":"25","num_nodes":"31","size_leaf_vector":"1"}},{"base_weights":[1.704029E-2,2.4180563E-1,-1.923754E-2,3.7836814E-1,-1.9709364E-1,5.388248E-2,-1.8410957E-1,4.9620748E-1,4.008189E-2,8.7041495E-4,-1.2786915E-2,2.1539595E-2,3.8399854E-1,-2.3252885E-1,1.3797225E-1,4.268916E-3,1.7884806E-2,-2.1020388E-3,6.505705E-3,-9.330997E-3,1.4430512E-3,1.863343E-2,4.411097E-3,-1.0821183E-2,-3.453154E-3,-4.23053E-3,1.0372241E-2],"categories":[],"categories_nodes":[],"categories_segments":[],"categories_sizes":[],"default_left":[0,0,0,0,0,0,0,0,0,0,0,0,0,0,0,0,0,0,0,0,0,0,0,0,0,0,0],"id":8,"left_children":[1,3,5,7,9,11,13,15,17,-1,-1,19,21,23,25,-1,-1,-1,-1,-1,-1,-1,-1,-1,-1,-1,-1],"loss_changes":[3.4142513E0,3.6913223E0,4.3169003E0,1.6166253E0,9.0046847E-1,2.4773276E0,1.8115621E0,7.7533245E-1,3.5892805E-1,0E0,0E0,1.9480044E0,7.619312E-1,1.239871E0,1.0197728E0,0E0,0E0,0E0,0E0,0E0,0E0,0E0,0E0,0E0,0E0,0E0,0E0],"parents":[2147483647,0,0,1,1,2,2,3,3,4,4,5,5,6,6,7,7,8,8,11,11,12,12,13,13,14,14],"right_children":[2,4,6,8,10,12,14,16,18,-1,-1,20,22,24,26,-1,-1,-1,-1,-1,-1,-1,-1,-1,-1,-1,-1],"split_conditions":[9.1E0,9.38E1,6.367998E2,1E0,5E1,9.67E1,9.923333E1,7E1,5.5E1,8.7041495E-4,-1.2786915E-2,5E1,3.62E1,4.5E1,9.17E1,4.268916E-3,1.7884806E-2,-2.1020388E-3,6.505705E-3,-9.330997E-3,1.4430512E-3,1.863343E-2,4.411097E-3,-1.0821183E-2,-3.453154E-3,-4.23053E-3,1.0372241E-2],"split_indices":[13,6,24,15,12,6,23,6,11,0,0,6,9,11,6,0,0,0,0,0,0,0,0,0,0,0,0],"split_type":[0,0,0,0,0,0,0,0,0,0,0,0,0,0,0,0,0,0,0,0,0,0,0,0,0,0,0],"sum_hessian":[4.0739145E2,5.6190796E1,3.5120065E2,4.3587883E1,1.2602912E1,2.4297092E2,1.0822976E2,3.097686E1,1.2611022E1,6.5635915E0,6.039321E0,2.2405823E2,1.8912678E1,9.537878E1,1.2850979E1,8.550426E0,2.2426435E1,7.467903E0,5.1431184E0,1.4152109E1,2.0990613E2,7.199832E0,1.1712846E1,4.2398716E1,5.298006E1,5.143283E0,7.707696E0],"tree_param":{"num_deleted":"0","num_feature":"25","num_nodes":"27","size_leaf_vector":"1"}},{"base_weights":[-8.2687205E-3,-2.0953852E-1,1.1024221E-2,-1.3014281E-2,-0E0,-1.1708981E-1,4.673319E-2,7.5850124E-3,-7.6307305E-3,-2.975335E-1,1.2175863E-1,1.7468211E-1,-1.992395E-2,-1.1328337E-2,5.772852E-3,7.0342105E-3,-9.6917115E-3,1.5432856E-2,3.0891632E-3,-1.4732826E-3,9.824352E-3],"categories":[],"categories_nodes":[],"categories_segments":[],"categories_sizes":[],"default_left":[0,0,0,0,0,0,0,0,0,0,0,0,0,0,0,0,0,0,0,0,0],"id":9,"left_children":[1,3,5,-1,7,9,11,-1,-1,13,15,17,19,-1,-1,-1,-1,-1,-1,-1,-1],"loss_changes":[1.6775142E0,1.8420842E0,1.7267867E0,0E0,1.4914179E0,3.6376612E0,2.6135168E0,0E0,0E0,2.0732384E0,1.9186788E0,2.256358E0,1.9522772E0,0E0,0E0,0E0,0E0,0E0,0E0,0E0,0E0],"parents":[2147483647,0,0,1,1,2,2,4,4,5,5,6,6,9,9,10,10,11,11,12,12],"right_children":[2,4,6,-1,8,10,12,-1,-1,14,16,18,20,-1,-1,-1,-1,-1,-1,-1,-1],"split_conditions":[-1.1381861E0,8.5E1,2.54E1,-1.3014281E-2,7.3771313E2,5.5E1,2.77E1,7.5850124E-3,-7.6307305E-3,6.9E1,6.8534917E-1,3.39E1,7.06E1,-1.1328337E-2,5.772852E-3,7.0342105E-3,-9.6917115E-3,1.5432856E-2,3.0891632E-3,-1.4732826E-3,9.824352E-3],"split_indices":[19,10,7,0,24,11,9,0,0,12,20,7,9,0,0,0,0,0,0,0,0],"split_type":[0,0,0,0,0,0,0,0,0,0,0,0,0,0,0,0,0,0,0,0,0],"sum_hessian":[4.1347876E2,3.5802647E1,3.7767612E2,1.6608067E1,1.9194582E1,7.9498375E1,2.9817773E2,9.930332E0,9.264249E0,4.5721565E1,3.377681E1,1.0256425E2,1.956135E2,4.021918E1,5.5023856E0,2.8240845E1,5.535966E0,1.49941635E1,8.757008E1,1.828343E2,1.2779186E1],"tree_param":{"num_deleted":"0","num_feature":"25","num_nodes":"21","size_leaf_vector":"1"}},{"base_weights":[-1.1684065E-2,-5.1568717E-2,1.70453E-1,-1.6204874E-1,5.1811954E-4,4.3915078E-1,4.4555197E-4,9.8070554E-2,-2.3905134E-1,1.945814E-1,-2.5082288E-2,4.1787587E-3,1.5681269E-2,2.635585E-1,-8.240631E-2,-1.4065873E-3,1.3006269E-2,-1.960008E-4,-1.08388765E-2,-6.1057747E-4,9.575802E-3,-1.5469777E-3,6.3380124E-3,-0E0,1.3558335E-2,-6.604998E-3,6.423171E-3],"categories":[],"categories_nodes":[],"categories_segments":[],"categories_sizes":[],"default_left":[0,0,0,0,0,0,0,0,0,0,0,0,0,0,0,0,0,0,0,0,0,0,0,0,0,0,0],"id":10,"left_children":[1,3,5,7,9,11,13,15,17,19,21,-1,-1,23,25,-1,-1,-1,-1,-1,-1,-1,-1,-1,-1,-1,-1],"loss_changes":[3.0258396E0,2.0433207E0,3.2657502E0,2.350804E0,1.2316723E0,3.6085892E-1,1.1495179E0,1.4365079E0,2.4031205E0,8.81112E-1,1.2799054E0,0E0,0E0,6.618983E-1,1.6216924E0,0E0,0E0,0E0,0E0,0E0,0E0,0E0,0E0,0E0,0E0,0E0,0E0],"parents":[2147483647,0,0,1,1,2,2,3,3,4,4,5,5,6,6,7,7,8,8,9,9,10,10,13,13,14,14],"right_children":[2,4,6,8,10,12,14,16,18,20,22,-1,-1,24,26,-1,-1,-1,-1,-1,-1,-1,-1,-1,-1,-1,-1],"split_conditions":[7.37E1,-2.7381414E-1,5.290105E2,1.69E1,0E0,4.13E1,9E0,-5.57043E-1,1.4E0,7.936667E1,6.3E1,4.1787587E-3,1.5681269E-2,5.15E1,8.5E1,-1.4065873E-3,1.3006269E-2,-1.960008E-4,-1.08388765E-2,-6.1057747E-4,9.575802E-3,-1.5469777E-3,6.3380124E-3,-0E0,1.3558335E-2,-6.604998E-3,6.423171E-3],"split_indices":[5,20,24,13,20,8,0,20,2,23,8,0,0,3,5,0,0,0,0,0,0,0,0,0,0,0,0],"split_type":[0,0,0,0,0,0,0,0,0,0,0,0,0,0,0,0,0,0,0,0,0,0,0,0,0,0,0],"sum_hessian":[4.170152E2,3.4462872E2,7.2386475E1,1.109125E2,2.3371622E2,2.6140451E1,4.6246025E1,2.4318844E1,8.659365E1,2.7065323E1,2.066509E2,7.6416774E0,1.8498775E1,1.0897512E1,3.534851E1,1.755819E1,6.7606525E0,3.1410185E1,5.5183468E1,9.663441E0,1.740188E1,1.883758E2,1.8275103E1,5.2707305E0,5.6267824E0,2.5177635E1,1.0170877E1],"tree_param":{"num_deleted":"0","num_feature":"25","num_nodes":"27","size_leaf_vector":"1"}},{"base_weights":[1.844259E-2,-2.1971186E-1,4.1644305E-2,-3.876711E-2,-1.4104982E-2,1.3521227E-1,-1.1237529E-2,-9.800698E-3,1.0602206E-1,-2.6319355E-1,1.8991445E-1,-2.0835789E-1,2.6578734E-2,7.1651293E-3,-1.7751756E-3,-3.6356636E-4,-1.3882699E-2,-1.3533348E-3,7.918735E-3,-1.1153948E-2,6.071699E-5,1.409255E-2,7.6742166E-5],"categories":[],"categories_nodes":[],"categories_segments":[],"categories_sizes":[],"default_left":[0,0,0,0,0,0,0,0,0,0,0,0,0,0,0,0,0,0,0,0,0,0,0],"id":11,"left_children":[1,3,5,7,-1,9,11,-1,13,15,17,19,21,-1,-1,-1,-1,-1,-1,-1,-1,-1,-1],"loss_changes":[2.0336137E0,1.2795061E0,1.742281E0,1.0396687E0,0E0,2.8329628E0,1.7023797E0,0E0,4.1672748E-1,6.1981857E-1,2.0554595E0,1.3793957E0,1.8223684E0,0E0,0E0,0E0,0E0,0E0,0E0,0E0,0E0,0E0,0E0],"parents":[2147483647,0,0,1,1,2,2,3,3,5,5,6,6,8,8,9,9,10,10,11,11,12,12],"right_children":[2,4,6,8,-1,10,12,-1,14,16,18,20,22,-1,-1,-1,-1,-1,-1,-1,-1,-1,-1],"split_conditions":[-1.1163613E0,5.95E1,5E1,4.5E1,-1.4104982E-2,6.9333336E1,3.4E1,-9.800698E-3,5.15E1,6.4933334E1,1.1E1,2.8E1,3.5E0,7.1651293E-3,-1.7751756E-3,-3.6356636E-4,-1.3882699E-2,-1.3533348E-3,7.918735E-3,-1.1153948E-2,6.071699E-5,1.409255E-2,7.6742166E-5],"split_indices":[19,12,0,10,0,23,1,0,8,23,0,9,3,0,0,0,0,0,0,0,0,0,0],"split_type":[0,0,0,0,0,0,0,0,0,0,0,0,0,0,0,0,0,0,0,0,0,0,0],"sum_hessian":[3.723914E2,3.0407162E1,3.4198422E2,1.9689535E1,1.07176285E1,1.24411865E2,2.1757236E2,6.4408426E0,1.3248692E1,1.3437451E1,1.1097441E2,3.484638E1,1.8272597E2,7.8565307E0,5.3921614E0,7.555921E0,5.8815303E0,2.5802607E1,8.517181E1,1.9549965E1,1.5296412E1,6.844565E0,1.7588141E2],"tree_param":{"num_deleted":"0","num_feature":"25","num_nodes":"23","size_leaf_vector":"1"}},{"base_weights":[4.3465375E-4,-3.215182E-2,1.4010999E-1,1.132387E-2,-1.237897E-1,4.1508812E-1,4.1042034E-2,-1.2216628E-1,6.099195E-2,-2.4258427E-1,6.687428E-2,1.7551187E-3,1.5674243E-2,-1.9944248E-1,1.4156705E-1,-9.531525E-3,1.8440838E-3,-4.0396594E-4,5.0908453E-3,-1.0960885E-2,-8.745348E-4,-3.7315884E-3,7.119266E-3,9.471388E-5,-1.3971185E-2,1.0428712E-4,1.01197E-2],"categories":[],"categories_nodes":[],"categories_segments":[],"categories_sizes":[],"default_left":[0,0,0,0,0,0,0,0,0,0,0,0,0,0,0,0,0,0,0,0,0,0,0,0,0,0,0],"id":12,"left_children":[1,3,5,7,9,11,13,15,17,19,21,-1,-1,23,25,-1,-1,-1,-1,-1,-1,-1,-1,-1,-1,-1,-1],"loss_changes":[1.8104645E0,1.2916518E0,1.8896358E0,1.4106276E0,2.4352493E0,4.9259233E-1,1.4564168E0,2.1579309E0,1.3336034E0,1.5722871E0,1.4107825E0,0E0,0E0,1.0713508E0,1.0684637E0,0E0,0E0,0E0,0E0,0E0,0E0,0E0,0E0,0E0,0E0,0E0,0E0],"parents":[2147483647,0,0,1,1,2,2,3,3,4,4,5,5,6,6,7,7,8,8,9,9,10,10,13,13,14,14],"right_children":[2,4,6,8,10,12,14,16,18,20,22,-1,-1,24,26,-1,-1,-1,-1,-1,-1,-1,-1,-1,-1,-1,-1],"split_conditions":[7.37E1,5.31E1,8.4166664E1,4.59E1,1.4E1,-6.0207236E-1,4.57E1,5E1,7.5E1,6.22E1,3.0388217E-2,1.7551187E-3,1.5674243E-2,2.91E1,8.4E1,-9.531525E-3,1.8440838E-3,-4.0396594E-4,5.0908453E-3,-1.0960885E-2,-8.745348E-4,-3.7315884E-3,7.119266E-3,9.471388E-5,-1.3971185E-2,1.0428712E-4,1.01197E-2],"split_indices":[5,8,23,1,22,20,8,3,10,8,19,0,0,7,5,0,0,0,0,0,0,0,0,0,0,0,0],"split_type":[0,0,0,0,0,0,0,0,0,0,0,0,0,0,0,0,0,0,0,0,0,0,0,0,0,0,0],"sum_hessian":[3.866757E2,3.1303574E2,7.3639946E1,2.1127827E2,1.01757484E2,1.7012123E1,5.6627823E1,5.486398E1,1.5641429E2,6.332882E1,3.842866E1,5.2991624E0,1.171296E1,1.5233233E1,4.139459E1,2.6653934E1,2.8210045E1,9.223152E1,6.418277E1,3.8406185E1,2.4922636E1,1.753319E1,2.0895472E1,9.133302E0,6.0999312E0,2.6364513E1,1.5030075E1],"tree_param":{"num_deleted":"0","num_feature":"25","num_nodes":"27","size_leaf_vector":"1"}},{"base_weights":[1.2709866E-2,6.962431E-2,-1.1296719E-1,1.564448E-1,-2.6055463E-2,-3.0514708E-1,-5.918662E-3,1.2365299E-1,1.5751807E-2,-1.2350961E-1,1.5746927E-1,9.6664444E-4,-1.2872905E-2,1.17146105E-1,-2.2189838E-1,5.62037E-3,-1.1715337E-3,-1.6535503E-3,-1.7816441E-2,9.498707E-3,-1.2215906E-3,-5.23018E-3,7.444625E-3,2.3151035E-3,-1.2808924E-2],"categories":[],"categories_nodes":[],"categories_segments":[],"categories_sizes":[],"default_left":[0,0,0,0,0,0,0,0,0,0,0,0,0,0,0,0,0,0,0,0,0,0,0,0,0],"id":13,"left_children":[1,3,5,7,9,11,13,15,-1,17,19,-1,-1,21,23,-1,-1,-1,-1,-1,-1,-1,-1,-1,-1],"loss_changes":[2.7368314E0,2.2567139E0,2.33609E0,1.3843868E0,2.2930248E0,1.8723712E0,2.1831474E0,1.4393461E0,0E0,2.4703777E0,1.4876618E0,0E0,0E0,2.0465791E0,2.0260463E0,0E0,0E0,0E0,0E0,0E0,0E0,0E0,0E0,0E0,0E0],"parents":[2147483647,0,0,1,1,2,2,3,3,4,4,5,5,6,6,7,7,9,9,10,10,13,13,14,14],"right_children":[2,4,6,8,10,12,14,16,-1,18,20,-1,-1,22,24,-1,-1,-1,-1,-1,-1,-1,-1,-1,-1],"split_conditions":[6.347107E2,4.59E1,6.9741046E2,6.1462384E2,5.18E1,8.8E1,1E0,5.108793E2,1.5751807E-2,5.13E1,3.65E1,9.6664444E-4,-1.2872905E-2,8.38E1,9.176667E1,5.62037E-3,-1.1715337E-3,-1.6535503E-3,-1.7816441E-2,9.498707E-3,-1.2215906E-3,-5.23018E-3,7.444625E-3,2.3151035E-3,-1.2808924E-2],"split_indices":[24,9,24,24,8,23,15,24,0,13,13,0,0,6,23,0,0,0,0,0,0,0,0,0,0],"split_type":[0,0,0,0,0,0,0,0,0,0,0,0,0,0,0,0,0,0,0,0,0,0,0,0,0],"sum_hessian":[3.802403E2,2.6397498E2,1.1626533E2,1.393726E2,1.2460237E2,3.9267113E1,7.6998215E1,1.3118704E2,8.185561E0,8.288042E1,4.172195E1,1.029789E1,2.8969221E1,4.874794E1,2.8250277E1,9.538733E1,3.579971E1,7.4867035E1,8.013387E0,2.3316408E1,1.8405542E1,1.4200717E1,3.4547222E1,1.1403621E1,1.6846657E1],"tree_param":{"num_deleted":"0","num_feature":"25","num_nodes":"25","size_leaf_vector":"1"}},{"base_weights":[2.446711E-3,-2.7694331E-2,2.8826535E-1,4.7417257E-2,-8.850389E-2,4.3906677E-1,-5.444668E-3,-1.0665126E-2,2.7202782E-1,-2.0244287E-1,-4.2308804E-2,1.7381916E-2,1.7274652E-1,1.107728E-3,-7.409674E-3,2.8085734E-3,1.39297955E-2,-8.817423E-3,-0E0,1.268469E-3,-4.356606E-3,-1.0205342E-3,1.0711127E-2],"categories":[],"categories_nodes":[],"categories_segments":[],"categories_sizes":[],"default_left":[0,0,0,0,0,0,0,0,0,0,0,0,0,0,0,0,0,0,0,0,0,0,0],"id":14,"left_children":[1,3,5,7,9,11,-1,13,15,17,19,-1,21,-1,-1,-1,-1,-1,-1,-1,-1,-1,-1],"loss_changes":[3.4566877E0,1.6374316E0,2.9540083E0,2.1383255E0,9.5427084E-1,6.993265E-1,0E0,1.4979336E0,8.945432E-1,1.0670383E0,1.3110507E0,0E0,6.5377223E-1,0E0,0E0,0E0,0E0,0E0,0E0,0E0,0E0,0E0,0E0],"parents":[2147483647,0,0,1,1,2,2,3,3,4,4,5,5,7,7,8,8,9,9,10,10,12,12],"right_children":[2,4,6,8,10,12,-1,14,16,18,20,-1,22,-1,-1,-1,-1,-1,-1,-1,-1,-1,-1],"split_conditions":[9.67E1,5E1,7.06E1,6.28E1,3.73E1,9.32E1,-5.444668E-3,9.38E1,2.67E1,1E0,5.57E1,1.7381916E-2,5E1,1.107728E-3,-7.409674E-3,2.8085734E-3,1.39297955E-2,-8.817423E-3,-0E0,1.268469E-3,-4.356606E-3,-1.0205342E-3,1.0711127E-2],"split_indices":[6,13,13,7,7,23,0,6,13,17,7,0,7,0,0,0,0,0,0,0,0,0,0],"split_type":[0,0,0,0,0,0,0,0,0,0,0,0,0,0,0,0,0,0,0,0,0,0,0],"sum_hessian":[3.883192E2,3.5195984E2,3.635938E1,1.5545268E2,1.9650716E2,2.8106016E1,8.253363E0,1.2396561E2,3.1487066E1,5.2863014E1,1.4364413E2,1.6129436E1,1.1976579E1,1.0353456E2,2.043105E1,1.8685244E1,1.2801823E1,3.6380222E1,1.6482788E1,7.788631E1,6.5757835E1,5.64555E0,6.3310294E0],"tree_param":{"num_deleted":"0","num_feature":"25","num_nodes":"23","size_leaf_vector":"1"}},{"base_weights":[1.4718968E-3,-1.3793665E-2,1.8541071E-1,8.329487E-3,-2.2232491E-1,-3.159835E-3,3.4996584E-1,-2.318058E-2,1.81674E-1,-4.0456362E-2,-1.2533496E-2,1.4485602E-2,1.3451441E-3,7.569689E-3,-1.3980474E-3,1.27268825E-2,1.3168518E-3,-8.088372E-3,3.5553756E-3],"categories":[],"categories_nodes":[],"categories_segments":[],"categories_sizes":[],"default_left":[0,0,0,0,0,0,0,0,0,0,0,0,0,0,0,0,0,0,0],"id":15,"left_children":[1,3,5,7,9,-1,11,13,15,17,-1,-1,-1,-1,-1,-1,-1,-1,-1],"loss_changes":[1.1479985E0,1.7252737E0,1.6508234E0,1.8334649E0,1.102421E0,0E0,6.5768766E-1,1.7406266E0,1.5516319E0,8.950034E-1,0E0,0E0,0E0,0E0,0E0,0E0,0E0,0E0,0E0],"parents":[2147483647,0,0,1,1,2,2,3,3,4,4,6,6,7,7,8,8,9,9],"right_children":[2,4,6,8,10,-1,12,14,16,18,-1,-1,-1,-1,-1,-1,-1,-1,-1],"split_conditions":[8.6970197E2,8.09E1,8.5E1,5.41E1,6.367998E2,-3.159835E-3,5.15E1,1.85E1,4.56E1,8.9433334E1,-1.2533496E-2,1.4485602E-2,1.3451441E-3,7.569689E-3,-1.3980474E-3,1.27268825E-2,1.3168518E-3,-8.088372E-3,3.5553756E-3],"split_indices":[24,1,10,1,24,0,8,3,0,23,0,0,0,0,0,0,0,0,0],"split_type":[0,0,0,0,0,0,0,0,0,0,0,0,0,0,0,0,0,0,0],"sum_hessian":[3.8668445E2,3.5725406E2,2.9430405E1,3.2342343E2,3.3830624E1,1.0238181E1,1.9192225E1,2.736771E2,4.974634E1,1.9570051E1,1.4260574E1,1.1873165E1,7.3190584E0,1.8907742E1,2.5476935E2,1.5725893E1,3.4020447E1,8.218339E0,1.1351711E1],"tree_param":{"num_deleted":"0","num_feature":"25","num_nodes":"19","size_leaf_vector":"1"}},{"base_weights":[-2.025529E-2,-2.131004E-1,2.07365E-2,-2.9774034E-1,6.318187E-3,3.749901E-2,-3.0522126E-1,-0E0,-3.3525085E-1,2.3332855E-2,1.3657419E-2,-1.4608798E-2,-1.4850129E-3,-1.3579899E-2,-5.916765E-3,1.9610885E-3,-2.2227655E-3],"categories":[],"categories_nodes":[],"categories_segments":[],"categories_sizes":[],"default_left":[0,0,0,0,0,0,0,0,0,0,0,0,0,0,0,0,0],"id":16,"left_children":[1,3,5,7,-1,9,11,-1,13,15,-1,-1,-1,-1,-1,-1,-1],"loss_changes":[2.9922376E0,2.5306587E0,1.6132268E0,6.801138E-1,0E0,1.5718752E0,4.5536304E-1,0E0,4.4946575E-1,1.1809952E0,0E0,0E0,0E0,0E0,0E0,0E0,0E0],"parents":[2147483647,0,0,1,1,2,2,3,3,5,5,6,6,8,8,9,9],"right_children":[2,4,6,8,-1,10,12,-1,14,16,-1,-1,-1,-1,-1,-1,-1],"split_conditions":[-7.308316E-1,1.0211883E0,1.5880269E0,2E0,6.318187E-3,1.4603587E0,1E0,-0E0,7.88E1,9.12E1,1.3657419E-2,-1.4608798E-2,-1.4850129E-3,-1.3579899E-2,-5.916765E-3,1.9610885E-3,-2.2227655E-3],"split_indices":[20,19,19,3,0,19,17,0,6,6,0,0,0,0,0,0,0],"split_type":[0,0,0,0,0,0,0,0,0,0,0,0,0,0,0,0,0],"sum_hessian":[3.681032E2,6.433968E1,3.0376352E2,5.4712837E1,9.626844E0,2.914651E2,1.2298432E1,5.929774E0,4.8783066E1,2.846425E2,6.8225965E0,5.446189E0,6.852243E0,2.2721863E1,2.6061201E1,2.01456E2,8.318649E1],"tree_param":{"num_deleted":"0","num_feature":"25","num_nodes":"17","size_leaf_vector":"1"}},{"base_weights":[3.850607E-2,2.2781104E-2,2.9023144E-1,1.8264869E-1,-1.8680474E-3,1.354658E-2,-3.1033447E-3,3.7585086E-1,-1.6995786E-1,-1.752152E-2,9.708605E-3,1.6385501E-2,2.4102528E-3,5.5745374E-3,-1.2061374E-2,1.5844506E-3,-3.0790388E-3],"categories":[],"categories_nodes":[],"categories_segments":[],"categories_sizes":[],"default_left":[0,0,0,0,0,0,0,0,0,0,0,0,0,0,0,0,0],"id":17,"left_children":[1,3,5,7,9,-1,-1,11,13,15,-1,-1,-1,-1,-1,-1,-1],"loss_changes":[1.3852155E0,1.4661825E0,1.5235596E0,3.560896E0,1.50226E0,0E0,0E0,1.3925405E0,1.7290716E0,1.8167793E0,0E0,0E0,0E0,0E0,0E0,0E0,0E0],"parents":[2147483647,0,0,1,1,2,2,3,3,4,4,7,7,8,8,9,9],"right_children":[2,4,6,8,10,-1,-1,12,14,16,-1,-1,-1,-1,-1,-1,-1],"split_conditions":[7.55E1,9.1E0,5.75E1,2.56E1,1E2,1.354658E-2,-3.1033447E-3,1.2E1,-3.0988842E-1,5.108793E2,9.708605E-3,1.6385501E-2,2.4102528E-3,5.5745374E-3,-1.2061374E-2,1.5844506E-3,-3.0790388E-3],"split_indices":[3,13,8,2,23,0,0,22,19,24,0,0,0,0,0,0,0],"split_type":[0,0,0,0,0,0,0,0,0,0,0,0,0,0,0,0,0],"sum_hessian":[3.7500925E2,3.5613474E2,1.887451E1,4.748848E1,3.0864624E2,1.372023E1,5.1542807E0,3.1143257E1,1.6345224E1,2.9716876E2,1.1477495E1,1.803567E1,1.3107588E1,6.100172E0,1.0245051E1,1.6119402E2,1.3597475E2],"tree_param":{"num_deleted":"0","num_feature":"25","num_nodes":"17","size_leaf_vector":"1"}},{"base_weights":[1.862785E-2,9.648852E-2,-2.4674663E-2,5.066909E-2,3.189988E-1,1.172818E-2,-1.7138557E-1,1.8473327E-1,-5.2459646E-2,1.3401165E-2,7.8059244E-4,-4.2127315E-2,1.503545E-1,-2.4055426E-1,4.2260555E-3,-1.3262349E-3,8.597875E-3,8.836225E-3,-3.7327874E-3,-4.013213E-3,3.7177945E-3,-8.473594E-3,6.3578845E-3,-9.843326E-3,1.792465E-3],"categories":[],"categories_nodes":[],"categories_segments":[],"categories_sizes":[],"default_left":[0,0,0,0,0,0,0,0,0,0,0,0,0,0,0,0,0,0,0,0,0,0,0,0,0],"id":18,"left_children":[1,3,5,7,9,11,13,15,17,-1,-1,19,21,23,-1,-1,-1,-1,-1,-1,-1,-1,-1,-1,-1],"loss_changes":[1.4006498E0,1.3714424E0,1.4461731E0,1.8106982E0,7.2815585E-1,1.6084518E0,1.2567557E0,1.4224654E0,1.8178053E0,0E0,0E0,2.331212E0,1.7131515E0,1.314987E0,0E0,0E0,0E0,0E0,0E0,0E0,0E0,0E0,0E0,0E0,0E0],"parents":[2147483647,0,0,1,1,2,2,3,3,4,4,5,5,6,6,7,7,8,8,11,11,12,12,13,13],"right_children":[2,4,6,8,10,12,14,16,18,-1,-1,20,22,24,-1,-1,-1,-1,-1,-1,-1,-1,-1,-1,-1],"split_conditions":[3.81E1,7.5027313E2,6.9623895E2,8.5E1,2.56E1,6.21E1,9.7432623E2,3.7237527E2,4.1771396E2,1.3401165E-2,7.8059244E-4,1E0,2.15E1,5.5E1,4.2260555E-3,-1.3262349E-3,8.597875E-3,8.836225E-3,-3.7327874E-3,-4.013213E-3,3.7177945E-3,-8.473594E-3,6.3578845E-3,-9.843326E-3,1.792465E-3],"split_indices":[13,24,24,10,2,2,24,24,24,0,0,15,3,11,0,0,0,0,0,0,0,0,0,0,0],"split_type":[0,0,0,0,0,0,0,0,0,0,0,0,0,0,0,0,0,0,0,0,0,0,0,0,0],"sum_hessian":[4.056282E2,1.4656555E2,2.5906265E2,1.2469249E2,2.1873056E1,2.0739722E2,5.1665436E1,5.479156E1,6.990093E1,1.3789141E1,8.083916E0,1.4881256E2,5.858466E1,4.3458714E1,8.206722E0,1.6313358E1,3.84782E1,1.0228452E1,5.967248E1,9.7304726E1,5.150783E1,5.7963066E0,5.2788353E1,3.4278297E1,9.180414E0],"tree_param":{"num_deleted":"0","num_feature":"25","num_nodes":"25","size_leaf_vector":"1"}},{"base_weights":[5.9520826E-3,-1.636781E-2,3.1928107E-1,-1.02913566E-1,3.9217114E-2,1.1143012E-3,1.30807115E-2,5.7839397E-2,-1.4444248E-1,1.6815366E-1,-2.0340115E-2,-4.403E-3,1.2730349E-2,8.847499E-3,-5.3015305E-3,7.439124E-3,-2.01522E-3,-1.1609232E-2,8.884887E-5],"categories":[],"categories_nodes":[],"categories_segments":[],"categories_sizes":[],"default_left":[0,0,0,0,0,0,0,0,0,0,0,0,0,0,0,0,0,0,0],"id":19,"left_children":[1,3,5,7,9,-1,-1,11,13,15,17,-1,-1,-1,-1,-1,-1,-1,-1],"loss_changes":[2.7832985E0,1.7542183E0,6.9827175E-1,9.9776316E-1,1.7247746E0,0E0,0E0,2.4062324E0,1.71011E0,1.414939E0,1.3927592E0,0E0,0E0,0E0,0E0,0E0,0E0,0E0,0E0],"parents":[2147483647,0,0,1,1,2,2,3,3,4,4,7,7,8,8,9,9,10,10],"right_children":[2,4,6,8,10,-1,-1,12,14,16,18,-1,-1,-1,-1,-1,-1,-1,-1],"split_conditions":[8.37E1,7.33E1,5E1,-7.2099864E-1,5.1E0,1.1143012E-3,1.30807115E-2,-9.2791927E-1,2.8E1,9.38E1,1E1,-4.403E-3,1.2730349E-2,8.847499E-3,-5.3015305E-3,7.439124E-3,-2.01522E-3,-1.1609232E-2,8.884887E-5],"split_indices":[5,6,12,19,2,0,0,19,5,6,5,0,0,0,0,0,0,0,0],"split_type":[0,0,0,0,0,0,0,0,0,0,0,0,0,0,0,0,0,0,0],"sum_hessian":[3.8149673E2,3.5700375E2,2.4492987E1,1.4106291E2,2.1594083E2,8.692202E0,1.5800786E1,2.7316187E1,1.1374673E2,6.8668816E1,1.47272E2,1.777413E1,9.542057E0,6.0341563E0,1.0771257E2,5.2148678E1,1.652014E1,7.704723E0,1.3956728E2],"tree_param":{"num_deleted":"0","num_feature":"25","num_nodes":"19","size_leaf_vector":"1"}},{"base_weights":[-5.9216223E-3,1.4710078E-2,-1.7932397E-1,-2.3324504E-3,1.07161775E-2,1.1428272E-1,-3.0938494E-1,-4.6522997E-2,1.2316507E-1,-2.7177883E-3,1.1178273E-2,-1.2693431E-2,-8.312679E-2,6.885334E-3,-2.3544629E-3,-7.042813E-3,6.552131E-3,-6.763143E-3,1.0768777E-3],"categories":[],"categories_nodes":[],"categories_segments":[],"categories_sizes":[],"default_left":[0,0,0,0,0,0,0,0,0,0,0,0,0,0,0,0,0,0,0],"id":20,"left_children":[1,3,5,7,-1,9,11,13,15,-1,-1,-1,17,-1,-1,-1,-1,-1,-1],"loss_changes":[1.4639925E0,2.1647885E0,1.793611E0,1.8562944E0,0E0,9.000731E-1,5.871241E-1,2.2165406E0,3.04598E0,0E0,0E0,0E0,3.083632E-1,0E0,0E0,0E0,0E0,0E0,0E0],"parents":[2147483647,0,0,1,1,2,2,3,3,5,5,6,6,7,7,8,8,12,12],"right_children":[2,4,6,8,-1,10,12,14,16,-1,-1,-1,18,-1,-1,-1,-1,-1,-1],"split_conditions":[9.63E1,9.876667E1,5.1978107E2,8.16E1,1.07161775E-2,5.003649E2,1E2,9.6E0,4.8E0,-2.7177883E-3,1.1178273E-2,-1.2693431E-2,9.12E1,6.885334E-3,-2.3544629E-3,-7.042813E-3,6.552131E-3,-6.763143E-3,1.0768777E-3],"split_indices":[13,23,24,0,0,24,10,13,13,0,0,0,6,0,0,0,0,0,0],"split_type":[0,0,0,0,0,0,0,0,0,0,0,0,0,0,0,0,0,0,0],"sum_hessian":[3.9193402E2,3.5034915E2,4.158487E1,3.3480002E2,1.55491295E1,1.2132446E1,2.9452425E1,2.5030942E2,8.44906E1,6.8427978E0,5.289649E0,1.7559872E1,1.1892552E1,2.3716629E1,2.2659279E2,1.6479176E1,6.801142E1,5.7499332E0,6.1426196E0],"tree_param":{"num_deleted":"0","num_feature":"25","num_nodes":"19","size_leaf_vector":"1"}},{"base_weights":[4.6009067E-3,-1.1951346E-1,5.328767E-2,-3.0956832E-1,-4.443234E-2,7.972689E-2,-1.7987996E-1,-1.2760862E-3,-1.2578022E-2,-1.14864804E-1,1.3124967E-1,3.1684586E-1,5.5216372E-2,1.1211407E-3,-3.7232578E-1,-0E0,-9.039121E-3,-2.536144E-3,9.709178E-3,-0E0,1.35167055E-2,9.811077E-4,9.204791E-3,-1.5454575E-2,-5.001765E-4],"categories":[],"categories_nodes":[],"categories_segments":[],"categories_sizes":[],"default_left":[0,0,0,0,0,0,0,0,0,0,0,0,0,0,0,0,0,0,0,0,0,0,0,0,0],"id":21,"left_children":[1,3,5,7,9,11,13,-1,-1,15,17,19,21,-1,23,-1,-1,-1,-1,-1,-1,-1,-1,-1,-1],"loss_changes":[2.3137834E0,1.3945055E0,1.7185304E0,6.712167E-1,1.018048E0,1.3244772E0,1.293603E0,0E0,0E0,1.3163712E0,1.0678554E0,9.9393153E-1,1.1977271E0,0E0,6.204922E-1,0E0,0E0,0E0,0E0,0E0,0E0,0E0,0E0,0E0,0E0],"parents":[2147483647,0,0,1,1,2,2,3,3,4,4,5,5,6,6,9,9,10,10,11,11,12,12,14,14],"right_children":[2,4,6,8,10,12,14,-1,-1,16,18,20,22,-1,24,-1,-1,-1,-1,-1,-1,-1,-1,-1,-1],"split_conditions":[-3.998904E-1,-4.8049805E-1,9.746667E1,3.1E0,4.29E1,5.8E0,7.206344E2,-1.2760862E-3,-1.2578022E-2,5.8E0,8.75E1,7.153292E-2,9.67E1,1.1211407E-3,2.62E1,-0E0,-9.039121E-3,-2.536144E-3,9.709178E-3,-0E0,1.35167055E-2,9.811077E-4,9.204791E-3,-1.5454575E-2,-5.001765E-4],"split_indices":[20,19,23,2,2,0,24,0,0,2,6,20,6,0,9,0,0,0,0,0,0,0,0,0,0],"split_type":[0,0,0,0,0,0,0,0,0,0,0,0,0,0,0,0,0,0,0,0,0,0,0,0,0],"sum_hessian":[3.8208386E2,1.0509638E2,2.769875E2,2.6860859E1,7.823552E1,2.5111586E2,2.5871626E1,9.426039E0,1.7434822E1,5.7559425E1,2.0676094E1,2.0144169E1,2.309717E2,1.2177374E1,1.3694252E1,3.6403465E1,2.1155962E1,9.538911E0,1.1137184E1,6.2969275E0,1.384724E1,2.1517152E2,1.5800177E1,8.528741E0,5.1655116E0],"tree_param":{"num_deleted":"0","num_feature":"25","num_nodes":"25","size_leaf_vector":"1"}},{"base_weights":[1.3936557E-3,-1.7458405E-1,2.375568E-2,-2.710019E-1,7.7058165E-3,1.1743838E-2,1.10121975E-2,-0E0,-1.0056565E-2,4.5779057E-2,-1.1437162E-1,7.7216816E-4,1.0386226E-2,-8.6761415E-3,-0E0],"categories":[],"categories_nodes":[],"categories_segments":[],"categories_sizes":[],"default_left":[0,0,0,0,0,0,0,0,0,0,0,0,0,0,0],"id":22,"left_children":[1,3,5,7,-1,9,-1,-1,-1,11,13,-1,-1,-1,-1],"loss_changes":[1.397405E0,1.800021E0,1.2248832E0,5.535691E-1,0E0,1.3571764E0,0E0,0E0,0E0,1.4006985E0,1.3949994E0,0E0,0E0,0E0,0E0],"parents":[2147483647,0,0,1,1,2,2,3,3,5,5,9,9,10,10],"right_children":[2,4,6,8,-1,10,-1,-1,-1,12,14,-1,-1,-1,-1],"split_conditions":[4E1,5.15E1,9E1,6.9333336E1,7.7058165E-3,9.34E1,1.10121975E-2,-0E0,-1.0056565E-2,9.67E1,4.7E1,7.7216816E-4,1.0386226E-2,-8.6761415E-3,-0E0],"split_indices":[10,3,5,23,0,23,0,0,0,6,3,0,0,0,0],"split_type":[0,0,0,0,0,0,0,0,0,0,0,0,0,0,0],"sum_hessian":[3.624929E2,3.782213E1,3.2467075E2,3.208987E1,5.732256E0,3.1653812E2,8.132654E0,6.883733E0,2.520614E1,2.5214392E2,6.439418E1,2.393481E2,1.2795823E1,2.5062529E1,3.933165E1],"tree_param":{"num_deleted":"0","num_feature":"25","num_nodes":"15","size_leaf_vector":"1"}},{"base_weights":[1.1857016E-2,-2.002395E-2,1.8684581E-1,-6.267514E-2,6.884647E-2,2.7643526E-1,-2.3122633E-2,-1.2519538E-1,6.6463955E-2,2.0725402E-1,-5.144947E-3,1.4496203E-2,1.0759408E-1,-8.457091E-3,4.1292063E-3,6.8294816E-3,-4.666432E-3,5.9928033E-3,-4.662587E-3,1.46943545E-2,1.4369504E-3,-6.809671E-3,2.263754E-3,-3.943878E-3,6.0815453E-3],"categories":[],"categories_nodes":[],"categories_segments":[],"categories_sizes":[],"default_left":[0,0,0,0,0,0,0,0,0,0,0,0,0,0,0,0,0,0,0,0,0,0,0,0,0],"id":23,"left_children":[1,3,5,7,9,11,13,15,17,19,21,-1,23,-1,-1,-1,-1,-1,-1,-1,-1,-1,-1,-1,-1],"loss_changes":[2.2157407E0,1.2485065E0,1.2411942E0,1.8483441E0,1.1371269E0,1.2582686E0,9.182399E-1,1.6947532E0,2.2355044E0,1.5031018E0,1.3117688E0,0E0,7.033595E-1,0E0,0E0,0E0,0E0,0E0,0E0,0E0,0E0,0E0,0E0,0E0,0E0],"parents":[2147483647,0,0,1,1,2,2,3,3,4,4,5,5,6,6,7,7,8,8,9,9,10,10,12,12],"right_children":[2,4,6,8,10,12,14,16,18,20,22,-1,24,-1,-1,-1,-1,-1,-1,-1,-1,-1,-1,-1,-1],"split_conditions":[9.24E1,5.5E1,8.83E1,4.5895225E-1,3.35E1,2.08E1,1.39E1,3.5E0,6.0911926E2,7.15E1,3.95E1,1.4496203E-2,6.5E1,-8.457091E-3,4.1292063E-3,6.8294816E-3,-4.666432E-3,5.9928033E-3,-4.662587E-3,1.46943545E-2,1.4369504E-3,-6.809671E-3,2.263754E-3,-3.943878E-3,6.0815453E-3],"split_indices":[2,11,6,20,7,0,0,3,24,0,3,0,6,0,0,0,0,0,0,0,0,0,0,0,0],"split_type":[0,0,0,0,0,0,0,0,0,0,0,0,0,0,0,0,0,0,0,0,0,0,0,0,0],"sum_hessian":[3.8485864E2,3.2559558E2,5.9263065E1,2.2268742E2,1.0290817E2,4.2096836E1,1.716623E1,1.516521E2,7.1035324E1,3.6006752E1,6.690142E1,1.6450317E1,2.5646517E1,6.7154255E0,1.0450803E1,1.0199457E1,1.4145264E2,4.534554E1,2.5689783E1,1.0809735E1,2.5197018E1,1.7853386E1,4.904804E1,6.1850495E0,1.9461468E1],"tree_param":{"num_deleted":"0","num_feature":"25","num_nodes":"25","size_leaf_vector":"1"}},{"base_weights":[-0E0,-2.8025746E-2,2.4173656E-1,9.3211755E-2,-5.318868E-2,3.4920666E-1,-0E0,1.8229082E-1,-8.4107146E-2,-6.9776274E-2,2.3062542E-1,1.4089663E-2,-0E0,-2.8113218E-3,7.846809E-3,4.1801236E-3,-9.262217E-3,-5.7512E-3,-1.2447897E-3,9.9132415E-3,-0E0],"categories":[],"categories_nodes":[],"categories_segments":[],"categories_sizes":[],"default_left":[0,0,0,0,0,0,0,0,0,0,0,0,0,0,0,0,0,0,0,0,0],"id":24,"left_children":[1,3,5,7,9,11,-1,13,15,17,19,-1,-1,-1,-1,-1,-1,-1,-1,-1,-1],"loss_changes":[2.5933504E0,1.0555366E0,1.0681946E0,9.8043376E-1,1.3511664E0,1.1983528E0,0E0,9.863217E-1,1.1269281E0,8.6910737E-1,3.072281E-1,0E0,0E0,0E0,0E0,0E0,0E0,0E0,0E0,0E0,0E0],"parents":[2147483647,0,0,1,1,2,2,3,3,4,4,5,5,7,7,8,8,9,9,10,10],"right_children":[2,4,6,8,10,12,-1,14,16,18,20,-1,-1,-1,-1,-1,-1,-1,-1,-1,-1],"split_conditions":[6.07E1,3.75E1,7.5E1,5.46E1,1E2,1E0,-0E0,1.97E1,1.3E1,2.43E1,4.4E1,1.4089663E-2,-0E0,-2.8113218E-3,7.846809E-3,4.1801236E-3,-9.262217E-3,-5.7512E-3,-1.2447897E-3,9.9132415E-3,-0E0],"split_indices":[9,8,9,7,23,15,0,8,22,7,3,0,0,0,0,0,0,0,0,0,0],"split_type":[0,0,0,0,0,0,0,0,0,0,0,0,0,0,0,0,0,0,0,0,0],"sum_hessian":[3.824038E2,3.4468466E2,3.7719124E1,5.626473E1,2.8841995E2,2.5793154E1,1.1925971E1,3.8539543E1,1.7725187E1,2.7491763E2,1.350231E1,1.8798239E1,6.9949155E0,7.6733727E0,3.0866169E1,8.5973015E0,9.127886E0,4.7590378E1,2.2732726E2,8.364964E0,5.137346E0],"tree_param":{"num_deleted":"0","num_feature":"25","num_nodes":"21","size_leaf_vector":"1"}},{"base_weights":[3.4888964E-2,1.318878E-1,-4.544314E-2,3.2858785E-2,2.2974254E-1,-1.8586981E-1,2.0883953E-2,-3.452475E-2,2.9976505E-1,3.3487296E-1,5.854839E-2,-2.8421158E-1,-0E0,7.689656E-2,-1.1844819E-1,-8.679919E-3,1.0910967E-3,-0E0,1.294808E-2,1.207077E-2,1.3234819E-3,8.5682105E-3,-3.654514E-3,-1.0814772E-2,8.9012254E-5,-8.601177E-3,4.4766855E-3,2.4681089E-5,1.160256E-2,-7.2942846E-3,3.36279E-3],"categories":[],"categories_nodes":[],"categories_segments":[],"categories_sizes":[],"default_left":[0,0,0,0,0,0,0,0,0,0,0,0,0,0,0,0,0,0,0,0,0,0,0,0,0,0,0,0,0,0,0],"id":25,"left_children":[1,3,5,7,9,11,13,15,17,19,21,23,25,27,29,-1,-1,-1,-1,-1,-1,-1,-1,-1,-1,-1,-1,-1,-1,-1,-1],"loss_changes":[3.047169E0,1.6228011E0,2.022903E0,1.7531902E0,1.4129987E0,1.2948742E0,1.1271178E0,1.4386746E0,7.587669E-1,8.6156225E-1,1.6218487E0,1.1103618E0,1.1703268E0,2.3636425E0,1.2566875E0,0E0,0E0,0E0,0E0,0E0,0E0,0E0,0E0,0E0,0E0,0E0,0E0,0E0,0E0,0E0,0E0],"parents":[2147483647,0,0,1,1,2,2,3,3,4,4,5,5,6,6,7,7,8,8,9,9,10,10,11,11,12,12,13,13,14,14],"right_children":[2,4,6,8,10,12,14,16,18,20,22,24,26,28,30,-1,-1,-1,-1,-1,-1,-1,-1,-1,-1,-1,-1,-1,-1,-1,-1],"split_conditions":[5E1,6.855106E-2,9E0,5.31E1,9.064323E-1,8.39E1,8.54E1,5E1,-2.7181858E-1,1E0,-3.5580164E-1,9.36E1,-3.8077945E-1,5.5E1,9.6E1,-8.679919E-3,1.0910967E-3,-0E0,1.294808E-2,1.207077E-2,1.3234819E-3,8.5682105E-3,-3.654514E-3,-1.0814772E-2,8.9012254E-5,-8.601177E-3,4.4766855E-3,2.4681089E-5,1.160256E-2,-7.2942846E-3,3.36279E-3],"split_indices":[13,20,22,8,20,13,7,10,19,18,19,23,20,11,23,0,0,0,0,0,0,0,0,0,0,0,0,0,0,0,0],"split_type":[0,0,0,0,0,0,0,0,0,0,0,0,0,0,0,0,0,0,0,0,0,0,0,0,0,0,0,0,0,0,0],"sum_hessian":[3.8419125E2,1.751515E2,2.0903976E2,8.990499E1,8.524651E1,6.735507E1,1.416847E2,7.227552E1,1.7629473E1,5.0543266E1,3.4703243E1,4.36932E1,2.366187E1,1.032334E2,3.8451294E1,1.5311843E1,5.6963676E1,6.087268E0,1.1542205E1,3.956142E1,1.0981847E1,1.5582744E1,1.91205E1,3.49451E1,8.7481E0,7.249814E0,1.6412056E1,8.5271545E1,1.7961857E1,2.5727709E1,1.2723584E1],"tree_param":{"num_deleted":"0","num_feature":"25","num_nodes":"31","size_leaf_vector":"1"}},{"base_weights":[-1.321844E-2,-3.5850447E-2,2.1428126E-1,1.6963571E-2,-1.5414192E-1,1.1258176E-2,5.1745787E-2,7.8315586E-2,-1.4551729E-1,-2.4232524E-4,-3.530962E-1,-7.451379E-2,9.072554E-3,-3.4588005E-3,3.149095E-3,7.2191404E-3,-6.5003354E-3,3.6086505E-3,-3.381712E-3,-1.4287537E-2,-1.2452927E-3,-9.199926E-3,3.1395582E-3],"categories":[],"categories_nodes":[],"categories_segments":[],"categories_sizes":[],"default_left":[0,0,0,0,0,0,0,0,0,0,0,0,0,0,0,0,0,0,0,0,0,0,0],"id":26,"left_children":[1,3,5,7,9,-1,11,13,15,17,19,21,-1,-1,-1,-1,-1,-1,-1,-1,-1,-1,-1],"loss_changes":[1.9167091E0,2.2219748E0,7.0809126E-1,2.4030266E0,3.2447565E0,0E0,7.4288183E-1,9.3676543E-1,1.8931617E0,9.000967E-1,1.6041284E0,7.085409E-1,0E0,0E0,0E0,0E0,0E0,0E0,0E0,0E0,0E0,0E0,0E0],"parents":[2147483647,0,0,1,1,2,2,3,3,4,4,6,6,7,7,8,8,9,9,10,10,11,11],"right_children":[2,4,6,8,10,-1,12,14,16,18,20,22,-1,-1,-1,-1,-1,-1,-1,-1,-1,-1,-1],"split_conditions":[8.432224E2,5.52E1,8.5E1,1E2,3.62E1,1.1258176E-2,4.06E1,4.7E0,5.009953E2,8.3E1,8.43E1,9.923333E1,9.072554E-3,-3.4588005E-3,3.149095E-3,7.2191404E-3,-6.5003354E-3,3.6086505E-3,-3.381712E-3,-1.4287537E-2,-1.2452927E-3,-9.199926E-3,3.1395582E-3],"split_indices":[24,13,6,10,9,0,9,13,24,13,13,23,0,0,0,0,0,0,0,0,0,0,0],"split_type":[0,0,0,0,0,0,0,0,0,0,0,0,0,0,0,0,0,0,0,0,0,0,0],"sum_hessian":[3.7767752E2,3.4623688E2,3.1440645E1,2.3879727E2,1.074396E2,1.3552962E1,1.7887682E1,1.7543588E2,6.33614E1,6.255836E1,4.4881233E1,1.2034712E1,5.8529706E0,1.90628E1,1.5637308E2,8.462155E0,5.4899246E1,2.8844162E1,3.37142E1,3.071953E1,1.4161705E1,5.3516283E0,6.6830835E0],"tree_param":{"num_deleted":"0","num_feature":"25","num_nodes":"23","size_leaf_vector":"1"}},{"base_weights":[-1.548536E-2,1.646873E-1,-3.99556E-2,-6.1964564E-2,3.474173E-1,-6.652301E-2,9.737293E-2,8.666917E-2,-8.399567E-3,5.852718E-2,1.594614E-2,-2.301543E-1,-4.190898E-2,2.2895627E-2,1.07764285E-2,8.82437E-3,-2.5589871E-3,-4.0808865E-3,7.827133E-3,-1.0815333E-2,2.9270714E-3,-1.9501941E-3,5.8523915E-3,5.527258E-3,-2.9677353E-3],"categories":[],"categories_nodes":[],"categories_segments":[],"categories_sizes":[],"default_left":[0,0,0,0,0,0,0,0,0,0,0,0,0,0,0,0,0,0,0,0,0,0,0,0,0],"id":27,"left_children":[1,3,5,7,9,11,13,15,-1,17,-1,19,21,23,-1,-1,-1,-1,-1,-1,-1,-1,-1,-1,-1],"loss_changes":[1.6920879E0,2.0120673E0,1.2654107E0,7.95537E-1,1.1550076E0,1.0783031E0,9.422363E-1,5.892291E-1,0E0,6.236462E-1,0E0,1.6975985E0,1.4015356E0,9.6379846E-1,0E0,0E0,0E0,0E0,0E0,0E0,0E0,0E0,0E0,0E0,0E0],"parents":[2147483647,0,0,1,1,2,2,3,3,4,4,5,5,6,6,7,7,9,9,11,11,12,12,13,13],"right_children":[2,4,6,8,10,12,14,16,-1,18,-1,20,22,24,-1,-1,-1,-1,-1,-1,-1,-1,-1,-1,-1],"split_conditions":[9.1E0,3.95E1,7.6E1,8.83E1,7.67E1,2.24E1,9.54E1,3.00936E-1,-8.399567E-3,5E-1,1.594614E-2,6.8250104E2,9.58E1,9E1,1.07764285E-2,8.82437E-3,-2.5589871E-3,-4.0808865E-3,7.827133E-3,-1.0815333E-2,2.9270714E-3,-1.9501941E-3,5.8523915E-3,5.527258E-3,-2.9677353E-3],"split_indices":[13,3,5,6,6,13,0,19,0,13,0,24,6,10,0,0,0,0,0,0,0,0,0,0,0],"split_type":[0,0,0,0,0,0,0,0,0,0,0,0,0,0,0,0,0,0,0,0,0,0,0,0,0],"sum_hessian":[3.8729425E2,4.3474506E1,3.4381976E2,1.9262278E1,2.421223E1,2.9078128E2,5.303846E1,1.1352055E1,7.9102225E0,1.1084883E1,1.3127347E1,3.424371E1,2.565376E2,4.3878437E1,9.160024E0,5.291527E0,6.0605273E0,5.230148E0,5.8547344E0,2.5010662E1,9.2330475E0,2.362312E2,2.0306389E1,1.9495365E1,2.438307E1],"tree_param":{"num_deleted":"0","num_feature":"25","num_nodes":"25","size_leaf_vector":"1"}},{"base_weights":[-4.479573E-2,6.1337283E-4,-1.3158207E-1,-4.3561712E-2,1.7602989E-1,-1.913065E-1,1.0029258E-1,-1.12417154E-1,9.3364894E-2,6.462826E-2,1.6311448E-2,-1.5851632E-2,-1.581045E-1,9.084873E-3,-0E0,-2.095632E-3,-1.07796155E-2,5.4700393E-3,-2.1806513E-3,1.2147213E-2,-1.1581935E-3,-8.395116E-3,-1.5875162E-3,-5.581649E-3,2.3939563E-3],"categories":[],"categories_nodes":[],"categories_segments":[],"categories_sizes":[],"default_left":[0,0,0,0,0,0,0,0,0,0,0,0,0,0,0,0,0,0,0,0,0,0,0,0,0],"id":28,"left_children":[1,3,5,7,9,11,13,15,17,19,-1,-1,21,-1,23,-1,-1,-1,-1,-1,-1,-1,-1,-1,-1],"loss_changes":[1.5108751E0,1.95236E0,1.8733654E0,1.8729603E0,1.8369284E0,8.0785775E-1,6.1206317E-1,1.2152153E0,1.022028E0,1.6183245E0,0E0,0E0,1.1474051E0,0E0,3.396281E-1,0E0,0E0,0E0,0E0,0E0,0E0,0E0,0E0,0E0,0E0],"parents":[2147483647,0,0,1,1,2,2,3,3,4,4,5,5,6,6,7,7,8,8,9,9,12,12,14,14],"right_children":[2,4,6,8,10,12,14,16,18,20,-1,-1,22,-1,24,-1,-1,-1,-1,-1,-1,-1,-1,-1,-1],"split_conditions":[5.52E1,8.52E1,7.56E1,5.74E1,5.21E1,8E0,7.53E1,1E0,1.4E1,9.15E1,1.6311448E-2,-1.5851632E-2,7.67E1,9.084873E-3,9.41E1,-2.095632E-3,-1.07796155E-2,5.4700393E-3,-2.1806513E-3,1.2147213E-2,-1.1581935E-3,-8.395116E-3,-1.5875162E-3,-5.581649E-3,2.3939563E-3],"split_indices":[13,0,2,7,1,22,13,18,22,0,0,0,6,0,13,0,0,0,0,0,0,0,0,0,0],"split_type":[0,0,0,0,0,0,0,0,0,0,0,0,0,0,0,0,0,0,0,0,0,0,0,0,0],"sum_hessian":[3.7137338E2,2.4284108E2,1.2853232E2,1.9382365E2,4.9017426E1,1.0351377E2,2.5018543E1,1.306656E2,6.315806E1,4.0050373E1,8.967052E0,5.796898E0,9.771687E1,7.6377225E0,1.7380821E1,1.1467764E2,1.5987956E1,4.2172817E1,2.098524E1,8.6383915E0,3.1411983E1,4.2434666E1,5.5282207E1,5.2031465E0,1.2177674E1],"tree_param":{"num_deleted":"0","num_feature":"25","num_nodes":"25","size_leaf_vector":"1"}},{"base_weights":[3.195098E-2,-0E0,1.18646756E-1,-9.346146E-3,1.5151154E-2,3.2656506E-1,9.8664425E-3,-5.580142E-4,3.09647E-1,4.2548922E-1,-4.1417694E-3,1.2300188E-1,-1.6896139E-1,3.1128613E-4,-1.1950893E-2,7.7830575E-4,1.3524216E-2,4.512317E-3,1.706367E-2,8.758004E-3,-9.6719246E-4,5.6215944E-3,-8.707679E-3],"categories":[],"categories_nodes":[],"categories_segments":[],"categories_sizes":[],"default_left":[0,0,0,0,0,0,0,0,0,0,0,0,0,0,0,0,0,0,0,0,0,0,0],"id":29,"left_children":[1,3,5,-1,7,9,11,13,15,17,-1,19,21,-1,-1,-1,-1,-1,-1,-1,-1,-1,-1],"loss_changes":[1.0819696E0,1.3710471E0,2.2684755E0,0E0,1.3612459E0,1.8156908E0,1.4839295E0,1.2611102E0,4.28398E-1,7.9323196E-1,0E0,1.3101418E0,1.3371243E0,0E0,0E0,0E0,0E0,0E0,0E0,0E0,0E0,0E0,0E0],"parents":[2147483647,0,0,1,1,2,2,4,4,5,5,6,6,7,7,8,8,9,9,11,11,12,12],"right_children":[2,4,6,-1,8,10,12,14,16,18,-1,20,22,-1,-1,-1,-1,-1,-1,-1,-1,-1,-1],"split_conditions":[5.3672296E-1,4.5E1,8.244598E-1,-9.346146E-3,1.4832006E0,9.5933334E1,1E0,1.3621567E0,5.08E1,-3.1516835E-1,-4.1417694E-3,4.36E1,-7.2099864E-1,3.1128613E-4,-1.1950893E-2,7.7830575E-4,1.3524216E-2,4.512317E-3,1.706367E-2,8.758004E-3,-9.6719246E-4,5.6215944E-3,-8.707679E-3],"split_indices":[20,6,20,0,19,23,15,19,5,19,0,13,19,0,0,0,0,0,0,0,0,0,0],"split_type":[0,0,0,0,0,0,0,0,0,0,0,0,0,0,0,0,0,0,0,0,0,0,0],"sum_hessian":[3.8664667E2,2.8360156E2,1.0304509E2,1.14779825E1,2.721236E2,3.307153E1,6.9973564E1,2.5927094E2,1.2852661E1,2.7937447E1,5.1340837E0,4.426883E1,2.5704731E1,2.5349692E2,5.774016E0,5.763006E0,7.089655E0,1.1690016E1,1.624743E1,2.1281776E1,2.2987055E1,5.622743E0,2.008199E1],"tree_param":{"num_deleted":"0","num_feature":"25","num_nodes":"23","size_leaf_vector":"1"}},{"base_weights":[7.7958954E-3,-1.5930685E-1,2.6679182E-2,-2.4979255E-1,4.563639E-3,3.6565991E-4,2.0928006E-1,1.9574678E-3,-3.393315E-1,5.8994878E-2,-1.2518531E-1,1.213539E-2,3.1686658E-1,-1.6409676E-3,-1.2330194E-2,-2.1097527E-3,3.2006537E-3,-6.2894803E-3,9.2225615E-4,-7.854849E-3,6.6371686E-3,1.29748E-2,-0E0],"categories":[],"categories_nodes":[],"categories_segments":[],"categories_sizes":[],"default_left":[0,0,0,0,0,0,0,0,0,0,0,0,0,0,0,0,0,0,0,0,0,0,0],"id":30,"left_children":[1,3,5,7,-1,9,11,-1,13,15,17,19,21,-1,-1,-1,-1,-1,-1,-1,-1,-1,-1],"loss_changes":[1.1880528E0,1.1735312E0,1.6211382E0,9.9749243E-1,0E0,2.2753875E0,7.99477E-1,0E0,3.2754135E-1,1.3468933E0,1.352388E0,1.1430187E0,9.988787E-1,0E0,0E0,0E0,0E0,0E0,0E0,0E0,0E0,0E0,0E0],"parents":[2147483647,0,0,1,1,2,2,3,3,5,5,6,6,8,8,9,9,10,10,11,11,12,12],"right_children":[2,4,6,8,-1,10,12,-1,14,16,18,20,22,-1,-1,-1,-1,-1,-1,-1,-1,-1,-1],"split_conditions":[4E1,5.28E1,7.8533307E2,3.4056464E2,4.563639E-3,9E1,1.2E0,1.9574678E-3,-1.1014172E0,-3.8077945E-1,7.71E1,5E1,9.269944E2,-1.6409676E-3,-1.2330194E-2,-2.1097527E-3,3.2006537E-3,-6.2894803E-3,9.2225615E-4,-7.854849E-3,6.6371686E-3,1.29748E-2,-0E0],"split_indices":[10,9,24,24,0,10,0,0,20,20,0,12,24,0,0,0,0,0,0,0,0,0,0],"split_type":[0,0,0,0,0,0,0,0,0,0,0,0,0,0,0,0,0,0,0,0,0,0,0],"sum_hessian":[3.8442383E2,3.590774E1,3.485161E2,2.8876719E1,7.031022E0,3.0780682E2,4.0709274E1,5.769364E0,2.3107355E1,2.1217569E2,9.563114E1,1.6142792E1,2.456648E1,6.199607E0,1.6907747E1,5.521699E1,1.569587E2,6.283112E1,3.2800026E1,6.148349E0,9.994444E0,1.7600435E1,6.9660444E0],"tree_param":{"num_deleted":"0","num_feature":"25","num_nodes":"23","size_leaf_vector":"1"}},{"base_weights":[1.1177668E-2,-2.2899473E-2,1.5472044E-1,1.3206917E-3,-2.0278946E-1,5.331441E-1,2.8519332E-2,-1.7143207E-2,2.2496907E-1,-3.06143E-1,1.2434121E-3,5.2621393E-3,1.9856276E-2,-7.4542984E-2,2.00842E-1,-3.8894655E-3,9.1987284E-4,1.2249944E-2,-3.5331321E-3,-2.911237E-3,-1.5132975E-2,5.870789E-4,-1.1074875E-2,-2.3993468E-3,1.1055856E-2],"categories":[],"categories_nodes":[],"categories_segments":[],"categories_sizes":[],"default_left":[0,0,0,0,0,0,0,0,0,0,0,0,0,0,0,0,0,0,0,0,0,0,0,0,0],"id":31,"left_children":[1,3,5,7,9,11,13,15,17,19,-1,-1,-1,21,23,-1,-1,-1,-1,-1,-1,-1,-1,-1,-1],"loss_changes":[1.8628502E0,1.3685739E0,3.296085E0,1.164446E0,1.0411707E0,3.2689333E-1,1.0905865E0,1.3576666E0,1.5402917E0,8.4806466E-1,0E0,0E0,0E0,1.1287335E0,1.2371869E0,0E0,0E0,0E0,0E0,0E0,0E0,0E0,0E0,0E0,0E0],"parents":[2147483647,0,0,1,1,2,2,3,3,4,4,5,5,6,6,7,7,8,8,9,9,13,13,14,14],"right_children":[2,4,6,8,10,12,14,16,18,20,-1,-1,-1,22,24,-1,-1,-1,-1,-1,-1,-1,-1,-1,-1],"split_conditions":[7.37E1,6.91E1,8.39E1,6.46E1,5.27E1,-3.1516835E-1,9.5E1,4.1E1,8.763333E1,4.82E1,1.2434121E-3,5.2621393E-3,1.9856276E-2,9.3066666E1,1.16E1,-3.8894655E-3,9.1987284E-4,1.2249944E-2,-3.5331321E-3,-2.911237E-3,-1.5132975E-2,5.870789E-4,-1.1074875E-2,-2.3993468E-3,1.1055856E-2],"split_indices":[5,5,23,5,1,19,23,3,23,1,0,0,0,23,2,0,0,0,0,0,0,0,0,0,0],"split_type":[0,0,0,0,0,0,0,0,0,0,0,0,0,0,0,0,0,0,0,0,0,0,0,0,0],"sum_hessian":[3.6929874E2,2.9811664E2,7.11821E1,2.630214E2,3.5095245E1,1.5594505E1,5.5587593E1,2.434297E2,1.9591694E1,2.5166794E1,9.928451E0,5.9937377E0,9.600767E0,3.440479E1,2.1182808E1,7.3442276E1,1.6998743E2,1.3084289E1,6.5074053E0,1.4435687E1,1.0731108E1,2.6718737E1,7.686052E0,7.6419992E0,1.3540808E1],"tree_param":{"num_deleted":"0","num_feature":"25","num_nodes":"25","size_leaf_vector":"1"}},{"base_weights":[-0E0,-6.024294E-2,5.0796986E-2,3.907026E-2,-1.6240272E-1,1.4740847E-1,9.4023E-4,8.2975775E-3,-2.7311545E-2,-2.5001898E-1,6.244791E-2,-8.075744E-2,2.4778004E-1,2.8919393E-2,-1.0349315E-2,3.571096E-3,-4.988254E-3,-9.924405E-3,1.1449951E-3,6.7303637E-3,-2.2898363E-3,4.4583858E-4,-9.380867E-3,1.5878182E-2,5.354694E-3,-3.2408678E-3,2.4387913E-3],"categories":[],"categories_nodes":[],"categories_segments":[],"categories_sizes":[],"default_left":[0,0,0,0,0,0,0,0,0,0,0,0,0,0,0,0,0,0,0,0,0,0,0,0,0,0,0],"id":32,"left_children":[1,3,5,7,9,11,13,-1,15,17,19,21,23,25,-1,-1,-1,-1,-1,-1,-1,-1,-1,-1,-1,-1,-1],"loss_changes":[1.1758595E0,1.8478749E0,9.495008E-1,1.508773E0,1.8456135E0,1.6520853E0,1.2822406E0,0E0,1.5011027E0,1.639955E0,6.5525275E-1,5.7395935E-1,5.500057E-1,9.589917E-1,0E0,0E0,0E0,0E0,0E0,0E0,0E0,0E0,0E0,0E0,0E0,0E0,0E0],"parents":[2147483647,0,0,1,1,2,2,3,3,4,4,5,5,6,6,8,8,9,9,10,10,11,11,12,12,13,13],"right_children":[2,4,6,8,10,12,14,-1,16,18,20,22,24,26,-1,-1,-1,-1,-1,-1,-1,-1,-1,-1,-1,-1,-1],"split_conditions":[5E1,4.8E0,1.79E1,7.2333336E1,8.74E1,3.95E1,6.8E1,8.2975775E-3,1.8759176E-2,6.35E1,5E1,9.3E1,2.75E1,4.79E1,-1.0349315E-2,3.571096E-3,-4.988254E-3,-9.924405E-3,1.1449951E-3,6.7303637E-3,-2.2898363E-3,4.4583858E-4,-9.380867E-3,1.5878182E-2,5.354694E-3,-3.2408678E-3,2.4387913E-3],"split_indices":[11,2,2,23,2,3,3,0,19,8,12,23,8,8,0,0,0,0,0,0,0,0,0,0,0,0,0],"split_type":[0,0,0,0,0,0,0,0,0,0,0,0,0,0,0,0,0,0,0,0,0,0,0,0,0,0,0],"sum_hessian":[3.796567E2,1.7523416E2,2.0442253E2,8.7992256E1,8.7241905E1,6.620371E1,1.3821883E2,1.8824364E1,6.916789E1,6.357813E1,2.3663776E1,1.9432178E1,4.6771534E1,1.3037373E2,7.845087E0,3.2777042E1,3.639085E1,5.0238594E1,1.3339534E1,1.135059E1,1.2313186E1,1.4169194E1,5.2629833E0,5.7609572E0,4.1010574E1,3.3893784E1,9.647995E1],"tree_param":{"num_deleted":"0","num_feature":"25","num_nodes":"27","size_leaf_vector":"1"}},{"base_weights":[-1.6834836E-2,-2.7950749E-2,2.1835747E-1,-6.3086427E-3,-1.4127298E-1,1.1810803E-2,-2.4567964E-4,4.577547E-2,-6.909879E-2,4.2963102E-3,-2.0140032E-1,-1.8979205E-3,4.3993513E-3,-0E0,-5.7917475E-3,-1.1417631E-2,-3.2100483E-4],"categories":[],"categories_nodes":[],"categories_segments":[],"categories_sizes":[],"default_left":[0,0,0,0,0,0,0,0,0,0,0,0,0,0,0,0,0],"id":33,"left_children":[1,3,5,7,9,-1,-1,11,13,-1,15,-1,-1,-1,-1,-1,-1],"loss_changes":[9.687552E-1,8.692821E-1,7.777963E-1,1.0522888E0,1.059231E0,0E0,0E0,1.9380063E0,1.2917974E0,0E0,1.555518E0,0E0,0E0,0E0,0E0,0E0,0E0],"parents":[2147483647,0,0,1,1,2,2,3,3,4,4,7,7,8,8,10,10],"right_children":[2,4,6,8,10,-1,-1,12,14,-1,16,-1,-1,-1,-1,-1,-1],"split_conditions":[7.55E1,9.39E1,5.19E1,5.1978107E2,-1.1014172E0,1.1810803E-2,-2.4567964E-4,7.5833336E1,5.15E1,4.2963102E-3,7.67E1,-1.8979205E-3,4.3993513E-3,-0E0,-5.7917475E-3,-1.1417631E-2,-3.2100483E-4],"split_indices":[3,0,8,24,20,0,0,23,8,0,6,0,0,0,0,0,0],"split_type":[0,0,0,0,0,0,0,0,0,0,0,0,0,0,0,0,0],"sum_hessian":[3.8572934E2,3.712221E2,1.4507231E1,3.1569064E2,5.553146E1,8.092593E0,6.4146385E0,1.7024084E2,1.454498E2,8.336345E0,4.7195114E1,8.073656E1,8.9504295E1,9.390169E1,5.1548107E1,2.2494246E1,2.470087E1],"tree_param":{"num_deleted":"0","num_feature":"25","num_nodes":"17","size_leaf_vector":"1"}},{"base_weights":[5.903522E-3,-5.867614E-2,1.03355125E-1,-1.8964365E-1,-6.4332127E-3,-7.578891E-3,1.2490767E-1,1.0979192E-2,-3.1782517E-1,5.553196E-2,-1.9052193E-1,7.411552E-2,3.0055156E-1,-6.066501E-3,4.1830624E-3,-1.1863578E-2,-0E0,6.22051E-4,1.2240165E-2,-8.826336E-3,2.9508949E-3,4.081591E-3,-3.2314043E-3,-1.1631299E-3,1.4139842E-2],"categories":[],"categories_nodes":[],"categories_segments":[],"categories_sizes":[],"default_left":[0,0,0,0,0,0,0,0,0,0,0,0,0,0,0,0,0,0,0,0,0,0,0,0,0],"id":34,"left_children":[1,3,5,7,9,-1,11,13,15,17,19,21,23,-1,-1,-1,-1,-1,-1,-1,-1,-1,-1,-1,-1],"loss_changes":[2.2644672E0,1.3987867E0,1.1324432E0,1.6199205E0,1.8440131E0,0E0,1.0765092E0,6.96927E-1,9.878485E-1,1.2922826E0,1.3453565E0,1.2904426E0,1.848769E0,0E0,0E0,0E0,0E0,0E0,0E0,0E0,0E0,0E0,0E0,0E0,0E0],"parents":[2147483647,0,0,1,1,2,2,3,3,4,4,6,6,7,7,8,8,9,9,10,10,11,11,12,12],"right_children":[2,4,6,8,10,-1,12,14,16,18,20,22,24,-1,-1,-1,-1,-1,-1,-1,-1,-1,-1,-1,-1],"split_conditions":[4.02E1,3.48E1,-1.5916666E0,7.75E1,6.2E1,-7.578891E-3,5.04E1,1.4E1,1E0,7.408249E2,1.5684533E0,9.12E1,5.53E1,-6.066501E-3,4.1830624E-3,-1.1863578E-2,-0E0,6.22051E-4,1.2240165E-2,-8.826336E-3,2.9508949E-3,4.081591E-3,-3.2314043E-3,-1.1631299E-3,1.4139842E-2],"split_indices":[2,1,20,6,3,0,1,22,17,24,20,6,5,0,0,0,0,0,0,0,0,0,0,0,0],"split_type":[0,0,0,0,0,0,0,0,0,0,0,0,0,0,0,0,0,0,0,0,0,0,0,0,0],"sum_hessian":[3.5375958E2,2.1139124E2,1.4236835E2,5.7141373E1,1.5424986E2,6.108657E0,1.3625969E2,2.2076569E1,3.5064804E1,1.15229935E2,3.9019936E1,1.0922599E2,2.7033699E1,6.990595E0,1.5085975E1,2.825825E1,6.806553E0,1.07578354E2,7.651578E0,2.9450788E1,9.569146E0,8.307952E1,2.6146473E1,8.9800825E0,1.8053617E1],"tree_param":{"num_deleted":"0","num_feature":"25","num_nodes":"25","size_leaf_vector":"1"}},{"base_weights":[-3.820264E-2,-6.551775E-2,1.747403E-1,7.20598E-3,-7.489444E-2,-5.1751338E-2,3.2547295E-1,-1.8039013E-1,-4.5842603E-2,-5.560758E-3,2.1622204E-3,-0E0,1.4715769E-2,-8.9420825E-3,-8.275888E-4,5.619421E-3,-1.8927198E-3],"categories":[],"categories_nodes":[],"categories_segments":[],"categories_sizes":[],"default_left":[0,0,0,0,0,0,0,0,0,0,0,0,0,0,0,0,0],"id":35,"left_children":[1,3,5,-1,7,9,11,13,15,-1,-1,-1,-1,-1,-1,-1,-1],"loss_changes":[2.1990526E0,9.590064E-1,1.5657986E0,0E0,9.321135E-1,3.568683E-1,1.3722365E0,1.1212876E0,1.0519352E0,0E0,0E0,0E0,0E0,0E0,0E0,0E0,0E0],"parents":[2147483647,0,0,1,1,2,2,4,4,5,5,6,6,7,7,8,8],"right_children":[2,4,6,-1,8,10,12,14,16,-1,-1,-1,-1,-1,-1,-1,-1],"split_conditions":[6.07E1,5E-1,2.54E1,7.20598E-3,4E1,2.26E1,3.8E1,2.3253098E-1,4.46E1,-5.560758E-3,2.1622204E-3,-0E0,1.4715769E-2,-8.9420825E-3,-8.275888E-4,5.619421E-3,-1.8927198E-3],"split_indices":[9,3,7,0,1,2,3,20,1,0,0,0,0,0,0,0,0],"split_type":[0,0,0,0,0,0,0,0,0,0,0,0,0,0,0,0,0],"sum_hessian":[3.7776428E2,3.3729187E2,4.0472416E1,7.6200647E0,3.296718E2,1.5901618E1,2.4570797E1,6.670427E1,2.6296753E2,8.335995E0,7.5656233E0,9.169787E0,1.540101E1,3.5499954E1,3.1204319E1,1.5557006E1,2.4741054E2],"tree_param":{"num_deleted":"0","num_feature":"25","num_nodes":"17","size_leaf_vector":"1"}},{"base_weights":[5.60267E-4,-1.4886238E-1,2.8585255E-2,-8.060826E-2,-1.4585521E-2,-7.6158084E-2,5.6249496E-2,-4.810377E-3,1.2677075E-1,-2.2066636E-1,9.242527E-2,1.4166063E-1,-6.3149207E-3,-0E0,8.282198E-3,-8.450064E-3,9.183991E-4,1.2210067E-2,-0E0,9.226007E-3,1.986024E-3,-4.339403E-3,1.5444033E-3],"categories":[],"categories_nodes":[],"categories_segments":[],"categories_sizes":[],"default_left":[0,0,0,0,0,0,0,0,0,0,0,0,0,0,0,0,0,0,0,0,0,0,0],"id":36,"left_children":[1,3,5,7,-1,9,11,-1,13,15,17,19,21,-1,-1,-1,-1,-1,-1,-1,-1,-1,-1],"loss_changes":[1.5189193E0,1.0629449E0,9.134642E-1,8.859432E-1,0E0,1.6447797E0,1.3894677E0,0E0,3.2872593E-1,6.466937E-1,9.599534E-1,1.2076762E0,1.2052292E0,0E0,0E0,0E0,0E0,0E0,0E0,0E0,0E0,0E0,0E0],"parents":[2147483647,0,0,1,1,2,2,3,3,5,5,6,6,8,8,9,9,10,10,11,11,12,12],"right_children":[2,4,6,8,-1,10,12,-1,14,16,18,20,22,-1,-1,-1,-1,-1,-1,-1,-1,-1,-1],"split_conditions":[7.0333336E1,6.25E1,3.48E1,2.090736E2,-1.4585521E-2,5E1,1.79E1,-4.810377E-3,4.5E1,9.52E1,8.36E1,1E1,6E1,-0E0,8.282198E-3,-8.450064E-3,9.183991E-4,1.2210067E-2,-0E0,9.226007E-3,1.986024E-3,-4.339403E-3,1.5444033E-3],"split_indices":[23,6,1,24,0,11,2,0,6,0,23,22,10,0,0,0,0,0,0,0,0,0,0],"split_type":[0,0,0,0,0,0,0,0,0,0,0,0,0,0,0,0,0,0,0,0,0,0,0],"sum_hessian":[3.6730548E2,5.495738E1,3.1234808E2,4.8509243E1,6.448135E0,6.2261425E1,2.5008667E2,3.640982E1,1.2099422E1,3.4149982E1,2.8111443E1,1.0669556E2,1.4339111E2,6.8133926E0,5.2860303E0,2.8245031E1,5.9049516E0,5.347855E0,2.2763588E1,3.0195154E1,7.6500404E1,4.2898712E1,1.0049239E2],"tree_param":{"num_deleted":"0","num_feature":"25","num_nodes":"23","size_leaf_vector":"1"}},{"base_weights":[-0E0,5.98215E-2,-4.6479214E-2,3.5513457E-2,1.5695894E-2,1.1449215E-2,-6.69744E-2,-2.2050073E-2,1.9669075E-1,5.3075273E-3,-8.221396E-2,-4.5588664E-3,2.521159E-3,1.2691949E-2,8.887705E-4,-1.0561941E-2,-2.0520366E-3],"categories":[],"categories_nodes":[],"categories_segments":[],"categories_sizes":[],"default_left":[0,0,0,0,0,0,0,0,0,0,0,0,0,0,0,0,0],"id":37,"left_children":[1,3,5,7,-1,-1,9,11,13,-1,15,-1,-1,-1,-1,-1,-1],"loss_changes":[1.0325348E0,1.6035984E0,1.8169255E0,1.5019904E0,0E0,0E0,7.614662E-1,1.6289876E0,1.4443005E0,0E0,5.531837E-1,0E0,0E0,0E0,0E0,0E0,0E0],"parents":[2147483647,0,0,1,1,2,2,3,3,6,6,7,7,8,8,10,10],"right_children":[2,4,6,8,-1,-1,10,12,14,-1,16,-1,-1,-1,-1,-1,-1],"split_conditions":[3.29E1,2.98E1,-1.6531067E0,1E0,1.5695894E-2,1.1449215E-2,6.1E0,5.01E1,4.53E1,5.3075273E-3,1.31E1,-4.5588664E-3,2.521159E-3,1.2691949E-2,8.887705E-4,-1.0561941E-2,-2.0520366E-3],"split_indices":[9,9,20,17,0,0,1,7,8,0,1,0,0,0,0,0,0],"split_type":[0,0,0,0,0,0,0,0,0,0,0,0,0,0,0,0,0],"sum_hessian":[3.685519E2,1.5854813E2,2.1000377E2,1.5330656E2,5.2415566E0,7.315353E0,2.0268842E2,1.1286321E2,4.0443356E1,9.514572E0,1.9317384E2,5.1617462E1,6.1245754E1,1.5109503E1,2.5333853E1,5.963954E0,1.872099E2],"tree_param":{"num_deleted":"0","num_feature":"25","num_nodes":"17","size_leaf_vector":"1"}},{"base_weights":[3.8142856E-3,2.6809657E-2,-2.4055739E-1,5.9617963E-2,-1.1280107E-1,-1.6686883E-2,-6.024721E-2,2.6891065E-1,3.6871973E-2,-2.0268027E-2,-1.4170249E-2,6.2063348E-2,-1.0727178E-2,-0E0,1.2125706E-2,2.4871135E-3,-2.0512494E-3,-4.6523716E-3,4.632902E-3,-1.0294259E-3,6.6974238E-3],"categories":[],"categories_nodes":[],"categories_segments":[],"categories_sizes":[],"default_left":[0,0,0,0,0,0,0,0,0,0,0,0,0,0,0,0,0,0,0,0,0],"id":38,"left_children":[1,3,5,7,9,-1,11,13,15,17,-1,19,-1,-1,-1,-1,-1,-1,-1,-1,-1],"loss_changes":[2.0550976E0,1.5800803E0,1.5305265E0,1.234802E0,1.9854885E0,0E0,9.614321E-1,9.1161513E-1,1.2690393E0,1.3247445E0,0E0,3.380952E-1,0E0,0E0,0E0,0E0,0E0,0E0,0E0,0E0,0E0],"parents":[2147483647,0,0,1,1,2,2,3,3,4,4,6,6,7,7,8,8,9,9,11,11],"right_children":[2,4,6,8,10,-1,12,14,16,18,-1,20,-1,-1,-1,-1,-1,-1,-1,-1,-1],"split_conditions":[9.81E1,5.7E1,-8.260367E-1,1.47E1,6.8E1,-1.6686883E-2,6.4896876E-1,4.38E1,6.367998E2,6.46E1,-1.4170249E-2,5.45E1,-1.0727178E-2,-0E0,1.2125706E-2,2.4871135E-3,-2.0512494E-3,-4.6523716E-3,4.632902E-3,-1.0294259E-3,6.6974238E-3],"split_indices":[13,8,19,1,3,0,19,8,24,5,0,8,0,0,0,0,0,0,0,0,0],"split_type":[0,0,0,0,0,0,0,0,0,0,0,0,0,0,0,0,0,0,0,0,0],"sum_hessian":[3.728295E2,3.4351312E2,2.9316359E1,2.8081647E2,6.2696667E1,8.536999E0,2.077936E1,2.411287E1,2.5670358E2,5.2207455E1,1.0489211E1,1.5129199E1,5.6501617E0,8.9743595E0,1.513851E1,1.8087111E2,7.583249E1,3.056382E1,2.1643635E1,9.288364E0,5.8408346E0],"tree_param":{"num_deleted":"0","num_feature":"25","num_nodes":"21","size_leaf_vector":"1"}},{"base_weights":[4.627617E-3,-1.1003086E-2,2.3736098E-1,2.306258E-2,-1.0436054E-1,-1.8614912E-3,1.4397991E-2,-9.4753176E-2,7.195271E-2,-1.2067593E-2,-6.845813E-2,4.8170597E-3,-7.3454995E-3,5.886968E-3,2.9394453E-4,1.7520171E-3,-4.177013E-3],"categories":[],"categories_nodes":[],"categories_segments":[],"categories_sizes":[],"default_left":[0,0,0,0,0,0,0,0,0,0,0,0,0,0,0,0,0],"id":39,"left_children":[1,3,5,7,9,-1,-1,11,13,-1,15,-1,-1,-1,-1,-1,-1],"loss_changes":[1.3545831E0,1.0812271E0,1.8892263E0,1.3986683E0,7.7859E-1,0E0,0E0,2.7838743E0,1.2761953E0,0E0,8.0060565E-1,0E0,0E0,0E0,0E0,0E0,0E0],"parents":[2147483647,0,0,1,1,2,2,3,3,4,4,7,7,8,8,10,10],"right_children":[2,4,6,8,10,-1,-1,12,14,-1,16,-1,-1,-1,-1,-1,-1],"split_conditions":[8.5E1,6.19E1,-1.284458E-1,2.68E1,7.7166664E1,-1.8614912E-3,1.4397991E-2,4.66E1,2.77E1,-1.2067593E-2,4.53E1,4.8170597E-3,-7.3454995E-3,5.886968E-3,2.9394453E-4,1.7520171E-3,-4.177013E-3],"split_indices":[5,7,19,7,23,0,0,1,9,0,8,0,0,0,0,0,0],"split_type":[0,0,0,0,0,0,0,0,0,0,0,0,0,0,0,0,0],"sum_hessian":[3.502616E2,3.2879562E2,2.1465965E1,2.3964343E2,8.915221E1,9.720029E0,1.1745936E1,6.793085E1,1.7171259E2,6.4952383E0,8.265697E1,2.435818E1,4.357267E1,5.4199116E1,1.17513466E2,2.8207901E1,5.4449066E1],"tree_param":{"num_deleted":"0","num_feature":"25","num_nodes":"17","size_leaf_vector":"1"}},{"base_weights":[5.0671156E-3,-5.321568E-3,2.5142637E-1,1.4958314E-2,-1.9794053E-1,9.3397085E-4,1.1399505E-2,-8.16116E-2,4.5346152E-2,-3.3359715E-1,3.1166035E-3,-8.172021E-3,2.1054577E-3,-7.522758E-4,2.5575848E-3,-1.4291863E-2,-1.9999282E-3],"categories":[],"categories_nodes":[],"categories_segments":[],"categories_sizes":[],"default_left":[0,0,0,0,0,0,0,0,0,0,0,0,0,0,0,0,0],"id":40,"left_children":[1,3,5,7,9,-1,-1,11,13,15,-1,-1,-1,-1,-1,-1,-1],"loss_changes":[1.0119101E0,1.4338241E0,3.0608535E-1,9.3104595E-1,1.5725583E0,0E0,0E0,2.2586327E0,7.1332914E-1,7.390442E-1,0E0,0E0,0E0,0E0,0E0,0E0,0E0],"parents":[2147483647,0,0,1,1,2,2,3,3,4,4,7,7,8,8,9,9],"right_children":[2,4,6,8,10,-1,-1,12,14,16,-1,-1,-1,-1,-1,-1,-1],"split_conditions":[1.5644605E0,9.52E1,7.67E1,1.74E1,4.89E1,9.3397085E-4,1.1399505E-2,8.9166664E1,3.9290668E2,2.62E1,3.1166035E-3,-8.172021E-3,2.1054577E-3,-7.522758E-4,2.5575848E-3,-1.4291863E-2,-1.9999282E-3],"split_indices":[19,0,6,0,2,0,0,23,24,9,0,0,0,0,0,0,0],"split_type":[0,0,0,0,0,0,0,0,0,0,0,0,0,0,0,0,0],"sum_hessian":[3.6348474E2,3.494864E2,1.399837E1,3.1645557E2,3.303081E1,6.934101E0,7.064269E0,7.257495E1,2.4388062E2,2.3328995E1,9.701815E0,3.232853E1,4.0246418E1,8.576307E1,1.5811755E2,1.3443817E1,9.885179E0],"tree_param":{"num_deleted":"0","num_feature":"25","num_nodes":"17","size_leaf_vector":"1"}},{"base_weights":[2.6336659E-2,1.9098295E-1,2.1139986E-3,4.2597435E-2,1.1682695E-2,-1.2696525E-1,6.1522927E-2,-2.6233278E-3,1.8144397E-1,-1.8930121E-1,6.6458754E-2,-1.0837148E-1,9.8322414E-2,1.0922322E-2,-2.5454077E-3,4.078306E-3,-7.086141E-3,-1.1346055E-3,6.314137E-3,6.0575623E-3,-5.6650583E-3,-0E0,4.662504E-3],"categories":[],"categories_nodes":[],"categories_segments":[],"categories_sizes":[],"default_left":[0,0,0,0,0,0,0,0,0,0,0,0,0,0,0,0,0,0,0,0,0,0,0],"id":41,"left_children":[1,3,5,7,-1,9,11,-1,13,15,17,19,21,-1,-1,-1,-1,-1,-1,-1,-1,-1,-1],"loss_changes":[1.404137E0,1.1749958E0,2.4757473E0,5.8544993E-1,0E0,1.2795974E0,1.4211736E0,0E0,9.160122E-1,1.2851677E0,4.419483E-1,1.0572774E0,1.0570176E0,0E0,0E0,0E0,0E0,0E0,0E0,0E0,0E0,0E0,0E0],"parents":[2147483647,0,0,1,1,2,2,3,3,5,5,6,6,8,8,9,9,10,10,11,11,12,12],"right_children":[2,4,6,8,-1,10,12,-1,14,16,18,20,22,-1,-1,-1,-1,-1,-1,-1,-1,-1,-1],"split_conditions":[9.9E0,4.75E1,4.64E1,6.1462384E2,1.1682695E-2,3.18E1,-5.57043E-1,-2.6233278E-3,9.0933334E1,3.4053662E2,5E1,4.8E1,6.62E1,1.0922322E-2,-2.5454077E-3,4.078306E-3,-7.086141E-3,-1.1346055E-3,6.314137E-3,6.0575623E-3,-5.6650583E-3,-0E0,4.662504E-3],"split_indices":[13,8,1,24,0,2,20,0,23,24,11,5,6,0,0,0,0,0,0,0,0,0,0],"split_type":[0,0,0,0,0,0,0,0,0,0,0,0,0,0,0,0,0,0,0,0,0,0,0],"sum_hessian":[3.6480313E2,4.3432133E1,3.2137097E2,2.7105131E1,1.6327002E1,9.898336E1,2.2238762E2,1.3262976E1,1.3842155E1,7.606353E1,2.2919836E1,3.744961E1,1.84938E2,8.443443E0,5.398712E0,8.301977E0,6.776155E1,1.2940951E1,9.978886E0,6.322208E0,3.1127405E1,6.835899E1,1.1657902E2],"tree_param":{"num_deleted":"0","num_feature":"25","num_nodes":"23","size_leaf_vector":"1"}},{"base_weights":[5.1009245E-3,-3.0790696E-2,1.5889998E-1,9.636921E-3,-4.0635284E-2,4.029973E-1,7.456807E-2,1.0424246E-1,-6.361999E-2,3.3310864E-3,1.7983478E-2,2.3575949E-2,1.0478942E-2,-8.3087373E-4,7.276768E-3,-8.075581E-3,-1.2753087E-3,4.2292145E-3,-3.166034E-3],"categories":[],"categories_nodes":[],"categories_segments":[],"categories_sizes":[],"default_left":[0,0,0,0,0,0,0,0,0,0,0,0,0,0,0,0,0,0,0],"id":42,"left_children":[1,3,5,-1,7,9,11,13,15,-1,-1,17,-1,-1,-1,-1,-1,-1,-1],"loss_changes":[2.104387E0,9.8886675E-1,1.2866895E0,0E0,9.883758E-1,6.413541E-1,6.7251027E-1,7.9997605E-1,1.0071751E0,0E0,0E0,8.176895E-1,0E0,0E0,0E0,0E0,0E0,0E0,0E0],"parents":[2147483647,0,0,1,1,2,2,4,4,5,5,6,6,7,7,8,8,11,11],"right_children":[2,4,6,-1,8,10,12,14,16,-1,-1,18,-1,-1,-1,-1,-1,-1,-1],"split_conditions":[7.37E1,-2.1430547E0,8.39E1,9.636921E-3,1.53E1,-3.1516835E-1,9.84E1,4.29E1,-1.163736E0,3.3310864E-3,1.7983478E-2,9E1,1.0478942E-2,-8.3087373E-4,7.276768E-3,-8.075581E-3,-1.2753087E-3,4.2292145E-3,-3.166034E-3],"split_indices":[5,19,23,0,13,19,23,9,19,0,0,6,0,0,0,0,0,0,0],"split_type":[0,0,0,0,0,0,0,0,0,0,0,0,0,0,0,0,0,0,0],"sum_hessian":[3.7048782E2,3.0010275E2,7.038507E1,5.614276E0,2.9448846E2,1.5219038E1,5.516603E1,3.7567764E1,2.5692072E2,7.9948444E0,7.2241936E0,4.9282425E1,5.883608E0,1.8935774E1,1.863199E1,2.0414036E1,2.3650668E2,2.6932755E1,2.2349669E1],"tree_param":{"num_deleted":"0","num_feature":"25","num_nodes":"19","size_leaf_vector":"1"}},{"base_weights":[-5.5551897E-3,2.369303E-2,-1.1928185E-1,-6.6989125E-3,1.773975E-1,-1.7276375E-1,6.8304418E-3,-2.1584056E-2,9.23189E-3,2.805005E-1,2.0846047E-2,-4.1508126E-1,-7.669396E-2,5.8003364E-4,-4.4336533E-3,-3.1438656E-4,1.0861976E-2,-6.968673E-3,4.4908384E-3,-1.905522E-2,-1.7773177E-3,-5.52304E-3,-0E0],"categories":[],"categories_nodes":[],"categories_segments":[],"categories_sizes":[],"default_left":[0,0,0,0,0,0,0,0,0,0,0,0,0,0,0,0,0,0,0,0,0,0,0],"id":43,"left_children":[1,3,5,7,9,11,-1,13,-1,15,17,19,21,-1,-1,-1,-1,-1,-1,-1,-1,-1,-1],"loss_changes":[1.2384267E0,1.3966572E0,1.481418E0,1.052326E0,6.9149673E-1,1.3753791E0,0E0,1.2436652E0,0E0,7.853918E-1,7.8968364E-1,1.1268563E0,4.3086123E-1,0E0,0E0,0E0,0E0,0E0,0E0,0E0,0E0,0E0,0E0],"parents":[2147483647,0,0,1,1,2,2,3,3,4,4,5,5,7,7,9,9,10,10,11,11,12,12],"right_children":[2,4,6,8,10,12,-1,14,-1,16,18,20,22,-1,-1,-1,-1,-1,-1,-1,-1,-1,-1],"split_conditions":[9.4433334E1,9.13E1,9.823865E2,7.6161896E2,5.13E1,6E1,6.8304418E-3,8.61E1,9.23189E-3,4.8738248E2,1E-1,3.4014374E-2,2.86E1,5.8003364E-4,-4.4336533E-3,-3.1438656E-4,1.0861976E-2,-6.968673E-3,4.4908384E-3,-1.905522E-2,-1.7773177E-3,-5.52304E-3,-0E0],"split_indices":[23,23,24,24,13,10,0,23,0,24,2,20,2,0,0,0,0,0,0,0,0,0,0],"split_type":[0,0,0,0,0,0,0,0,0,0,0,0,0,0,0,0,0,0,0,0,0,0,0],"sum_hessian":[3.5999286E2,2.8551065E2,7.448219E1,2.38344E2,4.716666E1,6.615384E1,8.328358E0,2.3026024E2,8.083768E0,2.6327724E1,2.0838936E1,1.6009356E1,5.014448E1,1.7336697E2,5.6893253E1,5.340563E0,2.0987162E1,5.7023E0,1.5136635E1,8.400418E0,7.6089377E0,1.9761623E1,3.038286E1],"tree_param":{"num_deleted":"0","num_feature":"25","num_nodes":"23","size_leaf_vector":"1"}},{"base_weights":[-1.3278439E-2,1.1247964E-2,-1.3759688E-1,-1.438116E-2,1.6975428E-1,-2.1846896E-1,3.761522E-2,-1.6013797E-1,2.1324463E-3,2.1606568E-1,-1.405486E-3,-1.2902112E-2,-4.897624E-2,9.062352E-3,-2.9515326E-3,2.8715525E-3,-9.078175E-3,-1.9347547E-3,2.2974294E-3,1.1515926E-3,1.1432771E-2,3.5142747E-3,-6.5213516E-3],"categories":[],"categories_nodes":[],"categories_segments":[],"categories_sizes":[],"default_left":[0,0,0,0,0,0,0,0,0,0,0,0,0,0,0,0,0,0,0,0,0,0,0],"id":44,"left_children":[1,3,5,7,9,11,13,15,17,19,-1,-1,21,-1,-1,-1,-1,-1,-1,-1,-1,-1,-1],"loss_changes":[1.1005316E0,1.2298523E0,9.127412E-1,6.4960426E-1,4.9391282E-1,1.3249404E0,8.147651E-1,1.1153765E0,1.1275393E0,9.072288E-1,0E0,0E0,8.204722E-1,0E0,0E0,0E0,0E0,0E0,0E0,0E0,0E0,0E0,0E0],"parents":[2147483647,0,0,1,1,2,2,3,3,4,4,5,5,6,6,7,7,8,8,9,9,12,12],"right_children":[2,4,6,8,10,12,14,16,18,20,-1,-1,22,-1,-1,-1,-1,-1,-1,-1,-1,-1,-1],"split_conditions":[9.5933334E1,8.15E1,1E2,-1.169774E0,6.5E1,4.55E1,-7.8709805E-1,-1.6531067E0,4.692505E2,4.8060782E2,-1.405486E-3,-1.2902112E-2,8.62E1,9.062352E-3,-2.9515326E-3,2.8715525E-3,-9.078175E-3,-1.9347547E-3,2.2974294E-3,1.1515926E-3,1.1432771E-2,3.5142747E-3,-6.5213516E-3],"split_indices":[23,2,23,20,11,3,20,20,24,24,0,0,2,0,0,0,0,0,0,0,0,0,0],"split_type":[0,0,0,0,0,0,0,0,0,0,0,0,0,0,0,0,0,0,0,0,0,0,0],"sum_hessian":[3.454918E2,2.88066E2,5.7425774E1,2.4790736E2,4.0158638E1,4.012421E1,1.7301563E1,2.5307116E1,2.2260025E2,3.423001E1,5.9286265E0,1.5690628E1,2.4433582E1,5.7954164E0,1.1506146E1,8.533122E0,1.6773993E1,1.1548772E2,1.0711254E2,1.8545614E1,1.5684399E1,1.1709844E1,1.272374E1],"tree_param":{"num_deleted":"0","num_feature":"25","num_nodes":"23","size_leaf_vector":"1"}},{"base_weights":[5.1184813E-4,-1.7656857E-2,2.6523006E-1,-4.67753E-3,-1.105245E-2,1.0274053E-2,-0E0,-1.67248E-2,1.1893514E-2,1.8515583E-3,-1.9299468E-3],"categories":[],"categories_nodes":[],"categories_segments":[],"categories_sizes":[],"default_left":[0,0,0,0,0,0,0,0,0,0,0],"id":45,"left_children":[1,3,5,7,-1,-1,-1,9,-1,-1,-1],"loss_changes":[1.8147933E0,1.4217474E0,4.885993E-1,1.48652E0,0E0,0E0,0E0,1.2093717E0,0E0,0E0,0E0],"parents":[2147483647,0,0,1,1,2,2,3,3,7,7],"right_children":[2,4,6,8,-1,-1,-1,10,-1,-1,-1],"split_conditions":[8.37E1,1.6389705E0,1E0,1.4603587E0,-1.105245E-2,1.0274053E-2,-0E0,5.2E0,1.1893514E-2,1.8515583E-3,-1.9299468E-3],"split_indices":[5,19,18,19,0,0,0,2,0,0,0],"split_type":[0,0,0,0,0,0,0,0,0,0,0],"sum_hessian":[3.579384E2,3.3563565E2,2.2302744E1,3.264382E2,9.197439E0,1.6742641E1,5.5601025E0,3.195068E2,6.9314E0,1.1806776E2,2.0143906E2],"tree_param":{"num_deleted":"0","num_feature":"25","num_nodes":"11","size_leaf_vector":"1"}},{"base_weights":[2.0976782E-2,-6.595711E-3,6.151093E-2,5.4135905E-3,-1.1670283E-2,1.7380546E-1,-1.9857576E-2,-5.7080217E-2,9.911811E-2,3.7607777E-1,3.7794847E-2,-6.611464E-2,7.968572E-3,-9.174431E-3,7.1560964E-4,5.0890553E-3,-4.2171017E-4,3.1565028E-4,1.4267702E-2,-2.8780494E-3,5.558312E-3,2.3064492E-3,-4.5179348E-3],"categories":[],"categories_nodes":[],"categories_segments":[],"categories_sizes":[],"default_left":[0,0,0,0,0,0,0,0,0,0,0,0,0,0,0,0,0,0,0,0,0,0,0],"id":46,"left_children":[1,3,5,7,-1,9,11,13,15,17,19,21,-1,-1,-1,-1,-1,-1,-1,-1,-1,-1,-1],"loss_changes":[4.437022E-1,1.150201E0,1.5064662E0,1.3055196E0,0E0,1.7342501E0,1.1964538E0,2.7290943E0,7.714122E-1,8.068814E-1,9.325119E-1,1.036951E0,0E0,0E0,0E0,0E0,0E0,0E0,0E0,0E0,0E0,0E0,0E0],"parents":[2147483647,0,0,1,1,2,2,3,3,5,5,6,6,7,7,8,8,9,9,10,10,11,11],"right_children":[2,4,6,8,-1,10,12,14,16,18,20,22,-1,-1,-1,-1,-1,-1,-1,-1,-1,-1,-1],"split_conditions":[6.855106E-2,3.253611E-2,4.32E1,5.72E1,-1.1670283E-2,8.2333336E1,6.22E1,5E1,9.15E1,1.11E1,6.6632904E2,2.14E1,7.968572E-3,-9.174431E-3,7.1560964E-4,5.0890553E-3,-4.2171017E-4,3.1565028E-4,1.4267702E-2,-2.8780494E-3,5.558312E-3,2.3064492E-3,-4.5179348E-3],"split_indices":[20,20,0,0,0,23,12,7,0,13,24,7,0,0,0,0,0,0,0,0,0,0,0],"split_type":[0,0,0,0,0,0,0,0,0,0,0,0,0,0,0,0,0,0,0,0,0,0,0],"sum_hessian":[3.7953696E2,2.2247586E2,1.5706108E2,2.1685301E2,5.6228447E0,6.658447E1,9.047661E1,1.2864003E2,8.821299E1,2.446491E1,4.2119564E1,8.008737E1,1.0389233E1,3.1126995E1,9.751303E1,5.5367603E1,3.2845387E1,6.353104E0,1.8111805E1,2.1389488E1,2.0730076E1,2.8491535E1,5.1595837E1],"tree_param":{"num_deleted":"0","num_feature":"25","num_nodes":"23","size_leaf_vector":"1"}},{"base_weights":[7.6824315E-3,-1.6304088E-1,2.8511627E-2,5.6195273E-3,-2.4352366E-1,1.8239085E-1,9.118703E-3,-0E0,-3.3545867E-1,-2.7153473E-3,3.0194023E-1,-6.8686125E-3,1.5262748E-1,-0E0,-1.3074566E-2,1.42750405E-2,5.29013E-4,2.0745683E-3,-2.3593165E-3,7.1794805E-3,-4.2803097E-3],"categories":[],"categories_nodes":[],"categories_segments":[],"categories_sizes":[],"default_left":[0,0,0,0,0,0,0,0,0,0,0,0,0,0,0,0,0,0,0,0,0],"id":47,"left_children":[1,3,5,-1,7,9,11,-1,13,-1,15,17,19,-1,-1,-1,-1,-1,-1,-1,-1],"loss_changes":[1.2876428E0,1.2093844E0,9.352778E-1,0E0,6.602243E-1,1.2769597E0,7.3471636E-1,0E0,6.7950964E-1,0E0,1.116941E0,1.4880259E0,9.181045E-1,0E0,0E0,0E0,0E0,0E0,0E0,0E0,0E0],"parents":[2147483647,0,0,1,1,2,2,4,4,5,5,6,6,8,8,10,10,11,11,12,12],"right_children":[2,4,6,-1,8,10,12,-1,14,-1,16,18,20,-1,-1,-1,-1,-1,-1,-1,-1],"split_conditions":[4E1,6.1E0,9.1E0,5.6195273E-3,6.38E1,3.5E1,9.67E1,-0E0,1.87E1,-2.7153473E-3,5.9E1,7E1,7.83E1,-0E0,-1.3074566E-2,1.42750405E-2,5.29013E-4,2.0745683E-3,-2.3593165E-3,7.1794805E-3,-4.2803097E-3],"split_indices":[10,1,13,0,6,3,6,0,13,0,3,10,13,0,0,0,0,0,0,0,0],"split_type":[0,0,0,0,0,0,0,0,0,0,0,0,0,0,0,0,0,0,0,0,0],"sum_hessian":[3.688363E2,3.7055847E1,3.3178046E2,5.729925E0,3.132592E1,3.3520664E1,2.982598E2,9.896453E0,2.1429468E1,9.594683E0,2.3925982E1,2.6819577E2,3.0064014E1,5.970691E0,1.5458776E1,1.33549595E1,1.0571022E1,1.2825143E2,1.3994434E2,2.4319857E1,5.744158E0],"tree_param":{"num_deleted":"0","num_feature":"25","num_nodes":"21","size_leaf_vector":"1"}},{"base_weights":[-3.3132337E-2,-1.7518006E-1,-9.25327E-3,2.7559338E-2,-2.6363358E-1,-3.512069E-2,1.6546996E-1,8.855213E-3,-4.6549793E-3,8.9903513E-4,-3.4894434E-1,-1.7347291E-2,-7.619562E-3,3.252743E-1,-0E0,-1.2622154E-2,-2.5202092E-3,-3.7394513E-3,4.6938533E-4,1.2757039E-2,2.5021643E-4,-4.9486742E-3,7.137374E-3],"categories":[],"categories_nodes":[],"categories_segments":[],"categories_sizes":[],"default_left":[0,0,0,0,0,0,0,0,0,0,0,0,0,0,0,0,0,0,0,0,0,0,0],"id":48,"left_children":[1,3,5,7,9,11,13,-1,-1,-1,15,17,-1,19,21,-1,-1,-1,-1,-1,-1,-1,-1],"loss_changes":[1.1729877E0,9.879695E-1,1.3950679E0,9.1940886E-1,1.0248995E0,9.8849714E-1,9.5720506E-1,0E0,0E0,0E0,3.3041525E-1,9.5667917E-1,0E0,4.728279E-1,9.685413E-1,0E0,0E0,0E0,0E0,0E0,0E0,0E0,0E0],"parents":[2147483647,0,0,1,1,2,2,3,3,4,4,5,5,6,6,10,10,11,11,13,13,14,14],"right_children":[2,4,6,8,10,12,14,-1,-1,-1,16,18,-1,20,22,-1,-1,-1,-1,-1,-1,-1,-1],"split_conditions":[3.81E1,2.9E0,1E2,4.79E1,4.0348862E2,9.97E1,8.38E1,8.855213E-3,-4.6549793E-3,8.9903513E-4,5.94E1,3.538326E2,-7.619562E-3,1.4E1,4.344445E-1,-1.2622154E-2,-2.5202092E-3,-3.7394513E-3,4.6938533E-4,1.2757039E-2,2.5021643E-4,-4.9486742E-3,7.137374E-3],"split_indices":[5,2,2,8,24,1,6,0,0,0,8,24,0,22,19,0,0,0,0,0,0,0,0],"split_type":[0,0,0,0,0,0,0,0,0,0,0,0,0,0,0,0,0,0,0,0,0,0,0],"sum_hessian":[3.6108124E2,4.833265E1,3.127486E2,1.4069646E1,3.4263004E1,2.753052E2,3.7443394E1,5.8755274E0,8.1941185E0,7.214571E0,2.7048433E1,2.5789175E2,1.7413445E1,1.725437E1,2.0189024E1,1.9465178E1,7.5832567E0,6.148089E1,1.9641087E2,1.1878053E1,5.376316E0,1.1630076E1,8.558948E0],"tree_param":{"num_deleted":"0","num_feature":"25","num_nodes":"23","size_leaf_vector":"1"}},{"base_weights":[2.5080526E-2,8.876674E-2,-9.700614E-3,1.22412845E-1,-8.708649E-2,-2.8947777E-1,1.7390518E-2,-1.926738E-2,1.8328784E-1,2.2694313E-3,-7.6348265E-3,-0E0,-1.2022342E-2,-1.4061898E-2,1.23093575E-1,1.2292583E-2,-4.498474E-3,6.841077E-3,-2.6688587E-3,4.3250842E-4,-1.0013532E-2,6.641391E-3,-2.3182894E-3],"categories":[],"categories_nodes":[],"categories_segments":[],"categories_sizes":[],"default_left":[0,0,0,0,0,0,0,0,0,0,0,0,0,0,0,0,0,0,0,0,0,0,0],"id":49,"left_children":[1,3,5,7,9,11,13,15,17,-1,-1,-1,-1,19,21,-1,-1,-1,-1,-1,-1,-1,-1],"loss_changes":[8.656302E-1,8.4383917E-1,1.941698E0,1.0692358E0,6.853747E-1,7.53752E-1,7.7902865E-1,2.0423217E0,1.103473E0,0E0,0E0,0E0,0E0,1.669818E0,1.1336489E0,0E0,0E0,0E0,0E0,0E0,0E0,0E0,0E0],"parents":[2147483647,0,0,1,1,2,2,3,3,4,4,5,5,6,6,7,7,8,8,13,13,14,14],"right_children":[2,4,6,8,10,12,14,16,18,-1,-1,-1,-1,20,22,-1,-1,-1,-1,-1,-1,-1,-1],"split_conditions":[5.8E0,1.0153462E0,1.43E1,-4.310153E-1,4.36E1,3.35E1,5.2772E-1,3.35E1,1E0,2.2694313E-3,-7.6348265E-3,-0E0,-1.2022342E-2,3.7986785E-1,9E1,1.2292583E-2,-4.498474E-3,6.841077E-3,-2.6688587E-3,4.3250842E-4,-1.0013532E-2,6.641391E-3,-2.3182894E-3],"split_indices":[2,20,2,19,13,7,20,5,16,0,0,0,0,20,10,0,0,0,0,0,0,0,0],"split_type":[0,0,0,0,0,0,0,0,0,0,0,0,0,0,0,0,0,0,0,0,0,0,0],"sum_hessian":[3.7730396E2,1.352234E2,2.4208054E2,1.1544835E2,1.9775053E1,2.0639027E1,2.2144151E2,3.3626057E1,8.182229E1,9.674678E0,1.0100375E1,6.1327777E0,1.4506248E1,1.698097E2,5.1631832E1,6.317953E0,2.7308104E1,7.149742E1,1.0324868E1,1.5681326E2,1.2996425E1,3.550387E1,1.612796E1],"tree_param":{"num_deleted":"0","num_feature":"25","num_nodes":"23","size_leaf_vector":"1"}},{"base_weights":[2.1661952E-2,-1.2012496E-1,4.7978554E-2,-2.2555535E-1,7.3778345E-3,1.2666222E-1,-2.3194235E-3,2.1107944E-4,-3.4362468E-1,1.47194965E-2,9.482383E-2,3.2214876E-2,-1.3869813E-1,2.433393E-3,-1.3947166E-2,3.819592E-3,-4.6100854E-3,3.9180648E-3,-1.4531779E-3,-6.8307417E-3,3.6541703E-3],"categories":[],"categories_nodes":[],"categories_segments":[],"categories_sizes":[],"default_left":[0,0,0,0,0,0,0,0,0,0,0,0,0,0,0,0,0,0,0,0,0],"id":50,"left_children":[1,3,5,7,-1,9,11,-1,13,-1,15,17,19,-1,-1,-1,-1,-1,-1,-1,-1],"loss_changes":[1.3464493E0,2.2545173E0,1.2641926E0,1.3395452E0,0E0,1.1589843E0,9.2943585E-1,0E0,1.7717018E0,0E0,9.721471E-1,1.230856E0,1.0204248E0,0E0,0E0,0E0,0E0,0E0,0E0,0E0,0E0],"parents":[2147483647,0,0,1,1,2,2,3,3,5,5,6,6,8,8,10,10,11,11,12,12],"right_children":[2,4,6,8,-1,10,12,-1,14,-1,16,18,20,-1,-1,-1,-1,-1,-1,-1,-1],"split_conditions":[-8.4536463E-1,9.6933334E1,4.81E1,1.9E1,7.3778345E-3,1.47E1,6.7309155E2,2.1107944E-4,3.5E0,1.47194965E-2,9.6666664E1,3.62E1,8.08E1,2.433393E-3,-1.3947166E-2,3.819592E-3,-4.6100854E-3,3.9180648E-3,-1.4531779E-3,-6.8307417E-3,3.6541703E-3],"split_indices":[20,23,13,13,0,1,24,0,3,0,23,9,0,0,0,0,0,0,0,0,0],"split_type":[0,0,0,0,0,0,0,0,0,0,0,0,0,0,0,0,0,0,0,0,0],"sum_hessian":[3.6155917E2,5.370139E1,3.078578E2,4.292526E1,1.0776129E1,1.2119473E2,1.8666307E2,1.4230922E1,2.869434E1,6.6721783E0,1.1452255E2,1.4840997E2,3.825309E1,5.971241E0,2.2723097E1,1.0320836E2,1.1314194E1,6.7973E1,8.043698E1,2.955876E1,8.694329E0],"tree_param":{"num_deleted":"0","num_feature":"25","num_nodes":"21","size_leaf_vector":"1"}},{"base_weights":[-8.4403185E-3,-2.5695961E-2,1.7831019E-1,-9.881622E-2,8.425024E-3,3.1432018E-1,-2.9907976E-3,-1.83627E-1,1.3545793E-2,1.6112384E-1,-3.1229384E-2,1.9032293E-4,1.1956678E-2,-2.4078367E-3,-1.2827184E-2,3.8444262E-3,-5.6354585E-3,7.853931E-3,6.1263365E-4,-2.5581375E-3,2.8622316E-3],"categories":[],"categories_nodes":[],"categories_segments":[],"categories_sizes":[],"default_left":[0,0,0,0,0,0,0,0,0,0,0,0,0,0,0,0,0,0,0,0,0],"id":51,"left_children":[1,3,5,7,9,11,-1,13,15,17,19,-1,-1,-1,-1,-1,-1,-1,-1,-1,-1],"loss_changes":[1.1875855E0,9.044524E-1,1.2959652E0,1.1483257E0,1.4923048E0,4.4329262E-1,0E0,1.4679627E0,1.1760606E0,6.2737095E-1,1.3089592E0,0E0,0E0,0E0,0E0,0E0,0E0,0E0,0E0,0E0,0E0],"parents":[2147483647,0,0,1,1,2,2,3,3,4,4,5,5,7,7,8,8,9,9,10,10],"right_children":[2,4,6,8,10,12,-1,14,16,18,20,-1,-1,-1,-1,-1,-1,-1,-1,-1,-1],"split_conditions":[8.2864996E2,4.77E1,1E0,5.15E1,4.5E1,6.5E1,-2.9907976E-3,5.64E1,1.4E1,5.7E1,5.71E1,1.9032293E-4,1.1956678E-2,-2.4078367E-3,-1.2827184E-2,3.8444262E-3,-5.6354585E-3,7.853931E-3,6.1263365E-4,-2.5581375E-3,2.8622316E-3],"split_indices":[24,8,15,3,10,10,0,13,22,8,7,0,0,0,0,0,0,0,0,0,0],"split_type":[0,0,0,0,0,0,0,0,0,0,0,0,0,0,0,0,0,0,0,0,0],"sum_hessian":[3.778933E2,3.4897906E2,2.891424E1,1.1262569E2,2.3635338E2,1.996463E1,8.949612E0,6.498016E1,4.7645523E1,4.9021866E1,1.8733151E2,5.5146093E0,1.445002E1,4.8371704E1,1.6608458E1,3.1778982E1,1.5866542E1,2.6329481E1,2.2692385E1,1.3341814E2,5.3913372E1],"tree_param":{"num_deleted":"0","num_feature":"25","num_nodes":"21","size_leaf_vector":"1"}},{"base_weights":[-3.2345653E-3,-1.6919745E-2,2.0343216E-1,1.7140385E-2,-9.31495E-2,1.310518E-2,1.9729549E-4,2.16535E-1,-1.2619274E-2,-1.3159601E-1,8.548103E-3,9.200407E-3,-2.9268744E-3,1.2820074E-3,-2.8866928E-3,-1.18651034E-4,-5.891159E-3],"categories":[],"categories_nodes":[],"categories_segments":[],"categories_sizes":[],"default_left":[0,0,0,0,0,0,0,0,0,0,0,0,0,0,0,0,0],"id":52,"left_children":[1,3,5,7,9,-1,-1,11,13,15,-1,-1,-1,-1,-1,-1,-1],"loss_changes":[9.692184E-1,9.1107154E-1,8.331436E-1,1.4586273E0,1.6033187E0,0E0,0E0,1.0253468E0,9.7155297E-1,7.684331E-1,0E0,0E0,0E0,0E0,0E0,0E0,0E0],"parents":[2147483647,0,0,1,1,2,2,3,3,4,4,7,7,8,8,9,9],"right_children":[2,4,6,8,10,-1,-1,12,14,16,-1,-1,-1,-1,-1,-1,-1],"split_conditions":[1.4832006E0,9E1,-1.4778692E-1,1.67E1,9.976667E1,1.310518E-2,1.9729549E-4,6.8E1,4.2793926E-2,8.973333E1,8.548103E-3,9.200407E-3,-2.9268744E-3,1.2820074E-3,-2.8866928E-3,-1.18651034E-4,-5.891159E-3],"split_indices":[19,6,20,13,23,0,0,3,19,23,0,0,0,0,0,0,0],"split_type":[0,0,0,0,0,0,0,0,0,0,0,0,0,0,0,0,0],"sum_hessian":[3.58039E2,3.3888632E2,1.9152702E1,2.325816E2,1.063047E2,6.9500546E0,1.2202648E1,2.9883793E1,2.0269781E2,9.839641E1,7.908295E0,2.3998596E1,5.885196E0,1.2038322E2,8.23146E1,3.539805E1,6.299836E1],"tree_param":{"num_deleted":"0","num_feature":"25","num_nodes":"17","size_leaf_vector":"1"}},{"base_weights":[4.4014365E-3,-1.7431686E-2,1.10259175E-1,-0E0,-1.8536831E-1,1.5157815E-2,2.9635676E-3,-9.955628E-3,9.721424E-3,-3.5795593E-1,-0E0,1.5556067E-1,-1.686661E-1,-4.7316533E-3,2.857108E-4,-2.563586E-4,-1.501232E-2,-6.626657E-3,6.9550793E-3,1.3152106E-2,-0E0,2.6101249E-3,-9.247458E-3],"categories":[],"categories_nodes":[],"categories_segments":[],"categories_sizes":[],"default_left":[0,0,0,0,0,0,0,0,0,0,0,0,0,0,0,0,0,0,0,0,0,0,0],"id":53,"left_children":[1,3,5,7,9,-1,11,13,-1,15,17,19,21,-1,-1,-1,-1,-1,-1,-1,-1,-1,-1],"loss_changes":[8.787255E-1,9.161168E-1,2.6115022E0,9.447197E-1,9.789643E-1,0E0,1.461496E0,8.2208925E-1,0E0,6.1072755E-1,9.144788E-1,1.4074066E0,1.0273796E0,0E0,0E0,0E0,0E0,0E0,0E0,0E0,0E0,0E0,0E0],"parents":[2147483647,0,0,1,1,2,2,3,3,4,4,6,6,7,7,9,9,10,10,11,11,12,12],"right_children":[2,4,6,8,10,-1,12,14,-1,16,18,20,22,-1,-1,-1,-1,-1,-1,-1,-1,-1,-1],"split_conditions":[7.37E1,1.1067612E0,4.3761047E2,1.0211883E0,5.4E1,1.5157815E-2,6.29E1,-8.793702E-1,9.721424E-3,9E0,2.49E1,1E1,3.15E1,-4.7316533E-3,2.857108E-4,-2.563586E-4,-1.501232E-2,-6.626657E-3,6.9550793E-3,1.3152106E-2,-0E0,2.6101249E-3,-9.247458E-3],"split_indices":[5,19,24,19,12,0,2,20,0,22,13,22,7,0,0,0,0,0,0,0,0,0,0],"split_type":[0,0,0,0,0,0,0,0,0,0,0,0,0,0,0,0,0,0,0,0,0,0,0],"sum_hessian":[3.644899E2,3.0120346E2,6.3286446E1,2.7386096E2,2.7342485E1,1.1336775E1,5.194967E1,2.6711823E2,6.7427335E0,1.3509058E1,1.3833428E1,2.8523994E1,2.3425676E1,3.1252247E1,2.3586598E2,5.136425E0,8.372633E0,6.8840733E0,6.949355E0,9.165902E0,1.9358091E1,7.779759E0,1.5645917E1],"tree_param":{"num_deleted":"0","num_feature":"25","num_nodes":"23","size_leaf_vector":"1"}},{"base_weights":[-1.2558686E-2,-1.3201977E-1,2.2398002E-2,-3.645077E-2,-3.8072067E-1,-3.1137764E-2,8.028892E-2,-1.8961978E-1,7.2110854E-2,-4.8662552E-1,-7.7878725E-4,7.4945185E-3,-2.4933356E-1,2.7909255E-1,1.0757726E-2,-8.891991E-3,1.3113684E-3,-1.3789019E-3,4.8239413E-3,-5.3888685E-3,-1.9922297E-2,1.2125899E-3,-9.996754E-3,-1.3816381E-2,-1.1566255E-3,-4.1761954E-4,1.1930478E-2,-5.1591764E-3,1.8155463E-3],"categories":[],"categories_nodes":[],"categories_segments":[],"categories_sizes":[],"default_left":[0,0,0,0,0,0,0,0,0,0,0,0,0,0,0,0,0,0,0,0,0,0,0,0,0,0,0,0,0],"id":54,"left_children":[1,3,5,7,9,11,13,15,17,19,-1,21,23,25,27,-1,-1,-1,-1,-1,-1,-1,-1,-1,-1,-1,-1,-1,-1],"loss_changes":[1.5771996E0,1.882329E0,9.0229857E-1,1.1424663E0,6.733432E-1,1.3128508E0,1.8432163E0,8.1513906E-1,4.5037675E-1,4.1849613E-1,0E0,1.3459048E0,8.5172796E-1,1.345751E0,9.600488E-1,0E0,0E0,0E0,0E0,0E0,0E0,0E0,0E0,0E0,0E0,0E0,0E0,0E0,0E0],"parents":[2147483647,0,0,1,1,2,2,3,3,4,4,5,5,6,6,7,7,8,8,9,9,11,11,12,12,13,13,14,14],"right_children":[2,4,6,8,10,12,14,16,18,20,-1,22,24,26,28,-1,-1,-1,-1,-1,-1,-1,-1,-1,-1,-1,-1,-1,-1],"split_conditions":[4E1,5.84E1,7.92E1,3.09E1,5.97E1,9.12E1,4.5239154E2,6.35E1,7.25E1,1.16E1,-7.7878725E-4,9.91E1,4.963584E2,3.1227448E2,4.91E1,-8.891991E-3,1.3113684E-3,-1.3789019E-3,4.8239413E-3,-5.3888685E-3,-1.9922297E-2,1.2125899E-3,-9.996754E-3,-1.3816381E-2,-1.1566255E-3,-4.1761954E-4,1.1930478E-2,-5.1591764E-3,1.8155463E-3],"split_indices":[1,7,6,9,8,0,24,3,6,1,0,7,24,24,1,0,0,0,0,0,0,0,0,0,0,0,0,0,0],"split_type":[0,0,0,0,0,0,0,0,0,0,0,0,0,0,0,0,0,0,0,0,0,0,0,0,0,0,0,0,0],"sum_hessian":[3.6639377E2,8.362889E1,2.827649E2,6.294156E1,2.0687332E1,1.4469627E2,1.3806862E2,2.6633953E1,3.6307606E1,1.4707689E1,5.9796433E0,1.2340364E2,2.1292627E1,3.3096535E1,1.0497209E2,1.8783283E1,7.85067E0,1.4535915E1,2.1771688E1,7.4807982E0,7.226891E0,1.14939766E2,8.463874E0,8.740722E0,1.2551905E1,9.315424E0,2.3781113E1,2.0125694E1,8.48464E1],"tree_param":{"num_deleted":"0","num_feature":"25","num_nodes":"29","size_leaf_vector":"1"}},{"base_weights":[-1.4678908E-2,-3.131468E-2,1.2646241E-1,-4.7270827E-2,1.3697626E-1,-6.498811E-2,2.2602543E-1,-2.1417757E-2,-3.158166E-1,3.054976E-1,-4.838083E-3,3.12603E-3,-7.6015955E-3,1.1293804E-2,-0E0,8.6941635E-3,-9.599304E-4,-0E0,-1.2337281E-2,4.7771964E-4,1.164448E-2],"categories":[],"categories_nodes":[],"categories_segments":[],"categories_sizes":[],"default_left":[0,0,0,0,0,0,0,0,0,0,0,0,0,0,0,0,0,0,0,0,0],"id":55,"left_children":[1,3,5,7,9,11,13,15,17,19,-1,-1,-1,-1,-1,-1,-1,-1,-1,-1,-1],"loss_changes":[8.370342E-1,8.7288654E-1,7.831382E-1,2.0012872E0,1.5232866E0,5.1781094E-1,9.8006E-1,8.670408E-1,8.152702E-1,3.1867838E-1,0E0,0E0,0E0,0E0,0E0,0E0,0E0,0E0,0E0,0E0,0E0],"parents":[2147483647,0,0,1,1,2,2,3,3,4,4,5,5,6,6,7,7,8,8,9,9],"right_children":[2,4,6,8,10,12,14,16,18,20,-1,-1,-1,-1,-1,-1,-1,-1,-1,-1,-1],"split_conditions":[6.07E1,7.25E1,3.8E1,9.852604E-1,5.96E1,3.35E1,9.1666664E1,-2.073131E0,2.24E1,2.57E1,-4.838083E-3,3.12603E-3,-7.6015955E-3,1.1293804E-2,-0E0,8.6941635E-3,-9.599304E-4,-0E0,-1.2337281E-2,4.7771964E-4,1.164448E-2],"split_indices":[9,3,3,20,7,3,23,19,13,13,0,0,0,0,0,0,0,0,0,0,0],"split_type":[0,0,0,0,0,0,0,0,0,0,0,0,0,0,0,0,0,0,0,0,0],"sum_hessian":[3.6327267E2,3.2826337E2,3.500931E1,3.0277704E2,2.5486319E1,1.1184299E1,2.3825012E1,2.7917712E2,2.359992E1,1.6896397E1,8.589921E0,5.524519E0,5.6597805E0,1.422466E1,9.600351E0,6.510881E0,2.7266626E2,5.681529E0,1.7918392E1,5.0874243E0,1.1808972E1],"tree_param":{"num_deleted":"0","num_feature":"25","num_nodes":"21","size_leaf_vector":"1"}},{"base_weights":[-1.3589674E-2,-1.0361859E-1,2.1759262E-2,6.6560586E-3,-1.2894928E-1,-6.58463E-2,6.8805575E-2,-2.0204031E-1,1.4242039E-3,-1.5040593E-1,1.0371858E-1,1.3958243E-1,-2.3313967E-4,-7.5855893E-3,-0E0,6.723607E-3,-5.943386E-3,-1.8280398E-3,-1.2783083E-2,-7.59757E-3,6.8570897E-3,1.7718188E-4,7.11105E-3,4.065374E-3,-3.6980507E-3],"categories":[],"categories_nodes":[],"categories_segments":[],"categories_sizes":[],"default_left":[0,0,0,0,0,0,0,0,0,0,0,0,0,0,0,0,0,0,0,0,0,0,0,0,0],"id":56,"left_children":[1,3,5,-1,7,9,11,13,15,17,19,21,23,-1,-1,-1,-1,-1,-1,-1,-1,-1,-1,-1,-1],"loss_changes":[1.1708269E0,8.8590825E-1,1.0686803E0,0E0,9.9947345E-1,1.3148016E0,8.741771E-1,6.8460536E-1,1.6918365E0,1.3085899E0,1.4216404E0,1.0479966E0,1.4673406E0,0E0,0E0,0E0,0E0,0E0,0E0,0E0,0E0,0E0,0E0,0E0,0E0],"parents":[2147483647,0,0,1,1,2,2,4,4,5,5,6,6,7,7,8,8,9,9,10,10,11,11,12,12],"right_children":[2,4,6,-1,8,10,12,14,16,18,20,22,24,-1,-1,-1,-1,-1,-1,-1,-1,-1,-1,-1,-1],"split_conditions":[7E1,7E0,1E-1,6.6560586E-3,5.17E1,1E0,2.63E1,4.2408302E-1,5.7E1,9.261065E-1,7.67E1,6.5E1,3.02E1,-7.5855893E-3,-0E0,6.723607E-3,-5.943386E-3,-1.8280398E-3,-1.2783083E-2,-7.59757E-3,6.8570897E-3,1.7718188E-4,7.11105E-3,4.065374E-3,-3.6980507E-3],"split_indices":[6,22,2,0,8,17,9,20,8,20,6,10,13,0,0,0,0,0,0,0,0,0,0,0,0],"split_type":[0,0,0,0,0,0,0,0,0,0,0,0,0,0,0,0,0,0,0,0,0,0,0,0,0],"sum_hessian":[3.5677017E2,1.0189126E2,2.5487892E2,5.3814263E0,9.650983E1,8.6545494E1,1.6833342E2,6.261038E1,3.3899452E1,5.907889E1,2.7466602E1,8.425697E1,8.4076454E1,4.995963E1,1.265075E1,1.6614119E1,1.7285334E1,4.726899E1,1.1809902E1,5.961605E0,2.1504997E1,3.771824E1,4.6538734E1,3.8717747E1,4.5358707E1],"tree_param":{"num_deleted":"0","num_feature":"25","num_nodes":"25","size_leaf_vector":"1"}},{"base_weights":[-1.0424026E-2,-3.0637873E-2,2.9515767E-1,2.3544289E-3,-9.098459E-2,1.3065973E-2,2.0104544E-3,-9.614391E-2,4.4225514E-2,-3.2287863E-1,-4.5448106E-2,1.8236106E-3,-6.1635314E-3,8.7766E-3,3.5649393E-4,-1.6026778E-2,-2.2090876E-3,-8.001904E-3,-0E0],"categories":[],"categories_nodes":[],"categories_segments":[],"categories_sizes":[],"default_left":[0,0,0,0,0,0,0,0,0,0,0,0,0,0,0,0,0,0,0],"id":57,"left_children":[1,3,5,7,9,-1,-1,11,13,15,17,-1,-1,-1,-1,-1,-1,-1,-1],"loss_changes":[2.2018292E0,7.166468E-1,4.953866E-1,9.1131127E-1,1.1874751E0,0E0,0E0,1.1819328E0,1.1848563E0,7.5154734E-1,1.1023113E0,0E0,0E0,0E0,0E0,0E0,0E0,0E0,0E0],"parents":[2147483647,0,0,1,1,2,2,3,3,4,4,7,7,8,8,9,9,10,10],"right_children":[2,4,6,8,10,-1,-1,12,14,16,18,-1,-1,-1,-1,-1,-1,-1,-1],"split_conditions":[8.4E1,5.52E1,1.3E1,3.8E1,6.6E1,1.3065973E-2,2.0104544E-3,5E0,4.4E1,7.936667E1,-1.1163613E0,1.8236106E-3,-6.1635314E-3,8.7766E-3,3.5649393E-4,-1.6026778E-2,-2.2090876E-3,-8.001904E-3,-0E0],"split_indices":[5,13,22,3,13,0,0,2,3,23,19,0,0,0,0,0,0,0,0],"split_type":[0,0,0,0,0,0,0,0,0,0,0,0,0,0,0,0,0,0,0],"sum_hessian":[3.6437625E2,3.4437732E2,1.9998917E1,2.2067969E2,1.2369764E2,1.0441364E1,9.557552E0,6.2916496E1,1.5776318E2,1.7222588E1,1.0647505E2,2.5068775E1,3.784772E1,1.5256394E1,1.4250679E2,7.430977E0,9.791611E0,1.66432E1,8.983185E1],"tree_param":{"num_deleted":"0","num_feature":"25","num_nodes":"19","size_leaf_vector":"1"}},{"base_weights":[-1.3101806E-3,6.522047E-2,-4.3860048E-2,1.3678952E-1,-1.5582912E-1,-9.725005E-2,4.4465244E-2,4.7700237E-2,3.3139235E-1,3.237905E-2,-2.7454644E-1,-2.2375675E-1,-4.6208613E-2,-6.0463548E-2,1.6843191E-1,3.6013185E-3,-3.9073424E-3,-0E0,1.2226116E-2,7.995846E-3,-4.345194E-3,-1.4763277E-2,-0E0,-1.0332013E-2,-6.45753E-4,3.6263317E-3,-2.9243205E-3,3.0383975E-3,-6.434676E-3,2.215943E-3,1.2302672E-2],"categories":[],"categories_nodes":[],"categories_segments":[],"categories_sizes":[],"default_left":[0,0,0,0,0,0,0,0,0,0,0,0,0,0,0,0,0,0,0,0,0,0,0,0,0,0,0,0,0,0,0],"id":58,"left_children":[1,3,5,7,9,11,13,15,17,19,21,23,25,27,29,-1,-1,-1,-1,-1,-1,-1,-1,-1,-1,-1,-1,-1,-1,-1,-1],"loss_changes":[9.9527204E-1,2.1772702E0,1.0550005E0,1.6627687E0,8.277547E-1,7.9550993E-1,1.1139845E0,9.9285483E-1,9.071715E-1,6.7704266E-1,1.1330063E0,7.960186E-1,9.006848E-1,1.18219E0,6.9094074E-1,0E0,0E0,0E0,0E0,0E0,0E0,0E0,0E0,0E0,0E0,0E0,0E0,0E0,0E0,0E0,0E0],"parents":[2147483647,0,0,1,1,2,2,3,3,4,4,5,5,6,6,7,7,8,8,9,9,10,10,11,11,12,12,13,13,14,14],"right_children":[2,4,6,8,10,12,14,16,18,20,22,24,26,28,30,-1,-1,-1,-1,-1,-1,-1,-1,-1,-1,-1,-1,-1,-1,-1,-1],"split_conditions":[4.4721066E2,3.268393E-1,5.5E1,3.8781555E2,4.87E1,2.34E1,6.4336597E2,3.2657315E2,3.95E1,3.179225E2,3.5260596E2,9E1,-1.1014172E0,8.8333336E1,5E1,3.6013185E-3,-3.9073424E-3,-0E0,1.2226116E-2,7.995846E-3,-4.345194E-3,-1.4763277E-2,-0E0,-1.0332013E-2,-6.45753E-4,3.6263317E-3,-2.9243205E-3,3.0383975E-3,-6.434676E-3,2.215943E-3,1.2302672E-2],"split_indices":[24,20,11,24,1,7,24,24,1,24,24,10,20,23,9,0,0,0,0,0,0,0,0,0,0,0,0,0,0,0,0],"split_type":[0,0,0,0,0,0,0,0,0,0,0,0,0,0,0,0,0,0,0,0,0,0,0,0,0,0,0,0,0,0,0],"sum_hessian":[3.498208E2,1.3329134E2,2.1652945E2,1.0229189E2,3.0999443E1,1.3694484E2,7.9584625E1,7.293435E1,2.9357548E1,1.15756035E1,1.942384E1,3.5733585E1,1.0121125E2,4.2346172E1,3.723845E1,5.3514614E1,1.9419731E1,5.161056E0,2.4196491E1,5.2818804E0,6.293723E0,9.346687E0,1.0077152E1,2.057179E1,1.5161794E1,2.1752438E1,7.945881E1,2.0039604E1,2.2306568E1,2.9533804E1,7.7046466E0],"tree_param":{"num_deleted":"0","num_feature":"25","num_nodes":"31",