{"learner":{"attributes":{"scikit_learn":"{\"_estimator_type\": \"ranker\"}"},"feature_names":[],"feature_types":[],"gradient_booster":{"model":{"cats":{"enc":[],"feature_segments":[],"sorted_idx":[]},"gbtree_model_param":{"num_parallel_tree":"1","num_trees":"220"},"iteration_indptr":[0,1,2,3,4,5,6,7,8,9,10,11,12,13,14,15,16,17,18,19,20,21,22,23,24,25,26,27,28,29,30,31,32,33,34,35,36,37,38,39,40,41,42,43,44,45,46,47,48,49,50,51,52,53,54,55,56,57,58,59,60,61,62,63,64,65,66,67,68,69,70,71,72,73,74,75,76,77,78,79,80,81,82,83,84,85,86,87,88,89,90,91,92,93,94,95,96,97,98,99,100,101,102,103,104,105,106,107,108,109,110,111,112,113,114,115,116,117,118,119,120,121,122,123,124,125,126,127,128,129,130,131,132,133,134,135,136,137,138,139,140,141,142,143,144,145,146,147,148,149,150,151,152,153,154,155,156,157,158,159,160,161,162,163,164,165,166,167,168,169,170,171,172,173,174,175,176,177,178,179,180,181,182,183,184,185,186,187,188,189,190,191,192,193,194,195,196,197,198,199,200,201,202,203,204,205,206,207,208,209,210,211,212,213,214,215,216,217,218,219,220],"tree_info":[0,0,0,0,0,0,0,0,0,0,0,0,0,0,0,0,0,0,0,0,0,0,0,0,0,0,0,0,0,0,0,0,0,0,0,0,0,0,0,0,0,0,0,0,0,0,0,0,0,0,0,0,0,0,0,0,0,0,0,0,0,0,0,0,0,0,0,0,0,0,0,0,0,0,0,0,0,0,0,0,0,0,0,0,0,0,0,0,0,0,0,0,0,0,0,0,0,0,0,0,0,0,0,0,0,0,0,0,0,0,0,0,0,0,0,0,0,0,0,0,0,0,0,0,0,0,0,0,0,0,0,0,0,0,0,0,0,0,0,0,0,0,0,0,0,0,0,0,0,0,0,0,0,0,0,0,0,0,0,0,0,0,0,0,0,0,0,0,0,0,0,0,0,0,0,0,0,0,0,0,0,0,0,0,0,0,0,0,0,0,0,0,0,0,0,0,0,0,0,0,0,0,0,0,0,0,0,0,0,0,0,0,0,0,0,0,0,0,0,0],"trees":[{"base_weights":[-1.7891515E-3,3.9265046E-1,-2.463014E-1,2.6461697E-1,5.3593206E-1,-5.2282876E-1,-8.859379E-2,-2.113417E-1,3.1927744E-1,-8.096775E-3,5.467763E-1,-5.648386E-1,1.4408393E-1,-6.6268444E-1,-6.6009453E-3,-2.218893E-2,1.7874125E-2,-3.4785217E-3,1.6896416E-2,7.371842E-3,2.5669567E-2,-1.1852902E-2,-2.9709576E-2,-2.6235348E-2,2.0635074E-2,-1.3748355E-3,-3.6476213E-2,1.4711599E-2,-3.0219243E-3],"categories":[],"categories_nodes":[],"categories_segments":[],"categories_sizes":[],"default_left":[0,0,0,0,0,0,0,0,0,0,0,0,0,0,0,0,0,0,0,0,0,0,0,0,0,0,0,0,0],"id":0,"left_children":[1,3,5,7,9,11,13,15,17,-1,19,21,23,25,27,-1,-1,-1,-1,-1,-1,-1,-1,-1,-1,-1,-1,-1,-1],"loss_changes":[6.2997856E1,4.4154053E0,1.7529404E1,3.576951E0,1.0246811E0,4.193775E0,1.2149829E1,2.7321997E0,2.7318525E0,0E0,9.3289185E-1,3.7525024E0,2.5203927E0,2.986249E0,4.614205E0,0E0,0E0,0E0,0E0,0E0,0E0,0E0,0E0,0E0,0E0,0E0,0E0,0E0,0E0],"parents":[2147483647,0,0,1,1,2,2,3,3,4,4,5,5,6,6,7,7,8,8,10,10,11,11,12,12,13,13,14,14],"right_children":[2,4,6,8,10,12,14,16,18,-1,20,22,24,26,28,-1,-1,-1,-1,-1,-1,-1,-1,-1,-1,-1,-1,-1,-1],"split_conditions":[4E0,7E1,3.49E1,5.34E1,5E1,8.5E1,4.25E1,6.2E1,8E0,-8.096775E-3,2.45E1,2.47E1,3.76E1,9E0,4.88E1,-2.218893E-2,1.7874125E-2,-3.4785217E-3,1.6896416E-2,7.371842E-3,2.5669567E-2,-1.1852902E-2,-2.9709576E-2,-2.6235348E-2,2.0635074E-2,-1.3748355E-3,-3.6476213E-2,1.4711599E-2,-3.0219243E-3],"split_indices":[24,6,19,23,7,6,23,8,25,0,15,8,8,25,18,0,0,0,0,0,0,0,0,0,0,0,0,0,0],"split_type":[0,0,0,0,0,0,0,0,0,0,0,0,0,0,0,0,0,0,0,0,0,0,0,0,0,0,0,0,0],"sum_hessian":[6.507944E2,2.4876588E2,4.020285E2,1.3317746E2,1.1558843E2,1.4500168E2,2.570268E2,1.336462E1,1.19812836E2,1.4456589E0,1.1414277E2,1.3658185E2,8.419827E0,3.1059353E1,2.2596745E2,9.290808E0,4.073812E0,1.4815206E1,1.04997635E2,7.194543E0,1.0694823E2,3.391229E1,1.0266956E2,2.2327647E0,6.187063E0,6.1635504E0,2.4895803E1,3.391038E1,1.9205707E2],"tree_param":{"num_deleted":"0","num_feature":"52","num_nodes":"29","size_leaf_vector":"1"}},{"base_weights":[-6.074045E-3,2.5972122E-1,-2.7871057E-1,-1.689408E-1,2.9733166E-1,-4.0735227E-1,-7.2473824E-2,-7.215098E-1,1.2924104E-2,2.1351488E-1,4.0006495E-1,-5.985381E-1,-2.653337E-1,-9.0644654E-4,-5.184147E-1,-3.566221E-2,8.943078E-3,9.655625E-3,-2.4293836E-2,3.0699226E-3,1.7344648E-2,1.9682337E-2,4.3354724E-3,-2.7921148E-2,2.1769762E-2,-1.4539632E-2,1.389234E-2,-4.68013E-3,8.971562E-3,-2.724217E-2,1.3348673E-2],"categories":[],"categories_nodes":[],"categories_segments":[],"categories_sizes":[],"default_left":[0,0,0,0,0,0,0,0,0,0,0,0,0,0,0,0,0,0,0,0,0,0,0,0,0,0,0,0,0,0,0],"id":1,"left_children":[1,3,5,7,9,11,13,15,17,19,21,23,25,27,29,-1,-1,-1,-1,-1,-1,-1,-1,-1,-1,-1,-1,-1,-1,-1,-1],"loss_changes":[1.364628E2,1.5433548E1,2.4627304E1,7.8175087E0,7.4497375E0,1.5346748E1,1.1442754E1,1.4468946E0,6.785057E0,1.2097771E1,4.400589E0,6.1269608E0,1.1079683E1,6.4292364E0,3.730113E0,0E0,0E0,0E0,0E0,0E0,0E0,0E0,0E0,0E0,0E0,0E0,0E0,0E0,0E0,0E0,0E0],"parents":[2147483647,0,0,1,1,2,2,3,3,4,4,5,5,6,6,7,7,8,8,9,9,10,10,11,11,12,12,13,13,14,14],"right_children":[2,4,6,8,10,12,14,16,18,20,22,24,26,28,30,-1,-1,-1,-1,-1,-1,-1,-1,-1,-1,-1,-1,-1,-1,-1,-1],"split_conditions":[4E0,4.8E1,5.33E1,4.6E1,1.1E1,5E1,1E0,6.77E1,1.7E3,7.65E1,6.37E1,7.23E1,9.78E1,7.07E1,7.28E1,-3.566221E-2,8.943078E-3,9.655625E-3,-2.4293836E-2,3.0699226E-3,1.7344648E-2,1.9682337E-2,4.3354724E-3,-2.7921148E-2,2.1769762E-2,-1.4539632E-2,1.389234E-2,-4.68013E-3,8.971562E-3,-2.724217E-2,1.3348673E-2],"split_indices":[24,3,3,1,25,19,31,4,26,6,15,20,0,6,15,0,0,0,0,0,0,0,0,0,0,0,0,0,0,0,0],"split_type":[0,0,0,0,0,0,0,0,0,0,0,0,0,0,0,0,0,0,0,0,0,0,0,0,0,0,0,0,0,0,0],"sum_hessian":[1.8807429E3,9.523486E2,9.2839435E2,7.648029E1,8.758683E2,5.710362E2,3.573582E2,1.8056772E1,5.8423523E1,4.843758E2,3.9149246E2,2.4174324E2,3.2929294E2,3.0897446E2,4.8383713E1,1.6918352E1,1.1384209E0,4.3346E1,1.5077519E1,2.6342572E2,2.2095006E2,3.48181E2,4.331148E1,2.3744376E2,4.29948E0,2.996614E2,2.9631542E1,2.0435454E2,1.0461993E2,4.39978E1,4.385914E0],"tree_param":{"num_deleted":"0","num_feature":"52","num_nodes":"31","size_leaf_vector":"1"}},{"base_weights":[6.6519403E-3,2.162266E-1,-2.3602909E-1,4.246355E-2,3.4661683E-1,-3.7865567E-1,-2.0118764E-2,-5.3918827E-1,9.316536E-2,4.2686978E-1,3.1515244E-2,-1.7361455E-1,-5.153175E-1,-3.4319553E-1,8.962047E-2,-3.2496862E-2,2.7873013E-2,-1.8033883E-2,6.2355665E-3,1.2583683E-2,2.4752762E-2,1.180473E-2,-1.20512685E-2,-1.4006968E-2,6.335713E-4,-2.4005093E-2,2.5948228E-2,2.6860058E-2,-1.7843233E-2,-1.7847003E-3,1.1116763E-2],"categories":[],"categories_nodes":[],"categories_segments":[],"categories_sizes":[],"default_left":[0,0,0,0,0,0,0,0,0,0,0,0,0,0,0,0,0,0,0,0,0,0,0,0,0,0,0,0,0,0,0],"id":2,"left_children":[1,3,5,7,9,11,13,15,17,19,21,23,25,27,29,-1,-1,-1,-1,-1,-1,-1,-1,-1,-1,-1,-1,-1,-1,-1,-1],"loss_changes":[8.6363045E1,2.0626545E1,2.422293E1,1.1620143E1,1.3143135E1,1.3169128E1,1.1180002E1,7.2365503E0,8.175078E0,7.3363037E0,7.4716E0,4.9478164E0,5.9851227E0,4.29095E0,4.805643E0,0E0,0E0,0E0,0E0,0E0,0E0,0E0,0E0,0E0,0E0,0E0,0E0,0E0,0E0,0E0,0E0],"parents":[2147483647,0,0,1,1,2,2,3,3,4,4,5,5,6,6,7,7,8,8,9,9,10,10,11,11,12,12,13,13,14,14],"right_children":[2,4,6,8,10,12,14,16,18,20,22,24,26,28,30,-1,-1,-1,-1,-1,-1,-1,-1,-1,-1,-1,-1,-1,-1,-1,-1],"split_conditions":[4E0,6.37E1,5.33E1,4.96E1,6.11E1,7E0,3.24E1,7.0937164E2,4.32E1,4.9334473E2,2E0,5.68E1,5.15E1,3E1,1.2E1,-3.2496862E-2,2.7873013E-2,-1.8033883E-2,6.2355665E-3,1.2583683E-2,2.4752762E-2,1.180473E-2,-1.20512685E-2,-1.4006968E-2,6.335713E-4,-2.4005093E-2,2.5948228E-2,2.6860058E-2,-1.7843233E-2,-1.7847003E-3,1.1116763E-2],"split_indices":[24,3,3,18,15,24,19,51,3,51,24,19,21,16,25,0,0,0,0,0,0,0,0,0,0,0,0,0,0,0,0],"split_type":[0,0,0,0,0,0,0,0,0,0,0,0,0,0,0,0,0,0,0,0,0,0,0,0,0,0,0,0,0,0,0],"sum_hessian":[1.6956571E3,9.099622E2,7.8569495E2,3.9078195E2,5.1918024E2,4.725995E2,3.1309546E2,3.0405725E1,3.6037622E2,4.134527E2,1.0572754E2,1.9010268E2,2.8249683E2,7.8737175E1,2.3435829E2,2.6649303E1,3.7564209E0,2.954763E1,3.308286E2,1.9013585E2,2.2331685E2,5.9779095E1,4.5948444E1,1.0921574E2,8.088693E1,2.7848703E2,4.0097985E0,3.5695784E0,7.5167595E1,1.2917264E2,1.0518566E2],"tree_param":{"num_deleted":"0","num_feature":"52","num_nodes":"31","size_leaf_vector":"1"}},{"base_weights":[1.0071782E-3,1.03545934E-1,-3.533724E-1,2.3850392E-1,-2.8022457E-2,-4.0865332E-1,3.6382827E-1,2.551871E-1,-4.7980797E-1,-6.0162194E-2,3.435911E-1,-6.687485E-1,-3.3228096E-1,7.434654E-1,-3.176182E-1,1.3930834E-2,5.444615E-3,2.9194044E-2,-3.4275036E-2,-2.5012942E-2,-1.7545475E-3,4.85073E-4,2.943338E-2,-1.1622313E-2,-3.3160917E-2,-1.2103895E-2,-2.7409954E-2,-2.5752925E-3,3.6376245E-2,-2.6451267E-2,1.10124415E-2],"categories":[],"categories_nodes":[],"categories_segments":[],"categories_sizes":[],"default_left":[0,0,0,0,0,0,0,0,0,0,0,0,0,0,0,0,0,0,0,0,0,0,0,0,0,0,0,0,0,0,0],"id":3,"left_children":[1,3,5,7,9,11,13,15,17,19,21,23,25,27,29,-1,-1,-1,-1,-1,-1,-1,-1,-1,-1,-1,-1,-1,-1,-1,-1],"loss_changes":[5.812267E1,2.2035555E1,1.4410065E1,7.4871445E0,7.5401664E0,6.364609E0,7.0930824E0,4.329731E0,5.1480184E0,6.062711E0,5.185847E0,1.85849E0,4.367607E0,9.525795E-1,1.7312746E0,0E0,0E0,0E0,0E0,0E0,0E0,0E0,0E0,0E0,0E0,0E0,0E0,0E0,0E0,0E0,0E0],"parents":[2147483647,0,0,1,1,2,2,3,3,4,4,5,5,6,6,7,7,8,8,9,9,10,10,11,11,12,12,13,13,14,14],"right_children":[2,4,6,8,10,12,14,16,18,20,22,24,26,28,30,-1,-1,-1,-1,-1,-1,-1,-1,-1,-1,-1,-1,-1,-1,-1,-1],"split_conditions":[7E0,3E0,8E1,6E1,8.61E1,2.91E1,2.56E1,5.3E1,2.05E1,6.8333336E1,9.5666664E1,2.43E1,5.7E1,3.48E1,7.28E1,1.3930834E-2,5.444615E-3,2.9194044E-2,-3.4275036E-2,-2.5012942E-2,-1.7545475E-3,4.85073E-4,2.943338E-2,-1.1622313E-2,-3.3160917E-2,-1.2103895E-2,-2.7409954E-2,-2.5752925E-3,3.6376245E-2,-2.6451267E-2,1.10124415E-2],"split_indices":[24,24,6,22,4,6,15,1,8,50,50,8,1,20,15,0,0,0,0,0,0,0,0,0,0,0,0,0,0,0,0],"split_type":[0,0,0,0,0,0,0,0,0,0,0,0,0,0,0,0,0,0,0,0,0,0,0,0,0,0,0,0,0,0,0],"sum_hessian":[1.5971086E3,1.2393542E3,3.5775436E2,6.113148E2,6.280394E2,3.3263177E2,2.5122593E1,5.9819507E2,1.3119721E1,5.789717E2,4.906779E1,7.338903E1,2.5924274E2,1.606403E1,9.058562E0,4.2456052E2,1.7363458E2,2.3096895E0,1.0810032E1,2.247549E1,5.5649615E2,2.4281647E1,2.4786144E1,1.1269481E1,6.2119553E1,2.1291835E2,4.6324394E1,1.2149909E0,1.4849039E1,6.0819945E0,2.9765682E0],"tree_param":{"num_deleted":"0","num_feature":"52","num_nodes":"31","size_leaf_vector":"1"}},{"base_weights":[-2.0231856E-3,2.1123374E-1,-1.5294395E-1,5.092507E-2,3.1897095E-1,-3.0105546E-1,1.8800292E-2,-2.1939099E-2,4.5785266E-1,4.7832033E-1,1.8846932E-1,-1.559432E-1,-4.6805468E-1,2.9910356E-1,-4.9424253E-2,-2.7474923E-2,9.466076E-4,-2.1077901E-2,2.4646796E-2,-9.90516E-3,2.4073603E-2,7.7073026E-4,1.8499589E-2,-1.007301E-2,9.574815E-3,-2.173497E-2,2.1245506E-2,-7.63854E-3,2.0556364E-2,-7.117005E-3,6.0790353E-3],"categories":[],"categories_nodes":[],"categories_segments":[],"categories_sizes":[],"default_left":[0,0,0,0,0,0,0,0,0,0,0,0,0,0,0,0,0,0,0,0,0,0,0,0,0,0,0,0,0,0,0],"id":4,"left_children":[1,3,5,7,9,11,13,15,17,19,21,23,25,27,29,-1,-1,-1,-1,-1,-1,-1,-1,-1,-1,-1,-1,-1,-1,-1,-1],"loss_changes":[4.8547962E1,1.0776945E1,2.2475342E1,7.5042114E0,7.6615753E0,1.1407581E1,7.861154E0,5.465453E0,3.5061808E0,6.7661858E0,7.9026318E0,6.456594E0,3.3639603E0,6.041941E0,6.664062E0,0E0,0E0,0E0,0E0,0E0,0E0,0E0,0E0,0E0,0E0,0E0,0E0,0E0,0E0,0E0,0E0],"parents":[2147483647,0,0,1,1,2,2,3,3,4,4,5,5,6,6,7,7,8,8,9,9,10,10,11,11,12,12,13,13,14,14],"right_children":[2,4,6,8,10,12,14,16,18,20,22,24,26,28,30,-1,-1,-1,-1,-1,-1,-1,-1,-1,-1,-1,-1,-1,-1,-1,-1],"split_conditions":[3E0,6.37E1,5.37E1,7.5E1,9E1,7E0,4.88E1,4.5E1,5.64E1,4.15E1,8.05E1,6.62E1,5.15E1,2.77E1,7.22E1,-2.7474923E-2,9.466076E-4,-2.1077901E-2,2.4646796E-2,-9.90516E-3,2.4073603E-2,7.7073026E-4,1.8499589E-2,-1.007301E-2,9.574815E-3,-2.173497E-2,2.1245506E-2,-7.63854E-3,2.0556364E-2,-7.117005E-3,6.0790353E-3],"split_indices":[24,3,3,21,16,24,18,16,23,19,0,4,21,2,19,0,0,0,0,0,0,0,0,0,0,0,0,0,0,0,0],"split_type":[0,0,0,0,0,0,0,0,0,0,0,0,0,0,0,0,0,0,0,0,0,0,0,0,0,0,0,0,0,0,0],"sum_hessian":[1.5060037E3,6.2391205E2,8.820916E2,2.5148285E2,3.724292E2,4.7314758E2,4.08944E2,2.1425398E2,3.7228863E1,1.662414E2,2.0618782E2,2.5440529E2,2.1874231E2,7.925613E1,3.2968787E2,1.3499958E1,2.0075403E2,2.8450868E0,3.4383778E1,1.2212136E1,1.5402925E2,1.1724574E2,8.894207E1,2.1523917E2,3.9166115E1,2.1589407E2,2.8482342E0,1.9925833E1,5.9330288E1,2.0755193E2,1.22135956E2],"tree_param":{"num_deleted":"0","num_feature":"52","num_nodes":"31","size_leaf_vector":"1"}},{"base_weights":[-9.38722E-3,1.6109271E-1,-2.0090744E-1,2.701774E-2,2.616642E-1,-4.076413E-1,-9.9040285E-2,6.3918546E-2,-7.1527505E-1,1.5554541E-1,4.115715E-1,-4.508698E-1,1.514629E-1,-4.9373707E-1,-5.287572E-2,-5.286779E-3,8.825787E-3,-3.6550198E-2,-7.744193E-3,2.0870254E-3,1.4963992E-2,-1.1597204E-2,2.1687059E-2,-2.2781387E-2,-6.667197E-3,1.7801197E-2,-2.3466304E-2,1.821449E-3,-3.0306038E-2,-3.3798005E-2,-1.2832655E-3],"categories":[],"categories_nodes":[],"categories_segments":[],"categories_sizes":[],"default_left":[0,0,0,0,0,0,0,0,0,0,0,0,0,0,0,0,0,0,0,0,0,0,0,0,0,0,0,0,0,0,0],"id":5,"left_children":[1,3,5,7,9,11,13,15,17,19,21,23,25,27,29,-1,-1,-1,-1,-1,-1,-1,-1,-1,-1,-1,-1,-1,-1,-1,-1],"loss_changes":[4.713735E1,1.0291262E1,1.4269171E1,9.059111E0,6.864073E0,5.496708E0,8.296284E0,7.5646586E0,6.5728474E-1,4.9547467E0,8.631294E0,3.4014435E0,3.036453E0,4.6139545E0,6.956017E0,0E0,0E0,0E0,0E0,0E0,0E0,0E0,0E0,0E0,0E0,0E0,0E0,0E0,0E0,0E0,0E0],"parents":[2147483647,0,0,1,1,2,2,3,3,4,4,5,5,6,6,7,7,8,8,9,9,10,10,11,11,12,12,13,13,14,14],"right_children":[2,4,6,8,10,12,14,16,18,20,22,24,26,28,30,-1,-1,-1,-1,-1,-1,-1,-1,-1,-1,-1,-1,-1,-1,-1,-1],"split_conditions":[4E0,6.44E1,3.68E1,7.24E1,9.6E1,8.5E1,4.25E1,5.5E1,5.08E1,8.42E1,6.62E1,5.07E1,5.49E1,9E0,9.7E0,-5.286779E-3,8.825787E-3,-3.6550198E-2,-7.744193E-3,2.0870254E-3,1.4963992E-2,-1.1597204E-2,2.1687059E-2,-2.2781387E-2,-6.667197E-3,1.7801197E-2,-2.3466304E-2,1.821449E-3,-3.0306038E-2,-3.3798005E-2,-1.2832655E-3],"split_indices":[24,6,19,23,50,6,23,17,15,19,7,20,23,25,21,0,0,0,0,0,0,0,0,0,0,0,0,0,0,0,0],"split_type":[0,0,0,0,0,0,0,0,0,0,0,0,0,0,0,0,0,0,0,0,0,0,0,0,0,0,0,0,0,0,0],"sum_hessian":[1.4413114E3,7.6264276E2,6.7866864E2,3.2752774E2,4.3511502E2,2.2283504E2,4.5583362E2,3.1306152E2,1.4466224E1,2.5619836E2,1.7891666E2,2.0705814E2,1.5776907E1,4.651411E1,4.0931952E2,1.3203409E2,1.8102744E2,1.1770885E1,2.6953378E0,1.5939626E2,9.68021E1,1.6716423E1,1.6220024E2,1.7435214E2,3.2705997E1,1.1940039E1,3.8368688E0,1.1943657E1,3.4570454E1,1.2592137E1,3.967274E2],"tree_param":{"num_deleted":"0","num_feature":"52","num_nodes":"31","size_leaf_vector":"1"}},{"base_weights":[-8.524151E-3,1.530122E-1,-1.9423787E-1,6.5315156E-3,2.6253268E-1,-3.1894016E-1,-2.4046147E-2,-8.525693E-2,3.5033247E-1,3.4069106E-1,-4.7703013E-2,-1.6170247E-1,-4.4827986E-1,-1.4698137E-1,1.8134627E-1,1.3402532E-3,-1.6218532E-2,8.06872E-3,2.8580245E-2,-9.713917E-3,1.8059956E-2,-1.569914E-2,1.0024818E-2,-1.4450028E-2,8.374622E-4,-2.078018E-2,2.1562772E-2,6.2214076E-3,-1.1112252E-2,1.0897542E-2,-1.9463394E-2],"categories":[],"categories_nodes":[],"categories_segments":[],"categories_sizes":[],"default_left":[0,0,0,0,0,0,0,0,0,0,0,0,0,0,0,0,0,0,0,0,0,0,0,0,0,0,0,0,0,0,0],"id":6,"left_children":[1,3,5,7,9,11,13,15,17,19,21,23,25,27,29,-1,-1,-1,-1,-1,-1,-1,-1,-1,-1,-1,-1,-1,-1,-1,-1],"loss_changes":[4.1791588E1,1.1950825E1,1.3743849E1,1.0133459E1,1.0355955E1,7.5168686E0,6.9839497E0,8.03774E0,3.158883E0,1.1601059E1,7.166863E0,4.9114947E0,2.8259468E0,4.9705496E0,3.9947245E0,0E0,0E0,0E0,0E0,0E0,0E0,0E0,0E0,0E0,0E0,0E0,0E0,0E0,0E0,0E0,0E0],"parents":[2147483647,0,0,1,1,2,2,3,3,4,4,5,5,6,6,7,7,8,8,9,9,10,10,11,11,12,12,13,13,14,14],"right_children":[2,4,6,8,10,12,14,16,18,20,22,24,26,28,30,-1,-1,-1,-1,-1,-1,-1,-1,-1,-1,-1,-1,-1,-1,-1,-1],"split_conditions":[4E0,6.4E1,5.33E1,5.11E1,6.11E1,7E0,6.98E1,1.7E3,6.84E1,4.64E1,7.28E1,5.4E1,5.15E1,4.5E1,9E0,1.3402532E-3,-1.6218532E-2,8.06872E-3,2.8580245E-2,-9.713917E-3,1.8059956E-2,-1.569914E-2,1.0024818E-2,-1.4450028E-2,8.374622E-4,-2.078018E-2,2.1562772E-2,6.2214076E-3,-1.1112252E-2,1.0897542E-2,-1.9463394E-2],"split_indices":[24,3,3,20,15,24,19,26,23,20,15,19,21,17,24,0,0,0,0,0,0,0,0,0,0,0,0,0,0,0,0],"split_type":[0,0,0,0,0,0,0,0,0,0,0,0,0,0,0,0,0,0,0,0,0,0,0,0,0,0,0,0,0,0,0],"sum_hessian":[1.3906865E3,7.438697E2,6.468168E2,3.187807E2,4.25089E2,3.7269107E2,2.7412573E2,2.5231873E2,6.646198E1,3.3945224E2,8.563676E1,1.6942368E2,2.032674E2,1.7169873E2,1.02427E2,1.7868282E2,7.363592E1,4.274621E1,2.371577E1,3.3050304E1,3.0640192E2,4.0355007E1,4.5281746E1,8.942691E1,7.999676E1,2.0094455E2,2.3228526E0,4.443657E1,1.2726215E2,9.385457E1,8.572429E0],"tree_param":{"num_deleted":"0","num_feature":"52","num_nodes":"31","size_leaf_vector":"1"}},{"base_weights":[-2.5554164E-3,1.6376016E-1,-1.9378823E-1,1.4993575E-2,2.76636E-1,-3.4177125E-1,-4.9180295E-3,1.2486907E-1,-1.8180607E-1,2.8831834E-1,-3.5439754E-1,-5.0773335E-1,-2.1843073E-1,-2.2732416E-1,6.4108714E-2,-8.697999E-3,8.542407E-3,-2.01243E-2,-5.0915092E-5,7.4693663E-3,1.5931714E-2,2.0960802E-2,-2.6096046E-2,-2.386677E-2,1.5857358E-2,-1.2161984E-2,1.0781883E-2,-1.6476475E-2,1.0897504E-2,1.7403841E-2,6.2342646E-5],"categories":[],"categories_nodes":[],"categories_segments":[],"categories_sizes":[],"default_left":[0,0,0,0,0,0,0,0,0,0,0,0,0,0,0,0,0,0,0,0,0,0,0,0,0,0,0,0,0,0,0],"id":7,"left_children":[1,3,5,7,9,11,13,15,17,19,21,23,25,27,29,-1,-1,-1,-1,-1,-1,-1,-1,-1,-1,-1,-1,-1,-1,-1,-1],"loss_changes":[4.3912342E1,1.2395292E1,1.7947786E1,6.943465E0,3.2174149E0,7.23748E0,4.367494E0,4.300952E0,5.51779E0,3.2485657E0,1.8351185E0,3.195877E0,5.031844E0,4.4976463E0,4.3943834E0,0E0,0E0,0E0,0E0,0E0,0E0,0E0,0E0,0E0,0E0,0E0,0E0,0E0,0E0,0E0,0E0],"parents":[2147483647,0,0,1,1,2,2,3,3,4,4,5,5,6,6,7,7,8,8,9,9,10,10,11,11,12,12,13,13,14,14],"right_children":[2,4,6,8,10,12,14,16,18,20,22,24,26,28,30,-1,-1,-1,-1,-1,-1,-1,-1,-1,-1,-1,-1,-1,-1,-1,-1],"split_conditions":[4E0,6.37E1,5.37E1,1.6E3,1E2,5E1,3.2E1,4.95E1,3.76E1,4.97E1,4.62E1,7.2E1,9.78E1,8.5E1,4.29E1,-8.697999E-3,8.542407E-3,-2.01243E-2,-5.0915092E-5,7.4693663E-3,1.5931714E-2,2.0960802E-2,-2.6096046E-2,-2.386677E-2,1.5857358E-2,-1.2161984E-2,1.0781883E-2,-1.6476475E-2,1.0897504E-2,1.7403841E-2,6.2342646E-5],"split_indices":[24,3,3,26,22,19,19,6,2,1,1,20,0,6,19,0,0,0,0,0,0,0,0,0,0,0,0,0,0,0,0],"split_type":[0,0,0,0,0,0,0,0,0,0,0,0,0,0,0,0,0,0,0,0,0,0,0,0,0,0,0,0,0,0,0],"sum_hessian":[1.3782771E3,7.372562E2,6.410208E2,3.1864813E2,4.1860806E2,3.588692E2,2.821516E2,2.0476442E2,1.1388372E2,4.1163913E2,6.96895E0,1.5140494E2,2.0746428E2,6.617664E1,2.1597496E2,3.43181E1,1.7044632E2,4.540952E1,6.84742E1,1.4533664E2,2.663025E2,1.2271714E0,5.7417784E0,1.4797025E2,3.4347034E0,1.8681422E2,2.0650055E1,5.1278656E1,1.489799E1,3.4143677E1,1.8183128E2],"tree_param":{"num_deleted":"0","num_feature":"52","num_nodes":"31","size_leaf_vector":"1"}},{"base_weights":[7.8150015E-3,9.465516E-2,-3.2170555E-1,-3.7992073E-3,2.0037442E-1,-3.7856728E-1,4.4652915E-1,-5.4958403E-2,2.7851585E-1,2.2619034E-1,-2.730798E-1,-4.598089E-1,-1.4757816E-1,7.2788656E-1,-1.7696232E-1,-3.4158775E-3,2.0401165E-2,-4.5801876E-3,1.6716896E-2,1.0836458E-2,-2.3601936E-2,2.8646475E-4,-2.3710823E-2,-2.1273835E-2,1.8367192E-2,1.3540642E-2,-1.33544775E-2,3.5076696E-2,6.2669213E-3,1.6687043E-2,-1.8805802E-2],"categories":[],"categories_nodes":[],"categories_segments":[],"categories_sizes":[],"default_left":[0,0,0,0,0,0,0,0,0,0,0,0,0,0,0,0,0,0,0,0,0,0,0,0,0,0,0,0,0,0,0],"id":8,"left_children":[1,3,5,7,9,11,13,15,17,19,21,23,25,27,29,-1,-1,-1,-1,-1,-1,-1,-1,-1,-1,-1,-1,-1,-1,-1,-1],"loss_changes":[3.8644226E1,1.1124618E1,1.25071335E1,8.027692E0,6.3732452E0,4.8523064E0,3.6563864E0,5.0514927E0,3.0603065E0,5.522316E0,1.9327621E0,2.4102173E0,4.802458E0,2.9460335E-1,1.1326168E0,0E0,0E0,0E0,0E0,0E0,0E0,0E0,0E0,0E0,0E0,0E0,0E0,0E0,0E0,0E0,0E0],"parents":[2147483647,0,0,1,1,2,2,3,3,4,4,5,5,6,6,7,7,8,8,9,9,10,10,11,11,12,12,13,13,14,14],"right_children":[2,4,6,8,10,12,14,16,18,20,22,24,26,28,30,-1,-1,-1,-1,-1,-1,-1,-1,-1,-1,-1,-1,-1,-1,-1,-1],"split_conditions":[7E0,6.42E1,8E1,5.17E1,7.700631E2,5.47E1,2.56E1,8.12E1,4.73E1,6.67E1,1E0,5.15E1,2.719468E2,1E1,1E0,-3.4158775E-3,2.0401165E-2,-4.5801876E-3,1.6716896E-2,1.0836458E-2,-2.3601936E-2,2.8646475E-4,-2.3710823E-2,-2.1273835E-2,1.8367192E-2,1.3540642E-2,-1.33544775E-2,3.5076696E-2,6.2669213E-3,1.6687043E-2,-1.8805802E-2],"split_indices":[24,3,6,20,51,3,15,5,9,22,43,21,51,24,37,0,0,0,0,0,0,0,0,0,0,0,0,0,0,0,0],"split_type":[0,0,0,0,0,0,0,0,0,0,0,0,0,0,0,0,0,0,0,0,0,0,0,0,0,0,0,0,0,0,0],"sum_hessian":[1.3479823E3,1.0675112E3,2.8047113E2,5.533467E2,5.141645E2,2.617091E2,1.876202E1,4.6927438E2,8.407229E1,4.8817273E2,2.5991758E1,1.9273367E2,6.897543E1,1.2789633E1,5.972387E0,4.516795E2,1.7594877E1,1.6493149E1,6.757914E1,4.7964645E2,8.526299E0,1.292841E1,1.3063348E1,1.9044028E2,2.2934017E0,1.691278E1,5.2062656E1,1.1401165E1,1.3884677E0,1.6268668E0,4.34552E0],"tree_param":{"num_deleted":"0","num_feature":"52","num_nodes":"31","size_leaf_vector":"1"}},{"base_weights":[-4.757915E-3,7.458053E-2,-3.159971E-1,1.7428508E-1,-2.400357E-2,-4.5038417E-1,-1.3081662E-2,8.0495104E-2,2.6735923E-1,-1.3582675E-1,1.4504047E-1,-1.950658E-1,-5.082557E-1,-1.2135777E-1,4.810276E-1,4.7100912E-4,1.49689205E-2,1.8785264E-2,6.6668754E-3,-8.357428E-3,9.704815E-3,2.734456E-4,1.6112853E-2,-1.7925119E-2,1.7203415E-4,4.6361345E-3,-2.3898302E-2,-3.2931947E-4,-2.5908753E-2,3.2453265E-2,-1.15569765E-2],"categories":[],"categories_nodes":[],"categories_segments":[],"categories_sizes":[],"default_left":[0,0,0,0,0,0,0,0,0,0,0,0,0,0,0,0,0,0,0,0,0,0,0,0,0,0,0,0,0,0,0],"id":9,"left_children":[1,3,5,7,9,11,13,15,17,19,21,23,25,27,29,-1,-1,-1,-1,-1,-1,-1,-1,-1,-1,-1,-1,-1,-1,-1,-1],"loss_changes":[3.2306625E1,1.0253199E1,1.0811329E1,4.500451E0,9.953578E0,2.6005135E0,4.5055075E0,4.5863676E0,4.572832E0,5.6035624E0,6.205755E0,1.4554867E0,2.1480103E0,3.568451E0,2.905693E0,0E0,0E0,0E0,0E0,0E0,0E0,0E0,0E0,0E0,0E0,0E0,0E0,0E0,0E0,0E0,0E0],"parents":[2147483647,0,0,1,1,2,2,3,3,4,4,5,5,6,6,7,7,8,8,9,9,10,10,11,11,12,12,13,13,14,14],"right_children":[2,4,6,8,10,12,14,16,18,20,22,24,26,28,30,-1,-1,-1,-1,-1,-1,-1,-1,-1,-1,-1,-1,-1,-1,-1,-1],"split_conditions":[7E0,3E0,5.44E1,6.89E1,7.45E1,2.43E1,8.2E1,5.11E1,9E1,1E0,7.04E1,8.703333E1,1.4E1,5.7E1,2.56E1,4.7100912E-4,1.49689205E-2,1.8785264E-2,6.6668754E-3,-8.357428E-3,9.704815E-3,2.734456E-4,1.6112853E-2,-1.7925119E-2,1.7203415E-4,4.6361345E-3,-2.3898302E-2,-3.2931947E-4,-2.5908753E-2,3.2453265E-2,-1.15569765E-2],"split_indices":[24,24,3,3,19,8,6,20,16,36,6,50,9,1,15,0,0,0,0,0,0,0,0,0,0,0,0,0,0,0,0],"split_type":[0,0,0,0,0,0,0,0,0,0,0,0,0,0,0,0,0,0,0,0,0,0,0,0,0,0,0,0,0,0,0],"sum_hessian":[1.3059738E3,1.041417E3,2.645567E2,5.1730804E2,5.2410895E2,1.8285133E2,8.170536E1,2.5877783E2,2.585302E2,3.1558456E2,2.0852441E2,3.4756603E1,1.4809473E2,6.7761734E1,1.3943626E1,2.0350795E2,5.5269882E1,1.1311124E2,1.4541898E2,2.7685147E2,3.8733086E1,1.2694623E2,8.1578186E1,1.659384E1,1.8162762E1,5.177295E0,1.4291743E2,5.514199E1,1.2619747E1,1.054012E1,3.403506E0],"tree_param":{"num_deleted":"0","num_feature":"52","num_nodes":"31","size_leaf_vector":"1"}},{"base_weights":[-5.616505E-3,6.508454E-2,-2.850577E-1,-5.0184146E-2,1.6813593E-1,-4.372003E-1,3.7432536E-2,-7.6621436E-2,4.147983E-1,1.3379957E-1,4.9818367E-1,-4.5130396E-1,1.823281E-2,-2.2062248E-1,2.269359E-1,-1.1411374E-2,-1.8617348E-4,-2.2719461E-2,2.1916825E-2,-4.205053E-3,8.099979E-3,-3.221471E-2,2.9086616E-2,-2.0938486E-2,1.398214E-2,-2.4973392E-2,9.2555943E-4,1.8951302E-2,-1.5078482E-3],"categories":[],"categories_nodes":[],"categories_segments":[],"categories_sizes":[],"default_left":[0,0,0,0,0,0,0,0,0,0,0,0,0,0,0,0,0,0,0,0,0,0,0,0,0,0,0,0,0],"id":10,"left_children":[1,3,5,7,9,11,13,15,17,19,21,23,-1,25,27,-1,-1,-1,-1,-1,-1,-1,-1,-1,-1,-1,-1,-1,-1],"loss_changes":[2.5451693E1,1.2223742E1,1.2782312E1,6.0156307E0,6.0753E0,2.3203125E0,4.1916595E0,5.9134684E0,2.0455284E0,5.2024155E0,9.683892E0,2.03442E0,0E0,2.9474916E0,2.510745E0,0E0,0E0,0E0,0E0,0E0,0E0,0E0,0E0,0E0,0E0,0E0,0E0,0E0,0E0],"parents":[2147483647,0,0,1,1,2,2,3,3,4,4,5,5,6,6,7,7,8,8,9,9,10,10,11,11,13,13,14,14],"right_children":[2,4,6,8,10,12,14,16,18,20,22,24,-1,26,28,-1,-1,-1,-1,-1,-1,-1,-1,-1,-1,-1,-1,-1,-1],"split_conditions":[7E0,6.98E1,5.47E1,1E2,8.25E1,8.39E1,4.22E1,3.57E1,4.33E1,3.3406088E2,7.45E1,5.15E1,1.823281E-2,3.59E1,3.29E1,-1.1411374E-2,-1.8617348E-4,-2.2719461E-2,2.1916825E-2,-4.205053E-3,8.099979E-3,-3.221471E-2,2.9086616E-2,-2.0938486E-2,1.398214E-2,-2.4973392E-2,9.2555943E-4,1.8951302E-2,-1.5078482E-3],"split_indices":[24,19,3,21,3,5,2,19,5,51,19,21,0,0,15,0,0,0,0,0,0,0,0,0,0,0,0,0,0],"split_type":[0,0,0,0,0,0,0,0,0,0,0,0,0,0,0,0,0,0,0,0,0,0,0,0,0,0,0,0,0],"sum_hessian":[1.2859238E3,1.0270035E3,2.5892032E2,4.8505658E2,5.41947E2,1.756339E2,8.328641E1,4.5990994E2,2.5146627E1,4.9240622E2,4.9540775E1,1.7328964E2,2.344251E0,3.518136E1,4.8105053E1,1.327683E2,3.2714166E2,1.3080602E0,2.3838568E1,8.2987206E1,4.09419E2,4.8889575E0,4.4651817E1,1.7062314E2,2.666506E0,1.4089356E1,2.1092001E1,2.7132692E1,2.097236E1],"tree_param":{"num_deleted":"0","num_feature":"52","num_nodes":"29","size_leaf_vector":"1"}},{"base_weights":[-5.2563655E-3,-1.4735559E-1,1.4954172E-1,-2.6216248E-2,-2.6926142E-1,-6.092525E-1,1.5939164E-1,7.1193525E-3,-3.7362197E-1,-3.5927275E-1,-5.862359E-2,6.3373568E-3,-3.485123E-2,1.8399296E-2,2.0288892E-1,-2.398576E-3,8.9090625E-3,1.6510893E-2,-2.2650857E-2,-1.707636E-2,1.7802713E-2,6.141478E-3,-1.47428885E-2,-6.0306704E-3,8.5635455E-3,1.9915063E-2,7.3808716E-3],"categories":[],"categories_nodes":[],"categories_segments":[],"categories_sizes":[],"default_left":[0,0,0,0,0,0,0,0,0,0,0,0,0,0,0,0,0,0,0,0,0,0,0,0,0,0,0],"id":11,"left_children":[1,3,5,7,9,11,13,15,17,19,21,-1,-1,23,25,-1,-1,-1,-1,-1,-1,-1,-1,-1,-1,-1,-1],"loss_changes":[2.7751984E1,9.705371E0,4.62982E0,3.8394737E0,6.188303E0,1.1207099E0,3.6572456E0,3.5118215E0,3.0100799E0,3.6781254E0,5.2782397E0,0E0,0E0,3.7534578E0,4.1625843E0,0E0,0E0,0E0,0E0,0E0,0E0,0E0,0E0,0E0,0E0,0E0,0E0],"parents":[2147483647,0,0,1,1,2,2,3,3,4,4,5,5,6,6,7,7,8,8,9,9,10,10,13,13,14,14],"right_children":[2,4,6,8,10,12,14,16,18,20,22,-1,-1,24,26,-1,-1,-1,-1,-1,-1,-1,-1,-1,-1,-1,-1],"split_conditions":[5.79E1,6E0,3.35E1,5.08E1,5.55E1,2.4996025E2,2.4E1,9.48E1,7.3333336E1,7.2E1,4.94E1,6.3373568E-3,-3.485123E-2,8.5E1,3.12E1,-2.398576E-3,8.9090625E-3,1.6510893E-2,-2.2650857E-2,-1.707636E-2,1.7802713E-2,6.141478E-3,-1.47428885E-2,-6.0306704E-3,8.5635455E-3,1.9915063E-2,7.3808716E-3],"split_indices":[23,24,3,15,3,51,8,50,50,20,23,0,0,19,8,0,0,0,0,0,0,0,0,0,0,0,0],"split_type":[0,0,0,0,0,0,0,0,0,0,0,0,0,0,0,0,0,0,0,0,0,0,0,0,0,0,0],"sum_hessian":[1.2592416E3,6.5658093E2,6.0266064E2,3.3005713E2,3.265238E2,6.7871103E0,5.9587354E2,3.0223166E2,2.782548E1,2.281726E2,9.83512E1,1.2571025E0,5.530008E0,1.4089226E2,4.5498126E2,2.3021631E2,7.201536E1,3.820918E0,2.4004562E1,2.2280675E2,5.3658576E0,5.734817E1,4.1003025E1,7.481929E1,6.6072975E1,6.1752888E1,3.9322836E2],"tree_param":{"num_deleted":"0","num_feature":"52","num_nodes":"27","size_leaf_vector":"1"}},{"base_weights":[-6.7609744E-3,-3.060736E-1,6.0050674E-2,-3.4999147E-1,4.7808886E-1,-5.8281213E-2,1.6950321E-1,-4.1983628E-1,-5.361332E-2,-1.8074352E-2,6.0332006E-1,-1.1909008E-1,9.179585E-2,1.824415E-1,-5.7904273E-1,1.0911982E-2,-2.0136494E-2,-7.8033484E-3,2.6586931E-2,4.700639E-3,3.627171E-2,-1.49531E-2,-3.2401865E-3,1.375023E-2,-5.8174212E-3,4.0794923E-3,1.1487043E-2,-3.0057453E-2,1.6601578E-3],"categories":[],"categories_nodes":[],"categories_segments":[],"categories_sizes":[],"default_left":[0,0,0,0,0,0,0,0,0,0,0,0,0,0,0,0,0,0,0,0,0,0,0,0,0,0,0,0,0],"id":12,"left_children":[1,3,5,7,9,11,13,15,17,-1,19,21,23,25,27,-1,-1,-1,-1,-1,-1,-1,-1,-1,-1,-1,-1,-1,-1],"loss_changes":[2.4785028E1,7.989662E0,1.3136267E1,4.4207745E0,1.6681547E0,4.4648705E0,5.2280445E0,3.3104153E0,3.39264E0,0E0,1.0542264E0,3.4614859E0,6.726627E0,3.4393559E0,5.353613E-1,0E0,0E0,0E0,0E0,0E0,0E0,0E0,0E0,0E0,0E0,0E0,0E0,0E0,0E0],"parents":[2147483647,0,0,1,1,2,2,3,3,4,4,5,5,6,6,7,7,8,8,10,10,11,11,12,12,13,13,14,14],"right_children":[2,4,6,8,10,12,14,16,18,-1,20,22,24,26,28,-1,-1,-1,-1,-1,-1,-1,-1,-1,-1,-1,-1,-1,-1],"split_conditions":[4.79E1,8.12E1,5.87E1,8.6E1,3.57E1,7.07E1,7.5E1,2E1,8.33E1,-1.8074352E-2,6.1750397E2,1.33E1,4.62E1,8.08E1,8.39E1,1.0911982E-2,-2.0136494E-2,-7.8033484E-3,2.6586931E-2,4.700639E-3,3.627171E-2,-1.49531E-2,-3.2401865E-3,1.375023E-2,-5.8174212E-3,4.0794923E-3,1.1487043E-2,-3.0057453E-2,1.6601578E-3],"split_indices":[3,5,23,19,19,6,22,9,4,0,51,19,15,19,5,0,0,0,0,0,0,0,0,0,0,0,0,0,0],"split_type":[0,0,0,0,0,0,0,0,0,0,0,0,0,0,0,0,0,0,0,0,0,0,0,0,0,0,0,0,0],"sum_hessian":[1.2370991E3,2.24966E2,1.0121331E3,2.1366394E2,1.1302062E1,4.8660898E2,5.255242E2,1.7251013E2,4.1153805E1,1.0783038E0,1.0223759E1,3.464718E2,1.4013716E2,5.174871E2,8.037013E0,6.53742E0,1.6597272E2,3.544247E1,5.711335E0,3.479508E0,6.7442503E0,6.13619E1,2.851099E2,7.101286E1,6.91243E1,2.301333E2,2.8735382E2,6.9347634E0,1.1022499E0],"tree_param":{"num_deleted":"0","num_feature":"52","num_nodes":"29","size_leaf_vector":"1"}},{"base_weights":[2.588096E-3,-1.1570242E-1,1.6228984E-1,-3.6471326E-2,-3.042804E-1,1.8370798E-1,-3.3906424E-1,-5.9694108E-2,3.5792306E-1,-3.8628247E-1,1.0088698E-2,1.0742567E-1,3.4058008E-1,1.8684505E-1,-5.087666E-1,-1.2166411E-2,-6.30259E-4,2.2221304E-2,-2.7585955E-2,-1.8072888E-2,1.5342637E-2,5.9634177E-3,-1.8421156E-2,-1.6602097E-4,1.4070405E-2,1.7631184E-2,-4.4447645E-3,-1.8972447E-2,2.7322644E-2,-3.0450122E-2,1.8339462E-3],"categories":[],"categories_nodes":[],"categories_segments":[],"categories_sizes":[],"default_left":[0,0,0,0,0,0,0,0,0,0,0,0,0,0,0,0,0,0,0,0,0,0,0,0,0,0,0,0,0,0,0],"id":13,"left_children":[1,3,5,7,9,11,13,15,17,19,21,23,25,27,29,-1,-1,-1,-1,-1,-1,-1,-1,-1,-1,-1,-1,-1,-1,-1,-1],"loss_changes":[2.3326786E1,1.0585766E1,5.716734E0,4.613139E0,5.4107056E0,5.99527E0,2.0729125E0,4.5583053E0,4.060645E0,2.0197754E0,2.3531172E0,7.785375E0,3.7499924E0,1.9010645E0,1.5938716E0,0E0,0E0,0E0,0E0,0E0,0E0,0E0,0E0,0E0,0E0,0E0,0E0,0E0,0E0,0E0,0E0],"parents":[2147483647,0,0,1,1,2,2,3,3,4,4,5,5,6,6,7,7,8,8,9,9,10,10,11,11,12,12,13,13,14,14],"right_children":[2,4,6,8,10,12,14,16,18,20,22,24,26,28,30,-1,-1,-1,-1,-1,-1,-1,-1,-1,-1,-1,-1,-1,-1,-1,-1],"split_conditions":[6.37E1,7E0,7.700631E2,7.5E1,5.44E1,7.83E1,5.01E1,5.12E1,6.51E1,5.15E1,5.84E1,5.313238E2,6.765772E2,8.5E1,1E2,-1.2166411E-2,-6.30259E-4,2.2221304E-2,-2.7585955E-2,-1.8072888E-2,1.5342637E-2,5.9634177E-3,-1.8421156E-2,-1.6602097E-4,1.4070405E-2,1.7631184E-2,-4.4447645E-3,-1.8972447E-2,2.7322644E-2,-3.0450122E-2,1.8339462E-3],"split_indices":[3,24,51,21,3,0,18,18,0,21,0,51,51,6,8,0,0,0,0,0,0,0,0,0,0,0,0,0,0,0,0],"split_type":[0,0,0,0,0,0,0,0,0,0,0,0,0,0,0,0,0,0,0,0,0,0,0,0,0,0,0,0,0,0,0],"sum_hessian":[1.2324034E3,7.081844E2,5.2421906E2,4.9967703E2,2.0850737E2,5.034708E2,2.0748264E1,4.728528E2,2.6824211E1,1.6515324E2,4.3354134E1,3.4010797E2,1.6336282E2,5.0322022E0,1.5716063E1,8.322025E1,3.8963257E2,2.4048344E1,2.775868E0,1.6226828E2,2.88495E0,3.419415E1,9.159986E0,2.2141838E2,1.1868959E2,1.4642145E2,1.6941372E1,2.0544896E0,2.9777126E0,1.1825269E1,3.890794E0],"tree_param":{"num_deleted":"0","num_feature":"52","num_nodes":"31","size_leaf_vector":"1"}},{"base_weights":[1.2248427E-3,1.3138428E-1,-1.5031938E-1,1.0110828E-2,2.0966749E-1,-2.2759882E-1,1.0601873E-1,6.946968E-2,-3.0661243E-1,1.1087265E-1,3.2360545E-1,-4.2305532E-1,-1.373936E-1,2.4531458E-1,-9.6032016E-2,-2.807857E-2,4.654693E-3,-2.3303645E-2,-2.525726E-4,8.747252E-3,-1.13781495E-2,1.9325405E-2,4.076346E-3,-2.0461036E-2,1.9100457E-2,-7.8086276E-3,2.2715203E-2,1.3585546E-2,-2.731421E-2,1.1286111E-2,-1.4114632E-2],"categories":[],"categories_nodes":[],"categories_segments":[],"categories_sizes":[],"default_left":[0,0,0,0,0,0,0,0,0,0,0,0,0,0,0,0,0,0,0,0,0,0,0,0,0,0,0,0,0,0,0],"id":14,"left_children":[1,3,5,7,9,11,13,15,17,19,21,23,25,27,29,-1,-1,-1,-1,-1,-1,-1,-1,-1,-1,-1,-1,-1,-1,-1,-1],"loss_changes":[2.3990082E1,6.2089205E0,1.1161141E1,4.874599E0,4.4319687E0,7.549862E0,3.7149863E0,5.216891E0,2.5991063E0,6.5819263E0,4.4916306E0,3.8748856E0,7.007365E0,3.9756432E0,4.194254E0,0E0,0E0,0E0,0E0,0E0,0E0,0E0,0E0,0E0,0E0,0E0,0E0,0E0,0E0,0E0,0E0],"parents":[2147483647,0,0,1,1,2,2,3,3,4,4,5,5,6,6,7,7,8,8,9,9,10,10,11,11,12,12,13,13,14,14],"right_children":[2,4,6,8,10,12,14,16,18,20,22,24,26,28,30,-1,-1,-1,-1,-1,-1,-1,-1,-1,-1,-1,-1,-1,-1,-1,-1],"split_conditions":[4E0,6.27E1,7.04E1,5.76E1,9.503333E1,3.49E1,3.62E1,4.81E1,1.9E3,6.15E1,5.02E1,7.21E1,7.514617E2,9.8933334E1,2.56E1,-2.807857E-2,4.654693E-3,-2.3303645E-2,-2.525726E-4,8.747252E-3,-1.13781495E-2,1.9325405E-2,4.076346E-3,-2.0461036E-2,1.9100457E-2,-7.8086276E-3,2.2715203E-2,1.3585546E-2,-2.731421E-2,1.1286111E-2,-1.4114632E-2],"split_indices":[24,6,6,6,50,19,0,21,26,15,20,20,51,50,15,0,0,0,0,0,0,0,0,0,0,0,0,0,0,0,0],"split_type":[0,0,0,0,0,0,0,0,0,0,0,0,0,0,0,0,0,0,0,0,0,0,0,0,0,0,0,0,0,0,0],"sum_hessian":[1.2138313E3,6.530739E2,5.607573E2,2.5672305E2,3.9635083E2,4.3096643E2,1.2979091E2,2.1699216E2,3.9730907E1,2.135504E2,1.8280045E2,1.346908E2,2.9627563E2,7.6674065E1,5.3116837E1,9.15964E0,2.0783252E2,2.2838167E1,1.689274E1,1.7412885E2,3.942155E1,1.2500572E2,5.779472E1,1.3038039E2,4.31041E0,2.81323E2,1.4952648E1,7.262708E1,4.0469832E0,2.040853E1,3.270831E1],"tree_param":{"num_deleted":"0","num_feature":"52","num_nodes":"31","size_leaf_vector":"1"}},{"base_weights":[4.6177087E-3,-1.3019192E-1,1.5150276E-1,-3.4227255E-1,-6.868174E-2,1.657668E-1,-6.055244E-1,-5.645724E-1,-1.5061077E-1,-2.8374904E-1,-5.014286E-3,7.0493735E-2,2.7181482E-1,5.4669697E-3,-6.959606E-1,5.788157E-4,-2.6288714E-2,-2.239412E-2,1.5474756E-3,-2.9830964E-2,-8.5702585E-3,-8.394009E-3,2.1423397E-3,6.654367E-3,-4.1043377E-3,4.786481E-3,1.6767638E-2,-3.3202894E-2,-7.975092E-3],"categories":[],"categories_nodes":[],"categories_segments":[],"categories_sizes":[],"default_left":[0,0,0,0,0,0,0,0,0,0,0,0,0,0,0,0,0,0,0,0,0,0,0,0,0,0,0,0,0],"id":15,"left_children":[1,3,5,7,9,11,13,15,17,19,21,23,25,-1,27,-1,-1,-1,-1,-1,-1,-1,-1,-1,-1,-1,-1,-1,-1],"loss_changes":[2.3849834E1,8.164904E0,6.3444605E0,5.901314E0,6.6852665E0,5.702384E0,8.192668E-1,7.4320984E-1,4.983443E0,3.7938004E0,3.6215556E0,3.7714787E0,4.417761E0,0E0,5.790472E-2,0E0,0E0,0E0,0E0,0E0,0E0,0E0,0E0,0E0,0E0,0E0,0E0,0E0,0E0],"parents":[2147483647,0,0,1,1,2,2,3,3,4,4,5,5,6,6,7,7,8,8,9,9,10,10,11,11,12,12,14,14],"right_children":[2,4,6,8,10,12,14,16,18,20,22,24,26,-1,28,-1,-1,-1,-1,-1,-1,-1,-1,-1,-1,-1,-1,-1,-1],"split_conditions":[5.79E1,4.36E1,6.67E1,4.74E1,4.9E1,6.98E1,8.386667E1,1.31E1,4.55E1,1.3E1,7.6833336E1,1.9E3,4.96E1,5.4669697E-3,6.73E1,5.788157E-4,-2.6288714E-2,-2.239412E-2,1.5474756E-3,-2.9830964E-2,-8.5702585E-3,-8.394009E-3,2.1423397E-3,6.654367E-3,-4.1043377E-3,4.786481E-3,1.6767638E-2,-3.3202894E-2,-7.975092E-3],"split_indices":[23,3,22,19,20,3,50,3,23,2,50,26,1,0,23,0,0,0,0,0,0,0,0,0,0,0,0,0,0],"split_type":[0,0,0,0,0,0,0,0,0,0,0,0,0,0,0,0,0,0,0,0,0,0,0,0,0,0,0,0,0],"sum_hessian":[1.2020493E3,6.2686E2,5.751894E2,1.3970264E2,4.8715735E2,5.654719E2,9.717491E0,6.3600487E1,7.610214E1,1.10326996E2,3.7683035E2,2.989206E2,2.665513E2,1.0294832E0,8.688008E0,2.10371E0,6.1496777E1,2.5757027E1,5.0345116E1,2.0340021E1,8.998698E1,8.400409E1,2.9282626E2,2.0224173E2,9.6678856E1,1.0184793E2,1.6470337E2,7.5699677E0,1.1180403E0],"tree_param":{"num_deleted":"0","num_feature":"52","num_nodes":"29","size_leaf_vector":"1"}},{"base_weights":[3.025287E-3,-1.2767883E-1,1.4304696E-1,-2.996895E-1,-5.208303E-2,4.90379E-2,2.3507631E-1,-4.7711024E-1,-1.4048657E-1,-5.084678E-1,-2.6143426E-2,-1.4367611E-2,2.9857486E-1,-1.22056544E-1,2.7663475E-1,-2.3589818E-2,-5.388911E-3,-1.6387718E-2,-2.3287308E-4,-3.0148976E-2,1.0996213E-3,-4.35644E-3,4.723387E-3,-2.8259607E-3,1.8136255E-2,-6.569321E-3,2.1170666E-2,-1.55035565E-2,2.6177753E-2,1.5258422E-2,1.8621443E-3],"categories":[],"categories_nodes":[],"categories_segments":[],"categories_sizes":[],"default_left":[0,0,0,0,0,0,0,0,0,0,0,0,0,0,0,0,0,0,0,0,0,0,0,0,0,0,0,0,0,0,0],"id":16,"left_children":[1,3,5,7,9,11,13,15,17,19,21,23,25,27,29,-1,-1,-1,-1,-1,-1,-1,-1,-1,-1,-1,-1,-1,-1,-1,-1],"loss_changes":[2.1384226E1,7.8397427E0,4.8665657E0,5.1241016E0,4.9714346E0,4.444282E0,4.266553E0,1.3832302E0,2.9886107E0,1.9641137E0,3.7171829E0,4.576058E0,4.430382E0,5.017856E0,3.7352333E0,0E0,0E0,0E0,0E0,0E0,0E0,0E0,0E0,0E0,0E0,0E0,0E0,0E0,0E0,0E0,0E0],"parents":[2147483647,0,0,1,1,2,2,3,3,4,4,5,5,6,6,7,7,8,8,9,9,10,10,11,11,12,12,13,13,14,14],"right_children":[2,4,6,8,10,12,14,16,18,20,22,24,26,28,30,-1,-1,-1,-1,-1,-1,-1,-1,-1,-1,-1,-1,-1,-1,-1,-1],"split_conditions":[5.79E1,4.86E1,6.89E1,4.79E1,1.31E1,5.16E1,4.85E1,7.514617E2,4.74E1,6.62E1,1.2E1,7.0937164E2,5.85E1,5.15E1,7.09E1,-2.3589818E-2,-5.388911E-3,-1.6387718E-2,-2.3287308E-4,-3.0148976E-2,1.0996213E-3,-4.35644E-3,4.723387E-3,-2.8259607E-3,1.8136255E-2,-6.569321E-3,2.1170666E-2,-1.55035565E-2,2.6177753E-2,1.5258422E-2,1.8621443E-3],"split_indices":[23,3,3,0,21,20,19,51,19,18,25,51,18,21,23,0,0,0,0,0,0,0,0,0,0,0,0,0,0,0,0],"split_type":[0,0,0,0,0,0,0,0,0,0,0,0,0,0,0,0,0,0,0,0,0,0,0,0,0,0,0,0,0,0,0],"sum_hessian":[1.1660494E3,6.031454E2,5.6290405E2,1.8305798E2,4.200874E2,2.7936688E2,2.8353717E2,8.544223E1,9.7615746E1,2.139197E1,3.9869543E2,2.2366592E2,5.570096E1,2.931282E1,2.5422435E2,7.4995735E1,1.0446496E1,3.602796E1,6.1587784E1,1.6179667E1,5.212303E0,2.5926614E2,1.3942929E2,2.0132509E2,2.2340832E1,1.5581626E1,4.011933E1,2.273791E1,6.574911E0,2.004825E2,5.3741848E1],"tree_param":{"num_deleted":"0","num_feature":"52","num_nodes":"31","size_leaf_vector":"1"}},{"base_weights":[-2.6279625E-3,-9.352048E-2,1.9087932E-1,-1.1944337E-2,-3.286372E-1,5.233168E-2,2.7889368E-1,-3.5306625E-2,4.1855633E-1,-4.694123E-1,-2.3715359E-1,-2.3036537E-1,1.7057116E-1,1.6954303E-1,4.3303782E-1,-2.2090902E-3,3.1279065E-2,2.3849169E-2,-2.22675E-2,-5.817778E-3,-2.4480958E-2,3.690879E-3,-1.428235E-2,-1.35347545E-2,1.7621944E-2,2.0165248E-3,1.8253414E-2,-3.5124068E-4,1.52653735E-2,2.6404912E-2,8.573619E-3],"categories":[],"categories_nodes":[],"categories_segments":[],"categories_sizes":[],"default_left":[0,0,0,0,0,0,0,0,0,0,0,0,0,0,0,0,0,0,0,0,0,0,0,0,0,0,0,0,0,0,0],"id":17,"left_children":[1,3,5,7,9,11,13,15,17,19,21,23,25,27,29,-1,-1,-1,-1,-1,-1,-1,-1,-1,-1,-1,-1,-1,-1,-1,-1],"loss_changes":[2.0284794E1,1.5045652E1,4.47721E0,5.8894095E0,2.4689503E0,4.8828354E0,3.7065868E0,5.62734E0,3.3826652E0,1.9044209E0,3.229917E0,2.0319734E0,3.0139327E0,4.025855E0,3.3203812E0,0E0,0E0,0E0,0E0,0E0,0E0,0E0,0E0,0E0,0E0,0E0,0E0,0E0,0E0,0E0,0E0],"parents":[2147483647,0,0,1,1,2,2,3,3,4,4,5,5,6,6,7,7,8,8,9,9,10,10,11,11,12,12,13,13,14,14],"right_children":[2,4,6,8,10,12,14,16,18,20,22,24,26,28,30,-1,-1,-1,-1,-1,-1,-1,-1,-1,-1,-1,-1,-1,-1,-1,-1],"split_conditions":[6.98E1,7E0,7.08E1,7.5E1,4.27E1,2.9E1,6.99E1,8.69E1,6.17E1,2.43E1,1E0,9.8666664E1,9.503333E1,5.85E1,8.12E1,-2.2090902E-3,3.1279065E-2,2.3849169E-2,-2.22675E-2,-5.817778E-3,-2.4480958E-2,3.690879E-3,-1.428235E-2,-1.35347545E-2,1.7621944E-2,2.0165248E-3,1.8253414E-2,-3.5124068E-4,1.52653735E-2,2.6404912E-2,8.573619E-3],"split_indices":[3,24,19,21,23,2,0,20,3,8,37,50,50,2,7,0,0,0,0,0,0,0,0,0,0,0,0,0,0,0,0],"split_type":[0,0,0,0,0,0,0,0,0,0,0,0,0,0,0,0,0,0,0,0,0,0,0,0,0,0,0,0,0,0,0],"sum_hessian":[1.1508896E3,7.8349396E2,3.6739575E2,5.826118E2,2.0088213E2,1.4346852E2,2.2392723E2,5.536671E2,2.8944668E1,7.717217E1,1.2370995E2,4.1974453E1,1.01494064E2,1.324713E2,9.145593E1,5.445103E2,9.156811E0,2.6246546E1,2.6981215E0,1.4472788E1,6.2699387E1,2.4845318E1,9.886464E1,3.826277E1,3.7116845E0,6.7050285E1,3.444378E1,6.5333244E1,6.713805E1,5.4930176E1,3.652576E1],"tree_param":{"num_deleted":"0","num_feature":"52","num_nodes":"31","size_leaf_vector":"1"}},{"base_weights":[-5.2806246E-3,-1.1409579E-1,1.437071E-1,-4.108646E-2,-3.0065793E-1,2.0603697E-1,-6.0945232E-3,-7.3027596E-2,3.0225894E-1,-3.7622896E-1,-1.7463747E-2,2.5960222E-1,-1.4971669E-3,-2.8851077E-1,8.435335E-2,-4.3571736E-3,1.6855258E-2,-1.8791508E-2,1.8856969E-2,1.9809248E-2,-1.7427048E-2,5.3276033E-3,-2.7788008E-2,7.987051E-3,1.8960204E-2,-1.4268821E-2,8.874953E-3,1.9540142E-2,-1.8214192E-2,9.6656516E-4,2.3202153E-2],"categories":[],"categories_nodes":[],"categories_segments":[],"categories_sizes":[],"default_left":[0,0,0,0,0,0,0,0,0,0,0,0,0,0,0,0,0,0,0,0,0,0,0,0,0,0,0,0,0,0,0],"id":18,"left_children":[1,3,5,7,9,11,13,15,17,19,21,23,25,27,29,-1,-1,-1,-1,-1,-1,-1,-1,-1,-1,-1,-1,-1,-1,-1,-1],"loss_changes":[1.8657787E1,9.043827E0,4.537281E0,5.283885E0,3.991394E0,3.8143415E0,3.704986E0,4.7256346E0,3.6596925E0,1.5334511E0,3.3991535E0,3.531868E0,4.5638328E0,3.1664913E0,2.9671884E0,0E0,0E0,0E0,0E0,0E0,0E0,0E0,0E0,0E0,0E0,0E0,0E0,0E0,0E0,0E0,0E0],"parents":[2147483647,0,0,1,1,2,2,3,3,4,4,5,5,6,6,7,7,8,8,9,9,10,10,11,11,12,12,13,13,14,14],"right_children":[2,4,6,8,10,12,14,16,18,20,22,24,26,28,30,-1,-1,-1,-1,-1,-1,-1,-1,-1,-1,-1,-1,-1,-1,-1,-1],"split_conditions":[6.37E1,7E0,4E0,6.93E1,5.44E1,6.11E1,3.46E1,7.5E1,7E0,4.59E1,5.84E1,5.648409E2,7.28E1,4E1,9.826667E1,-4.3571736E-3,1.6855258E-2,-1.8791508E-2,1.8856969E-2,1.9809248E-2,-1.7427048E-2,5.3276033E-3,-2.7788008E-2,7.987051E-3,1.8960204E-2,-1.4268821E-2,8.874953E-3,1.9540142E-2,-1.8214192E-2,9.6656516E-4,2.3202153E-2],"split_indices":[3,24,24,20,3,15,19,21,2,18,0,51,15,16,50,0,0,0,0,0,0,0,0,0,0,0,0,0,0,0,0],"split_type":[0,0,0,0,0,0,0,0,0,0,0,0,0,0,0,0,0,0,0,0,0,0,0,0,0,0,0,0,0,0,0],"sum_hessian":[1.1484402E3,6.6386127E2,4.8457892E2,4.781903E2,1.85671E2,3.4187863E2,1.4270029E2,4.3835526E2,3.9835052E1,1.4624971E2,3.9421295E1,2.71502E2,7.0376625E1,3.397823E1,1.0872206E2,4.1711734E2,2.123789E1,5.1290903E0,3.4705963E1,1.3286408E0,1.4492107E2,3.2929146E1,6.492151E0,1.8174704E2,8.975497E1,2.6916044E1,4.346058E1,4.2531924E0,2.9725035E1,9.598735E1,1.2734714E1],"tree_param":{"num_deleted":"0","num_feature":"52","num_nodes":"31","size_leaf_vector":"1"}},{"base_weights":[-6.359661E-3,-1.12076566E-1,1.7320631E-1,-2.5178155E-1,-4.5613723E-4,-3.5173726E-1,1.8611848E-1,1.6151929E-1,-2.8940582E-1,7.2693765E-2,-1.578377E-1,-5.4274166E-1,2.359837E-1,1.1198344E-1,2.8393772E-1,1.7285334E-2,-1.4225631E-2,-1.6173368E-2,-4.6087676E-3,4.2568715E-3,-2.4316533E-2,1.1672162E-2,-9.969524E-3,-2.8260896E-2,2.1838884E-4,1.5158451E-2,1.0502405E-3,2.8985234E-2,3.6766368E-3,-1.694352E-2,1.4057269E-2],"categories":[],"categories_nodes":[],"categories_segments":[],"categories_sizes":[],"default_left":[0,0,0,0,0,0,0,0,0,0,0,0,0,0,0,0,0,0,0,0,0,0,0,0,0,0,0,0,0,0,0],"id":19,"left_children":[1,3,5,7,9,11,13,15,17,19,21,23,25,27,29,-1,-1,-1,-1,-1,-1,-1,-1,-1,-1,-1,-1,-1,-1,-1,-1],"loss_changes":[2.128792E1,1.1006172E1,2.895402E0,4.9305344E0,4.5443916E0,1.3202587E0,2.9088783E0,3.008483E0,3.7222557E0,3.6800604E0,3.3981664E0,3.8688993E-1,6.317857E-2,3.6938095E0,3.418129E0,0E0,0E0,0E0,0E0,0E0,0E0,0E0,0E0,0E0,0E0,0E0,0E0,0E0,0E0,0E0,0E0],"parents":[2147483647,0,0,1,1,2,2,3,3,4,4,5,5,6,6,7,7,8,8,9,9,10,10,11,11,12,12,13,13,14,14],"right_children":[2,4,6,8,10,12,14,16,18,20,22,24,26,28,30,-1,-1,-1,-1,-1,-1,-1,-1,-1,-1,-1,-1,-1,-1,-1,-1],"split_conditions":[7E1,5.34E1,4.5E1,2.6E1,9.12E1,5.19E1,6.22E1,7.92E1,5.47E1,7.09E1,4.26E1,6.91E1,7.65E1,4E1,2.9317917E2,1.7285334E-2,-1.4225631E-2,-1.6173368E-2,-4.6087676E-3,4.2568715E-3,-2.4316533E-2,1.1672162E-2,-9.969524E-3,-2.8260896E-2,2.1838884E-4,1.5158451E-2,1.0502405E-3,2.8985234E-2,3.6766368E-3,-1.694352E-2,1.4057269E-2],"split_indices":[6,23,3,9,7,9,18,7,3,23,4,18,6,22,51,0,0,0,0,0,0,0,0,0,0,0,0,0,0,0,0],"split_type":[0,0,0,0,0,0,0,0,0,0,0,0,0,0,0,0,0,0,0,0,0,0,0,0,0,0,0,0,0,0,0],"sum_hessian":[1.1189836E3,7.0460724E2,4.1437643E2,3.1226593E2,3.923413E2,9.191887E0,4.0518454E2,2.5725124E1,2.865408E2,2.682884E2,1.24052925E2,7.0066295E0,2.185258E0,2.3196051E2,1.7322401E2,1.7707684E1,8.017441E0,2.0768428E2,7.885653E1,2.600135E2,8.274897E0,1.594478E1,1.0810815E2,5.9100065E0,1.096623E0,1.0067527E0,1.1785051E0,1.1179066E1,2.2078145E2,6.54638E0,1.6667764E2],"tree_param":{"num_deleted":"0","num_feature":"52","num_nodes":"31","size_leaf_vector":"1"}},{"base_weights":[1.2892118E-3,-1.0678519E-1,1.5307066E-1,-2.5694251E-2,-3.1492946E-1,1.6402442E-2,2.3651898E-1,-5.4352652E-2,4.4513193E-1,-3.4039202E-1,4.439335E-1,7.8098394E-2,-5.350275E-1,1.1276147E-1,3.2968837E-1,-7.5792205E-3,1.3471039E-3,2.2475364E-2,-1.5319365E-2,2.1769255E-2,-1.591011E-2,2.7174031E-2,-6.7110513E-3,1.3581601E-2,-2.9768867E-3,1.00345295E-2,-2.793059E-2,7.40394E-3,-2.0429527E-2,5.0998363E-3,1.7646074E-2],"categories":[],"categories_nodes":[],"categories_segments":[],"categories_sizes":[],"default_left":[0,0,0,0,0,0,0,0,0,0,0,0,0,0,0,0,0,0,0,0,0,0,0,0,0,0,0,0,0,0,0],"id":20,"left_children":[1,3,5,7,9,11,13,15,17,19,21,23,25,27,29,-1,-1,-1,-1,-1,-1,-1,-1,-1,-1,-1,-1,-1,-1,-1,-1],"loss_changes":[1.8342558E1,1.1014486E1,5.299179E0,6.388806E0,3.7175922E0,6.092151E0,3.2837467E0,4.288254E0,1.3636007E0,2.1339607E0,7.210126E-1,5.212295E0,1.3362808E0,3.780787E0,2.1632252E0,0E0,0E0,0E0,0E0,0E0,0E0,0E0,0E0,0E0,0E0,0E0,0E0,0E0,0E0,0E0,0E0],"parents":[2147483647,0,0,1,1,2,2,3,3,4,4,5,5,6,6,7,7,8,8,9,9,10,10,11,11,12,12,13,13,14,14],"right_children":[2,4,6,8,10,12,14,16,18,20,22,24,26,28,30,-1,-1,-1,-1,-1,-1,-1,-1,-1,-1,-1,-1,-1,-1,-1,-1],"split_conditions":[6.37E1,7E0,6.82E1,7.5E1,8.2E1,9.58E1,1.6E3,5.4E1,8.88E1,4.59E1,1E0,3E0,1.1E3,5.49E1,4.98E1,-7.5792205E-3,1.3471039E-3,2.2475364E-2,-1.5319365E-2,2.1769255E-2,-1.591011E-2,2.7174031E-2,-6.7110513E-3,1.3581601E-2,-2.9768867E-3,1.00345295E-2,-2.793059E-2,7.40394E-3,-2.0429527E-2,5.0998363E-3,1.7646074E-2],"split_indices":[3,24,19,21,6,7,26,19,0,18,41,24,26,9,20,0,0,0,0,0,0,0,0,0,0,0,0,0,0,0,0],"split_type":[0,0,0,0,0,0,0,0,0,0,0,0,0,0,0,0,0,0,0,0,0,0,0,0,0,0,0,0,0,0,0],"sum_hessian":[1.1158013E3,6.519458E2,4.638555E2,4.7013428E2,1.8181152E2,1.763965E2,2.87459E2,4.4416043E2,2.5973833E1,1.765494E2,5.2621293E0,1.5957295E2,1.6823547E1,1.2460186E2,1.6285715E2,1.8822363E2,2.559368E2,2.4702724E1,1.2711077E0,2.1016207E0,1.7444777E2,4.127269E0,1.1348606E0,6.20425E1,9.753046E1,1.5126425E0,1.53109045E1,1.1495298E2,9.648884E0,3.7233173E1,1.2562397E2],"tree_param":{"num_deleted":"0","num_feature":"52","num_nodes":"31","size_leaf_vector":"1"}},{"base_weights":[4.6826564E-3,-1.094394E-1,1.2708935E-1,-3.9600412E-4,-2.3371914E-1,-3.335211E-2,1.3698968E-1,-3.799565E-1,2.637203E-2,-3.3254156E-1,-4.8962403E-2,6.665142E-2,2.1329667E-1,-2.527981E-2,1.7023908E-2,-1.6864375E-3,6.39523E-3,5.86383E-3,-1.6949922E-2,3.256898E-3,-1.3002312E-2,1.9202085E-4,1.3340592E-2,1.0125256E-3,1.3641852E-2],"categories":[],"categories_nodes":[],"categories_segments":[],"categories_sizes":[],"default_left":[0,0,0,0,0,0,0,0,0,0,0,0,0,0,0,0,0,0,0,0,0,0,0,0,0],"id":21,"left_children":[1,3,5,7,9,-1,11,13,15,17,19,21,23,-1,-1,-1,-1,-1,-1,-1,-1,-1,-1,-1,-1],"loss_changes":[1.5704111E1,7.884483E0,4.7841396E0,3.1728525E0,4.9449377E0,0E0,2.8666954E0,3.0912857E0,2.1622984E0,3.6725273E0,2.825165E0,4.031579E0,4.4006205E0,0E0,0E0,0E0,0E0,0E0,0E0,0E0,0E0,0E0,0E0,0E0,0E0],"parents":[2147483647,0,0,1,1,2,2,3,3,4,4,6,6,7,7,8,8,9,9,10,10,11,11,12,12],"right_children":[2,4,6,8,10,-1,12,14,16,18,20,22,24,-1,-1,-1,-1,-1,-1,-1,-1,-1,-1,-1,-1],"split_conditions":[5.79E1,6E0,3.35E1,4.87E1,5.44E1,-3.335211E-2,6.98E1,6.77E1,6.72E1,2.6E1,5.11E1,5.13E1,7.5E1,-2.527981E-2,1.7023908E-2,-1.6864375E-3,6.39523E-3,5.86383E-3,-1.6949922E-2,3.256898E-3,-1.3002312E-2,1.9202085E-4,1.3340592E-2,1.0125256E-3,1.3641852E-2],"split_indices":[23,24,3,4,3,0,3,20,6,9,23,20,19,0,0,0,0,0,0,0,0,0,0,0,0],"split_type":[0,0,0,0,0,0,0,0,0,0,0,0,0,0,0,0,0,0,0,0,0,0,0,0,0],"sum_hessian":[1.1217922E3,5.8060785E2,5.4118445E2,3.099024E2,2.707054E2,5.102098E0,5.3608234E2,1.937263E1,2.905298E2,1.7574391E2,9.496151E1,2.8012073E2,2.5596161E2,1.5876678E1,3.4959514E0,1.8776416E2,1.0276561E2,1.5091535E1,1.6065237E2,6.3627953E1,3.1333559E1,2.2127472E2,5.8846012E1,8.243104E1,1.7353058E2],"tree_param":{"num_deleted":"0","num_feature":"52","num_nodes":"25","size_leaf_vector":"1"}},{"base_weights":[1.3071271E-2,-2.7282184E-1,5.809249E-2,-3.0919796E-1,1.5537031E-1,-1.8213703E-1,9.3494594E-2,-6.647438E-2,-3.7312794E-1,2.8788136E-2,-1.7537178E-1,-2.8466526E-1,3.715067E-1,3.1059E-2,2.0966716E-1,1.32538425E-2,-1.3496329E-2,-2.6581714E-2,-1.3937436E-2,-1.9634202E-2,1.2553045E-2,-1.4898978E-2,1.9039854E-2,2.215433E-2,-1.7817417E-2,-2.6914526E-2,1.9315379E-3,1.0395419E-2,-1.9429306E-2],"categories":[],"categories_nodes":[],"categories_segments":[],"categories_sizes":[],"default_left":[0,0,0,0,0,0,0,0,0,0,0,0,0,0,0,0,0,0,0,0,0,0,0,0,0,0,0,0,0],"id":22,"left_children":[1,3,5,7,9,11,13,15,17,-1,19,21,23,25,27,-1,-1,-1,-1,-1,-1,-1,-1,-1,-1,-1,-1,-1,-1],"loss_changes":[1.4321374E1,2.4156733E0,8.193358E0,2.1416674E0,2.16157E0,7.1564283E0,6.0730624E0,2.6876144E0,1.3049412E0,0E0,1.149072E0,3.623577E0,2.0762413E0,4.1116266E0,4.1287165E0,0E0,0E0,0E0,0E0,0E0,0E0,0E0,0E0,0E0,0E0,0E0,0E0,0E0,0E0],"parents":[2147483647,0,0,1,1,2,2,3,3,4,4,5,5,6,6,7,7,8,8,10,10,11,11,12,12,13,13,14,14],"right_children":[2,4,6,8,10,12,14,16,18,-1,20,22,24,26,28,-1,-1,-1,-1,-1,-1,-1,-1,-1,-1,-1,-1,-1,-1],"split_conditions":[4.54E1,7.1E1,3.2E1,9E0,4.2123444E2,1E0,9.48E1,4.74E1,1.77E1,2.8788136E-2,6.42E1,8.39E1,9.58E1,1.13E1,7.5E1,1.32538425E-2,-1.3496329E-2,-2.6581714E-2,-1.3937436E-2,-1.9634202E-2,1.2553045E-2,-1.4898978E-2,1.9039854E-2,2.215433E-2,-1.7817417E-2,-2.6914526E-2,1.9315379E-3,1.0395419E-2,-1.9429306E-2],"split_indices":[23,6,19,25,51,28,50,6,6,0,18,5,7,21,22,0,0,0,0,0,0,0,0,0,0,0,0,0,0],"split_type":[0,0,0,0,0,0,0,0,0,0,0,0,0,0,0,0,0,0,0,0,0,0,0,0,0,0,0,0,0],"sum_hessian":[1.1099857E3,1.5018858E2,9.597972E2,1.3873604E2,1.1452541E1,1.22637436E2,8.371597E2,2.943346E1,1.09302574E2,4.192136E0,7.260405E0,1.0396698E2,1.867045E1,5.455051E2,2.9165457E2,1.1435415E1,1.7998045E1,2.2413408E1,8.688917E1,4.6419015E0,2.6185036E0,9.816683E1,5.800149E0,1.6502787E1,2.1676648E0,8.998769E0,5.365064E2,2.8300598E2,8.648576E0],"tree_param":{"num_deleted":"0","num_feature":"52","num_nodes":"29","size_leaf_vector":"1"}},{"base_weights":[4.623233E-4,-8.414798E-2,1.4689265E-1,-3.0249187E-1,-2.9549839E-2,-4.5749847E-2,1.9659044E-1,-3.2751074E-1,3.8429582E-1,-7.022904E-2,2.6364455E-1,-2.6753587E-1,1.3890009E-1,-1.6683768E-1,2.293458E-1,-2.2555603E-2,-1.0545862E-2,3.1589E-3,2.5761433E-2,-5.7106665E-3,5.1008393E-3,-2.9358273E-2,1.609995E-2,-2.8602753E-2,-1.1778626E-3,9.815893E-3,-2.7639145E-2,-1.4818149E-2,1.2369839E-2,1.7964238E-2,7.0245066E-3],"categories":[],"categories_nodes":[],"categories_segments":[],"categories_sizes":[],"default_left":[0,0,0,0,0,0,0,0,0,0,0,0,0,0,0,0,0,0,0,0,0,0,0,0,0,0,0,0,0,0,0],"id":23,"left_children":[1,3,5,7,9,11,13,15,17,19,21,23,25,27,29,-1,-1,-1,-1,-1,-1,-1,-1,-1,-1,-1,-1,-1,-1,-1,-1],"loss_changes":[1.3613077E1,8.2909565E0,3.8631315E0,2.542366E0,6.6823297E0,3.4637842E0,3.8563156E0,2.042694E0,2.7354252E-1,5.129158E0,6.1686587E0,3.3862967E0,2.9264154E0,2.0575237E0,3.5846214E0,0E0,0E0,0E0,0E0,0E0,0E0,0E0,0E0,0E0,0E0,0E0,0E0,0E0,0E0,0E0,0E0],"parents":[2147483647,0,0,1,1,2,2,3,3,4,4,5,5,6,6,7,7,8,8,9,9,10,10,11,11,12,12,13,13,14,14],"right_children":[2,4,6,8,10,12,14,16,18,20,22,24,26,28,30,-1,-1,-1,-1,-1,-1,-1,-1,-1,-1,-1,-1,-1,-1,-1,-1],"split_conditions":[7E1,3.2E1,8.8E1,7.5E1,6.6079694E2,1E1,2E0,7.5E1,1.4E1,6.79E1,7E1,5.63E1,1.6E1,1E0,8.5E1,-2.2555603E-2,-1.0545862E-2,3.1589E-3,2.5761433E-2,-5.7106665E-3,5.1008393E-3,-2.9358273E-2,1.609995E-2,-2.8602753E-2,-1.1778626E-3,9.815893E-3,-2.7639145E-2,-1.4818149E-2,1.2369839E-2,1.7964238E-2,7.0245066E-3],"split_indices":[6,19,50,21,51,25,2,16,25,3,16,18,25,27,16,0,0,0,0,0,0,0,0,0,0,0,0,0,0,0,0],"split_type":[0,0,0,0,0,0,0,0,0,0,0,0,0,0,0,0,0,0,0,0,0,0,0,0,0,0,0,0,0,0,0],"sum_hessian":[1.0963606E3,6.951815E2,4.0117905E2,1.3797124E2,5.5721027E2,8.2291084E1,3.1888797E2,1.3372745E2,4.2437854E0,4.9012106E2,6.7089195E1,3.714135E1,4.5149734E1,2.5958664E1,2.9292932E2,4.4844078E1,8.888337E1,2.2072444E0,2.0365412E0,3.7478796E2,1.1533309E2,5.588412E0,6.1500782E1,1.3933027E1,2.3208323E1,4.162316E1,3.5265708E0,1.9202065E1,6.756599E0,8.6648315E1,2.0628099E2],"tree_param":{"num_deleted":"0","num_feature":"52","num_nodes":"31","size_leaf_vector":"1"}},{"base_weights":[9.73268E-3,-8.119134E-2,1.6698948E-1,-1.1238935E-2,-2.8520918E-1,1.9030288E-1,-1.0589065E-1,-4.297577E-2,2.3708403E-1,-3.231698E-1,4.842519E-1,2.2558105E-1,1.2102642E-2,-2.1029522E-1,2.8309982E-2,-1.5484818E-2,-4.450821E-5,4.5003667E-3,2.213065E-2,-3.9723204E-3,-1.734394E-2,3.0386494E-2,-4.337787E-3,2.522168E-3,1.290934E-2,-1.5382206E-2,8.01504E-3,1.16205625E-2,-1.8975638E-2],"categories":[],"categories_nodes":[],"categories_segments":[],"categories_sizes":[],"default_left":[0,0,0,0,0,0,0,0,0,0,0,0,0,0,0,0,0,0,0,0,0,0,0,0,0,0,0,0,0],"id":24,"left_children":[1,3,5,7,9,11,13,15,17,19,21,23,25,27,-1,-1,-1,-1,-1,-1,-1,-1,-1,-1,-1,-1,-1,-1,-1],"loss_changes":[1.5636795E1,9.8868265E0,2.572896E0,4.0893164E0,5.354973E0,2.3197775E0,2.6377335E0,5.812108E0,1.9942617E0,2.4348392E0,1.0537786E0,3.1852694E0,3.735512E0,3.0212622E0,0E0,0E0,0E0,0E0,0E0,0E0,0E0,0E0,0E0,0E0,0E0,0E0,0E0,0E0,0E0],"parents":[2147483647,0,0,1,1,2,2,3,3,4,4,5,5,6,6,7,7,8,8,9,9,10,10,11,11,12,12,13,13],"right_children":[2,4,6,8,10,12,14,16,18,20,22,24,26,28,-1,-1,-1,-1,-1,-1,-1,-1,-1,-1,-1,-1,-1,-1,-1],"split_conditions":[6.7E1,7E0,1E0,6E1,8.2E1,5.12E1,8.44E1,4.28E1,6.6079694E2,2.47E1,8.876667E1,8.7666664E1,5.288383E2,3.897858E2,2.8309982E-2,-1.5484818E-2,-4.450821E-5,4.5003667E-3,2.213065E-2,-3.9723204E-3,-1.734394E-2,3.0386494E-2,-4.337787E-3,2.522168E-3,1.290934E-2,-1.5382206E-2,8.01504E-3,1.16205625E-2,-1.8975638E-2],"split_indices":[3,24,36,5,6,20,3,3,51,8,50,50,51,51,0,0,0,0,0,0,0,0,0,0,0,0,0,0,0],"split_type":[0,0,0,0,0,0,0,0,0,0,0,0,0,0,0,0,0,0,0,0,0,0,0,0,0,0,0,0,0],"sum_hessian":[1.0912651E3,6.9183484E2,3.9943027E2,5.161325E2,1.757023E2,3.6832568E2,3.1104603E1,4.5852344E2,5.760911E1,1.6810501E2,7.59729E0,3.0719202E2,6.1133663E1,2.798595E1,3.1186526E0,5.5052025E1,4.034714E2,3.853952E1,1.906959E1,3.5825184E1,1.3227983E2,5.569638E0,2.0276523E0,8.2181274E1,2.2501073E2,1.9113365E1,4.20203E1,8.618142E0,1.936781E1],"tree_param":{"num_deleted":"0","num_feature":"52","num_nodes":"29","size_leaf_vector":"1"}},{"base_weights":[-1.3897691E-3,-1.0962761E-1,1.1550149E-1,-3.3157545E-1,-6.284265E-2,1.268358E-1,-5.809187E-1,-4.957329E-1,-1.6157134E-1,-2.6231928E-2,-4.8297863E-2,-1.3973804E-1,1.5318273E-1,-1.5551397E-3,-3.0021995E-2,9.849315E-3,-2.3994034E-2,-1.6052093E-2,3.9337664E-3,-1.0178119E-2,-1.5028361E-4,-2.6077056E-2,3.9223167E-3,5.0688446E-3,1.4188296E-2],"categories":[],"categories_nodes":[],"categories_segments":[],"categories_sizes":[],"default_left":[0,0,0,0,0,0,0,0,0,0,0,0,0,0,0,0,0,0,0,0,0,0,0,0,0],"id":25,"left_children":[1,3,5,7,9,11,13,15,17,-1,19,21,23,-1,-1,-1,-1,-1,-1,-1,-1,-1,-1,-1,-1],"loss_changes":[1.3592374E1,5.767088E0,4.165538E0,2.606145E0,3.462343E0,3.6022387E0,3.7220144E-1,1.4434814E0,2.4351335E0,0E0,3.6051126E0,4.693484E0,3.0069618E0,0E0,0E0,0E0,0E0,0E0,0E0,0E0,0E0,0E0,0E0,0E0,0E0],"parents":[2147483647,0,0,1,1,2,2,3,3,4,4,5,5,6,6,7,7,8,8,10,10,11,11,12,12],"right_children":[2,4,6,8,10,12,14,16,18,-1,20,22,24,-1,-1,-1,-1,-1,-1,-1,-1,-1,-1,-1,-1],"split_conditions":[5.79E1,4.25E1,6.67E1,4.88E1,1.21E1,3.1E1,2.45E1,8E0,8.33E1,-2.6231928E-2,3.46E1,3.79E1,8.5E1,-1.5551397E-3,-3.0021995E-2,9.849315E-3,-2.3994034E-2,-1.6052093E-2,3.9337664E-3,-1.0178119E-2,-1.5028361E-4,-2.6077056E-2,3.9223167E-3,5.0688446E-3,1.4188296E-2],"split_indices":[23,23,22,3,21,19,15,25,2,0,19,2,6,0,0,0,0,0,0,0,0,0,0,0,0],"split_type":[0,0,0,0,0,0,0,0,0,0,0,0,0,0,0,0,0,0,0,0,0,0,0,0,0],"sum_hessian":[1.0719202E3,5.565998E2,5.153204E2,9.562937E1,4.6097043E2,5.080335E2,7.286841E0,4.7481564E1,4.814781E1,1.1265007E1,4.497054E2,4.5230854E1,4.6280264E2,1.2224972E0,6.064344E0,2.0760503E0,4.5405514E1,2.6701574E1,2.1446238E1,8.975239E1,3.5995303E2,1.4760013E1,3.0470842E1,3.7184427E2,9.095837E1],"tree_param":{"num_deleted":"0","num_feature":"52","num_nodes":"25","size_leaf_vector":"1"}},{"base_weights":[5.882421E-3,-7.98564E-2,1.54723E-1,9.98062E-2,-1.681635E-1,8.391451E-2,2.6606196E-1,1.7127751E-1,-2.4370746E-1,-3.595426E-1,-9.70319E-2,1.2207932E-1,-1.8430153E-1,5.221874E-1,1.7289145E-1,2.1272532E-3,1.5195079E-2,7.3834653E-3,-2.342771E-2,-3.1560126E-3,-2.1058237E-2,-2.328176E-2,-2.49718E-3,3.0723868E-3,1.7637938E-2,-3.6887877E-2,1.4690788E-3,-5.7142614E-3,2.5423108E-2,-1.4676543E-2,1.0366078E-2],"categories":[],"categories_nodes":[],"categories_segments":[],"categories_sizes":[],"default_left":[0,0,0,0,0,0,0,0,0,0,0,0,0,0,0,0,0,0,0,0,0,0,0,0,0,0,0,0,0,0,0],"id":26,"left_children":[1,3,5,7,9,11,13,15,17,19,21,23,25,27,29,-1,-1,-1,-1,-1,-1,-1,-1,-1,-1,-1,-1,-1,-1,-1,-1],"loss_changes":[1.3599325E1,1.0748617E1,3.043788E0,5.539626E0,6.1360493E0,2.481967E0,3.4915829E0,3.8143106E0,4.506795E0,3.8051624E0,5.7710757E0,3.0269556E0,4.216362E0,1.1868458E0,3.3138206E0,0E0,0E0,0E0,0E0,0E0,0E0,0E0,0E0,0E0,0E0,0E0,0E0,0E0,0E0,0E0,0E0],"parents":[2147483647,0,0,1,1,2,2,3,3,4,4,5,5,6,6,7,7,8,8,9,9,10,10,11,11,12,12,13,13,14,14],"right_children":[2,4,6,8,10,12,14,16,18,20,22,24,26,28,30,-1,-1,-1,-1,-1,-1,-1,-1,-1,-1,-1,-1,-1,-1,-1,-1],"split_conditions":[7E1,3E0,9.5166664E1,6.47E1,3.49E1,7.43E1,9E1,6.54E1,6.15E1,2.47E1,4.25E1,5.96E1,2.25E1,6E0,6.62E1,2.1272532E-3,1.5195079E-2,7.3834653E-3,-2.342771E-2,-3.1560126E-3,-2.1058237E-2,-2.328176E-2,-2.49718E-3,3.0723868E-3,1.7637938E-2,-3.6887877E-2,1.4690788E-3,-5.7142614E-3,2.5423108E-2,-1.4676543E-2,1.0366078E-2],"split_indices":[6,24,50,8,19,4,16,3,19,8,23,4,8,25,7,0,0,0,0,0,0,0,0,0,0,0,0,0,0,0,0],"split_type":[0,0,0,0,0,0,0,0,0,0,0,0,0,0,0,0,0,0,0,0,0,0,0,0,0,0,0,0,0,0,0],"sum_hessian":[1.0632976E3,6.75015E2,3.8828262E2,2.2239384E2,4.5262115E2,2.386269E2,1.496557E2,1.8458983E2,3.7804012E1,1.2132675E2,3.312944E2,2.0947435E2,2.9152563E1,3.8444977E1,1.1121073E2,1.0664903E2,7.79408E1,1.5486714E1,2.2317297E1,3.3603256E1,8.7723495E1,2.8558619E1,3.0273578E2,1.7590778E2,3.3566574E1,6.5713224E0,2.2581242E1,2.230326E0,3.621465E1,1.0904531E1,1.003062E2],"tree_param":{"num_deleted":"0","num_feature":"52","num_nodes":"31","size_leaf_vector":"1"}},{"base_weights":[2.6770255E-3,-1.07539356E-1,1.2077642E-1,-2.737924E-1,-5.0797764E-2,-1.4597471E-1,1.4326929E-1,-3.1762487E-1,2.3166208E-1,-3.856749E-1,-2.620978E-2,-2.8937086E-1,4.626378E-1,1.527255E-1,-4.6519053E-1,-3.6867475E-3,-1.69578E-2,3.1164808E-2,-7.899704E-3,-2.0901605E-2,1.9617755E-2,-3.2024444E-3,6.728019E-3,-1.8040735E-2,1.9737158E-2,2.690547E-2,-6.5686563E-3,2.170248E-3,9.422555E-3,2.1421893E-3,-2.6411043E-2],"categories":[],"categories_nodes":[],"categories_segments":[],"categories_sizes":[],"default_left":[0,0,0,0,0,0,0,0,0,0,0,0,0,0,0,0,0,0,0,0,0,0,0,0,0,0,0,0,0,0,0],"id":27,"left_children":[1,3,5,7,9,11,13,15,17,19,21,23,25,27,29,-1,-1,-1,-1,-1,-1,-1,-1,-1,-1,-1,-1,-1,-1,-1,-1],"loss_changes":[1.378778E1,5.15218E0,3.0930643E0,3.1711855E0,3.3636308E0,3.6827552E0,2.8019981E0,1.7571163E0,2.360097E0,2.0530815E0,3.0401149E0,2.9229064E0,7.7624846E-1,2.7463226E0,5.030627E-1,0E0,0E0,0E0,0E0,0E0,0E0,0E0,0E0,0E0,0E0,0E0,0E0,0E0,0E0,0E0,0E0],"parents":[2147483647,0,0,1,1,2,2,3,3,4,4,5,5,6,6,7,7,8,8,9,9,10,10,11,11,12,12,13,13,14,14],"right_children":[2,4,6,8,10,12,14,16,18,20,22,24,26,28,30,-1,-1,-1,-1,-1,-1,-1,-1,-1,-1,-1,-1,-1,-1,-1,-1],"split_conditions":[5.79E1,4.54E1,2.78E1,7.38E1,4.73E1,9.33E1,7.5E1,9E0,4.2123444E2,7.15E1,9.48E1,7.4E1,2E0,4.1673978E2,5.68E1,-3.6867475E-3,-1.69578E-2,3.1164808E-2,-7.899704E-3,-2.0901605E-2,1.9617755E-2,-3.2024444E-3,6.728019E-3,-1.8040735E-2,1.9737158E-2,2.690547E-2,-6.5686563E-3,2.170248E-3,9.422555E-3,2.1421893E-3,-2.6411043E-2],"split_indices":[23,23,19,6,4,21,22,25,51,20,50,9,24,51,19,0,0,0,0,0,0,0,0,0,0,0,0,0,0,0,0],"split_type":[0,0,0,0,0,0,0,0,0,0,0,0,0,0,0,0,0,0,0,0,0,0,0,0,0,0,0,0,0,0,0],"sum_hessian":[1.0568577E3,5.467293E2,5.1012836E2,1.3794875E2,4.0878055E2,3.9157482E1,4.709709E2,1.2735094E2,1.0597817E1,2.6755825E1,3.8202472E2,3.220019E1,6.9572897E0,4.6464847E2,6.322414E0,2.614497E1,1.0120596E2,4.576822E0,6.0209956E0,2.4890133E1,1.8656907E0,3.0476834E2,7.725637E1,2.8389696E1,3.8104959E0,5.709486E0,1.2478037E0,1.6415118E2,3.0049728E2,1.3530223E0,4.969392E0],"tree_param":{"num_deleted":"0","num_feature":"52","num_nodes":"31","size_leaf_vector":"1"}},{"base_weights":[-1.4139369E-2,-1.06953055E-1,1.3986382E-1,-1.291871E-1,4.0820432E-1,1.8281427E-1,-4.4276547E-2,-1.8480036E-1,7.677401E-2,4.791021E-1,-2.1637093E-2,1.2014303E-1,3.4709787E-1,-2.1655716E-1,2.6404464E-1,-2.2630982E-2,-7.270486E-3,-1.2992991E-2,8.7126875E-3,-1.5560637E-3,2.461396E-2,-2.2834437E-2,6.457535E-3,2.2595823E-2,2.3137408E-3,-2.1153703E-2,-5.2546634E-4,-1.4347673E-2,1.9278074E-2],"categories":[],"categories_nodes":[],"categories_segments":[],"categories_sizes":[],"default_left":[0,0,0,0,0,0,0,0,0,0,0,0,0,0,0,0,0,0,0,0,0,0,0,0,0,0,0,0,0],"id":28,"left_children":[1,3,5,7,9,11,13,15,17,19,-1,21,23,25,27,-1,-1,-1,-1,-1,-1,-1,-1,-1,-1,-1,-1,-1,-1],"loss_changes":[1.4873434E1,7.498839E0,3.1048245E0,7.15547E0,1.9875197E0,3.2195358E0,4.0515137E0,3.5319653E0,5.7619705E0,9.2025566E-1,0E0,3.4838984E0,3.9596767E0,2.5262654E0,2.7907202E0,0E0,0E0,0E0,0E0,0E0,0E0,0E0,0E0,0E0,0E0,0E0,0E0,0E0,0E0],"parents":[2147483647,0,0,1,1,2,2,3,3,4,4,5,5,6,6,7,7,8,8,9,9,11,11,12,12,13,13,14,14],"right_children":[2,4,6,8,10,12,14,16,18,20,-1,22,24,26,28,-1,-1,-1,-1,-1,-1,-1,-1,-1,-1,-1,-1,-1,-1],"split_conditions":[6.61E1,7.5E1,6.67E1,7.2E1,7.34E1,4.92E1,5.92E1,1.25E1,5.28E1,2.56E1,-2.1637093E-2,4.59E1,5.02E1,6.87E1,1.59E1,-2.2630982E-2,-7.270486E-3,-1.2992991E-2,8.7126875E-3,-1.5560637E-3,2.461396E-2,-2.2834437E-2,6.457535E-3,2.2595823E-2,2.3137408E-3,-2.1153703E-2,-5.2546634E-4,-1.4347673E-2,1.9278074E-2],"split_indices":[3,21,15,6,23,15,2,21,18,15,0,23,8,0,0,0,0,0,0,0,0,0,0,0,0,0,0,0,0],"split_type":[0,0,0,0,0,0,0,0,0,0,0,0,0,0,0,0,0,0,0,0,0,0,0,0,0,0,0,0,0],"sum_hessian":[1.0381099E3,6.47965E2,3.901449E2,6.2201794E2,2.5947048E1,3.163625E2,7.378239E1,4.8986798E2,1.3215E2,2.4543112E1,1.4039376E0,2.3050613E2,8.585635E1,4.7562847E1,2.6219542E1,3.1657127E1,4.5821085E2,3.1583605E1,1.0056638E2,2.933187E0,2.1609924E1,7.3789706E0,2.2312717E2,5.577473E1,3.0081627E1,2.0563553E1,2.6999296E1,5.518971E0,2.0700571E1],"tree_param":{"num_deleted":"0","num_feature":"52","num_nodes":"29","size_leaf_vector":"1"}},{"base_weights":[-3.0135156E-3,-3.4583798E-1,2.6960324E-2,-4.007916E-1,3.1328583E-1,-3.2539345E-2,1.4744785E-1,3.880782E-1,-4.37518E-1,2.6902007E-2,-1.720225E-2,-9.0593055E-2,1.2026594E-1,2.5366137E-2,2.403287E-1,2.548825E-2,-4.5367895E-4,-2.0939637E-2,1.4401416E-2,-5.158229E-3,1.6680395E-2,-1.5866617E-2,7.690437E-3,3.2281098E-3,-3.1204255E-2,-1.6185176E-2,1.1966841E-2],"categories":[],"categories_nodes":[],"categories_segments":[],"categories_sizes":[],"default_left":[0,0,0,0,0,0,0,0,0,0,0,0,0,0,0,0,0,0,0,0,0,0,0,0,0,0,0],"id":29,"left_children":[1,3,5,7,9,11,13,15,17,-1,-1,19,21,23,25,-1,-1,-1,-1,-1,-1,-1,-1,-1,-1,-1,-1],"loss_changes":[1.0735806E1,3.1932974E0,6.894272E0,2.4654198E0,1.6869378E0,5.7278733E0,3.5969381E0,2.9857057E-1,1.7618599E0,0E0,0E0,5.2342033E0,4.331156E0,4.6820292E0,2.8855047E0,0E0,0E0,0E0,0E0,0E0,0E0,0E0,0E0,0E0,0E0,0E0,0E0],"parents":[2147483647,0,0,1,1,2,2,3,3,4,4,5,5,6,6,7,7,8,8,11,11,12,12,13,13,14,14],"right_children":[2,4,6,8,10,12,14,16,18,-1,-1,20,22,24,26,-1,-1,-1,-1,-1,-1,-1,-1,-1,-1,-1,-1],"split_conditions":[3.67E1,7.18E1,6.98E1,1.4E1,6.05E1,7.07E1,7.5E1,6.25E1,7.02E1,2.6902007E-2,-1.720225E-2,7.5E1,3.54E1,9.6E1,5E1,2.548825E-2,-4.5367895E-4,-2.0939637E-2,1.4401416E-2,-5.158229E-3,1.6680395E-2,-1.5866617E-2,7.690437E-3,3.2281098E-3,-3.1204255E-2,-1.6185176E-2,1.1966841E-2],"split_indices":[3,5,3,9,18,6,19,7,20,0,0,21,1,6,7,0,0,0,0,0,0,0,0,0,0,0,0],"split_type":[0,0,0,0,0,0,0,0,0,0,0,0,0,0,0,0,0,0,0,0,0,0,0,0,0,0,0],"sum_hessian":[1.0424806E3,8.2801094E1,9.596795E2,7.686306E1,5.9380374E0,6.4301764E2,3.1666183E2,2.9085436E0,7.395451E1,4.333799E0,1.6042386E0,4.6633606E2,1.7668161E2,1.374831E2,1.7917874E2,1.6586158E0,1.2499276E0,7.178251E1,2.172009E0,4.4409827E2,2.22378E1,1.6396698E1,1.6028491E2,1.3016626E2,7.316828E0,6.691627E0,1.7248712E2],"tree_param":{"num_deleted":"0","num_feature":"52","num_nodes":"27","size_leaf_vector":"1"}},{"base_weights":[-4.425274E-3,8.438625E-2,-9.974115E-2,-1.3430512E-2,1.6716759E-1,-2.7271485E-1,-3.3493683E-2,-6.261837E-1,2.971345E-2,4.122685E-1,1.3288422E-1,-3.166616E-1,1.4540514E-1,-6.0961742E-2,4.682498E-1,-2.0472482E-3,-3.2000784E-2,-2.0143841E-3,1.33979E-2,2.190606E-2,-2.410768E-2,6.675403E-3,-2.2312364E-2,-2.2185545E-3,-1.8944276E-2,-2.1253532E-2,1.6029395E-2,7.1957656E-3,-4.6473946E-3,2.7257996E-2,-1.2543655E-2],"categories":[],"categories_nodes":[],"categories_segments":[],"categories_sizes":[],"default_left":[0,0,0,0,0,0,0,0,0,0,0,0,0,0,0,0,0,0,0,0,0,0,0,0,0,0,0,0,0,0,0],"id":30,"left_children":[1,3,5,7,9,11,13,15,17,19,21,23,25,27,29,-1,-1,-1,-1,-1,-1,-1,-1,-1,-1,-1,-1,-1,-1,-1,-1],"loss_changes":[8.754435E0,4.337927E0,5.7047687E0,6.5394044E0,2.3716698E0,2.5903301E0,5.023751E0,7.6371574E-1,4.635981E0,2.7876077E0,2.578629E0,3.4676676E0,2.0175903E0,3.2375774E0,2.1466255E0,0E0,0E0,0E0,0E0,0E0,0E0,0E0,0E0,0E0,0E0,0E0,0E0,0E0,0E0,0E0,0E0],"parents":[2147483647,0,0,1,1,2,2,3,3,4,4,5,5,6,6,7,7,8,8,9,9,10,10,11,11,12,12,13,13,14,14],"right_children":[2,4,6,8,10,12,14,16,18,20,22,24,26,28,30,-1,-1,-1,-1,-1,-1,-1,-1,-1,-1,-1,-1,-1,-1,-1,-1],"split_conditions":[4E0,6.37E1,3.49E1,4.96E1,5E1,8.5E1,7.576539E2,4.11E1,5.11E1,9.81E1,1E2,2.47E1,3.76E1,4.88E1,5.03E1,-2.0472482E-3,-3.2000784E-2,-2.0143841E-3,1.33979E-2,2.190606E-2,-2.410768E-2,6.675403E-3,-2.2312364E-2,-2.2185545E-3,-1.8944276E-2,-2.1253532E-2,1.6029395E-2,7.1957656E-3,-4.6473946E-3,2.7257996E-2,-1.2543655E-2],"split_indices":[24,3,19,18,17,6,51,6,20,8,6,8,8,18,20,0,0,0,0,0,0,0,0,0,0,0,0,0,0,0,0],"split_type":[0,0,0,0,0,0,0,0,0,0,0,0,0,0,0,0,0,0,0,0,0,0,0,0,0,0,0,0,0,0,0],"sum_hessian":[1.0317808E3,5.341856E2,4.9759518E2,2.4531721E2,2.8886838E2,1.3676323E2,3.6083197E2,1.5069907E1,2.3024731E2,3.382366E1,2.5504472E2,1.24019295E2,1.274394E1,3.431029E2,1.7729048E1,2.1583004E0,1.2911607E1,1.8096092E2,4.928638E1,3.189947E1,1.9241931E0,2.4981935E2,5.2253833E0,3.5305187E1,8.871411E1,2.8637843E0,9.880156E0,5.462713E1,2.8847577E2,1.5164908E1,2.5641391E0],"tree_param":{"num_deleted":"0","num_feature":"52","num_nodes":"31","size_leaf_vector":"1"}},{"base_weights":[6.496554E-3,-8.647353E-2,1.1245981E-1,-6.0971916E-2,-4.5653045E-1,1.2218992E-1,-5.083339E-1,-4.82884E-1,-3.8521882E-2,5.047705E-3,-5.5026364E-1,5.1598754E-2,2.0634061E-1,-9.2464045E-4,-2.77578E-2,-2.6728503E-2,-4.473315E-3,-7.5095077E-3,2.669162E-4,-1.8022828E-2,1.2630147E-2,-2.0364888E-3,-2.6126243E-2,-1.0994864E-3,1.1736411E-2,-2.2139717E-2,1.0366649E-2],"categories":[],"categories_nodes":[],"categories_segments":[],"categories_sizes":[],"default_left":[0,0,0,0,0,0,0,0,0,0,0,0,0,0,0,0,0,0,0,0,0,0,0,0,0,0,0],"id":31,"left_children":[1,3,5,7,9,11,13,15,17,19,21,23,25,-1,-1,-1,-1,-1,-1,-1,-1,-1,-1,-1,-1,-1,-1],"loss_changes":[1.0121131E1,5.131381E0,2.9745631E0,4.840472E0,1.521883E0,2.800932E0,3.892349E-1,1.0295882E0,2.7899594E0,9.3004245E-1,4.1534042E-1,4.1304145E0,3.7552233E0,0E0,0E0,0E0,0E0,0E0,0E0,0E0,0E0,0E0,0E0,0E0,0E0,0E0,0E0],"parents":[2147483647,0,0,1,1,2,2,3,3,4,4,5,5,6,6,7,7,8,8,9,9,10,10,11,11,12,12],"right_children":[2,4,6,8,10,12,14,16,18,20,22,24,26,-1,-1,-1,-1,-1,-1,-1,-1,-1,-1,-1,-1,-1,-1],"split_conditions":[5.79E1,1.2E1,7.5E1,1.25E1,4.12E1,8.54E1,5.51E1,6.7E1,4.86E1,4.89E1,3E1,9.646667E1,2E1,-9.2464045E-4,-2.77578E-2,-2.6728503E-2,-4.473315E-3,-7.5095077E-3,2.669162E-4,-1.8022828E-2,1.2630147E-2,-2.0364888E-3,-2.6126243E-2,-1.0994864E-3,1.1736411E-2,-2.2139717E-2,1.0366649E-2],"split_indices":[23,24,22,21,4,19,6,18,3,20,16,50,9,0,0,0,0,0,0,0,0,0,0,0,0,0,0],"split_type":[0,0,0,0,0,0,0,0,0,0,0,0,0,0,0,0,0,0,0,0,0,0,0,0,0,0,0],"sum_hessian":[1.0249941E3,5.4608795E2,4.7890616E2,5.1218933E2,3.389863E1,4.7246472E2,6.4414396E0,2.4633394E1,4.8755594E2,5.913529E0,2.7985098E1,2.5798535E2,2.1447935E2,1.4318469E0,5.0095925E0,1.8589771E1,6.0436215E0,1.2456836E2,3.6298758E2,2.1727648E0,3.740764E0,1.7544081E0,2.623069E1,1.8999628E2,6.798909E1,6.357251E0,2.081221E2],"tree_param":{"num_deleted":"0","num_feature":"52","num_nodes":"27","size_leaf_vector":"1"}},{"base_weights":[-6.726581E-5,-8.522222E-2,1.4972058E-1,-2.7390022E-2,-2.527546E-1,-7.7963404E-2,1.809489E-1,-4.6750616E-2,3.3234966E-1,-2.8706533E-1,4.5936394E-1,-4.6353135E-1,9.208064E-2,1.967042E-1,-3.782109E-1,-2.6269609E-3,2.3666156E-2,1.892998E-2,-2.4049822E-2,-2.4878783E-3,-1.6500568E-2,-3.568537E-3,2.5375241E-2,-2.6975876E-2,1.8510474E-3,-1.82679E-2,1.1256876E-2,7.863687E-3,3.20895E-2,-2.6454234E-2,7.814851E-3],"categories":[],"categories_nodes":[],"categories_segments":[],"categories_sizes":[],"default_left":[0,0,0,0,0,0,0,0,0,0,0,0,0,0,0,0,0,0,0,0,0,0,0,0,0,0,0,0,0,0,0],"id":32,"left_children":[1,3,5,7,9,11,13,15,17,19,21,23,25,27,29,-1,-1,-1,-1,-1,-1,-1,-1,-1,-1,-1,-1,-1,-1,-1,-1],"loss_changes":[1.2916928E1,6.2470946E0,2.6266956E0,3.3707917E0,4.202798E0,3.0087488E0,2.9360247E0,3.0846756E0,2.162754E0,2.903473E0,5.080868E-1,9.9030685E-1,2.6650705E0,3.4226656E0,1.1946466E0,0E0,0E0,0E0,0E0,0E0,0E0,0E0,0E0,0E0,0E0,0E0,0E0,0E0,0E0,0E0,0E0],"parents":[2147483647,0,0,1,1,2,2,3,3,4,4,5,5,6,6,7,7,8,8,9,9,10,10,11,11,12,12,13,13,14,14],"right_children":[2,4,6,8,10,12,14,16,18,20,22,24,26,28,30,-1,-1,-1,-1,-1,-1,-1,-1,-1,-1,-1,-1,-1,-1,-1,-1],"split_conditions":[6.7E1,7E0,3.33E1,7.5E1,8.2E1,3.15E1,9.21E1,7.94E1,7.34E1,2.8919904E2,5.58E1,5.85E1,4.4E0,9.02E1,8.41E1,-2.6269609E-3,2.3666156E-2,1.892998E-2,-2.4049822E-2,-2.4878783E-3,-1.6500568E-2,-3.568537E-3,2.5375241E-2,-2.6975876E-2,1.8510474E-3,-1.82679E-2,1.1256876E-2,7.863687E-3,3.20895E-2,-2.6454234E-2,7.814851E-3],"split_indices":[3,24,19,21,6,2,4,20,23,51,3,9,0,4,2,0,0,0,0,0,0,0,0,0,0,0,0,0,0,0,0],"split_type":[0,0,0,0,0,0,0,0,0,0,0,0,0,0,0,0,0,0,0,0,0,0,0,0,0,0,0,0,0,0,0],"sum_hessian":[1.0102808E3,6.444346E2,3.6584625E2,4.8010013E2,1.6433446E2,4.3909378E1,3.2193686E2,4.565722E2,2.352791E1,1.5746391E2,6.8705416E0,1.2804518E1,3.110486E1,3.1387085E2,8.066003E0,4.4854352E2,8.028689E0,2.191285E1,1.6150606E0,4.0778694E1,1.1668522E2,1.1636515E0,5.70689E0,9.909867E0,2.8946507E0,7.040561E0,2.4064299E1,3.0261084E2,1.1260019E1,5.788599E0,2.2774036E0],"tree_param":{"num_deleted":"0","num_feature":"52","num_nodes":"31","size_leaf_vector":"1"}},{"base_weights":[4.7602123E-3,-9.757022E-2,1.1750621E-1,-9.579169E-3,-1.9570002E-1,1.2843978E-1,-4.5713642E-1,-3.8510587E-2,4.077301E-1,-2.3335183E-1,2.9163834E-1,-5.3282714E-1,1.366757E-1,-2.8046839E-2,2.4631947E-2,-3.834868E-3,5.365964E-3,-1.2901467E-2,2.7150635E-2,-1.64404E-3,-1.3225725E-2,2.2748016E-2,-8.863627E-4,-3.1106256E-2,2.7984174E-3,5.9276103E-4,7.947795E-3,1.931303E-2,-1.60622E-2],"categories":[],"categories_nodes":[],"categories_segments":[],"categories_sizes":[],"default_left":[0,0,0,0,0,0,0,0,0,0,0,0,0,0,0,0,0,0,0,0,0,0,0,0,0,0,0,0,0],"id":33,"left_children":[1,3,5,7,9,11,13,15,17,19,21,23,25,-1,27,-1,-1,-1,-1,-1,-1,-1,-1,-1,-1,-1,-1,-1,-1],"loss_changes":[1.1690924E1,4.58461E0,3.099421E0,3.4155788E0,4.6887827E0,2.6690316E0,7.5991607E-1,1.9589337E0,2.6994646E0,2.772809E0,1.2464998E0,6.2435925E-1,2.311534E0,0E0,7.2871727E-1,0E0,0E0,0E0,0E0,0E0,0E0,0E0,0E0,0E0,0E0,0E0,0E0,0E0,0E0],"parents":[2147483647,0,0,1,1,2,2,3,3,4,4,5,5,6,6,7,7,8,8,9,9,10,10,11,11,12,12,14,14],"right_children":[2,4,6,8,10,12,14,16,18,20,22,24,26,-1,28,-1,-1,-1,-1,-1,-1,-1,-1,-1,-1,-1,-1,-1,-1],"split_conditions":[5.79E1,6E0,6.67E1,8.84E1,7.46E1,3.35E1,5.17E1,5.39E1,6.5E1,2.68E1,5.11E1,6E0,2.54E1,-2.8046839E-2,5.69E1,-3.834868E-3,5.365964E-3,-1.2901467E-2,2.7150635E-2,-1.64404E-3,-1.3225725E-2,2.2748016E-2,-8.863627E-4,-3.1106256E-2,2.7984174E-3,5.9276103E-4,7.947795E-3,1.931303E-2,-1.60622E-2],"split_indices":[23,24,22,4,3,3,1,9,16,8,23,24,8,0,3,0,0,0,0,0,0,0,0,0,0,0,0,0,0],"split_type":[0,0,0,0,0,0,0,0,0,0,0,0,0,0,0,0,0,0,0,0,0,0,0,0,0,0,0,0,0],"sum_hessian":[1.0109187E3,5.300221E2,4.8089664E2,2.801417E2,2.4988037E2,4.7283197E2,8.064665E0,2.6299774E2,1.7143972E1,2.3253973E2,1.7340637E1,4.8762913E0,4.679557E2,5.7347355E0,2.3299289E0,2.0334271E2,5.9655018E1,3.645157E0,1.3498816E1,5.51637E1,1.7737604E2,9.835601E0,7.5050354E0,3.6976933E0,1.178598E0,1.1474676E2,3.5320892E2,1.0582403E0,1.2716885E0],"tree_param":{"num_deleted":"0","num_feature":"52","num_nodes":"29","size_leaf_vector":"1"}},{"base_weights":[4.3466487E-3,-9.446572E-2,1.1058369E-1,-2.8907555E-1,-5.4260086E-2,2.8882455E-2,1.893839E-1,3.8543113E-2,-3.8245082E-1,-4.1204473E-1,-3.0820413E-2,6.2331326E-2,-4.314484E-1,-4.0506798E-1,2.0534633E-1,1.2111353E-2,-1.113098E-2,-4.610094E-3,-2.1406064E-2,-2.2667153E-2,9.248226E-3,-2.5293655E-3,8.8135945E-3,6.368166E-3,-7.963797E-3,1.9595504E-2,-2.5078876E-2,-3.0064423E-2,1.6707338E-2,-7.4443626E-3,1.0593582E-2],"categories":[],"categories_nodes":[],"categories_segments":[],"categories_sizes":[],"default_left":[0,0,0,0,0,0,0,0,0,0,0,0,0,0,0,0,0,0,0,0,0,0,0,0,0,0,0,0,0,0,0],"id":34,"left_children":[1,3,5,7,9,11,13,15,17,19,21,23,25,27,29,-1,-1,-1,-1,-1,-1,-1,-1,-1,-1,-1,-1,-1,-1,-1,-1],"loss_changes":[1.0565217E1,4.0613995E0,3.1157708E0,2.7406535E0,3.6216116E0,3.7203352E0,2.44032E0,1.4533201E0,1.7528076E0,1.6282201E0,2.3628876E0,4.2811775E0,2.078075E0,1.6972156E0,2.7334328E0,0E0,0E0,0E0,0E0,0E0,0E0,0E0,0E0,0E0,0E0,0E0,0E0,0E0,0E0,0E0,0E0],"parents":[2147483647,0,0,1,1,2,2,3,3,4,4,5,5,6,6,7,7,8,8,9,9,10,10,11,11,12,12,13,13,14,14],"right_children":[2,4,6,8,10,12,14,16,18,20,22,24,26,28,30,-1,-1,-1,-1,-1,-1,-1,-1,-1,-1,-1,-1,-1,-1,-1,-1],"split_conditions":[5.79E1,4.25E1,7E1,2.43E1,4.48E1,6.78E1,4.5E1,5.6990283E2,9E0,7.25E1,8.09E1,9.5E1,3.45E1,9.2E1,2.45E1,1.2111353E-2,-1.113098E-2,-4.610094E-3,-2.1406064E-2,-2.2667153E-2,9.248226E-3,-2.5293655E-3,8.8135945E-3,6.368166E-3,-7.963797E-3,1.9595504E-2,-2.5078876E-2,-3.0064423E-2,1.6707338E-2,-7.4443626E-3,1.0593582E-2],"split_indices":[23,23,6,8,4,6,3,51,25,3,4,7,9,6,15,0,0,0,0,0,0,0,0,0,0,0,0,0,0,0,0],"split_type":[0,0,0,0,0,0,0,0,0,0,0,0,0,0,0,0,0,0,0,0,0,0,0,0,0,0,0,0,0,0,0],"sum_hessian":[1.0040532E3,5.202735E2,4.8377972E2,8.781058E1,4.324629E2,2.3832281E2,2.454569E2,1.9632435E1,6.817814E1,2.5366858E1,4.0709604E2,2.2314595E2,1.5176868E1,5.6538095E0,2.3980309E2,1.0906152E1,8.726284E0,1.7660622E1,5.051752E1,2.2280756E1,3.0861022E0,3.6690546E2,4.0190586E1,1.6803519E2,5.511077E1,1.5498598E0,1.3627008E1,4.3479924E0,1.3058174E0,1.7581997E1,2.222211E2],"tree_param":{"num_deleted":"0","num_feature":"52","num_nodes":"31","size_leaf_vector":"1"}},{"base_weights":[-9.43104E-4,-7.25981E-2,1.1874275E-1,-3.246122E-1,-3.4894105E-2,9.176195E-2,4.5666814E-1,-3.668499E-1,4.2375213E-1,-3.3865476E-1,-9.113185E-3,2.329354E-2,2.1337818E-1,5.537471E-1,-2.5210137E-2,-1.7583588E-2,1.8463364E-2,2.26892E-3,2.4791166E-2,9.827148E-3,-1.8854372E-2,1.5279917E-3,-8.051313E-3,2.153883E-3,-1.7703883E-2,-1.3613858E-2,1.1271925E-2,-4.725736E-3,2.9733077E-2],"categories":[],"categories_nodes":[],"categories_segments":[],"categories_sizes":[],"default_left":[0,0,0,0,0,0,0,0,0,0,0,0,0,0,0,0,0,0,0,0,0,0,0,0,0,0,0,0,0],"id":35,"left_children":[1,3,5,7,9,11,13,15,17,19,21,23,25,27,-1,-1,-1,-1,-1,-1,-1,-1,-1,-1,-1,-1,-1,-1,-1],"loss_changes":[8.513852E0,5.88675E0,3.3393688E0,2.7363834E0,4.236863E0,2.8733656E0,3.056128E0,1.6223831E0,1.9769686E-1,2.0039282E0,3.6665852E0,2.3015852E0,2.4726624E0,1.8749404E0,0E0,0E0,0E0,0E0,0E0,0E0,0E0,0E0,0E0,0E0,0E0,0E0,0E0,0E0,0E0],"parents":[2147483647,0,0,1,1,2,2,3,3,4,4,5,5,6,6,7,7,8,8,9,9,10,10,11,11,12,12,13,13],"right_children":[2,4,6,8,10,12,14,16,18,20,22,24,26,28,-1,-1,-1,-1,-1,-1,-1,-1,-1,-1,-1,-1,-1,-1,-1],"split_conditions":[6.88E1,1.18E1,7.21E1,5.15E1,4.25E1,8.5E1,7.01E1,7.23E1,5.96E1,8E0,9.5E1,6.677468E2,3.48E1,1.33E1,-2.5210137E-2,-1.7583588E-2,1.8463364E-2,2.26892E-3,2.4791166E-2,9.827148E-3,-1.8854372E-2,1.5279917E-3,-8.051313E-3,2.153883E-3,-1.7703883E-2,-1.3613858E-2,1.1271925E-2,-4.725736E-3,2.9733077E-2],"split_indices":[6,19,18,21,23,6,20,20,18,25,7,51,20,2,0,0,0,0,0,0,0,0,0,0,0,0,0,0,0],"split_type":[0,0,0,0,0,0,0,0,0,0,0,0,0,0,0,0,0,0,0,0,0,0,0,0,0,0,0,0,0],"sum_hessian":[9.9033673E2,6.197621E2,3.7057468E2,7.946765E1,5.4029443E2,3.4458777E2,2.5986885E1,7.580119E1,3.6664639E0,4.112937E1,4.9916504E2,2.2138222E2,1.2320557E2,2.4221128E1,1.765757E0,7.411876E1,1.682434E0,1.3573318E0,2.309132E0,4.9238753E0,3.6205498E1,3.989398E2,1.0022527E2,2.1005875E2,1.132346E1,7.6914997E0,1.1551406E2,3.3871758E0,2.0833952E1],"tree_param":{"num_deleted":"0","num_feature":"52","num_nodes":"29","size_leaf_vector":"1"}},{"base_weights":[4.930112E-3,-2.4353193E-1,4.456716E-2,-4.126926E-1,-1.2073067E-1,-2.8335981E-2,1.2711208E-1,-4.2867653E-2,-4.8132017E-1,4.9046633E-1,-1.661614E-1,-6.0050588E-2,2.2306171E-1,1.6680712E-1,-6.0979232E-2,1.6710998E-2,-8.850008E-3,-8.12379E-3,-2.3950124E-2,5.9253136E-3,2.8202908E-2,1.22034E-2,-9.79634E-3,-1.619278E-3,-1.9420769E-2,-5.969274E-3,1.591832E-2,4.158513E-3,1.4881006E-2,6.260073E-3,-1.3214962E-2],"categories":[],"categories_nodes":[],"categories_segments":[],"categories_sizes":[],"default_left":[0,0,0,0,0,0,0,0,0,0,0,0,0,0,0,0,0,0,0,0,0,0,0,0,0,0,0,0,0,0,0],"id":36,"left_children":[1,3,5,7,9,11,13,15,17,19,21,23,25,27,29,-1,-1,-1,-1,-1,-1,-1,-1,-1,-1,-1,-1,-1,-1,-1,-1],"loss_changes":[9.754957E0,2.7711926E0,5.1442204E0,1.4174566E0,2.3373928E0,3.6400242E0,3.0046163E0,7.3819363E-1,6.1680126E-1,1.8865085E-1,1.7831645E0,3.5986283E0,2.4349632E0,4.0021734E0,3.34175E0,0E0,0E0,0E0,0E0,0E0,0E0,0E0,0E0,0E0,0E0,0E0,0E0,0E0,0E0,0E0,0E0],"parents":[2147483647,0,0,1,1,2,2,3,3,4,4,5,5,6,6,7,7,8,8,9,9,10,10,11,11,12,12,13,13,14,14],"right_children":[2,4,6,8,10,12,14,16,18,20,22,24,26,28,30,-1,-1,-1,-1,-1,-1,-1,-1,-1,-1,-1,-1,-1,-1,-1,-1],"split_conditions":[4.59E1,4.52E1,6.37E1,1E1,3E1,6.66E1,6.55E1,2.69E1,4.12E1,4.21E1,2.67E1,6.17E1,6E1,5.648409E2,9E1,1.6710998E-2,-8.850008E-3,-8.12379E-3,-2.3950124E-2,5.9253136E-3,2.8202908E-2,1.22034E-2,-9.79634E-3,-1.619278E-3,-1.9420769E-2,-5.969274E-3,1.591832E-2,4.158513E-3,1.4881006E-2,6.260073E-3,-1.3214962E-2],"split_indices":[23,3,3,25,16,20,15,3,4,23,9,3,16,51,16,0,0,0,0,0,0,0,0,0,0,0,0,0,0,0,0],"split_type":[0,0,0,0,0,0,0,0,0,0,0,0,0,0,0,0,0,0,0,0,0,0,0,0,0,0,0,0,0,0,0],"sum_hessian":[9.879991E2,1.3508093E2,8.5291815E2,5.5624504E1,7.945643E1,4.5332895E2,3.995892E2,9.011621E0,4.6612885E1,4.6841164E0,7.4772316E1,4.033575E2,4.997145E1,3.3006717E2,6.952203E1,1.9804016E0,7.03122E0,7.536443E0,3.9076443E1,1.9387788E0,2.7453377E0,7.3428855E0,6.742943E1,3.8005438E2,2.3303122E1,1.3420971E1,3.655048E1,2.2830338E2,1.0176378E2,3.7638496E1,3.1883541E1],"tree_param":{"num_deleted":"0","num_feature":"52","num_nodes":"31","size_leaf_vector":"1"}},{"base_weights":[4.771541E-3,-9.3444034E-2,9.449248E-2,-1.23907395E-1,2.0507982E-1,-2.2019991E-1,1.1928473E-1,-4.619309E-2,-2.4812509E-1,-7.4942773E-3,6.1030453E-1,-3.4574258E-1,2.9237416E-1,3.7455135E-3,1.7049696E-1,1.2023937E-2,-3.3149137E-3,-3.3406757E-3,-1.4547932E-2,7.6552345E-3,-2.480072E-2,3.0662293E-2,-3.2289678E-3,-2.0413725E-2,1.4600467E-2,2.0858232E-2,-2.7816575E-3,-3.6217065E-3,1.8624162E-2,1.2090871E-3,1.1577462E-2],"categories":[],"categories_nodes":[],"categories_segments":[],"categories_sizes":[],"default_left":[0,0,0,0,0,0,0,0,0,0,0,0,0,0,0,0,0,0,0,0,0,0,0,0,0,0,0,0,0,0,0],"id":37,"left_children":[1,3,5,7,9,11,13,15,17,19,21,23,25,27,29,-1,-1,-1,-1,-1,-1,-1,-1,-1,-1,-1,-1,-1,-1,-1,-1],"loss_changes":[8.640181E0,4.2876077E0,4.029062E0,4.094025E0,3.778327E0,2.556316E0,2.814187E0,2.2898962E0,2.107977E0,3.0008326E0,7.9000044E-1,2.4143245E0,5.2506375E-1,5.1294804E0,4.09991E0,0E0,0E0,0E0,0E0,0E0,0E0,0E0,0E0,0E0,0E0,0E0,0E0,0E0,0E0,0E0,0E0],"parents":[2147483647,0,0,1,1,2,2,3,3,4,4,5,5,6,6,7,7,8,8,9,9,10,10,11,11,12,12,13,13,14,14],"right_children":[2,4,6,8,10,12,14,16,18,20,22,24,26,28,30,-1,-1,-1,-1,-1,-1,-1,-1,-1,-1,-1,-1,-1,-1,-1,-1],"split_conditions":[5.64E1,7.46E1,3.1E1,7E0,8.83E1,1E0,4.9E1,2.45E1,3.251925E2,1E0,5.08E1,7.4E1,8.42E1,6.05E1,3.997668E2,1.2023937E-2,-3.3149137E-3,-3.3406757E-3,-1.4547932E-2,7.6552345E-3,-2.480072E-2,3.0662293E-2,-3.2289678E-3,-2.0413725E-2,1.4600467E-2,2.0858232E-2,-2.7816575E-3,-3.6217065E-3,1.8624162E-2,1.2090871E-3,1.1577462E-2],"split_indices":[23,3,19,24,7,28,1,9,51,39,15,9,7,9,51,0,0,0,0,0,0,0,0,0,0,0,0,0,0,0,0],"split_type":[0,0,0,0,0,0,0,0,0,0,0,0,0,0,0,0,0,0,0,0,0,0,0,0,0,0,0,0,0,0,0],"sum_hessian":[9.780999E2,4.6692136E2,5.1117856E2,4.243226E2,4.2598778E1,3.6640175E1,4.7453836E2,2.6203308E2,1.622895E2,2.8713804E1,1.3884975E1,2.9745344E1,6.8948326E0,1.4613438E2,3.28404E2,2.0274435E1,2.4175865E2,4.9698147E1,1.12591354E2,2.2264309E1,6.449496E0,1.2575615E1,1.3093604E0,2.5954634E1,3.790709E0,4.398903E0,2.4959297E0,1.2203616E2,2.409822E1,1.2428051E2,2.0412347E2],"tree_param":{"num_deleted":"0","num_feature":"52","num_nodes":"31","size_leaf_vector":"1"}},{"base_weights":[-1.5189126E-2,-1.07175075E-1,9.13596E-2,-2.364985E-2,-2.0466825E-1,6.456601E-2,3.5983238E-1,4.423969E-3,-3.5786366E-1,-2.367697E-1,1.0746612E-1,-8.193174E-2,1.10752225E-1,4.2206243E-1,-2.8003003E-2,-1.1291383E-2,1.8803643E-3,9.535145E-3,-2.4817297E-2,-4.363811E-4,-1.2522084E-2,2.2255052E-2,-1.1306192E-2,-7.7693146E-3,8.305533E-3,1.7872762E-2,3.1095578E-3,-1.714877E-2,2.1146687E-2],"categories":[],"categories_nodes":[],"categories_segments":[],"categories_sizes":[],"default_left":[0,0,0,0,0,0,0,0,0,0,0,0,0,0,0,0,0,0,0,0,0,0,0,0,0,0,0,0,0],"id":38,"left_children":[1,3,5,7,9,11,13,15,17,19,21,23,25,27,-1,-1,-1,-1,-1,-1,-1,-1,-1,-1,-1,-1,-1,-1,-1],"loss_changes":[9.448064E0,4.206307E0,3.1856267E0,2.628511E0,2.4204578E0,2.7691689E0,2.7767315E0,2.487629E0,2.5350702E0,2.0382872E0,3.3522208E0,2.4173455E0,3.6706593E0,1.6984E0,0E0,0E0,0E0,0E0,0E0,0E0,0E0,0E0,0E0,0E0,0E0,0E0,0E0,0E0,0E0],"parents":[2147483647,0,0,1,1,2,2,3,3,4,4,5,5,6,6,7,7,8,8,9,9,10,10,11,11,12,12,13,13],"right_children":[2,4,6,8,10,12,14,16,18,20,22,24,26,28,-1,-1,-1,-1,-1,-1,-1,-1,-1,-1,-1,-1,-1,-1,-1],"split_conditions":[5.82E1,6E0,5.42E1,5.08E1,7.94E1,2.54E1,7.78E1,3.35E1,4E-1,3.4E1,2.56E1,6.84E1,3.12E1,3.08E1,-2.8003003E-2,-1.1291383E-2,1.8803643E-3,9.535145E-3,-2.4817297E-2,-4.363811E-4,-1.2522084E-2,2.2255052E-2,-1.1306192E-2,-7.7693146E-3,8.305533E-3,1.7872762E-2,3.1095578E-3,-1.714877E-2,2.1146687E-2],"split_indices":[23,24,21,15,6,8,3,1,2,9,15,23,8,4,0,0,0,0,0,0,0,0,0,0,0,0,0,0,0],"split_type":[0,0,0,0,0,0,0,0,0,0,0,0,0,0,0,0,0,0,0,0,0,0,0,0,0,0,0,0,0],"sum_hessian":[9.6159235E2,5.160594E2,4.4553293E2,2.7874316E2,2.3731622E2,4.064571E2,3.907584E1,2.582356E2,2.0507566E1,2.1544821E2,2.186802E1,9.720487E1,3.092522E2,3.7390945E1,1.6848937E0,3.2086533E1,2.2614908E2,5.1730027E0,1.5334564E1,3.3519157E1,1.8192905E2,1.0299433E1,1.1568587E1,7.283388E1,2.4370995E1,3.7961338E1,2.7129086E2,1.6331336E0,3.5757812E1],"tree_param":{"num_deleted":"0","num_feature":"52","num_nodes":"29","size_leaf_vector":"1"}},{"base_weights":[3.2677935E-3,-2.6475883E-1,4.235422E-2,1.3309017E-1,-3.0293274E-1,-2.8318346E-2,1.4412612E-1,-2.3942254E-2,4.5542267E-1,-3.1991586E-1,1.6805504E-2,-6.411356E-2,2.4600865E-1,1.947825E-1,1.1347726E-2,2.9462801E-2,-1.6873417E-2,-2.2534119E-2,-1.1099257E-2,-3.9106375E-3,1.0151177E-2,1.6711874E-2,1.6647506E-3,9.751643E-3,-8.863078E-3,5.354654E-3,-1.385748E-2],"categories":[],"categories_nodes":[],"categories_segments":[],"categories_sizes":[],"default_left":[0,0,0,0,0,0,0,0,0,0,0,0,0,0,0,0,0,0,0,0,0,0,0,0,0,0,0],"id":39,"left_children":[1,3,5,7,9,11,13,-1,15,17,-1,19,21,23,25,-1,-1,-1,-1,-1,-1,-1,-1,-1,-1,-1,-1],"loss_changes":[1.0143898E1,1.9200134E0,6.0822563E0,2.7827005E0,1.4392681E0,4.92553E0,2.3278346E0,0E0,1.6973191E0,1.3184528E0,0E0,2.9479017E0,1.5012639E0,2.2042646E0,3.3764145E0,0E0,0E0,0E0,0E0,0E0,0E0,0E0,0E0,0E0,0E0,0E0,0E0],"parents":[2147483647,0,0,1,1,2,2,3,3,4,4,5,5,6,6,8,8,9,9,11,11,12,12,13,13,14,14],"right_children":[2,4,6,8,10,12,14,-1,16,18,-1,20,22,24,26,-1,-1,-1,-1,-1,-1,-1,-1,-1,-1,-1,-1],"split_conditions":[4.54E1,2.6E1,6.67E1,4.44E1,7.23E1,6E1,5.6E1,-2.3942254E-2,1.1E1,3.4E1,1.6805504E-2,5.15E1,5.64E1,9.6E1,9.52E1,2.9462801E-2,-1.6873417E-2,-2.2534119E-2,-1.1099257E-2,-3.9106375E-3,1.0151177E-2,1.6711874E-2,1.6647506E-3,9.751643E-3,-8.863078E-3,5.354654E-3,-1.385748E-2],"split_indices":[23,9,3,3,20,5,8,0,24,6,0,21,3,6,19,0,0,0,0,0,0,0,0,0,0,0,0],"split_type":[0,0,0,0,0,0,0,0,0,0,0,0,0,0,0,0,0,0,0,0,0,0,0,0,0,0,0],"sum_hessian":[9.657956E2,1.2203549E2,8.4376013E2,1.0423013E1,1.1161248E2,4.9847476E2,3.4528537E2,3.1474435E0,7.2755694E0,1.0949563E2,2.1168473E0,4.4175275E2,5.672201E1,2.4952754E2,9.575782E1,6.072031E0,1.2035385E0,2.955155E1,7.994408E1,4.103145E2,3.1438234E1,3.4873062E1,2.184895E1,2.3681236E2,1.2715179E1,7.217714E1,2.3580687E1],"tree_param":{"num_deleted":"0","num_feature":"52","num_nodes":"27","size_leaf_vector":"1"}},{"base_weights":[-7.084061E-4,-6.1444495E-2,1.39014E-1,-7.198728E-3,-2.3432921E-1,1.7208101E-2,2.3376015E-1,-1.5406294E-1,3.0195722E-2,-3.1275296E-1,1.8625245E-3,8.220253E-2,-3.5370198E-1,1.6703513E-1,5.0589246E-1,8.496388E-4,-1.3388973E-2,-1.0759899E-2,2.9335064E-3,9.38016E-3,-1.4921846E-2,5.0154375E-3,-1.9382766E-2,-1.5102877E-2,6.1549684E-3,1.2188387E-2,-2.1173194E-2,1.2492605E-2,-9.450751E-4,1.4596118E-2,3.175679E-2],"categories":[],"categories_nodes":[],"categories_segments":[],"categories_sizes":[],"default_left":[0,0,0,0,0,0,0,0,0,0,0,0,0,0,0,0,0,0,0,0,0,0,0,0,0,0,0,0,0,0,0],"id":40,"left_children":[1,3,5,7,9,11,13,15,17,19,21,23,25,27,29,-1,-1,-1,-1,-1,-1,-1,-1,-1,-1,-1,-1,-1,-1,-1,-1],"loss_changes":[8.074734E0,6.2177258E0,3.322307E0,2.784775E0,2.9339476E0,3.106894E0,2.8413916E0,2.5598595E0,3.829286E0,1.2506037E0,1.9855267E0,2.5497851E0,1.5556359E0,2.7504919E0,8.614321E-1,0E0,0E0,0E0,0E0,0E0,0E0,0E0,0E0,0E0,0E0,0E0,0E0,0E0,0E0,0E0,0E0],"parents":[2147483647,0,0,1,1,2,2,3,3,4,4,5,5,6,6,7,7,8,8,9,9,10,10,11,11,12,12,13,13,14,14],"right_children":[2,4,6,8,10,12,14,16,18,20,22,24,26,28,30,-1,-1,-1,-1,-1,-1,-1,-1,-1,-1,-1,-1,-1,-1,-1,-1],"split_conditions":[6.98E1,7E0,7.3E1,2.54E1,5.44E1,6.08E1,8.25E1,5.49E1,3.46E1,1.4E1,5.84E1,8.023333E1,2.9494275E2,8.12E1,7.41E1,8.496388E-4,-1.3388973E-2,-1.0759899E-2,2.9335064E-3,9.38016E-3,-1.4921846E-2,5.0154375E-3,-1.9382766E-2,-1.5102877E-2,6.1549684E-3,1.2188387E-2,-2.1173194E-2,1.2492605E-2,-9.450751E-4,1.4596118E-2,3.175679E-2],"split_indices":[3,24,19,8,3,15,3,23,19,9,0,50,51,7,2,0,0,0,0,0,0,0,0,0,0,0,0,0,0,0,0],"split_type":[0,0,0,0,0,0,0,0,0,0,0,0,0,0,0,0,0,0,0,0,0,0,0,0,0,0,0,0,0,0,0],"sum_hessian":[9.491064E2,6.620092E2,2.870972E2,5.0485242E2,1.5715678E2,1.2623154E2,1.6086568E2,1.0169767E2,4.0315475E2,1.1769052E2,3.946626E1,1.0820489E2,1.802665E1,1.3074455E2,3.0121126E1,4.658475E1,5.5112915E1,4.5556602E1,3.5759814E2,3.6852276E0,1.14005295E2,3.2199684E1,7.2665744E0,1.1786662E1,9.641823E1,2.5910287E0,1.543562E1,8.196938E1,4.8775166E1,1.743191E1,1.2689216E1],"tree_param":{"num_deleted":"0","num_feature":"52","num_nodes":"31","size_leaf_vector":"1"}},{"base_weights":[-5.2431313E-4,-7.695612E-2,1.3605356E-1,-2.5140917E-2,-2.3313676E-1,2.971155E-1,7.100537E-2,-4.4080444E-2,3.821895E-1,-2.5550866E-1,3.5525885E-1,5.3312933E-1,1.9853707E-1,9.310292E-2,-5.737653E-1,-1.8028004E-2,-1.1514506E-3,-2.8593834E-3,2.167181E-2,-2.892122E-3,-1.4640851E-2,-3.5937561E-3,2.0932147E-2,7.7929883E-3,3.062269E-2,1.3097787E-2,-6.270958E-3,3.0247825E-3,2.6575798E-2,-6.6314964E-3,-2.8280063E-2],"categories":[],"categories_nodes":[],"categories_segments":[],"categories_sizes":[],"default_left":[0,0,0,0,0,0,0,0,0,0,0,0,0,0,0,0,0,0,0,0,0,0,0,0,0,0,0,0,0,0,0],"id":41,"left_children":[1,3,5,7,9,11,13,15,17,19,21,23,25,27,29,-1,-1,-1,-1,-1,-1,-1,-1,-1,-1,-1,-1,-1,-1,-1,-1],"loss_changes":[9.7762375E0,4.8523245E0,3.4953308E0,3.509021E0,2.0761242E0,2.1134214E0,3.497058E0,2.8440552E0,9.325104E-1,1.9072018E0,3.3034748E-1,1.3258467E0,2.2320402E0,2.9655683E0,7.892561E-2,0E0,0E0,0E0,0E0,0E0,0E0,0E0,0E0,0E0,0E0,0E0,0E0,0E0,0E0,0E0,0E0],"parents":[2147483647,0,0,1,1,2,2,3,3,4,4,5,5,6,6,7,7,8,8,9,9,10,10,11,11,12,12,13,13,14,14],"right_children":[2,4,6,8,10,12,14,16,18,20,22,24,26,28,30,-1,-1,-1,-1,-1,-1,-1,-1,-1,-1,-1,-1,-1,-1,-1,-1],"split_conditions":[6.67E1,7E0,2E0,7.06E1,8.2E1,3.9E1,7.19E1,3.35E1,8E0,2.8919904E2,5E1,4.15E1,5.869809E2,5.62E1,6E1,-1.8028004E-2,-1.1514506E-3,-2.8593834E-3,2.167181E-2,-2.892122E-3,-1.4640851E-2,-3.5937561E-3,2.0932147E-2,7.7929883E-3,3.062269E-2,1.3097787E-2,-6.270958E-3,3.0247825E-3,2.6575798E-2,-6.6314964E-3,-2.8280063E-2],"split_indices":[3,24,24,20,6,9,23,3,25,51,17,2,51,21,19,0,0,0,0,0,0,0,0,0,0,0,0,0,0,0,0],"split_type":[0,0,0,0,0,0,0,0,0,0,0,0,0,0,0,0,0,0,0,0,0,0,0,0,0,0,0,0,0,0,0],"sum_hessian":[9.341169E2,5.9927435E2,3.348425E2,4.5103128E2,1.4824306E2,9.509711E1,2.397454E2,4.320142E2,1.9017101E1,1.4346707E2,4.7759824E0,2.645926E1,6.863784E1,2.3279382E2,6.9515777E0,2.0079576E1,4.119346E2,3.546729E0,1.5470371E1,3.8996006E1,1.0447107E2,1.0291855E0,3.7467966E0,8.444446E0,1.8014814E1,5.401361E1,1.4624232E1,2.2257446E2,1.0219368E1,1.294117E0,5.6574607E0],"tree_param":{"num_deleted":"0","num_feature":"52","num_nodes":"31","size_leaf_vector":"1"}},{"base_weights":[2.7800729E-3,-6.674764E-2,1.2318198E-1,-1.6192219E-1,1.53508885E-2,1.5275966E-1,-1.6336389E-1,-4.0150306E-1,-1.17270924E-1,2.9877895E-1,-1.9898145E-2,6.919735E-2,3.0753702E-1,-5.2950805E-1,5.4694194E-2,-4.83788E-4,-2.1638531E-2,-1.1318125E-2,-1.920965E-3,-1.689396E-2,1.6827988E-2,-2.429002E-3,1.171185E-2,1.0754595E-2,-6.279867E-4,3.1621207E-3,1.995196E-2,1.2967568E-2,-3.0772809E-2,1.7080097E-2,-9.878704E-3],"categories":[],"categories_nodes":[],"categories_segments":[],"categories_sizes":[],"default_left":[0,0,0,0,0,0,0,0,0,0,0,0,0,0,0,0,0,0,0,0,0,0,0,0,0,0,0,0,0,0,0],"id":42,"left_children":[1,3,5,7,9,11,13,15,17,19,21,23,25,27,29,-1,-1,-1,-1,-1,-1,-1,-1,-1,-1,-1,-1,-1,-1,-1,-1],"loss_changes":[7.985596E0,4.7283463E0,2.9895082E0,2.9407182E0,3.2618325E0,4.0762615E0,2.6896102E0,1.343214E0,2.3686028E0,1.9986293E0,2.7940102E0,2.9336662E0,3.5351238E0,1.8169084E0,2.053433E0,0E0,0E0,0E0,0E0,0E0,0E0,0E0,0E0,0E0,0E0,0E0,0E0,0E0,0E0,0E0,0E0],"parents":[2147483647,0,0,1,1,2,2,3,3,4,4,5,5,6,6,7,7,8,8,9,9,10,10,11,11,12,12,13,13,14,14],"right_children":[2,4,6,8,10,12,14,16,18,20,22,24,26,28,30,-1,-1,-1,-1,-1,-1,-1,-1,-1,-1,-1,-1,-1,-1,-1,-1],"split_conditions":[7E1,5.41E1,6.765772E2,4.61E1,5.67E1,9.5166664E1,7.3435986E2,2.8919904E2,8.023333E1,2.79E1,8.18E1,7.6E1,4.72E1,4E1,2E0,-4.83788E-4,-2.1638531E-2,-1.1318125E-2,-1.920965E-3,-1.689396E-2,1.6827988E-2,-2.429002E-3,1.171185E-2,1.0754595E-2,-6.279867E-4,3.1621207E-3,1.995196E-2,1.2967568E-2,-3.0772809E-2,1.7080097E-2,-9.878704E-3],"split_indices":[6,23,51,20,7,50,51,51,50,8,4,6,9,22,24,0,0,0,0,0,0,0,0,0,0,0,0,0,0,0,0],"split_type":[0,0,0,0,0,0,0,0,0,0,0,0,0,0,0,0,0,0,0,0,0,0,0,0,0,0,0,0,0,0,0],"sum_hessian":[9.5155035E2,6.0355444E2,3.4799594E2,2.7897717E2,3.2457724E2,3.15944E2,3.205192E1,4.2319145E1,2.3665804E2,3.4909313E1,2.8966794E2,2.0630116E2,1.0964285E2,1.1323887E1,2.0728035E1,7.373418E0,3.4945724E1,8.3506485E1,1.5315155E2,3.0212564E0,3.1888056E1,2.5911697E2,3.0550957E1,6.707936E1,1.392218E2,4.058133E1,6.9061516E1,1.6327385E0,9.691149E0,9.276918E0,1.1451117E1],"tree_param":{"num_deleted":"0","num_feature":"52","num_nodes":"31","size_leaf_vector":"1"}},{"base_weights":[-1.6135272E-3,-7.06393E-2,1.2031404E-1,-1.7165999E-1,1.9376572E-2,-5.255041E-1,1.316185E-1,1.49172E-1,-2.0302112E-1,-7.927285E-3,2.9958573E-1,-3.2642934E-2,5.1113516E-3,-3.961619E-2,1.6939636E-1,1.4949452E-2,-1.1860541E-2,-1.2843399E-2,-3.5246343E-3,6.827976E-4,-1.7925203E-2,-2.84361E-2,1.982097E-2,-7.5938203E-3,1.3909032E-2,6.7893895E-3,2.6019188E-2],"categories":[],"categories_nodes":[],"categories_segments":[],"categories_sizes":[],"default_left":[0,0,0,0,0,0,0,0,0,0,0,0,0,0,0,0,0,0,0,0,0,0,0,0,0,0,0],"id":43,"left_children":[1,3,5,7,9,11,13,15,17,19,21,-1,-1,23,25,-1,-1,-1,-1,-1,-1,-1,-1,-1,-1,-1,-1],"loss_changes":[7.9313197E0,5.475708E0,2.570045E0,2.8903341E0,2.4455135E0,8.7824774E-1,2.1800523E0,2.0654764E0,2.632969E0,2.641533E0,4.0581274E0,0E0,0E0,2.839136E0,1.979775E0,0E0,0E0,0E0,0E0,0E0,0E0,0E0,0E0,0E0,0E0,0E0,0E0],"parents":[2147483647,0,0,1,1,2,2,3,3,4,4,5,5,6,6,7,7,8,8,9,9,10,10,13,13,14,14],"right_children":[2,4,6,8,10,12,14,16,18,20,22,-1,-1,24,26,-1,-1,-1,-1,-1,-1,-1,-1,-1,-1,-1,-1],"split_conditions":[7E1,5.41E1,2E1,2.6E1,8.61E1,6.05E1,1.7E1,7.92E1,7.92E1,7E1,4E1,-3.2642934E-2,5.1113516E-3,1E0,7.66E1,1.4949452E-2,-1.1860541E-2,-1.2843399E-2,-3.5246343E-3,6.827976E-4,-1.7925203E-2,-2.84361E-2,1.982097E-2,-7.5938203E-3,1.3909032E-2,6.7893895E-3,2.6019188E-2],"split_indices":[6,23,9,9,4,18,2,7,7,23,16,0,0,27,23,0,0,0,0,0,0,0,0,0,0,0,0],"split_type":[0,0,0,0,0,0,0,0,0,0,0,0,0,0,0,0,0,0,0,0,0,0,0,0,0,0,0],"sum_hessian":[9.3998175E2,6.0051965E2,3.394621E2,2.8245026E2,3.1806943E2,4.900753E0,3.3456134E2,2.4749456E1,2.577008E2,2.9089078E2,2.7178635E1,3.6096632E0,1.2910898E0,6.0459545E1,2.7410178E2,1.7307993E1,7.441462E0,1.5424387E2,1.03456924E2,2.7572928E2,1.5161519E1,3.021033E0,2.4157602E1,4.4572422E1,1.5887123E1,2.637935E2,1.030829E1],"tree_param":{"num_deleted":"0","num_feature":"52","num_nodes":"27","size_leaf_vector":"1"}},{"base_weights":[1.2190564E-2,-2.2720091E-1,4.7304418E-2,-4.1576642E-1,-9.666577E-2,-5.710385E-1,5.4982193E-2,-1.8263353E-1,-4.8038727E-1,4.6986917E-1,-1.439061E-1,-2.7867833E-2,-6.9088116E-3,6.6128284E-2,-3.818176E-1,-1.8757762E-2,8.944565E-3,5.1563634E-3,-2.2523336E-2,6.458402E-3,2.8667701E-2,-1.4249033E-2,-1.9183116E-3,5.204011E-3,-3.5849994E-4,1.0211957E-4,-2.289479E-2],"categories":[],"categories_nodes":[],"categories_segments":[],"categories_sizes":[],"default_left":[0,0,0,0,0,0,0,0,0,0,0,0,0,0,0,0,0,0,0,0,0,0,0,0,0,0,0],"id":44,"left_children":[1,3,5,7,9,11,13,15,17,19,21,-1,-1,23,25,-1,-1,-1,-1,-1,-1,-1,-1,-1,-1,-1,-1],"loss_changes":[7.9600153E0,2.9335952E0,3.9566104E0,6.35808E-1,2.0388565E0,9.196043E-2,4.005247E0,1.2260169E0,5.2133465E-1,2.128253E-1,1.1810875E0,0E0,0E0,2.925789E0,1.000638E0,0E0,0E0,0E0,0E0,0E0,0E0,0E0,0E0,0E0,0E0,0E0,0E0],"parents":[2147483647,0,0,1,1,2,2,3,3,4,4,5,5,6,6,7,7,8,8,9,9,10,10,13,13,14,14],"right_children":[2,4,6,8,10,12,14,16,18,20,22,-1,-1,24,26,-1,-1,-1,-1,-1,-1,-1,-1,-1,-1,-1,-1],"split_conditions":[4.54E1,4.52E1,1.3E1,2.5E1,3E1,6.76E1,6E1,1.5E1,7E0,4.27E1,6E1,-2.7867833E-2,-6.9088116E-3,4E0,2.45E1,-1.8757762E-2,8.944565E-3,5.1563634E-3,-2.2523336E-2,6.458402E-3,2.8667701E-2,-1.4249033E-2,-1.9183116E-3,5.204011E-3,-3.5849994E-4,1.0211957E-4,-2.289479E-2],"split_indices":[23,3,21,8,16,18,22,25,25,23,16,0,0,24,15,0,0,0,0,0,0,0,0,0,0,0,0],"split_type":[0,0,0,0,0,0,0,0,0,0,0,0,0,0,0,0,0,0,0,0,0,0,0,0,0,0,0],"sum_hessian":[9.442149E2,1.19941284E2,8.242736E2,4.7991993E1,7.1949295E1,9.029342E0,8.152443E2,1.1412078E1,3.6579914E1,4.711421E0,6.723787E1,7.5741444E0,1.4551975E0,7.9595184E2,1.9292463E1,7.001315E0,4.4107633E0,1.0129257E0,3.5566986E1,2.3515003E0,2.359921E0,2.390811E1,4.332976E1,4.76705E2,3.1924686E2,5.0855017E0,1.4206962E1],"tree_param":{"num_deleted":"0","num_feature":"52","num_nodes":"27","size_leaf_vector":"1"}},{"base_weights":[1.1872096E-2,-2.4388486E-1,4.551971E-2,-2.8241E-1,4.6410996E-1,-9.774678E-3,1.6463165E-1,-4.4658318E-1,-1.603069E-1,2.609774E-2,6.979168E-3,-3.0579869E-2,3.8739765E-1,1.18327156E-1,4.3945342E-1,-5.263654E-3,-2.185444E-2,-4.21176E-3,-3.1119872E-2,-4.190882E-3,2.7363389E-3,2.1734666E-2,-1.7686749E-2,1.2228772E-3,1.5154074E-2,-1.3371543E-2,2.575863E-2],"categories":[],"categories_nodes":[],"categories_segments":[],"categories_sizes":[],"default_left":[0,0,0,0,0,0,0,0,0,0,0,0,0,0,0,0,0,0,0,0,0,0,0,0,0,0,0],"id":45,"left_children":[1,3,5,7,9,11,13,15,17,-1,-1,19,21,23,25,-1,-1,-1,-1,-1,-1,-1,-1,-1,-1,-1,-1],"loss_changes":[8.030596E0,3.1168232E0,5.431139E0,1.9918966E0,1.08759165E-1,4.67562E0,3.2642365E0,4.925232E-1,2.0953293E0,0E0,0E0,3.0773153E0,2.3292232E0,4.476072E0,3.8525481E0,0E0,0E0,0E0,0E0,0E0,0E0,0E0,0E0,0E0,0E0,0E0,0E0],"parents":[2147483647,0,0,1,1,2,2,3,3,4,4,5,5,6,6,7,7,8,8,11,11,12,12,13,13,14,14],"right_children":[2,4,6,8,10,12,14,16,18,-1,-1,20,22,24,26,-1,-1,-1,-1,-1,-1,-1,-1,-1,-1,-1,-1],"split_conditions":[4.22E1,8.25E1,9.5E1,4.74E1,5.26E1,5.15E1,8.09E1,3.69E1,6.03E1,2.609774E-2,6.979168E-3,6.54E1,9.323333E1,9.72E1,4.64E1,-5.263654E-3,-2.185444E-2,-4.21176E-3,-3.1119872E-2,-4.190882E-3,2.7363389E-3,2.1734666E-2,-1.7686749E-2,1.2228772E-3,1.5154074E-2,-1.3371543E-2,2.575863E-2],"split_indices":[3,5,50,19,6,21,3,4,23,0,0,3,50,0,1,0,0,0,0,0,0,0,0,0,0,0,0],"split_type":[0,0,0,0,0,0,0,0,0,0,0,0,0,0,0,0,0,0,0,0,0,0,0,0,0,0,0],"sum_hessian":[9.304332E2,1.0730506E2,8.231282E2,1.0245155E2,4.8535085E0,5.62913E2,2.6021512E2,4.2337685E1,6.0113865E1,2.764928E0,2.0885804E0,5.3594604E2,2.6967005E1,2.2416278E2,3.6052334E1,4.994589E0,3.7343098E1,5.4661106E1,5.4527607E0,3.181576E2,2.1778844E2,2.4431736E1,2.5352695E0,1.5911322E2,6.504957E1,5.286029E0,3.0766306E1],"tree_param":{"num_deleted":"0","num_feature":"52","num_nodes":"27","size_leaf_vector":"1"}},{"base_weights":[8.964252E-3,-2.3541798E-1,4.146253E-2,-2.9574004E-1,5.17371E-1,1.3280936E-1,-2.524163E-2,-4.3593964E-1,-1.8896517E-1,2.9535752E-2,9.281837E-2,2.604344E-2,2.0326315E-1,-1.2693328E-1,6.2400017E-2,-6.272868E-3,-2.1514984E-2,9.169322E-3,-1.213787E-2,-1.1629153E-2,1.7495796E-2,5.9323017E-3,-1.00868475E-2,1.5019312E-2,4.536017E-3,-9.475016E-3,2.8668535E-3,-3.5762927E-3,7.4121985E-3],"categories":[],"categories_nodes":[],"categories_segments":[],"categories_sizes":[],"default_left":[0,0,0,0,0,0,0,0,0,0,0,0,0,0,0,0,0,0,0,0,0,0,0,0,0,0,0,0,0],"id":46,"left_children":[1,3,5,7,9,11,13,15,17,-1,19,21,23,25,27,-1,-1,-1,-1,-1,-1,-1,-1,-1,-1,-1,-1,-1,-1],"loss_changes":[7.4482956E0,5.1824613E0,5.0460224E0,1.4382448E0,4.3451524E-1,2.6220245E0,4.280836E0,4.6368504E-1,1.9819682E0,0E0,4.8644462E-1,3.7485068E0,2.7720556E0,3.5590467E0,3.7639081E0,0E0,0E0,0E0,0E0,0E0,0E0,0E0,0E0,0E0,0E0,0E0,0E0,0E0,0E0],"parents":[2147483647,0,0,1,1,2,2,3,3,4,4,5,5,6,6,7,7,8,8,10,10,11,11,12,12,13,13,14,14],"right_children":[2,4,6,8,10,12,14,16,18,-1,20,22,24,26,28,-1,-1,-1,-1,-1,-1,-1,-1,-1,-1,-1,-1,-1,-1],"split_conditions":[4.22E1,8.12E1,3E0,4.74E1,5.26E1,6.37E1,8.81E1,4E1,1E1,2.9535752E-2,6.37E1,5.66E1,9E1,1E0,5.4E1,-6.272868E-3,-2.1514984E-2,9.169322E-3,-1.213787E-2,-1.1629153E-2,1.7495796E-2,5.9323017E-3,-1.00868475E-2,1.5019312E-2,4.536017E-3,-9.475016E-3,2.8668535E-3,-3.5762927E-3,7.4121985E-3],"split_indices":[3,5,24,19,6,3,50,4,25,0,6,3,16,27,19,0,0,0,0,0,0,0,0,0,0,0,0,0,0],"split_type":[0,0,0,0,0,0,0,0,0,0,0,0,0,0,0,0,0,0,0,0,0,0,0,0,0,0,0,0,0],"sum_hessian":[9.3516125E2,1.0888317E2,8.262781E2,1.0148E2,7.403168E0,3.482222E2,4.780559E2,4.227366E1,5.920634E1,5.0837913E0,2.3193767E0,1.3908936E2,2.0913284E2,2.210412E2,2.570147E2,5.9064856E0,3.6367172E1,9.7873E0,4.941904E1,1.1302848E0,1.1890919E0,9.815573E1,4.093362E1,9.079063E1,1.1834222E2,1.5355891E2,6.748228E1,1.0780188E2,1.4921283E2],"tree_param":{"num_deleted":"0","num_feature":"52","num_nodes":"29","size_leaf_vector":"1"}},{"base_weights":[-2.7000592E-3,-1.1521533E-1,6.474455E-2,-2.988782E-1,-6.0627997E-2,-1.0496176E-2,1.2252552E-1,-3.1809688E-1,1.6810386E-2,-2.8360027E-1,1.3122919E-2,2.4802478E-2,-2.867414E-1,2.7321538E-1,4.0545356E-2,-9.509883E-3,-2.3584733E-2,-1.7265188E-2,3.7201191E-3,-1.0120749E-2,3.4253865E-3,4.171384E-3,-5.9388457E-3,2.8544206E-2,-1.7505234E-2,-2.6147373E-3,1.5370321E-2,-8.950057E-3,4.9359975E-3],"categories":[],"categories_nodes":[],"categories_segments":[],"categories_sizes":[],"default_left":[0,0,0,0,0,0,0,0,0,0,0,0,0,0,0,0,0,0,0,0,0,0,0,0,0,0,0,0,0],"id":47,"left_children":[1,3,5,7,9,11,13,15,-1,17,19,21,23,25,27,-1,-1,-1,-1,-1,-1,-1,-1,-1,-1,-1,-1,-1,-1],"loss_changes":[6.9408545E0,3.4148312E0,2.4878302E0,1.1536102E0,4.374513E0,2.4416163E0,3.9839802E0,1.554203E0,0E0,2.4609866E0,3.0321736E0,2.3814788E0,2.9679782E0,2.6008005E0,3.5189073E0,0E0,0E0,0E0,0E0,0E0,0E0,0E0,0E0,0E0,0E0,0E0,0E0,0E0,0E0],"parents":[2147483647,0,0,1,1,2,2,3,3,4,4,5,5,6,6,7,7,9,9,10,10,11,11,12,12,13,13,14,14],"right_children":[2,4,6,8,10,12,14,16,-1,18,20,22,24,26,28,-1,-1,-1,-1,-1,-1,-1,-1,-1,-1,-1,-1,-1,-1],"split_conditions":[5.41E1,7.623333E1,7.08E1,5.15E1,4.9E1,5.08E1,8.5E1,4.91E1,1.6810386E-2,8.5E1,4.15E1,4E0,4.38E1,4.94E1,5.48E1,-9.509883E-3,-2.3584733E-2,-1.7265188E-2,3.7201191E-3,-1.0120749E-2,3.4253865E-3,4.171384E-3,-5.9388457E-3,2.8544206E-2,-1.7505234E-2,-2.6147373E-3,1.5370321E-2,-8.950057E-3,4.9359975E-3],"split_indices":[23,50,19,21,20,15,16,23,0,19,3,24,6,20,18,0,0,0,0,0,0,0,0,0,0,0,0,0,0],"split_type":[0,0,0,0,0,0,0,0,0,0,0,0,0,0,0,0,0,0,0,0,0,0,0,0,0,0,0,0,0],"sum_hessian":[9.122689E2,3.415778E2,5.7069116E2,7.703108E1,2.645467E2,2.4831912E2,3.2237204E2,7.550545E1,1.5256317E0,6.490474E1,1.9964195E2,2.2115248E2,2.7166636E1,1.1259994E2,2.097721E2,5.1332695E1,2.4172754E1,5.0932243E1,1.3972498E1,4.1134464E1,1.5850749E2,1.5466331E2,6.648917E1,2.0909383E0,2.5075697E1,